svm_type c_svc
kernel_type rbf
gamma 0.03125
nr_class 2
total_sv 565
rho 0.0607655
label 1 -1
probA -1.84399
probB -0.0204875
nr_sv 294 271
SV
8 1:0 2:16.69968 3:4.7677 4:3.38569 5:0.60633 6:0 7:3.65337 8:0 9:2.60301 10:0.81587 11:0.85825 12:0 13:0.94904 14:1.73991 15:0.81586 
7.923248088973143 1:3 2:2.13288 3:3.79865 4:2.41149 5:0.60702 6:1.43136 7:4.50675 8:0 9:2.24072 10:1.42931 11:0 12:0 13:0.92994 14:1.41568 15:0.65803 
8 1:0 2:19.67565 3:4.83131 4:4.11111 5:0 6:1.54966 7:3.61805 8:0 9:2.55189 10:1.51214 11:1.66735 12:0.64961 13:0.93631 14:1.68538 15:0.78462 
7.300852962408378 1:3 2:9.26259 3:2.88335 4:2.07485 5:0.61687 6:0.65385 7:1.75417 8:0 9:1.26987 10:0.60883 11:0 12:0 13:0.89172 14:1.36018 15:0.62176 
5.440746837468761 1:15 2:23.10831 3:5.17278 4:4.91779 5:0.61268 6:2.73187 7:3.84315 8:0 9:3.96071 10:0.98726 11:1.83537 12:0.98819 13:1 14:1.99745 15:0.99745 
0.4245518583056828 1:19 2:19.00367 3:4.19787 4:3.97479 5:0 6:0.99875 7:5.86032 8:0 9:0.98198 10:1.98043 11:1 12:1 13:1 14:0 15:0 
8 1:13 2:13.71057 3:3.9755 4:1.98923 5:0 6:0 7:3.83904 8:0 9:2.97726 10:0 11:0 12:0 13:0 14:2 15:1 
8 1:0 2:2.92904 3:0.85169 4:0.66762 5:0 6:0 7:0.6963 8:0 9:0 10:0.71343 11:0 12:0 13:0 14:0 15:0 
8 1:0 2:18.91028 3:4.8336 4:4.11312 5:0 6:1.54406 7:3.62421 8:0 9:2.5499 10:0.73502 11:1.66735 12:0.64961 13:0.93631 14:1.68793 15:0.78462 
1.841916799309093 1:15 2:17.89017 3:3.59579 4:3.96668 5:0 6:1.74866 7:4.8354 8:0 9:0.99099 10:0 11:1.83684 12:0.98031 13:1 14:0 15:0 
8 1:15 2:5.82825 3:0.76923 4:0.60345 5:0 6:1.39574 7:3.05983 8:0 9:0 10:0 11:0 12:0 13:0.69872 14:0 15:0 
1.05041365672369 1:18 2:20.80672 3:5.20449 4:3.99137 5:0 6:0.99875 7:2.86032 8:0 9:2.99099 10:1.99858 11:1.84586 12:0 13:1 14:2 15:1 
8 1:3 2:2.22047 3:2.81367 4:4.09517 5:0.60035 6:1.55354 7:4.58721 8:0 9:0.97297 10:1.52465 11:1.67246 12:0.64173 13:0.92994 14:0 15:0 
8 1:0 2:12.27063 3:3.10543 4:2.30227 5:0.61336 6:1.38292 7:2.32062 8:0 9:1.28084 10:1.29639 11:0 12:0 13:0 14:1.37859 15:0.63472 
6.749640317459682 1:12 2:5.0198 3:0 4:0.60345 5:0 6:1.39574 7:2.36111 8:0 9:0 10:0.6595 11:0 12:0 13:0 14:0 15:0 
3.942855889231283 1:11 2:14.6831 3:2.57832 4:3.92428 5:0.61268 6:1.74828 7:2.98406 8:0 9:0 10:1.97656 11:1.83537 12:0.98819 13:1 14:0 15:0 
3.493259979785882 1:14 2:18.50407 3:2.99351 4:3.96322 5:0.61268 6:2.3609 7:2.85293 8:0 9:0.99099 10:0.99045 11:1.83514 12:0.98425 13:0 14:0 15:0 
8 1:3 2:12.43956 3:3.10512 4:2.29479 5:0.62566 6:1.3869 7:2.30112 8:0 9:2.2088 10:1.26297 11:0 12:0 13:0 14:1.36018 15:0.62176 
8 1:3 2:10.99817 3:1.84614 4:2.24924 5:0 6:0.76322 7:2.79907 8:0 9:0.97297 10:1.52465 11:0.86395 12:0.64173 13:0 14:0 15:0 
8 1:0 2:15.6618 3:4.7677 4:4.06679 5:0.60633 6:0 7:2.70433 8:0 9:2.60301 10:0 11:0.90418 12:0.6811 13:0 14:1.73991 15:0.81586 
8 1:3 2:15.34394 3:3.73177 4:2.91384 5:0.61511 6:1.3921 7:3.2173 8:0 9:2.20175 10:1.29877 11:0 12:0 13:0.89172 14:1.37859 15:0.63472 
0.5680160274883891 1:18 2:16.87849 3:2.98923 4:3.96668 5:0.61268 6:0.75862 7:2.83745 8:0 9:0.99099 10:1.97019 11:1.83684 12:0.98031 13:0 14:0 15:0 
8 1:0 2:1.34613 3:0 4:0.66762 5:0 6:0 7:0 8:0 9:0 10:0.67851 11:0 12:0 13:0 14:0 15:0 
8 1:14 2:16.87796 3:1.97597 4:3.96124 5:0.61511 6:1.75948 7:3.8452 8:0 9:0.99099 10:1.96348 11:0.842 12:0 13:1 14:0 15:0 
1.863944437007407 1:18 2:25.87497 3:5.14878 4:4.82871 5:0.61092 6:1.90974 7:5.75238 8:0 9:3.87609 10:1.9396 11:1.8308 12:0.94882 13:1.98726 14:1.98218 15:0.98724 
8 1:0 2:15.33881 3:3.73627 4:2.92033 5:0.61336 6:1.38876 7:3.21234 8:0 9:2.19976 10:1.29919 11:0 12:0 13:0.89172 14:1.37859 15:0.63472 
8 1:0 2:2.22047 3:4.8336 4:4.11312 5:0 6:1.55091 7:3.62421 8:0 9:2.5499 10:1.52112 11:1.66735 12:0.64961 13:0.93631 14:1.68793 15:0.78462 
3.266366602699205 1:15 2:17.65723 3:3.5911 4:3.96919 5:0.61268 6:1.7499 7:4.83904 8:0 9:0.99099 10:0.99363 11:0.99151 12:0.98425 13:1 14:0 15:0 
2.18914778462754 1:17 2:25.02997 3:5.17926 4:3.94761 5:0.61268 6:2.73223 7:4.84109 8:0 9:3.96525 10:2.96204 11:1.83368 12:0.9798 13:1 14:2 15:1 
8 1:18 2:2.4573 3:5.17457 4:4.94939 5:0.61268 6:2.73223 7:4.84109 8:0 9:3.96525 10:1.97478 11:1.83368 12:0.98425 13:1 14:1.99747 15:1 
8 1:3 2:10.29166 3:1.47915 4:2.22797 5:0.6116 6:1.40504 7:2.41878 8:0 9:0.91892 10:0.66964 11:0 12:0 13:0.89172 14:0 15:0 
1.250388842257236 1:18 2:24.11453 3:5.20449 4:4.99137 5:0.61444 6:1.75737 7:2.86032 8:0 9:2.99099 10:2.99858 11:2.69172 12:1 13:0 14:2 15:1 
1.429196594360818 1:14 2:18.93655 3:6.54895 4:3.94783 5:0.61268 6:1.96901 7:3.8452 8:0 9:3.96509 10:0 11:0.98812 12:0 13:1 14:1 15:1 
3.106761959911399 1:16 2:15.14586 3:3.19669 4:1.98326 5:0.61268 6:1.7499 7:2.85293 8:0 9:1.99006 10:0 11:0.8417 12:0 13:0 14:2 15:1 
8 1:0 2:18.20165 3:4.83609 4:4.11419 5:0 6:0.79229 7:3.69 8:0 9:2.54278 10:0.73502 11:1.66565 12:0.64567 13:0.93631 14:1.6828 15:0.77949 
3.374634154116433 1:18 2:18.53673 3:2.59773 4:2.95581 5:0.61092 6:1.74847 7:4.83041 8:0 9:0.99099 10:1.96769 11:1.83929 12:0 13:0.98726 14:0 15:0 
8 1:3 2:14.14344 3:0.96753 4:2.57764 5:0.60035 6:1.55354 7:3.66524 8:0 9:0.97297 10:1.51375 11:1.67246 12:0 13:0.92994 14:0 15:0 
1.153221497214942 1:17 2:19.8188 3:5.20449 4:3.99137 5:0 6:1.75737 7:3.86032 8:0 9:2 10:2 11:1 12:0 13:1 14:2 15:1 
7.446238884111695 1:0 2:9.9007 3:3.10543 4:2.92033 5:0 6:0 7:1.75417 8:0 9:1.56504 10:1.29639 11:0 12:0 13:0.89172 14:0.74387 15:0 
2.718368571420759 1:11 2:18.92587 3:4.52804 4:4.41125 5:0.61511 6:0.76552 7:4.7729 8:0 9:0.96223 10:1.90505 11:0.97284 12:0.88189 13:1 14:0.99747 15:0 
8 1:0 2:2.13541 3:3.79865 4:2.41149 5:0.60526 6:1.43385 7:4.50915 8:0 9:2.23171 10:1.42773 11:0 12:0 13:0.92994 14:1.41568 15:0.65803 
8 1:0 2:11.4964 3:0.96753 4:2.48766 5:0.60035 6:1.55354 7:3.66524 8:0 9:0 10:0.73817 11:0.86395 12:0.64173 13:0.92994 14:0 15:0 
8 1:0 2:4.28429 3:0.71523 4:1.38285 5:0 6:0 7:2.2176 8:0 9:0 10:0.68384 11:0 12:0 13:0 14:0 15:0 
0.524882766674458 1:15 2:20.47206 3:5.19007 4:4.95894 5:0.61268 6:0.99128 7:2.98611 8:0 9:2.98105 10:0.99045 11:1.83514 12:0.98425 13:1 14:1.99494 15:1 
8 1:0 2:19.65792 3:4.83609 4:4.11419 5:0 6:1.54861 7:4.58583 8:0 9:1.5608 10:1.52112 11:1.66565 12:0.64567 13:0.93631 14:1.6828 15:0.77949 
8 1:0 2:5.80345 3:1.57177 4:1.37714 5:0.60035 6:0.77294 7:1.51797 8:0 9:0 10:0.67851 11:0 12:0 13:0 14:0 15:0 
8 1:3 2:15.31088 3:3.73826 4:2.92175 5:0.61511 6:1.39354 7:3.19014 8:0 9:2.18745 10:1.30055 11:0 12:0 13:0.89172 14:1.36156 15:0.62042 
8 1:6 2:21.31402 3:5.18817 4:4.955 5:0.61268 6:1.7499 7:3.83904 8:0 9:1.99006 10:1.98828 11:0.98649 12:0.98031 13:0 14:2 15:1 
1.279482109573614 1:18 2:23.15626 3:5.19206 4:3.96919 5:0.61268 6:2.72459 7:3.8452 8:0 9:3.95667 10:1.97797 11:1.83872 12:0.98425 13:1 14:1.99747 15:1 
0.4658886175382726 1:23 2:27.69332 3:5.18817 4:6.56031 5:0.61268 6:1.77104 7:4.83904 8:0 9:2.98105 10:1.98828 11:1.83321 12:0.98031 13:1 14:2 15:1 
3.92976735356344 1:14 2:20.9432 3:4.19241 4:5.59074 5:0.61268 6:0.99128 7:3.83129 8:0 9:1.99006 10:0.97973 11:1.83684 12:0.98425 13:0 14:1.99494 15:1 
8 1:3 2:16.53973 3:4.22684 4:4.10775 5:0 6:1.54239 7:3.67492 8:0 9:1.54606 10:0.78431 11:1.66735 12:0.6378 13:0.93631 14:1.66607 15:0.76276 
0.4703502982487055 1:18 2:5.8843 3:0.76923 4:0 5:0 6:1.39574 7:3.05983 8:0 9:0 10:0.6595 11:0 12:0 13:0.69872 14:0 15:0 
8 1:0 2:19.16327 3:4.83609 4:3.37382 5:0 6:0.79229 7:4.58583 8:0 9:2.54278 10:1.52112 11:1.68571 12:0.64567 13:0.93631 14:1.6828 15:0.77949 
8 1:0 2:3.75663 3:0.85654 4:0.66762 5:0 6:1.54358 7:0.68889 8:0 9:0 10:0 11:0 12:0 13:0 14:0 15:0 
4.625785746810474 1:9 2:17.65761 3:4.20449 4:2.99137 5:0 6:1.75737 7:2.86032 8:0 9:2.99099 10:1.99858 11:1.84586 12:0 13:1 14:2 15:1 
8 1:3 2:10.79851 3:0.8758 4:1.60751 5:0.60035 6:0.79032 7:2.77552 8:0 9:0.97297 10:1.52465 11:1.67246 12:0 13:0.92994 14:0 15:0 
1.037852976454279 1:18 2:17.11275 3:2.59773 4:3.96276 5:0 6:0.99004 7:3.84929 8:0 9:0.99099 10:1.97019 11:1.83684 12:0.98031 13:1 14:0 15:0 
8 1:3 2:11.72846 3:2.18966 4:1.38017 5:0.6116 6:0.65586 7:3.2594 8:0 9:2.20175 10:0.63091 11:0 12:0 13:1.79419 14:1.37586 15:0.63472 
8 1:0 2:14.7236 3:4.83609 4:3.37382 5:0 6:0.79229 7:2.77214 8:0 9:1.5608 10:0.73502 11:1.66565 12:0.64567 13:0.93631 14:1.6828 15:0.77949 
4.502813318254747 1:15 2:19.65699 3:5.19981 4:4.99137 5:0 6:1.75737 7:3.85395 8:0 9:2 10:2 11:0.84586 12:1 13:0.99363 14:2 15:1 
4.527440480814024 1:16 2:19.70489 3:2.57886 4:5.64079 5:0 6:1.75201 7:4.84109 8:0 9:1.99099 10:0.98726 11:0.98812 12:0.98425 13:1 14:1 15:1 
1.21264512520668 1:0 2:12.27298 3:3.73627 4:2.92033 5:0.61336 6:0.65586 7:3.21234 8:0 9:1.28084 10:1.29639 11:0 12:0 13:0.89172 14:1.37859 15:0.63472 
8 1:0 2:12.75109 3:1.76832 4:3.16108 5:0 6:0.84558 7:2.70433 8:0 9:0.98198 10:1.63679 11:1.76243 12:0.6811 13:0 14:0 15:0 
8 1:0 2:6.59058 3:1.57177 4:1.38142 5:0.60387 6:0.77294 7:2.2902 8:0 9:0 10:0.68561 11:0 12:0 13:0 14:0 15:0 
8 1:0 2:10.98466 3:1.66862 4:1.54136 5:0.60526 6:1.43385 7:1.88477 8:0 9:0.91892 10:2.16083 11:0 12:0 13:0.92994 14:0 15:0 
8 1:0 2:7.18292 3:1.57177 4:1.37714 5:0.60035 6:1.45611 7:2.21427 8:0 9:0 10:0.67851 11:0 12:0 13:0 14:0 15:0 
8 1:0 2:13.84858 3:2.27657 4:3.14559 5:0 6:0.79229 7:1.84603 8:0 9:2.52615 10:1.52112 11:1.66735 12:0.64961 13:0.93631 14:1.66418 15:0.76087 
5.582561104601967 1:14 2:23.18037 3:5.19241 4:5.59074 5:0 6:1.7499 7:4.83129 8:0 9:2.98089 10:0.99465 11:1.83684 12:0.98425 13:1 14:1.99494 15:1 
0.5853542904014978 1:17 2:21.64142 3:4.20954 4:3.96524 5:0 6:2.74849 7:3 8:0 9:3.97602 10:0.98465 11:1.8403 12:0.98425 13:1 14:1.99747 15:1 
8 1:0 2:15.34319 3:3.86326 4:4.11312 5:0 6:0.7942 7:2.6879 8:0 9:2.5499 10:1.52112 11:0.80851 12:0.64961 13:0 14:1.68793 15:0.78462 
8 1:3 2:15.33017 3:3.73627 4:2.92033 5:0.61336 6:1.38292 7:3.21234 8:0 9:2.19976 10:1.29639 11:0 12:0 13:0.89172 14:1.37859 15:0.63472 
8 1:0 2:7.26915 3:1.57177 4:1.38142 5:0.60387 6:0.77294 7:2.96877 8:0 9:0 10:0.68561 11:0 12:0 13:0 14:0 15:0 
6.595900023262634 1:9 2:14.2807 3:2.20663 4:1.99351 5:0.61444 6:1.75862 7:3.86032 8:0 9:0.99099 10:1 11:1.8497 12:0 13:0 14:0 15:0 
8 1:0 2:14.18086 3:2.53875 4:2.41149 5:0.60526 6:2.17118 7:3.50915 8:0 9:0.91892 10:1.42773 11:0 12:0 13:0.92994 14:0 15:0 
1.537724345093255 1:30 2:22.27134 3:5.20449 4:3.99137 5:0.61444 6:1.75862 7:4.86032 8:0 9:2.99099 10:2 11:0.84586 12:1 13:1 14:2 15:1 
2.051139115879813 1:18 2:20.35486 3:2.58597 4:2.88069 5:0.61511 6:1.73869 7:4.82435 8:0 9:2.98105 10:0.97771 11:1.83477 12:0 13:1 14:1.99747 15:1 
8 1:0 2:6.32638 3:0.71523 4:1.37714 5:0.60035 6:1.45611 7:2.21427 8:0 9:0 10:0.67851 11:0 12:0 13:0 14:0 15:0 
3.077208151508543 1:0 2:13.13563 3:3.71565 4:1.46871 5:0 6:1.38292 7:2.42361 8:0 9:2.23393 10:1.29639 11:0 12:0 13:0.89172 14:1.36887 15:0 
8 1:3 2:12.42422 3:2.18827 4:2.91748 5:0.6116 6:1.40504 7:3.21455 8:0 9:2.20175 10:0.63091 11:0 12:0 13:0.89172 14:1.37586 15:0.63472 
0.01186784024559069 1:21 2:25.02144 3:5.19007 4:5.91942 5:0.61268 6:1.74866 7:4.8354 8:0 9:1.98496 10:1.97019 11:1.83684 12:1.94125 13:1 14:1.99237 15:0.9949 
8 1:0 2:6.49975 3:1.57177 4:1.37714 5:0.60035 6:0.77294 7:2.21427 8:0 9:0 10:0.67851 11:0 12:0 13:0 14:0 15:0 
0.5110414062015418 1:21 2:26.29987 3:7.39559 4:3.97817 5:0.61444 6:1.74617 7:3.84191 8:0 9:4.97111 10:1.97478 11:0.84363 12:0 13:0 14:4 15:2 
8 1:3 2:15.43829 3:3.73177 4:2.91384 5:0 6:1.3921 7:3.2173 8:0 9:2.20175 10:1.29877 11:0 12:0 13:0.89172 14:1.37859 15:0.63472 
8 1:15 2:13.53325 3:2.59773 4:2.98245 5:0.61268 6:1.74866 7:1.85909 8:0 9:0 10:0.98089 11:1.83684 12:0 13:1 14:0 15:0 
1.016103557154036 1:15 2:22.17978 3:5.20449 4:4.99137 5:0.61444 6:1.75737 7:2.86032 8:0 9:2.99099 10:1.99858 11:0.84586 12:1 13:0 14:2 15:1 
2.984872232681361 1:15 2:19.96056 3:5.14878 4:4.82723 5:0.61092 6:1.68829 7:3.82125 8:0 9:3.87609 10:0 11:0.98302 12:0.94882 13:0.99363 14:1.98218 15:0.98724 
0.6264547919064052 1:3 2:13.78976 3:3.734 4:2.3005 5:0.61687 6:1.39057 7:2.31019 8:0 9:2.1978 10:1.27847 11:0 12:0 13:0 14:1.36018 15:0.62176 
8 1:3 2:12.83801 3:2.81262 4:2.91384 5:0.61511 6:1.3921 7:3.2173 8:0 9:1.28283 10:0.63091 11:0 12:0 13:0.89172 14:1.37859 15:0.63472 
8 1:3 2:18.43445 3:3.86821 4:3.14022 5:0 6:1.54239 7:2.75695 8:0 9:3.25701 10:0.73817 11:1.66735 12:0.6378 13:0.93631 14:2.39504 15:1.49173 
8 1:0 2:5.22476 3:1.57177 4:0.71523 5:0 6:0.77294 7:2.19444 8:0 9:0 10:0.68561 11:0 12:0 13:0 14:0 15:0 
1.586741406094986 1:12 2:16.94036 3:3.81424 4:2.60459 5:0.61268 6:2.73223 7:1.982 8:0 9:2.97426 10:1.97478 11:1.83368 12:0 13:0 14:2 15:1 
0.03225680855916091 1:5 2:18.08563 3:2.20194 4:2.97816 5:0.61444 6:2.73872 7:3.8452 8:0 9:1.98 10:1.96807 11:0.842 12:0 13:1 14:0 15:0 
0.3907310017802083 1:18 2:22.14914 3:4.5729 4:5.63341 5:0.61268 6:2.73223 7:2.85498 8:0 9:3.96525 10:0.98574 11:1.83368 12:0.98425 13:1 14:2 15:1 
8 1:6 2:19.48223 3:3.21312 4:2 5:0.61444 6:1.75737 7:4 8:0 9:2.99099 10:1.99858 11:1 12:0 13:1 14:2 15:1 
8 1:3 2:13.88242 3:1.84333 4:4.09517 5:0.60035 6:1.55354 7:3.65727 8:0 9:0 10:1.52465 11:0.86395 12:0.64173 13:0 14:0 15:0 
8 1:3 2:10.91908 3:1.84614 4:2.39593 5:0.60035 6:1.55354 7:2.77552 8:0 9:0.97297 10:0.78648 11:0.86395 12:0.64173 13:0.92994 14:0 15:0 
8 1:0 2:14.58469 3:3.73826 4:2.15822 5:0.61511 6:1.39354 7:3.21318 8:0 9:2.20175 10:1.30055 11:0 12:0 13:0.89172 14:1.37586 15:0.63472 
8 1:3 2:7.1097 3:1.48149 4:0.85065 5:0.61687 6:1.39057 7:2.31019 8:0 9:0 10:0.60883 11:0 12:0 13:0 14:0 15:0 
8 1:7 2:13.58544 3:3.20084 4:1.974 5:0.61268 6:0.99128 7:1.98611 8:0 9:1.99006 10:0.99045 11:1.83514 12:0.98425 13:0 14:1.99494 15:1 
8 1:0 2:0 3:1.57177 4:1.38285 5:0 6:1.54358 7:2.20686 8:0 9:0 10:0.67851 11:0 12:0 13:0 14:0 15:0 
8 1:3 2:9.40606 3:2.19647 4:1.38159 5:0.6116 6:0.65711 7:1.55908 8:0 9:2.19778 10:0 11:0 12:0 13:0.89172 14:1.37859 15:0.63472 
8 1:3 2:2.10084 3:3.73627 4:2.92033 5:0.61336 6:1.38876 7:3.21234 8:0 9:2.19976 10:1.29919 11:0 12:0 13:0.89172 14:1.37859 15:0.63472 
6.916503383787691 1:6 2:8.63214 3:2.24937 4:2.07953 5:0.62566 6:0.7321 7:1.43243 8:0 9:0.93694 10:1.27315 11:0 12:0 13:0 14:0 15:0 
5.183411649238437 1:17 2:17.10988 3:4.21168 4:4.65212 5:0.61444 6:2.74194 7:1 8:0 9:2.98538 10:0.98577 11:0.99321 12:0.97244 13:1 14:1.99747 15:1 
0.4156904749182207 1:15 2:26.56491 3:5.20449 4:4.99137 5:0 6:2.7572 7:4.86032 8:0 9:2.99099 10:2.99832 11:1.84586 12:1 13:1 14:2 15:1 
1.824425981615846 1:0 2:11.62224 3:3.734 4:2.16516 5:0 6:1.39057 7:3.20191 8:0 9:1.26987 10:0.60883 11:0 12:0 13:0.89172 14:1.36018 15:0.62176 
8 1:6 2:14.62163 3:3.0491 4:2.2262 5:0.62566 6:1.39255 7:3.1866 8:0 9:2.21355 10:1.27315 11:0 12:0 13:0.89172 14:1.36074 15:0.63049 
1.18153923492227 1:14 2:14.06581 3:2.99137 4:4.99137 5:0.61444 6:0.75862 7:1.86032 8:0 9:0 10:1.99858 11:0.84586 12:1 13:1 14:0 15:0 
8 1:0 2:7.18292 3:1.57177 4:1.37714 5:0.60035 6:1.45611 7:2.21427 8:0 9:0 10:0.67851 11:0 12:0 13:0 14:0 15:0 
8 1:0 2:2.82414 3:0.85169 4:0 5:0.60739 6:0 7:1.36506 8:0 9:0 10:0 11:0 12:0 13:0 14:0 15:0 
8 1:3 2:16.55258 3:4.22684 4:4.10775 5:0 6:0.75632 7:2.75369 8:0 9:2.52804 10:1.52248 11:1.66735 12:0.6378 13:0 14:1.66607 15:0.76276 
4.232273995742712 1:4 2:17.17953 3:5.20407 4:1.99095 5:0.61444 6:2.75612 7:1.86032 8:0 9:2.99099 10:0 11:0.84586 12:0 13:1 14:2 15:1 
1.652023510189207 1:12 2:20.69315 3:4.19669 4:5.56508 5:0 6:1.96901 7:3.85498 8:0 9:1.97121 10:1.97478 11:1.83368 12:0.98425 13:1 14:0 15:0 
8 1:3 2:14.101 3:2.92852 4:1.54136 5:0 6:1.43136 7:3.64626 8:0 9:2.24072 10:1.42931 11:0 12:0 13:0.92994 14:1.41592 15:0.65803 
8 1:0 2:15.47095 3:3.86607 4:2.40522 5:0 6:1.55091 7:1.85417 8:0 9:2.5499 10:1.52112 11:1.65536 12:0.64961 13:0.93631 14:1.68265 15:0.78462 
0.8786596400634786 1:13 2:23.05481 3:6.1742 4:4.95894 5:0.61268 6:1.7499 7:2.83904 8:0 9:2.98105 10:0.99045 11:1.83514 12:0.98425 13:0 14:1.99494 15:1 
8 1:3 2:16.20383 3:3.8654 4:2.72958 5:0 6:0.78607 7:2.66846 8:0 9:2.52804 10:0.73817 11:1.66735 12:0 13:0 14:1.66607 15:0.76276 
8 1:0 2:15.81922 3:3.79865 4:2.41149 5:0 6:1.43385 7:4.50915 8:0 9:2.23171 10:0.7331 11:0 12:0 13:0.92994 14:1.41568 15:0.65803 
0.5874195600695726 1:21 2:2.45473 3:5.20449 4:4.99137 5:0.61444 6:1.75737 7:4.86032 8:0 9:2.99099 10:2 11:1.84586 12:1 13:1 14:2 15:1 
8 1:3 2:7.42381 3:1.60437 4:2.06914 5:0.62566 6:0 7:1.56116 8:0 9:0.93694 10:0.60568 11:0 12:0 13:0.89172 14:0 15:0 
8 1:0 2:19.6777 3:4.8336 4:4.10795 5:0 6:1.55091 7:3.62421 8:0 9:2.52954 10:1.52112 11:1.66735 12:0.64444 13:0.93631 14:1.66757 15:0.76426 
8 1:18 2:2.45473 3:4.5727 4:4.9098 5:0.61336 6:2.74007 7:4.82846 8:0 9:3.97184 10:1.98369 11:1.84065 12:0.98031 13:1 14:1.99747 15:1 
8 1:0 2:12.14005 3:2.01136 4:1.61161 5:0 6:1.55091 7:1.82758 8:0 9:2.5499 10:0.7861 11:0.84474 12:0 13:0 14:1.68793 15:0.78462 
8 1:3 2:12.35179 3:2.25707 4:2.41149 5:0.60702 6:1.43136 7:2.74271 8:0 9:2.24072 10:0.73132 11:0 12:0 13:0.92994 14:1.41568 15:0.65803 
0.9802436936143457 1:18 2:2.4573 3:5.19007 4:4.95848 5:0.61268 6:1.74866 7:4.8354 8:0 9:2.97595 10:1.97019 11:1.83684 12:0.98031 13:1 14:1.99237 15:0.9949 
5.934327575010008 1:15 2:20.61132 3:3.57685 4:3.95588 5:0.61268 6:2.73223 7:2.99589 8:0 9:3.96509 10:0.98752 11:1.83368 12:0.98425 13:1 14:2 15:1 
0.2720151593437741 1:18 2:20.9521 3:4.21098 4:3.62944 5:0.61444 6:1.75737 7:2.99315 8:0 9:2.99099 10:2 11:1.84586 12:0 13:0.99315 14:2 15:1 
0.1160680539470579 1:20 2:20.57014 3:5.20449 4:2.99137 5:0 6:1.75737 7:4.86032 8:0 9:2.99099 10:2 11:0.84586 12:0 13:1 14:2 15:1 
7.192087479918683 1:6 2:21.01542 3:5.83203 4:4.5995 5:0.61511 6:0.99253 7:2.85909 8:0 9:2.99099 10:1 11:1.8386 12:0 13:0 14:2 15:1 
8 1:3 2:11.35121 3:0 4:1.37344 5:0.60035 6:1.55354 7:2.79907 8:0 9:0.97297 10:1.52465 11:1.67246 12:0.64173 13:0 14:0 15:0 
8 1:3 2:13.452 3:2.81367 4:3.45344 5:0.60035 6:1.55354 7:2.71175 8:0 9:0.97297 10:0.73817 11:0.86395 12:0 13:0.92994 14:0 15:0 
0.2057965230244511 1:18 2:5.76632 3:0.76923 4:0.60345 5:0 6:1.39574 7:2.3384 8:0 9:0 10:0.6595 11:0 12:0 13:0.69872 14:0 15:0 
3.210253993055911 1:8 2:17.82994 3:2.95925 4:5.22795 5:0.61511 6:2.58008 7:2.78317 8:0 9:0.86154 10:1.90505 11:1.81899 12:0.88189 13:0 14:0 15:0 
8 1:3 2:20.34061 3:4.83574 4:3.36738 5:0 6:1.54239 7:3.65647 8:0 9:2.52804 10:1.52248 11:1.66735 12:0.6378 13:0 14:1.66607 15:0.76276 
1.741046094852809 1:19 2:17.91728 3:2.60039 4:3.98153 5:0.61444 6:0.99875 7:4 8:0 9:0.98198 10:1.98043 11:1.84586 12:1 13:1 14:0 15:0 
0.877619215863608 1:3 2:11.72232 3:2.41791 4:1.61418 5:0.61511 6:1.39354 7:1.52569 8:0 9:2.20175 10:1.30055 11:0 12:0 13:0 14:1.37586 15:0.63472 
0.1996221330635809 1:3 2:13.12087 3:2.81911 4:2.9255 5:0 6:0.73672 7:3.20191 8:0 9:2.1978 10:1.27847 11:0 12:0 13:0.89172 14:1.36018 15:0.62176 
8 1:3 2:18.26077 3:4.83574 4:4.10775 5:0 6:1.54239 7:4.58939 8:0 9:2.52804 10:0 11:1.66735 12:0.6378 13:0.93631 14:1.66607 15:0.76276 
1.814578296448074 1:16 2:24.80066 3:5.17971 4:4.94126 5:0.61268 6:2.50105 7:3.85909 8:0 9:2.98503 10:1.95495 11:1.83854 12:0.98031 13:1 14:2 15:1 
8 1:3 2:3.57765 3:0 4:0 5:0 6:1.54358 7:1.35556 8:0 9:0 10:0.67851 11:0 12:0 13:0 14:0 15:0 
1.004086341002256 1:30 2:2.45473 3:5.20449 4:4.99137 5:0.61444 6:1.75737 7:4.86032 8:0 9:2.99099 10:2 11:1.84586 12:1 13:1 14:2 15:1 
8 1:5 2:15.23018 3:3.19171 4:2.95855 5:0.61268 6:1.74344 7:1.98611 8:0 9:1.97121 10:0.98726 11:1.83368 12:0.98425 13:1 14:0 15:0 
8 1:0 2:16.36167 3:3.97551 4:2.3457 5:0 6:1.54239 7:3.65647 8:0 9:2.52804 10:0.76959 11:1.66735 12:0.6378 13:0 14:1.66607 15:0.76276 
8 1:0 2:9.78651 3:2.40064 4:2.23082 5:0.61336 6:0.65586 7:1.77544 8:0 9:0.91892 10:0.63091 11:0 12:0 13:0.89172 14:0 15:0 
8 1:3 2:15.34512 3:3.73877 4:2.92389 5:0.6116 6:1.39335 7:3.2173 8:0 9:2.19778 10:1.30055 11:0 12:0 13:0.89172 14:1.37859 15:0.63472 
8 1:0 2:5.12476 3:1.57177 4:1.38285 5:0 6:0 7:2.20686 8:0 9:0 10:0.67851 11:0 12:0 13:0 14:0 15:0 
8 1:3 2:15.33881 3:3.73627 4:2.92033 5:0.61336 6:1.38876 7:3.21234 8:0 9:2.19976 10:1.29919 11:0 12:0 13:0.89172 14:1.37859 15:0.63472 
8 1:0 2:17.04477 3:3.2441 4:4.11312 5:0 6:2.30953 7:1.79663 8:0 9:2.5499 10:1.52112 11:1.66735 12:0.64961 13:0.93631 14:1.68793 15:0.78462 
1.254380968927516 1:3 2:5.98983 3:1.57177 4:1.38285 5:0 6:1.54358 7:2.20686 8:0 9:0 10:0 11:0 12:0 13:0 14:0 15:0 
8 1:3 2:15.45505 3:2.86221 4:2.41149 5:0.60702 6:1.42435 7:4.50675 8:0 9:2.24072 10:1.42931 11:0 12:0 13:0.92994 14:1.41568 15:0.65803 
0.41519354843444 1:16 2:24.71427 3:5.82363 4:4.57884 5:0.61511 6:2.74016 7:3.8452 8:0 9:3.98 10:1.98577 11:1.8386 12:0.98031 13:0 14:2 15:1 
8 1:0 2:19.21706 3:5.12494 4:5.02783 5:0.60633 6:0.84558 7:4.51369 8:0 9:1.62103 10:1.63507 11:0.85825 12:0.6811 13:0.94904 14:1.73991 15:0.81586 
7.97484545320054 1:3 2:11.71218 3:3.10742 4:2.92175 5:0.61511 6:0.73394 7:2.41741 8:0 9:1.28283 10:0.66964 11:0 12:0 13:0.89172 14:1.37586 15:0.63472 
8 1:3 2:15.84602 3:3.25488 4:2.49397 5:0 6:2.33558 7:2.80727 8:0 9:2.55189 10:1.5207 11:0.80851 12:0 13:0.93631 14:1.68538 15:0.78462 
0.2968243078239183 1:18 2:2.45473 3:5.19853 4:4.95971 5:0.61336 6:2.74237 7:4.83744 8:0 9:3.97184 10:1.98191 11:1.84077 12:0.97244 13:1 14:2 15:1 
8 1:0 2:16.00027 3:3.73627 4:2.92033 5:0.61336 6:1.38292 7:3.88244 8:0 9:2.19976 10:1.29639 11:0 12:0 13:0.89172 14:1.37859 15:0.63472 
1.939399009068712 1:14 2:20.4386 3:2.59411 4:2.9509 5:0.61336 6:2.74007 7:2.83621 8:0 9:3.97184 10:2.96241 11:0.84586 12:0 13:0 14:1.99747 15:1 
1.682945885435888 1:15 2:23.33606 3:4.20663 4:3.99351 5:0.61444 6:1.75737 7:3.86032 8:0 9:3.99099 10:1.99858 11:1 12:1 13:1 14:3 15:1 
0.3498060383476276 1:21 2:20.96647 3:2.99137 4:4.99137 5:0.61444 6:1.75737 7:3.86032 8:0 9:0.99099 10:2.99839 11:1.84586 12:1 13:1 14:0 15:0 
0.1087507051357653 1:18 2:2.45473 3:5.20449 4:4.99137 5:0.61444 6:1.75737 7:4.86032 8:0 9:2.99099 10:2.99858 11:1.84586 12:1 13:1 14:2 15:1 
8 1:0 2:18.88706 3:4.83609 4:4.11419 5:0 6:0.76254 7:3.61906 8:0 9:2.54278 10:1.52112 11:1.66565 12:0.64567 13:0.93631 14:1.6828 15:0.77949 
4.146953366847832 1:0 2:11.08609 3:2.81712 4:2.15822 5:0 6:0.73381 7:2.5429 8:0 9:2.19976 10:0.66548 11:0 12:0 13:0.89172 14:1.37859 15:0.63472 
4.693601456313188 1:0 2:12.94161 3:3.7311 4:2.15305 5:0.61336 6:0.65586 7:3.23704 8:0 9:1.28084 10:1.29639 11:0 12:0 13:0.89172 14:1.37859 15:0.63472 
8 1:6 2:9.57393 3:2.24398 4:2.07324 5:0.6116 6:1.39335 7:2.35485 8:0 9:0.91892 10:0.66964 11:0 12:0 13:0.89172 14:0 15:0 
8 1:0 2:4.99722 3:0.69524 4:1.36286 5:0 6:1.54358 7:1.35556 8:0 9:0 10:0.73522 11:0 12:0 13:0 14:0 15:0 
2.158510890202258 1:14 2:18.97219 3:4.14862 4:2.55228 5:0 6:2.58203 7:1.98336 8:0 9:3.8059 10:1.91271 11:1.82771 12:0 13:0.99363 14:1.97453 15:0.97959 
0.1156611822000532 1:18 2:22.44478 3:4.18772 4:3.96528 5:0 6:3.72174 7:4.8452 8:0 9:4.95308 10:0.98399 11:0.842 12:0.98425 13:1 14:1.99747 15:1 
3.348273564384523 1:14 2:21.78195 3:5.19007 4:3.97817 5:0 6:0.99004 7:4.8354 8:0 9:2.97595 10:1.97019 11:1.83595 12:0 13:1 14:1.99237 15:0.9949 
8 1:0 2:5.03627 3:1.57177 4:1.38142 5:0.60387 6:0 7:2.19444 8:0 9:0 10:0 11:0 12:0 13:0 14:0 15:0 
1.943258993802141 1:18 2:26.33184 3:6.44863 4:6.19641 5:0.61511 6:2.74016 7:3.8452 8:0 9:3.98 10:1.98577 11:1.8386 12:0.98031 13:0 14:2 15:1 
4.769407086138075 1:17 2:18.42527 3:3.21098 4:3.99786 5:0.61444 6:1.75737 7:4 8:0 9:2 10:1 11:1.84586 12:1 13:1 14:2 15:1 
8 1:12 2:12.32163 3:1.60241 4:1.98121 5:0 6:0.99626 7:2.86032 8:0 9:0.99099 10:1.98577 11:0 12:0 13:0 14:0 15:0 
8 1:0 2:10.11877 3:2.88562 4:1.45162 5:0.61336 6:0.72706 7:1.45817 8:0 9:2.19976 10:0.66548 11:0 12:0 13:0 14:1.37859 15:0.63472 
8 1:0 2:11.07222 3:2.171 4:2.92175 5:0.61511 6:1.39354 7:2.54994 8:0 9:0.91892 10:0.63091 11:0 12:0 13:0.89172 14:0 15:0 
8 1:0 2:17.00591 3:2.9817 4:1.61591 5:0 6:1.54239 7:2.79738 8:0 9:2.52804 10:1.52248 11:1.66735 12:0 13:0 14:1.66607 15:0.76276 
3.634925499468598 1:11 2:2.42968 3:5.11975 4:4.64616 5:0.6162 6:2.5849 7:4.78261 8:0 9:3.80788 10:1.92545 11:1.81197 12:0.90551 13:0.98726 14:1.97455 15:0.98214 
1.10507518067642 1:14 2:5.05902 3:0 4:0.60345 5:0 6:1.39574 7:3.05983 8:0 9:0 10:0 11:0 12:0 13:0.69872 14:0 15:0 
2.696021944962692 1:14 2:21.40515 3:2.59357 4:3.38386 5:0.62039 6:3.24094 7:3.77955 8:0 9:2.83215 10:1.91412 11:0.97623 12:0 13:0.99363 14:1.96574 15:0.97449 
0.3891019179150855 1:18 2:16.8388 3:2.21447 4:1.57941 5:0 6:0.99128 7:2.97995 8:0 9:2.97822 10:1.98763 11:1.80837 12:0 13:1 14:2 15:1 
0.6835102281005899 1:11 2:22.13596 3:4.5257 4:5.96264 5:0.61511 6:2.56853 7:2.83178 8:0 9:2.81476 10:1.90505 11:1.82285 12:0.88189 13:1 14:0 15:0 
5.024722240101965 1:3 2:10.38768 3:3.08781 4:2.91748 5:0 6:0.66085 7:2.54994 8:0 9:0 10:1.30055 11:0 12:0 13:0.89172 14:0 15:0 
8 1:3 2:25.19513 3:5.14213 4:5.26471 5:0.62039 6:2.58203 7:4.75916 8:0 9:3.8059 10:1.91271 11:0.97963 12:0.87402 13:0.99363 14:1.97453 15:0.97959 
1.120541632569535 1:21 2:9.00976 3:0.60681 4:2.9713 5:0.61268 6:0 7:2 8:0 9:0 10:0.98043 11:1.83854 12:0.98031 13:1 14:0 15:0 
8 1:0 2:5.06412 3:0.71523 4:0.71523 5:0 6:1.45611 7:2.21427 8:0 9:0 10:0.67851 11:0 12:0 13:0 14:0 15:0 
8 1:3 2:18.26574 3:4.83131 4:3.37277 5:0 6:1.54966 7:4.57929 8:0 9:2.55189 10:0.73817 11:0.80851 12:0.64961 13:0.93631 14:1.68538 15:0.78462 
3.114487401967649 1:15 2:16.57165 3:3.21098 4:1.99786 5:0.61444 6:1.75862 7:4 8:0 9:2.99099 10:2 11:0 12:0 13:1 14:2 15:1 
1.189941680440249 1:18 2:19.60304 3:2.60241 4:4.96794 5:0.61268 6:2.73223 7:1.98611 8:0 9:1.97121 10:1.97478 11:1.83368 12:0.98425 13:1 14:0 15:0 
4.708927670954494 1:18 2:2.44921 3:6.44863 4:6.19641 5:0.61511 6:2.74016 7:4.8452 8:0 9:3.98 10:1.98577 11:1.8386 12:0.98031 13:1 14:2 15:1 
8 1:0 2:18.12595 3:4.7677 4:3.16108 5:0.60633 6:0.84558 7:2.74083 8:0 9:2.60301 10:1.62953 11:1.76243 12:0.6811 13:0.94904 14:1.73991 15:0.81586 
8 1:3 2:19.44463 3:2.98088 4:3.88063 5:0 6:1.54966 7:4.57929 8:0 9:2.55189 10:1.5207 11:1.66735 12:1.29922 13:0.93631 14:1.68538 15:0.78462 
8 1:3 2:21.27912 3:4.83574 4:4.10775 5:0 6:1.54239 7:4.59278 8:0 9:2.52804 10:0.78431 11:1.66735 12:0.6378 13:0.93631 14:1.66607 15:0.76276 
8 1:0 2:11.00587 3:3.09015 4:2.30227 5:0.61336 6:1.38292 7:1.53189 8:0 9:0.91892 10:1.29531 11:0 12:0 13:0 14:0 15:0 
4.649471587642713 1:14 2:14.39897 3:2.20248 4:1.97996 5:0.61268 6:2.73223 7:3.982 8:0 9:2.96525 10:0.98752 11:0 12:0.98425 13:1 14:0 15:0 
8 1:3 2:13.33465 3:3.78073 4:1.60231 5:0 6:0 7:4.50675 8:0 9:1.29487 10:1.42931 11:0 12:0 13:0.92994 14:1.41568 15:0.65803 
3.726032963009016 1:20 2:16.67702 3:2.60241 4:1.99351 5:0.61444 6:1.75737 7:2.86032 8:0 9:2 10:2 11:1.84586 12:0 13:1 14:2 15:1 
8 1:0 2:9.13171 3:2.48921 4:1.62474 5:0 6:1.55091 7:1.84603 8:0 9:0 10:0 11:1.66735 12:0 13:0.93631 14:0 15:0 
8 1:15 2:4.20439 3:0.76923 4:0.60345 5:0 6:0.60075 7:2.23096 8:0 9:0 10:0 11:0 12:0 13:0.69872 14:0 15:0 
0.9162873518803107 1:18 2:20.11722 3:5.18817 4:3.97469 5:0.61268 6:1.74738 7:2.85909 8:0 9:2.98105 10:0.99465 11:1.83321 12:0 13:1 14:2 15:1 
3.231329363102148 1:16 2:23.05634 3:4.17926 4:2.968 5:0.61268 6:2.73223 7:4.84109 8:0 9:3.96525 10:1.97478 11:1.83368 12:0 13:1 14:2 15:1 
8 1:0 2:4.1756 3:0.85169 4:0.66762 5:0.60739 6:0 7:1.36506 8:0 9:0 10:0.68384 11:0 12:0 13:0 14:0 15:0 
8 1:0 2:16.42737 3:4.7677 4:3.35513 5:0.60633 6:0 7:4.26482 8:0 9:2.60301 10:0.82092 11:0 12:0.6811 13:0.94904 14:1.73991 15:0.81586 
2.445642493040944 1:23 2:18.57569 3:2.59773 4:2.99351 5:0.61444 6:1.75862 7:4.86032 8:0 9:0.99099 10:2 11:0.84586 12:1 13:1 14:0 15:0 
8 1:0 2:13.81046 3:2.81712 4:2.92033 5:0 6:1.38292 7:3.22514 8:0 9:2.19976 10:1.29639 11:0 12:0 13:0.89172 14:1.37859 15:0.63472 
0.2230502556544023 1:18 2:19.63881 3:2.59843 4:3.94936 5:0.61444 6:1.74753 7:3.86032 8:0 9:3.97822 10:0.98577 11:0.99321 12:0.97244 13:1 14:1.99747 15:1 
0.1786724109149205 1:18 2:26.34042 3:6.44863 4:5.20499 5:0.61511 6:2.74016 7:4.8452 8:0 9:3.98 10:1.98577 11:1.8386 12:0.98031 13:1 14:2 15:1 
8 1:3 2:15.55499 3:3.79865 4:1.60231 5:0.60702 6:1.43136 7:3.74286 8:0 9:2.24072 10:1.42931 11:0 12:0 13:0.92994 14:1.41568 15:0.65803 
8 1:3 2:3.71797 3:0.76923 4:0.60345 5:0 6:0.79499 7:1.5503 8:0 9:0 10:0 11:0 12:0 13:0 14:0 15:0 
6.312065034439142 1:13 2:10.92128 3:1.59773 4:2.96357 5:0.61268 6:0 7:1.85909 8:0 9:0.99099 10:0.99363 11:0.99151 12:0.98031 13:0 14:0 15:0 
8 1:3 2:10.85356 3:2.19611 4:1.38017 5:0.61336 6:1.38876 7:2.34989 8:0 9:2.19976 10:0.62776 11:0 12:0 13:0.89172 14:1.37859 15:0.63472 
5.944345848717529 1:3 2:10.54281 3:1.9706 4:2.07182 5:0.6116 6:1.38751 7:1.56116 8:0 9:2.20175 10:0.63091 11:0 12:0 13:0.89172 14:1.37586 15:0.63472 
8 1:3 2:2.78249 3:0 4:0 5:0 6:0.77064 7:1.33334 8:0 9:0 10:0.67851 11:0 12:0 13:0 14:0 15:0 
8 1:3 2:2.13529 3:3.74614 4:2.92324 5:0.62566 6:1.39255 7:3.1866 8:0 9:2.21355 10:1.27315 11:0 12:0 13:0.89172 14:1.36074 15:0.63049 
6.052746872061796 1:8 2:10.29955 3:1.99786 4:3.95371 5:0.61444 6:2.74379 7:0 8:0 9:1.9822 10:0 11:0 12:0.97244 13:0 14:0 15:0 
8 1:0 2:16.50513 3:2.98522 4:2.49329 5:0 6:1.54861 7:4.58583 8:0 9:2.54278 10:0.7861 11:0.85714 12:0.64567 13:0.93631 14:1.6828 15:0.77949 
3.868552908251747 1:13 2:15.13489 3:3.59579 4:2.96954 5:0.61268 6:1.74866 7:2.85134 8:0 9:0.99099 10:0.60645 11:0.84363 12:0.98031 13:1 14:0 15:0 
8 1:3 2:7.9065 3:1.32035 4:2.06968 5:0.61336 6:0.73165 7:1.56116 8:0 9:0.91892 10:0.67143 11:0 12:0 13:0.89172 14:0 15:0 
0.7146141147255624 1:0 2:12.65286 3:3.74333 4:2.92175 5:0 6:1.39354 7:3.21318 8:0 9:1.56703 10:1.30055 11:0 12:0 13:0.89172 14:0 15:0 
1.175858421124758 1:21 2:26.04041 3:5.17926 4:4.94796 5:0.61268 6:2.73223 7:4.8452 8:0 9:3.96525 10:1.97478 11:1.83368 12:0.98425 13:1 14:2 15:1 
8 1:5 2:16.79875 3:2.95925 4:3.80681 5:0.61511 6:1.80301 7:4.7729 8:0 9:0.86154 10:0.95552 11:0.97284 12:0.88189 13:1 14:0 15:0 
8 1:0 2:0 3:1.57177 4:1.38142 5:0.60387 6:0.77294 7:2.96877 8:0 9:0 10:0.68561 11:0 12:0 13:0 14:0 15:0 
8 1:3 2:2.22047 3:4.83574 4:4.10775 5:0 6:1.54239 7:4.59278 8:0 9:2.52804 10:1.52248 11:1.66735 12:0.6378 13:0.93631 14:1.66607 15:0.76276 
0.1181341109214082 1:18 2:0 3:0.76923 4:1.22292 5:0 6:1.39574 7:3.05983 8:0 9:0 10:0.6595 11:0 12:0 13:0.69872 14:0 15:0 
3.263546925506746 1:14 2:17.21923 3:4.19241 4:4.59894 5:0.61268 6:0 7:3.83745 8:0 9:2.98089 10:0 11:0.99321 12:0.98425 13:1 14:1.99494 15:1 
8 1:0 2:17.6345 3:3.60569 4:4.11419 5:0 6:1.54861 7:3.66797 8:0 9:2.54278 10:1.52112 11:0.80851 12:0.64567 13:0.93631 14:1.6828 15:0.77949 
6.286402082615122 1:18 2:26.17978 3:5.20449 4:4.99137 5:0.61444 6:1.75737 7:4.86032 8:0 9:2.99099 10:2.99858 11:1.84586 12:1 13:1 14:2 15:1 
0.324795045886606 1:12 2:16.16702 3:2.57785 4:4.2712 5:0 6:1.63433 7:3.8976 8:0 9:1.8621 10:0.9573 11:1.82771 12:0.87402 13:0.99363 14:0 15:0 
8 1:0 2:7.93936 3:1.57177 4:1.37714 5:0.60035 6:1.54588 7:2.88094 8:0 9:0 10:0.67851 11:0 12:0 13:0 14:0 15:0 
6.63215638041401 1:15 2:16.66247 3:1.59773 4:2.99351 5:0.61444 6:1.75862 7:2.86032 8:0 9:0.99099 10:2.99789 11:1.84586 12:0 13:0 14:0 15:0 
8 1:3 2:2.10084 3:3.73627 4:2.92033 5:0.61336 6:1.38292 7:3.21234 8:0 9:2.19976 10:1.29639 11:0 12:0 13:0.89172 14:1.37859 15:0.63472 
6.134288409576933 1:3 2:14.72545 3:3.73627 4:2.92033 5:0 6:1.38876 7:3.21234 8:0 9:2.19976 10:1.29919 11:0 12:0 13:0.89172 14:1.37859 15:0.63472 
8 1:3 2:14.11924 3:1.93787 4:3.05778 5:0.60035 6:0.76322 7:4.58721 8:0 9:0.97297 10:0.73817 11:0.84171 12:0.64173 13:0.92994 14:0 15:0 
3.426484417463278 1:12 2:16.34407 3:3.19435 4:2.98245 5:0.61268 6:0.75862 7:2.85134 8:0 9:2.97595 10:1.97019 11:0.99321 12:0 13:1 14:1.99237 15:0.9949 
8 1:3 2:14.54047 3:2.81367 4:4.09517 5:0 6:0.79032 7:3.66524 8:0 9:0.97297 10:0.78648 11:1.67246 12:0.64173 13:0.92994 14:0 15:0 
1.64325178322381 1:8 2:20.2682 3:3.55132 4:4.64616 5:0 6:2.5849 7:4.78261 8:0 9:1.86153 10:0.9573 11:1.81197 12:0.90551 13:0.98726 14:0 15:0 
1.520219547262505 1:12 2:17.75368 3:4.58585 4:2.97348 5:0.61444 6:1.74993 7:4.8452 8:0 9:3.97006 10:0 11:0 12:0.98425 13:1 14:1.99747 15:1 
8 1:0 2:7.26915 3:1.57177 4:1.38142 5:0.60387 6:0.77294 7:2.96877 8:0 9:0 10:0.68561 11:0 12:0 13:0 14:0 15:0 
8 1:3 2:10.98126 3:3.7383 4:2.16087 5:0 6:0.65711 7:3.19284 8:0 9:1.27186 10:0 11:0 12:0 13:0.89172 14:1.36018 15:0.62176 
7.645534026083146 1:15 2:23.43762 3:3.57504 4:4.94939 5:0.61268 6:2.73223 7:3.8452 8:0 9:3.96525 10:1.97478 11:1.83368 12:0.98425 13:1 14:2 15:1 
8 1:3 2:15.93582 3:4.75435 4:4.09517 5:0.60035 6:1.55354 7:3.6636 8:0 9:0 10:1.52465 11:0 12:0.64173 13:0.92994 14:0 15:0 
8 1:0 2:14.2997 3:3.06647 4:0.87013 5:0 6:1.43385 7:4.53099 8:0 9:2.23171 10:0.7331 11:0 12:0 13:0.92994 14:1.41568 15:0.65803 
8 1:0 2:14.46134 3:1.93562 4:3.25951 5:0.60633 6:0.84558 7:2.73524 8:0 9:0.98198 10:1.63679 11:1.76243 12:0.6811 13:0 14:0 15:0 
8 1:3 2:11.68467 3:2.18827 4:2.15822 5:0 6:1.45805 7:3.08339 8:0 9:2.20175 10:0.63091 11:0 12:0 13:0.89172 14:1.37586 15:0.63472 
0.2189698333051011 1:21 2:25.34623 3:6.44863 4:6.19641 5:0.61511 6:1.75115 7:4.8452 8:0 9:2.99099 10:1.98577 11:0.842 12:0.98031 13:1 14:2 15:1 
5.382066365699185 1:3 2:9.72233 3:3.09463 4:1.5423 5:0.6116 6:0.73624 7:2.32558 8:0 9:0.91892 10:0.63091 11:0 12:0 13:0 14:0 15:0 
8 1:0 2:16.30364 3:3.94958 4:3.22768 5:0 6:1.54953 7:3.69 8:0 9:1.5608 10:0.7861 11:1.66565 12:0.64567 13:0.93631 14:1.6828 15:0.77949 
8 1:8 2:18.49825 3:3.90195 4:3.81892 5:0.6162 6:1.62226 7:3.81767 8:0 9:2.81689 10:0.9573 11:1.81197 12:0.90551 13:0.98726 14:1.97455 15:0.98214 
8 1:0 2:13.43951 3:3.19351 4:2.41149 5:0.60526 6:1.43385 7:4.50915 8:0 9:0.65476 10:1.42773 11:0 12:0 13:0.92994 14:0 15:0 
8 1:3 2:17.30385 3:3.43328 4:4.10775 5:0 6:0.75632 7:4.59278 8:0 9:0.98198 10:1.52248 11:0.80851 12:0.6378 13:0.93631 14:0 15:0 
8 1:13 2:18.13679 3:4.20449 4:2.98522 5:0.61092 6:1.7497 7:4.83949 8:0 9:0.99099 10:0 11:1.85365 12:0 13:1 14:0 15:0 
7.480501366363391 1:3 2:12.693 3:3.04676 4:2.23082 5:0.61336 6:0.73165 7:3.21234 8:0 9:2.19976 10:0 11:0 12:0 13:0.89172 14:1.37859 15:0.63472 
8 1:3 2:19.43593 3:4.66723 4:4.97097 5:0.60035 6:0.76322 7:4.58721 8:0 9:0.97297 10:1.52465 11:2.48097 12:0.64173 13:0.92994 14:0 15:0 
8 1:3 2:19.09579 3:4.83131 4:4.11111 5:0 6:0 7:4.57929 8:0 9:2.55189 10:1.5207 11:1.66735 12:0.64961 13:0.93631 14:1.68538 15:0.78462 
8 1:0 2:13.96958 3:3.73826 4:2.15822 5:0 6:1.39354 7:3.21318 8:0 9:2.20175 10:1.30055 11:0 12:0 13:0.89172 14:1.37586 15:0.63472 
5.39932721859756 1:9 2:16.60376 3:2.59645 4:3.57613 5:0 6:1.75201 7:3.85498 8:0 9:1.99404 10:0.98752 11:0.84556 12:0.98425 13:1 14:2 15:1 
4.597495552849852 1:8 2:15.90231 3:2.60241 4:2.97692 5:0.61444 6:1.98747 7:3.84643 8:0 9:1.9822 10:0.98577 11:0.99321 12:0 13:1 14:0 15:0 
0.747925960507302 1:14 2:2.45473 3:5.19241 4:5.59074 5:0.61268 6:1.7499 7:4.83129 8:0 9:2.98089 10:1.9851 11:1.83684 12:0.98425 13:1 14:1.99494 15:1 
2.533996607454373 1:18 2:2.43816 3:5.14878 4:4.82723 5:0.61092 6:2.66836 7:4.75875 8:0 9:3.87609 10:1.9396 11:1.8308 12:0.94882 13:0.99363 14:1.98218 15:0.98724 
4.872627465890034 1:15 2:21.31458 3:4.5729 4:5.64079 5:0.61268 6:2.73223 7:3.8452 8:0 9:3.96525 10:0.98726 11:0 12:0.98425 13:1 14:2 15:1 
1.602499035137553 1:3 2:6.75009 3:1.57177 4:1.38285 5:0 6:2.31422 7:1.51797 8:0 9:0 10:0.67851 11:0 12:0 13:0 14:0 15:0 
8 1:0 2:13.848 3:3.7383 4:2.16087 5:0.62566 6:1.36772 7:2.5234 8:0 9:2.2088 10:1.26297 11:0 12:0 13:0.89172 14:1.36018 15:0.62176 
0.3760523961985066 1:17 2:26.66805 3:5.1363 4:5.24399 5:0.62039 6:3.24094 7:4.76405 8:0 9:3.79636 10:1.91412 11:1.82238 12:0.88583 13:0.99363 14:1.96943 15:0.97449 
8 1:3 2:8.94588 3:1.2599 4:0.80918 5:0.60702 6:0.69403 7:1.76149 8:0 9:2.24072 10:0.69799 11:0 12:0 13:0 14:1.41568 15:0.65803 
1.479392601007759 1:18 2:24.73552 3:5.14878 4:3.87281 5:0.61092 6:2.71876 7:4.75875 8:0 9:2.94642 10:2.92368 11:0.84778 12:0 13:0.99363 14:1.98218 15:0.98724 
8 1:0 2:11.12441 3:2.01171 4:0 5:0 6:1.54861 7:2.75 8:0 9:1.5608 10:1.52112 11:0.77233 12:0 13:0.93631 14:1.6828 15:0.77949 
7.332051442224865 1:3 2:2.10084 3:3.73177 4:2.91384 5:0.61511 6:1.3921 7:3.2173 8:0 9:2.20175 10:1.29877 11:0 12:0 13:0.89172 14:1.37859 15:0.63472 
0.8782040108298259 1:18 2:21.06748 3:4.5727 4:3.55059 5:0.61336 6:2.74007 7:2.83621 8:0 9:3.97184 10:0.98726 11:1.84065 12:0 13:0 14:1.99747 15:1 
2.99924955936131 1:18 2:14.91372 3:1.59773 4:2.99351 5:0.61444 6:0.99875 7:4.86032 8:0 9:0 10:2 11:0.84586 12:0 13:1 14:0 15:0 
8 1:0 2:5.06014 3:1.57177 4:1.37714 5:0.60035 6:0 7:1.5476 8:0 9:0 10:0.67851 11:0 12:0 13:0 14:0 15:0 
8 1:0 2:14.66073 3:3.73627 4:2.92033 5:0.61336 6:1.38292 7:2.5429 8:0 9:2.19976 10:1.29639 11:0 12:0 13:0.89172 14:1.37859 15:0.63472 
8 1:0 2:7.26915 3:1.57177 4:1.38142 5:0.60387 6:0.77294 7:2.96877 8:0 9:0 10:0.68561 11:0 12:0 13:0 14:0 15:0 
8 1:3 2:15.33017 3:3.73627 4:2.92033 5:0.61336 6:1.38292 7:3.21234 8:0 9:2.19976 10:1.29639 11:0 12:0 13:0.89172 14:1.37859 15:0.63472 
8 1:0 2:0 3:1.57177 4:1.37714 5:0.60035 6:1.45611 7:2.21427 8:0 9:0 10:0.67851 11:0 12:0 13:0 14:0 15:0 
1.952442810766144 1:3 2:3.64228 3:0.85654 4:0.66762 5:0 6:0.77294 7:0.66667 8:0 9:0 10:0.67851 11:0 12:0 13:0 14:0 15:0 
3.690567021640412 1:7 2:21.46812 3:5.18806 4:3.95929 5:0 6:1.7499 7:3.83904 8:0 9:2.98105 10:0.99465 11:1.83321 12:0.98031 13:1 14:2 15:1 
1.023416801888798 1:21 2:19.95431 3:5.57466 4:4.85672 5:0 6:1.73869 7:3.8321 8:0 9:1.98105 10:1.95992 11:0 12:0.98031 13:1 14:0.99747 15:0 
8 1:0 2:19.16739 3:4.7677 4:4.08013 5:0.60633 6:0.84558 7:3.65337 8:0 9:2.60301 10:1.63679 11:1.76243 12:0.6811 13:0.94904 14:1.73991 15:0.81586 
8 1:3 2:19.90728 3:4.83131 4:4.11111 5:0 6:1.54966 7:4.57929 8:0 9:2.55189 10:0.78253 11:1.66735 12:0.64961 13:0.93631 14:1.68538 15:0.78462 
2.816976700698112 1:3 2:15.30648 3:3.734 4:2.9255 5:0.61687 6:1.39057 7:3.20191 8:0 9:2.1978 10:1.27847 11:0 12:0 13:0.89172 14:1.36018 15:0.62176 
7.611824594171687 1:0 2:13.79363 3:3.74164 4:2.92247 5:0.6116 6:1.38751 7:3.21938 8:0 9:1.28283 10:0.66964 11:0 12:0 13:0.89172 14:1.37586 15:0.63472 
3.197972445017271 1:18 2:19.46074 3:3.59058 4:4.95754 5:0.61268 6:2.73223 7:2.8452 8:0 9:0.98022 10:1.97478 11:1.83368 12:0.98425 13:0 14:0 15:0 
8 1:0 2:14.10188 3:3.14389 4:2.41149 5:0.60526 6:0.73733 7:2.79043 8:0 9:1.57695 10:1.42773 11:0 12:0 13:0.92994 14:1.45962 15:0.65803 
8 1:3 2:7.8944 3:2.2395 4:2.06968 5:0.61336 6:1.38876 7:0.89172 8:0 9:0 10:0.67143 11:0 12:0 13:0.89172 14:0 15:0 
8 1:0 2:5.07575 3:1.56692 4:0.71523 5:0.60739 6:0 7:2.2176 8:0 9:0 10:0.68384 11:0 12:0 13:0 14:0 15:0 
2.017656485050347 1:23 2:16.56746 3:3.59559 4:2.99137 5:0.61444 6:0.75862 7:3.86032 8:0 9:0.99099 10:1 11:1.84586 12:0 13:1 14:0 15:0 
8 1:0 2:13.20873 3:3.04449 4:2.23599 5:0.61687 6:0.65385 7:2.53039 8:0 9:2.1978 10:1.27847 11:0 12:0 13:0.89172 14:1.36018 15:0.62176 
5.720701862017614 1:3 2:12.34389 3:3.10543 4:2.92033 5:0.61336 6:0.65586 7:3.21234 8:0 9:1.28084 10:1.29639 11:0 12:0 13:0.89172 14:1.37859 15:0.63472 
8 1:0 2:14.85141 3:3.79865 4:1.60231 5:0.60526 6:1.43385 7:3.74526 8:0 9:2.23171 10:0.7331 11:0 12:0 13:0.92994 14:1.41568 15:0.65803 
8 1:0 2:14.65934 3:3.74614 4:2.92324 5:0.62566 6:1.39255 7:3.1866 8:0 9:2.21355 10:0.61382 11:0 12:0 13:0.89172 14:1.36074 15:0.63049 
8 1:3 2:2.10084 3:3.73627 4:2.92033 5:0.61336 6:1.38292 7:3.21234 8:0 9:2.19976 10:1.29639 11:0 12:0 13:0.89172 14:1.37859 15:0.63472 
8 1:18 2:2.4573 3:5.19007 4:4.95848 5:0.61268 6:1.74866 7:4.8354 8:0 9:2.97595 10:1.97019 11:1.83684 12:0.98031 13:1 14:1.99237 15:0.9949 
8 1:0 2:14.7939 3:3.14389 4:2.41149 5:0.60526 6:1.44753 7:3.57921 8:0 9:1.58041 10:1.42773 11:0 12:0 13:0 14:0.66149 15:0.66149 
8 1:3 2:14.73689 3:3.73344 4:2.91748 5:0 6:1.40504 7:3.21455 8:0 9:2.20175 10:1.30055 11:0 12:0 13:0.89172 14:1.37586 15:0.63472 
7.447381279810656 1:10 2:4.93745 3:0.76923 4:0.60345 5:0 6:1.39574 7:1.50953 8:0 9:0 10:0.6595 11:0 12:0 13:0.69872 14:0 15:0 
-8 1:12 2:13.99804 3:3.17114 4:1.57597 5:0.60461 6:0.69776 7:3.55647 8:0 9:2.23568 10:1.41766 11:0 12:0 13:0 14:1.41823 15:0.65803 
-8 1:0 2:2.1979 3:0.85169 4:0.6868 5:0 6:0 7:0 8:0 9:0 10:0.65941 11:0 12:0 13:0 14:0 15:0 
-8 1:3 2:14.7144 3:3.74224 4:2.92157 5:0.62214 6:1.38967 7:3.19076 8:0 9:2.21632 10:0.66964 11:0 12:0 13:0.89172 14:1.34437 15:0.6114 
-8 1:3 2:7.06358 3:0.78632 4:0.62676 5:0.60457 6:1.39636 7:1.53237 8:0 9:0.66667 10:1.45053 11:0 12:0 13:0 14:0 15:0 
-0.0666352686225397 1:0 2:2.94844 3:4.09164 4:5.53272 5:0.60105 6:1.43843 7:4.51566 8:0 9:0 10:0.7102 11:0.98879 12:0 13:0.88535 14:0 15:0 
-5.243443322129405 1:0 2:2.11461 3:3.77902 4:2.98277 5:0 6:1.39181 7:3.5147 8:0 9:2.25603 10:1.41819 11:0 12:0 13:0.9172 14:1.43629 15:0.67098 
-8 1:3 2:11.1081 3:2.42189 4:1.60706 5:0.62214 6:1.38967 7:1.52981 8:0 9:2.21632 10:0.66964 11:0 12:0 13:0 14:1.34437 15:0.6114 
-0.4841018058292484 1:5 2:11.08863 3:2.30233 4:3.12454 5:0.94552 6:0.83858 7:2.57122 8:0 9:0.6789 10:0 11:0.61863 12:0 13:0.82166 14:0 15:0 
-2.784770966155163 1:12 2:11.15899 3:3.17114 4:1.57597 5:0 6:0 7:2.78901 8:0 9:2.24086 10:1.42102 11:0 12:0 13:0 14:1.41831 15:0.66321 
-8 1:0 2:16.4391 3:3.79865 4:2.41006 5:0 6:1.43385 7:4.50675 8:0 9:2.24072 10:1.42931 11:0 12:0 13:0.92994 14:1.41568 15:0.65803 
-8 1:9 2:16.5963 3:4.20252 4:2.9716 5:0.61444 6:0.99626 7:2.98611 8:0 9:2.98701 10:0.99045 11:0.84556 12:0 13:1 14:1.99747 15:1 
-8 1:0 2:17.31999 3:3.86856 4:3.14666 5:0 6:1.55955 7:3.72674 8:0 9:2.54278 10:0.73502 11:1.66735 12:0.64567 13:0.93631 14:1.6828 15:0.77949 
-8 1:3 2:13.11333 3:3.72783 4:2.30016 5:0.61336 6:0.73903 7:2.89937 8:0 9:2.2094 10:0.66786 11:0 12:0 13:0 14:1.36549 15:0.62435 
-8 1:3 2:11.52087 3:2.87762 4:2.07951 5:0.61511 6:1.38455 7:2.3423 8:0 9:2.20603 10:0.60568 11:0 12:0 13:0.89172 14:1.37081 15:0.62694 
-8 1:13 2:5.88879 3:0.76923 4:0.60345 5:0 6:0.79499 7:3.05983 8:0 9:0 10:0.66129 11:0 12:0 13:0.69872 14:0 15:0 
-8 1:0 2:6.43342 3:1.48507 4:1.32577 5:0.61228 6:0.63092 7:2.28866 8:0 9:0 10:0.71986 11:0 12:0 13:0 14:0 15:0 
-2.843721158069252 1:4 2:5.30024 3:3.6806 4:3.87418 5:1.8788 6:2.41702 7:2.58376 8:0 9:0.6789 10:1.56751 11:1.36857 12:0 13:0.82803 14:0 15:0 
-3.496538470061393 1:7 2:14.86501 3:3.92257 4:3.83514 5:1.8213 6:2.39636 7:2.57246 8:0 9:0.6789 10:1.46918 11:0.62039 12:0 13:0.82166 14:0 15:0 
-8 1:18 2:2.45473 3:5.19603 4:5.89183 5:0.61444 6:2.74609 7:4.84643 8:0 9:3.97822 10:1.97799 11:1.83707 12:0.97244 13:1 14:1.99747 15:1 
-8 1:0 2:2.75715 3:0.74894 4:0 5:0 6:0.74924 7:1.25897 8:0 9:0 10:0 11:0 12:0 13:0 14:0 15:0 
-2.095075510883964 1:3 2:14.42309 3:3.43517 4:3.23061 5:0 6:0.76322 7:4.59496 8:0 9:0.97297 10:0 11:1.67075 12:0.65354 13:0.92994 14:0 15:0 
-8 1:15 2:18.52012 3:4.20292 4:4.95956 5:0 6:1.75239 7:3.8452 8:0 9:1.99205 10:0 11:0.84556 12:0.98425 13:1 14:1.99747 15:1 
-8 1:3 2:12.29429 3:2.87762 4:2.07951 5:0.61511 6:1.38455 7:2.3423 8:0 9:2.20603 10:0.66964 11:0 12:0 13:0.89172 14:1.37081 15:0.62694 
-4.254838714128635 1:5 2:14.85955 3:3.95098 4:1.6961 5:0 6:0.79229 7:2.74202 8:0 9:2.54932 10:0.73817 11:1.66565 12:0 13:0 14:1.6879 15:0.78205 
-8 1:0 2:21.38751 3:4.83126 4:4.91015 5:0 6:1.54736 7:4.51472 8:0 9:2.5499 10:1.52112 11:1.66905 12:0.64961 13:0.93631 14:1.68793 15:0.78462 
-0.6257520404075297 1:0 2:12.98537 3:3.43328 4:4.1167 5:0 6:0.75862 7:2.70635 8:0 9:0 10:2.22855 11:0.85884 12:0.64961 13:0.93631 14:0 15:0 
-4.322833307709884 1:7 2:12.35479 3:1.69306 4:2.60591 5:1.96365 6:2.49471 7:2.27657 8:0 9:0.6789 10:0.99823 11:0.6162 12:0 13:0.82692 14:0 15:0 
-8 1:18 2:25.6428 3:5.14304 4:4.82948 5:0.61092 6:2.65811 7:4.78528 8:0 9:3.86511 10:1.92686 11:1.83414 12:0.94882 13:0.99363 14:1.97708 15:0.98214 
-1.060810655949025 1:3 2:14.94207 3:2.46294 4:3.22385 5:0 6:1.55091 7:4.59619 8:0 9:0.98198 10:0.73817 11:1.66565 12:0.64567 13:0.93631 14:0 15:0 
-2.501193507104683 1:0 2:2.13913 3:0.83898 4:0.67867 5:0.62148 6:0 7:0 8:0 9:0 10:0 11:0 12:0 13:0 14:0 15:0 
-4.92977933421292 1:0 2:16.15119 3:2.97668 4:2.24938 5:0.60035 6:0.79229 7:2.84162 8:0 9:2.54932 10:0.78788 11:1.66712 12:0.64961 13:0.93631 14:1.68281 15:0.78205 
-8 1:14 2:22.17104 3:5.19603 4:5.89183 5:0.61444 6:2.74609 7:2.84643 8:0 9:2.98723 10:1.97799 11:0.99151 12:0.97244 13:0 14:1.99747 15:1 
-5.775393834249329 1:0 2:7.31528 3:0.65563 4:1.32976 5:0.6362 6:2.15742 7:2.4794 8:0 9:0 10:0.7125 11:0 12:0 13:0.87261 14:0 15:0 
-8 1:0 2:15.47578 3:3.79865 4:2.42784 5:0.60526 6:1.43385 7:3.57921 8:0 9:2.23171 10:0.69799 11:0 12:0 13:0 14:1.41568 15:0.65803 
-8 1:1 2:13.97476 3:3.6806 4:3.25716 5:1.8788 6:1.72835 7:2.58376 8:0 9:0.6789 10:1.56751 11:0.74952 12:0 13:0.82803 14:0 15:0 
-8 1:3 2:4.98629 3:0.78632 4:0 5:0.60457 6:1.39636 7:1.53237 8:0 9:0.66667 10:0 11:0 12:0 13:0 14:0 15:0 
-1.207943607659158 1:0 2:12.38754 3:2.55703 4:2.49268 5:0 6:1.53001 7:1.82156 8:0 9:0.98198 10:0.73817 11:1.66735 12:0.64961 13:0 14:0 15:0 
-8 1:3 2:15.98843 3:3.7301 4:2.91488 5:0.60984 6:1.39218 7:3.89225 8:0 9:2.21 10:1.27038 11:0 12:0 13:0.89172 14:1.37081 15:0.62694 
-1.881054358832308 1:4 2:14.88032 3:2.3165 4:4.20856 5:1.87704 6:3.18361 7:2.58376 8:0 9:0.6789 10:0.90071 11:0.61972 12:0 13:0.82803 14:0 15:0 
-8 1:0 2:13.49759 3:2.32338 4:1.53993 5:0.60526 6:0.69652 7:4.50675 8:0 9:1.58269 10:1.42931 11:0 12:0 13:0.92994 14:0 15:0 
-8 1:12 2:20.85798 3:5.19603 4:4.93755 5:0 6:0.99121 7:3.86032 8:0 9:3.97822 10:0 11:1.97884 12:0.97244 13:1 14:1.99747 15:1 
-7.476353810213714 1:3 2:2.22047 3:4.81881 4:4.09184 5:0 6:1.5534 7:3.61411 8:0 9:2.54137 10:1.52465 11:1.66928 12:0.64961 13:0.93631 14:1.6879 15:0.78205 
-4.633353794913918 1:6 2:11.47592 3:0.96753 4:3.23102 5:0 6:1.55072 7:2.77337 8:0 9:0 10:1.5207 11:1.66735 12:0.64961 13:0.93631 14:0 15:0 
-8 1:15 2:19.2705 3:4.58784 4:4.95956 5:0 6:0.99377 7:3.8452 8:0 9:2.98304 10:0.97865 11:0 12:0.98425 13:1 14:1.99747 15:1 
-8 1:13 2:16.9834 3:3.19364 4:1.90077 5:0.61092 6:1.71647 7:3.9172 8:0 9:0.99099 10:1.92263 11:0.84942 12:0 13:0.99363 14:0 15:0 
-8 1:0 2:6.63303 3:1.54097 4:1.38066 5:0.62148 6:0.75455 7:2.34907 8:0 9:0 10:0.68829 11:0 12:0 13:0 14:0 15:0 
-8 1:3 2:15.42026 3:3.72783 4:2.92516 5:0.61336 6:0.73903 7:4.5813 8:0 9:2.2094 10:0.66786 11:0 12:0 13:0.89172 14:1.36549 15:0.62435 
-2.452443429913536 1:0 2:21.4909 3:4.92316 4:2.48333 5:0 6:0.75862 7:4.44104 8:0 9:3.32898 10:1.52427 11:3.30216 12:0.64961 13:0.93631 14:2.46247 15:1.56171 
-8 1:3 2:13.16572 3:2.25861 4:2.46197 5:0.60209 6:0 7:2.8111 8:0 9:2.53066 10:1.52465 11:0.86054 12:0 13:0.92994 14:1.66889 15:0.77041 
-8 1:18 2:22.15491 3:5.17278 4:4.95262 5:0.61444 6:2.7285 7:2.85704 8:0 9:3.96071 10:1.97656 11:0.84556 12:0.98819 13:1 14:1.99745 15:0.99745 
-8 1:0 2:12.24583 3:2.19634 4:0.80775 5:0.60526 6:1.43385 7:2.64866 8:0 9:2.24072 10:1.43919 11:0 12:0 13:0.92994 14:1.41568 15:0.65803 
-1.018587674145862 1:3 2:16.92469 3:3.94373 4:3.09313 5:0 6:2.32828 7:2.68667 8:0 9:2.54534 10:0.77897 11:1.66565 12:0.64173 13:0 14:1.68536 15:0.78205 
-7.439303364840752 1:0 2:9.94545 3:2.53875 4:1.60231 5:0 6:1.47004 7:3.57921 8:0 9:0.92793 10:0 11:0 12:0 13:0 14:0 15:0 
-5.545121216341499 1:3 2:17.44056 3:4.83306 4:3.36845 5:0 6:1.54488 7:3.65689 8:0 9:2.54932 10:0.78788 11:0.85714 12:0.64173 13:0 14:1.6879 15:0.78205 
-3.44907429693954 1:4 2:15.13754 3:3.93175 4:4.84657 5:0.94728 6:1.52234 7:2.58009 8:0 9:0.6789 10:1.46561 11:0.75145 12:0 13:0.82166 14:0 15:0 
-8 1:3 2:14.94681 3:3.41875 4:4.09184 5:0 6:1.5534 7:3.61411 8:0 9:0.98198 10:0.73817 11:0.81044 12:0.64961 13:0.93631 14:0 15:0 
-8 1:3 2:4.29801 3:0.78632 4:0.62676 5:0.60457 6:0.78636 7:0.82733 8:0 9:0.66667 10:0 11:0 12:0 13:0 14:0 15:0 
-8 1:0 2:5.72981 3:1.57177 4:1.37714 5:0.60211 6:0 7:2.21551 8:0 9:0 10:0.67851 11:0 12:0 13:0 14:0 15:0 
-8 1:18 2:2.43816 3:5.14531 4:4.82669 5:0.61092 6:1.71647 7:4.77629 8:0 9:2.93847 10:1.92263 11:1.83414 12:0.94882 13:0.99363 14:1.97965 15:0.98724 
-6.277863813503 1:3 2:15.99082 3:2.97593 4:3.14634 5:0 6:1.55215 7:1.77004 8:0 9:2.5499 10:1.5207 11:1.66735 12:0.64961 13:0 14:1.68793 15:0.78462 
-8 1:13 2:14.32065 3:2.9548 4:3.86765 5:0.97244 6:1.81102 7:3.27657 8:0 9:0.6789 10:1.62773 11:1.36572 12:0 13:0.82692 14:0 15:0 
-8 1:0 2:14.84065 3:3.86856 4:1.62688 5:0 6:1.55113 7:2.83091 8:0 9:2.54278 10:1.51755 11:1.66735 12:0 13:0.93631 14:1.6828 15:0.77949 
-8 1:16 2:15.02175 3:2.9548 4:3.86765 5:0.98985 6:1.52227 7:3.27657 8:0 9:0.6789 10:1.62773 11:1.36572 12:0 13:0.82692 14:0 15:0 
-8 1:0 2:14.06728 3:2.40937 4:1.67788 5:0.60526 6:1.43385 7:4.50196 8:0 9:0.65803 10:1.43109 11:0 12:0 13:0.92994 14:1.41568 15:0.65803 
-8 1:5 2:16.56169 3:3.86553 4:3.12959 5:0 6:1.54985 7:3.73858 8:0 9:2.54932 10:0.78966 11:0.85714 12:0.64567 13:0.93631 14:1.6879 15:0.78205 
-8 1:3 2:9.93499 3:1.9708 4:1.31451 5:0.61336 6:1.3858 7:3.0376 8:0 9:2.2094 10:0 11:0 12:0 13:0.89172 14:1.36549 15:0.62435 
-8 1:0 2:6.47937 3:1.46253 4:0.64336 5:0 6:1.39141 7:2.29322 8:0 9:0 10:0.68885 11:0 12:0 13:0.73077 14:0 15:0 
-8 1:1 2:13.56849 3:2.94457 4:4.13903 5:0.94903 6:1.51591 7:2.56999 8:0 9:0.6789 10:0.63669 11:0.74952 12:0 13:0.82166 14:0 15:0 
-8 1:6 2:11.94984 3:2.11218 4:1.64922 5:0 6:1.42924 7:2.56118 8:0 9:1.31676 10:1.41232 11:0 12:0 13:0.92357 14:1.41823 15:0.65803 
-8 1:1 2:14.48529 3:1.93787 4:2.56586 5:0 6:1.55091 7:4.5932 8:0 9:0.98198 10:0.73817 11:1.51179 12:0 13:0.93631 14:0 15:0 
-8 1:0 2:14.74262 3:3.86553 4:3.12959 5:0 6:0.75632 7:2.82886 8:0 9:2.54932 10:1.53098 11:0 12:0.64567 13:0.93631 14:1.6879 15:0.78205 
-8 1:15 2:22.59429 3:4.20252 4:3.94404 5:0 6:2.74609 7:3.98611 8:0 9:3.97822 10:1.97799 11:1.83707 12:0.97244 13:1 14:1.99747 15:1 
-8 1:3 2:16.43961 3:4.83092 4:2.57807 5:0 6:1.55091 7:3.68918 8:0 9:1.56734 10:1.52605 11:0.85544 12:0 13:0.93631 14:1.6879 15:0.78205 
-0.7925790733933989 1:3 2:13.42523 3:2.55703 4:1.60926 5:0 6:0.79229 7:3.69411 8:0 9:1.7589 10:0.73817 11:1.66565 12:0.64173 13:0.93631 14:0.77692 15:0.77692 
-8 1:0 2:13.84351 3:3.73429 4:2.92175 5:0 6:1.3988 7:2.32489 8:0 9:2.19518 10:1.30055 11:0 12:0 13:0 14:1.37326 15:0.63212 
-8 1:3 2:11.88602 3:2.24627 4:2.06423 5:0 6:0.73672 7:3.20683 8:0 9:2.21 10:0.60252 11:0 12:0 13:0.89172 14:1.37081 15:0.62694 
-8 1:12 2:14.74961 3:2.60442 4:1.99786 5:0.61336 6:2.74237 7:1.97917 8:0 9:1.9778 10:1.98191 11:1.84077 12:0 13:0 14:0 15:0 
-4.7514544936657 1:12 2:10.2805 3:1.53467 4:2.09775 5:0.60984 6:1.41834 7:1.65905 8:0 9:2.25006 10:0 11:0 12:0 13:0 14:1.43704 15:0.66408 
-5.934911407538933 1:0 2:17.02877 3:3.79865 4:1.60231 5:0.60526 6:1.43154 7:3.55192 8:0 9:3.16865 10:1.42931 11:0 12:0 13:0.92994 14:1.41568 15:0.65803 
-8 1:3 2:13.18727 3:2.89503 4:2.49885 5:0 6:0.75402 7:2.82277 8:0 9:1.76926 10:1.5207 11:0.85714 12:0 13:0.93631 14:0.90331 15:0 
-8 1:0 2:15.3152 3:4.41677 4:3.02818 5:0.60877 6:1.42905 7:3.74526 8:0 9:1.31279 10:1.43109 11:0 12:0 13:0.92994 14:1.41568 15:0.65803 
-8 1:0 2:12.27052 3:1.99208 4:1.53993 5:0.60702 6:1.43154 7:2.88477 8:0 9:2.24072 10:1.43109 11:0 12:0 13:0.92994 14:1.41568 15:0.65803 
-8 1:3 2:14.36922 3:1.86363 4:2.56494 5:0 6:1.5557 7:3.66464 8:0 9:0.98198 10:2.2723 11:0.85714 12:0 13:0 14:0 15:0 
-1.142869837711588 1:9 2:15.33886 3:2.66931 4:4.48261 5:1.96063 6:2.48165 7:3.27768 8:0 9:0.6789 10:0.6259 11:1.99975 12:0 13:0.82803 14:0 15:0 
-7.036336230769254 1:3 2:18.15221 3:4.22443 4:3.45344 5:0.60035 6:1.55354 7:2.74163 8:0 9:2.53264 10:1.52465 11:1.67246 12:0 13:0.92994 14:1.66889 15:0.77041 
-0.2831524294706583 1:12 2:10.61333 3:3.77532 4:4.48687 5:1 6:0.68244 7:0.82803 8:0 9:0.6789 10:0.6534 11:1.38531 12:0 13:0.82803 14:0 15:0 
-1.063623119021581 1:12 2:12.9868 3:3.6244 4:2.60993 5:0.96063 6:1.7979 7:3.27768 8:0 9:0.6789 10:0 11:1.99799 12:0 13:0.82803 14:0 15:0 
-8 1:0 2:15.24634 3:3.19351 4:3.01532 5:0.60702 6:1.43154 7:2.62438 8:0 9:2.24072 10:1.43109 11:0 12:0 13:0 14:1.41568 15:0.65803 
-8 1:0 2:0 3:1.54097 4:1.38066 5:0.62148 6:0.75455 7:2.34907 8:0 9:0 10:0.68829 11:0.79767 12:0 13:0 14:0 15:0 
-8 1:18 2:17.51346 3:2.59793 4:3.96381 5:0.61336 6:1.75556 7:4.83744 8:0 9:0 10:0.98726 11:1.84174 12:0.97244 13:1 14:0 15:0 
-0.1918675458923765 1:0 2:19.82206 3:5.46596 4:4.08328 5:0 6:1.55091 7:4.5932 8:0 9:2.54065 10:1.5268 11:0.85714 12:0 13:0.93631 14:1.67117 15:0.76786 
-4.278113306574411 1:6 2:16.11446 3:3.32609 4:2.57998 5:0 6:0.79229 7:3.69411 8:0 9:2.53822 10:0.78431 11:1.66565 12:0 13:0.93631 14:1.68023 15:0.77692 
-4.162022331185292 1:0 2:0 3:1.58191 4:0.7351 5:0.62566 6:0.65332 7:3.08553 8:0 9:0.67619 10:2.76079 11:0 12:0 13:0.85987 14:0 15:0 
-8 1:17 2:19.55836 3:2.93219 4:3.87787 5:0.61092 6:1.71116 7:3.78861 8:0 9:2.93847 10:1.92263 11:1.83414 12:0 13:0.99363 14:1.97965 15:0.98724 
-0.1286141542943269 1:3 2:18.26895 3:4.85318 4:3.46435 5:0 6:1.55091 7:3.68186 8:0 9:2.56178 10:1.52248 11:0.80851 12:0 13:0.93631 14:1.68023 15:0.77692 
-6.849721960822622 1:6 2:16.72578 3:2.72713 4:3.21733 5:0.60035 6:0.79032 7:4.59496 8:0 9:2.53264 10:1.52465 11:0.86395 12:0.64173 13:0.92994 14:1.66889 15:0.77041 
-8 1:0 2:3.53495 3:0.74894 4:0 5:0 6:0.73563 7:2.05038 8:0 9:0 10:0 11:0 12:0 13:0 14:0 15:0 
-8 1:3 2:2.13305 3:3.7301 4:2.91488 5:0.60984 6:1.38349 7:3.89225 8:0 9:2.21 10:1.27038 11:0 12:0 13:0.89172 14:1.37081 15:0.62694 
-8 1:15 2:11.17527 3:1.69075 4:2.60567 5:1 6:0.68369 7:3.27768 8:0 9:0.6789 10:0.6259 11:0.61268 12:0 13:0.82803 14:0 15:0 
-8 1:0 2:16.37993 3:4.22245 4:4.10901 5:0.60209 6:0.78483 7:2.74938 8:0 9:2.53066 10:1.52465 11:0.86054 12:0.65354 13:0.92994 14:1.66889 15:0.77041 
-0.931239436810363 1:0 2:18.92074 3:4.8058 4:4.12027 5:0 6:1.55159 7:3.68348 8:0 9:2.51525 10:1.5207 11:0.85714 12:0.64961 13:0.93631 14:1.68536 15:0.78205 
-4.751613285786976 1:7 2:8.17449 3:1.52708 4:1.25495 5:0.9877 6:0.8399 7:1.52195 8:0 9:0.6789 10:0.63129 11:1.37065 12:0 13:0.82803 14:0 15:0 
-1.281316327035271 1:12 2:15.2154 3:4.67579 4:4.59071 5:1 6:1.52102 7:2.44965 8:0 9:0.6789 10:0.6259 11:2.65847 12:0 13:0 14:0 15:0 
-8 1:0 2:12.67353 3:3.96241 4:1.86675 5:0 6:0 7:1.79461 8:0 9:2.59599 10:1.63679 11:0 12:0 13:0 14:1.74214 15:0.81586 
-2.157062299197594 1:3 2:27.13153 3:5.65982 4:7.03012 5:0.68627 6:2.20504 7:7.05828 8:0 9:2.59209 10:2.32749 11:0.78035 12:0.6378 13:1.83379 14:0.90331 15:0 
-2.060824622293757 1:5 2:9.22029 3:1.50996 4:3.4905 5:0.87795 6:1.71653 7:1.81549 8:0 9:0.6789 10:0 11:0 12:0 13:0.82166 14:0 15:0 
-7.637216780146901 1:0 2:15.28167 3:3.70935 4:3.98103 5:0.60633 6:0.84558 7:2.74365 8:0 9:1.62302 10:1.63679 11:0.90418 12:0.6811 13:0.94904 14:1.73991 15:0.81586 
-2.680467513892609 1:0 2:15.54812 3:4.83306 4:3.22385 5:0 6:0 7:2.75287 8:0 9:2.54932 10:1.52605 11:0.84158 12:0.64567 13:0 14:1.66973 15:0.78205 
-2.336491158838295 1:12 2:2.11207 3:3.77036 4:3.5867 5:0 6:1.39095 7:3.53806 8:0 9:2.25664 10:1.41145 11:0 12:0 13:0.92357 14:1.43634 15:0.67358 
-8 1:3 2:2.08144 3:3.73224 4:2.93091 5:0.61336 6:1.39308 7:3.2159 8:0 9:2.21 10:1.27669 11:0 12:0 13:0.89172 14:1.36536 15:0.62694 
-8 1:0 2:17.83081 3:5.44421 4:4.10257 5:0 6:0.78731 7:2.67761 8:0 9:2.55634 10:0.72188 11:1.67315 12:0.65354 13:0 14:1.68027 15:0.78205 
-8 1:0 2:18.27077 3:4.77382 4:4.07506 5:0.60633 6:0.84682 7:3.65337 8:0 9:2.60443 10:0.81738 11:0.89116 12:0.6811 13:0.94904 14:1.73735 15:0.8133 
-7.535760470025536 1:5 2:18.13994 3:4.83306 4:4.09653 5:0 6:1.55091 7:3.61945 8:0 9:2.54932 10:0.78966 11:0.85714 12:0.64567 13:0.93631 14:1.68883 15:0.78205 
-3.056266842199959 1:0 2:15.37474 3:2.86221 4:1.60231 5:0.60877 6:1.43385 7:4.50353 8:0 9:2.23171 10:1.43109 11:0 12:0 13:0.92994 14:1.41568 15:0.65803 
-1.478114075963684 1:3 2:26.86513 3:6.36596 4:6.32216 5:0.68627 6:2.20504 7:4.31279 8:0 9:3.37671 10:2.32749 11:2.47664 12:0.6378 13:0 14:1.68793 15:0.78462 
-5.622145737217676 1:0 2:10.25969 3:4.10626 4:4.22674 5:0 6:0.67665 7:3.15699 8:0 9:0 10:0.7102 11:0 12:0 13:0.88535 14:0 15:0 
-3.149656171189364 1:3 2:10.44084 3:2.94457 4:2.85483 5:0.94728 6:0.6812 7:1.57739 8:0 9:0.6789 10:0.63669 11:1.37149 12:0 13:0.82166 14:0 15:0 
-8 1:15 2:23.73217 3:5.14531 4:4.82669 5:0.61092 6:1.71647 7:4.77629 8:0 9:2.93847 10:0.96178 11:1.83414 12:0.94882 13:0.99363 14:1.97965 15:0.98724 
-8 1:3 2:15.406 3:2.89145 4:3.151 5:0 6:1.54736 7:3.68186 8:0 9:2.5499 10:0.78253 11:0 12:0.655 13:0.93631 14:1.68793 15:0.78462 
-8 1:14 2:22.23425 3:3.56404 4:3.84896 5:0.61092 6:2.66093 7:3.92619 8:0 9:3.87319 10:1.92686 11:1.83414 12:0.94882 13:0.99363 14:1.97708 15:0.98214 
-8 1:3 2:6.45358 3:0.78632 4:0.62676 5:0.60457 6:0.78636 7:1.53237 8:0 9:0.66667 10:1.45053 11:0 12:0 13:0 14:0 15:0 
-8 1:13 2:17.9692 3:2.60228 4:4.89832 5:0 6:1.75488 7:3.98611 8:0 9:0.99099 10:0.98754 11:1.83707 12:0.97244 13:1 14:0 15:0 
-0.330808702298314 1:7 2:17.91878 3:4.60677 4:4.83627 5:3.9209 6:2.48277 7:2.58376 8:0 9:0.6789 10:0.62321 11:1.37065 12:0 13:0.82803 14:0 15:0 
-8 1:3 2:9.2852 3:1.22806 4:2.25418 5:0 6:0.75862 7:1.84603 8:0 9:0.77692 10:1.52248 11:0 12:0.64173 13:0.93631 14:1.67583 15:0.77692 
-5.154408612576376 1:0 2:6.50315 3:1.46253 4:0.64336 5:0 6:1.39141 7:2.317 8:0 9:0 10:0.68885 11:0 12:0 13:0.75455 14:0 15:0 
-8 1:0 2:2.13541 3:3.79865 4:3.01532 5:0.60702 6:1.43154 7:4.50915 8:0 9:2.24072 10:1.43109 11:0 12:0 13:0.92994 14:1.41568 15:0.65803 
-3.224306696278178 1:4 2:2.22047 3:4.83306 4:4.09653 5:0.60105 6:1.55091 7:4.5932 8:0 9:2.54932 10:1.53098 11:1.66565 12:0.64567 13:0.93631 14:1.6879 15:0.78205 
-0.6364482080121175 1:3 2:18.25887 3:4.82962 4:3.36774 5:0 6:1.55091 7:4.60383 8:0 9:2.53822 10:1.52248 11:0 12:0.64173 13:0.93631 14:1.68023 15:0.77692 
-8 1:0 2:11.52511 3:0.80728 4:3.10575 5:0.60633 6:0.84558 7:1.79461 8:0 9:0.97297 10:1.63679 11:0.90418 12:0.6811 13:0 14:0 15:0 
-0.1078235129865264 1:8 2:14.78878 3:3.93175 4:4.8247 5:0 6:1.52234 7:2.58009 8:0 9:0.6789 10:1.46561 11:1.37184 12:0 13:0.82166 14:0 15:0 
-8 1:3 2:13.80174 3:2.8216 4:2.93091 5:0.61336 6:1.39308 7:3.2159 8:0 9:2.21 10:0.66786 11:0 12:0 13:0.89172 14:1.36536 15:0.62694 
-1.051182577876155 1:5 2:19.52879 3:5.47251 4:5.11893 5:1.91603 6:3.798 7:2.56868 8:0 9:0.66972 10:0 11:0.74903 12:0 13:0.82166 14:0.63504 15:0 
-0.6332808555875531 1:55 2:20.42466 3:4.59559 4:4.99137 5:0.61444 6:1 7:3.47005 8:0 9:2.99099 10:1 11:0.84586 12:1 13:0 14:2 15:1 
-5.518118111245647 1:3 2:16.60388 3:3.42926 4:4.1167 5:0 6:1.54189 7:3.62421 8:0 9:0.98198 10:1.5207 11:1.66827 12:0.64961 13:0.93631 14:0 15:0 
-8 1:3 2:12.82143 3:2.9817 4:1.38998 5:0 6:0.75862 7:1.85417 8:0 9:2.5499 10:1.5207 11:0.80851 12:0.64961 13:0.93631 14:1.68793 15:0.78462 
-0.8406471783782139 1:0 2:10.20819 3:1.58191 4:0.7351 5:0.62566 6:0 7:3.9454 8:0 9:0.67619 10:2.76079 11:0 12:0 13:1.71974 14:0 15:0 
-4.858055676011209 1:0 2:0 3:1.51156 4:1.32976 5:0.6362 6:2.15742 7:3.14187 8:0 9:0.65138 10:0.7125 11:0 12:0 13:0.87261 14:0 15:0 
-8 1:3 2:16.80033 3:3.94923 4:1.84307 5:0 6:1.55072 7:4.58991 8:0 9:2.5499 10:0.78253 11:0.80851 12:0 13:0.93631 14:1.68793 15:0.78462 
-8 1:0 2:14.76953 3:2.92852 4:1.53993 5:0.60877 6:1.42905 7:3.71872 8:0 9:2.23171 10:1.43109 11:0 12:0 13:0 14:1.41568 15:0.65803 
-8 1:18 2:26.16331 3:5.20449 4:4.99137 5:0.61444 6:1.75737 7:4.86032 8:0 9:2.99099 10:2.99858 11:1.84586 12:1 13:1 14:2 15:1 
-8 1:0 2:3.80512 3:0.70199 4:0.70199 5:0 6:0.75455 7:0.86262 8:0 9:0 10:0.68829 11:0.79767 12:0 13:0 14:0 15:0 
-8 1:0 2:13.46139 3:2.26527 4:3.61519 5:0.60984 6:0.70896 7:3.54813 8:0 9:1.32213 10:1.39498 11:0 12:0 13:0.93631 14:1.43704 15:0.66408 
-1.007915077819522 1:0 2:9.72284 3:1.51128 4:1.3382 5:0.60984 6:1.45393 7:3.63729 8:0 9:0 10:0.60579 11:0.61742 12:0 13:0 14:0 15:0 
-6.891865857616445 1:0 2:12.3041 3:0.96753 4:2.5673 5:0.60035 6:1.55551 7:1.83706 8:0 9:0.98198 10:1.52605 11:1.66712 12:0 13:0 14:0 15:0 
-8 1:0 2:17.10279 3:4.73509 4:2.41149 5:0.60877 6:1.43385 7:3.54952 8:0 9:2.23171 10:1.43109 11:0 12:0 13:0.92994 14:1.41568 15:0.65803 
-7.807921759147101 1:17 2:16.30261 3:3.57637 4:2.95837 5:0.61092 6:2.65811 7:0.85909 8:0 9:1.92286 10:1.92686 11:1.83414 12:0 13:0 14:0 15:0 
-8 1:3 2:9.03141 3:1.97309 4:1.31879 5:0 6:0.64428 7:3.03887 8:0 9:1.27306 10:0.67263 11:0 12:0 13:0.89172 14:1.36808 15:0.62694 
-8 1:3 2:13.79092 3:3.86553 4:2.25632 5:0 6:1.55091 7:2.82886 8:0 9:1.56734 10:0.78788 11:0.85544 12:0.64567 13:0.93631 14:1.6879 15:0.78205 
-0.3018057401930582 1:0 2:19.45996 3:3.35493 4:3.25951 5:0.60633 6:0.84558 7:3.65337 8:0 9:3.56896 10:1.63679 11:0.85825 12:0.6811 13:0.94904 14:1.73991 15:0.81586 
-5.705633334255742 1:0 2:1.55479 3:3.4584 4:3.26977 5:0 6:1.41536 7:3.76851 8:0 9:0 10:0.65946 11:0.7757 12:0 13:0.83439 14:0 15:0 
-8 1:0 2:4.36313 3:1.56692 4:1.38713 5:0.60387 6:0 7:0.84967 8:0 9:0 10:0.67077 11:0 12:0 13:0 14:0 15:0 
-8 1:0 2:4.28519 3:0 4:0.60455 5:0 6:0 7:3.01517 8:0 9:0 10:0.66547 11:0 12:0 13:0.71154 14:0 15:0 
-8 1:0 2:13.63555 3:3.86373 4:3.14703 5:0 6:1.54736 7:0.93631 8:0 9:2.5499 10:1.52112 11:0 12:0.64961 13:0.93631 14:1.68793 15:0.78462 
-8 1:0 2:6.37117 3:1.51739 4:1.35048 5:0.62522 6:0 7:2.22662 8:0 9:0.66055 10:0.68627 11:0 12:0 13:0.84076 14:0 15:0 
-5.299450044849713 1:12 2:18.48002 3:4.17034 4:5.0881 5:1.96674 6:1.80708 7:6.22219 8:0 9:0.6789 10:0.62167 11:1.37309 12:0 13:0.82803 14:0 15:0 
-8 1:3 2:11.69474 3:0.96753 4:3.22171 5:0 6:0.75862 7:2.70512 8:0 9:0.98198 10:0.78431 11:1.66565 12:0.64173 13:0.93631 14:0 15:0 
-8 1:18 2:17.0291 3:3.17336 4:1.93449 5:0.61092 6:1.71647 7:2.92952 8:0 9:2.93847 10:0.96085 11:0.84942 12:0.94882 13:0.99363 14:1.97965 15:0.98724 
-1.168230413016125 1:0 2:13.16781 3:2.28698 4:2.27255 5:0 6:0.79229 7:2.75 8:0 9:2.54278 10:0.78253 11:1.66735 12:0.64567 13:0.93631 14:1.6828 15:0.77949 
-8 1:3 2:15.5465 3:3.95519 4:2.35548 5:0 6:1.54736 7:3.67732 8:0 9:2.55586 10:0.73817 11:0 12:0.64961 13:0.93631 14:1.68793 15:0.78462 
-8 1:0 2:14.52725 3:2.86221 4:2.41149 5:0.60526 6:1.43385 7:4.50915 8:0 9:1.31279 10:1.43109 11:0 12:0 13:0.92994 14:1.41568 15:0.65803 
-0.844867330196243 1:0 2:17.21011 3:2.54911 4:4.11319 5:0 6:2.28853 7:4.26901 8:0 9:0.98198 10:1.55931 11:0.85884 12:0.64567 13:0.93631 14:0 15:0 
-8 1:3 2:15.18345 3:2.82438 4:3.22385 5:0 6:1.55091 7:3.68647 8:0 9:0.98198 10:1.52783 11:1.66565 12:0.64567 13:0.93631 14:0 15:0 
-8 1:12 2:4.37237 3:0.76923 4:0.60345 5:0 6:0 7:2.3384 8:0 9:0 10:0.66129 11:0 12:0 13:0.69872 14:0 15:0 
-1.144562311363549 1:12 2:1.50022 3:3.77394 4:2.37367 5:0.60461 6:1.42924 7:4.48723 8:0 9:2.24086 10:1.42102 11:0 12:0 13:0.92357 14:1.41831 15:0.66321 
-8 1:3 2:12.42241 3:3.09692 4:2.15127 5:0.60984 6:1.38349 7:3.10903 8:0 9:2.21 10:0.60252 11:0 12:0 13:0.89172 14:1.37081 15:0.62694 
-2.407236299384358 1:0 2:14.552 3:4.79526 4:4.20196 5:0.97364 6:1.51473 7:1.81549 8:0 9:0.6789 10:0.63309 11:0.75145 12:0 13:0.82166 14:0 15:0 
-8 1:0 2:7.36076 3:1.50772 4:1.33164 5:0.60984 6:0.66667 7:2.07173 8:0 9:0.62037 10:0.61051 11:0 12:0 13:0 14:0 15:0 
-8 1:6 2:19.69583 3:4.82278 4:3.37778 5:0.60209 6:2.47073 7:3.61411 8:0 9:1.76329 10:1.52427 11:1.66928 12:0.64961 13:0.93631 14:0.90331 15:0 
-8 1:4 2:8.71712 3:1.51939 4:1.97439 5:0.60746 6:1.45788 7:2.47453 8:0 9:0.62963 10:0.71609 11:0 12:0 13:0.86624 14:0 15:0 
-0.6977720647876962 1:60 2:24.79093 3:5.20449 4:4.99137 5:0.61444 6:1.75737 7:5.47005 8:0 9:2.99099 10:2 11:0.84586 12:1 13:1 14:2 15:1 
-8 1:3 2:2.13045 3:3.72827 4:2.93016 5:0.61511 6:1.38455 7:3.20475 8:0 9:2.20603 10:1.27532 11:0 12:0 13:0.89172 14:1.37081 15:0.62694 
-2.406979436740877 1:0 2:19.60304 3:4.83072 4:3.23074 5:0.60035 6:1.55551 7:4.60095 8:0 9:2.54932 10:0.73817 11:1.66712 12:0.64961 13:0.93631 14:1.68281 15:0.78205 
-0.4194464132775795 1:15 2:13.44007 3:3.32421 4:5.13751 5:1 6:0.68369 7:2.52195 8:0 9:0.6789 10:0.6259 11:1.99975 12:0 13:0.82803 14:0 15:0 
-8 1:0 2:4.39153 3:1.56692 4:1.38713 5:0.60387 6:0 7:1.54884 8:0 9:0 10:0 11:0 12:0 13:0 14:0 15:0 
-8 1:3 2:16.31764 3:3.2569 4:3.12764 5:0.60035 6:1.54784 7:2.77552 8:0 9:2.53264 10:1.52465 11:0.86395 12:0.64173 13:0.92994 14:1.66889 15:0.77041 
-0.5715773809540982 1:3 2:18.22914 3:3.51871 4:3.20747 5:0 6:1.5534 7:3.52728 8:0 9:0.98198 10:1.52427 11:3.30216 12:0.64961 13:0.93631 14:0 15:0 
-8 1:16 2:5.07798 3:0.76923 4:0.60345 5:0 6:0.79499 7:2.24902 8:0 9:0 10:0.66129 11:0 12:0 13:0.69872 14:0 15:0 
-8 1:0 2:18.08648 3:4.82948 4:4.09151 5:0 6:1.5557 7:4.59115 8:0 9:1.56478 10:0.78966 11:1.66565 12:0.64567 13:0.93631 14:1.68534 15:0.77949 
-8 1:0 2:5.66118 3:0.80258 4:1.30883 5:0 6:0.61798 7:2.24418 8:0 9:0 10:0.68761 11:0 12:0 13:0.6879 14:0 15:0 
-8 1:3 2:12.86938 3:3.86787 4:3.12959 5:0 6:0.76092 7:2.76389 8:0 9:1.56221 10:1.55085 11:0 12:0.64567 13:0.93631 14:1.68277 15:0.77692 
-8 1:12 2:16.3226 3:3.77394 4:2.37454 5:0.60461 6:1.43048 7:4.48004 8:0 9:2.23568 10:0.68456 11:0 12:0 13:0.92357 14:1.41823 15:0.65803 
-8 1:0 2:18.43726 3:4.16634 4:4.07506 5:0.60633 6:0.84682 7:4.58766 8:0 9:1.62245 10:1.63325 11:0.89116 12:0.6811 13:0.94904 14:1.73735 15:0.8133 
-3.13695763149104 1:0 2:18.80109 3:4.83072 4:4.12772 5:0 6:1.55551 7:2.71449 8:0 9:2.54932 10:1.52605 11:1.66712 12:0 13:0.93631 14:1.68281 15:0.78205 
-8 1:0 2:12.86043 3:3.85727 4:2.25702 5:0 6:0.79353 7:2.76389 8:0 9:1.56593 10:1.52248 11:0.86054 12:0.64567 13:0.93631 14:1.68793 15:0.78462 
-8 1:0 2:16.65339 3:4.83077 4:3.37205 5:0 6:0.79229 7:3.66464 8:0 9:2.55131 10:0.73817 11:0.86054 12:0.64961 13:0 14:1.68536 15:0.78205 
-3.877316313134918 1:0 2:2.13541 3:3.79667 4:2.41149 5:0.60526 6:1.43385 7:4.50915 8:0 9:2.22973 10:1.43109 11:0 12:0 13:0.92994 14:1.41568 15:0.65803 
-8 1:3 2:13.25259 3:3.04059 4:1.47565 5:0 6:1.39308 7:3.2159 8:0 9:2.21 10:1.27669 11:0 12:0 13:0.89172 14:1.36536 15:0.62694 
-8 1:0 2:17.96951 3:4.84384 4:3.3799 5:0 6:1.54842 7:2.70635 8:0 9:2.55586 10:0.73817 11:2.36757 12:0.64961 13:0.93631 14:1.68793 15:0.78462 
-6.608163427011061 1:0 2:21.38001 3:4.83574 4:4.12637 5:0 6:1.54861 7:4.59356 8:0 9:2.5499 10:2.22361 11:1.66565 12:0.64961 13:0.93631 14:1.68793 15:0.78462 
-8 1:3 2:19.96801 3:4.84861 4:4.11314 5:0 6:1.54736 7:4.59767 8:0 9:2.57401 10:0.78253 11:1.69443 12:0.64961 13:0.93631 14:1.68793 15:0.78462 
-2.861652438487584 1:3 2:20.67003 3:4.83753 4:4.1217 5:0 6:1.55429 7:4.59197 8:0 9:2.54932 10:1.5207 11:1.66565 12:0.64961 13:0.93631 14:1.68179 15:0.78205 
-5.20133975902969 1:4 2:10.67708 3:2.3165 4:2.21541 5:1.87704 6:1.65242 7:2.58376 8:0 9:0 10:0.90071 11:0.61972 12:0 13:0.82803 14:0 15:0 
-1.762317951578216 1:0 2:18.92947 3:4.22615 4:4.1025 5:0.60105 6:0.76322 7:3.65673 8:0 9:2.55131 10:1.52783 11:1.66565 12:0.64961 13:0 14:1.68536 15:0.78205 
-8 1:6 2:20.5248 3:4.82932 4:3.97391 5:0 6:1.55072 7:4.58991 8:0 9:2.5499 10:1.5207 11:1.66735 12:0.64961 13:0.93631 14:1.68793 15:0.78462 
-1.604875869958182 1:0 2:18.4316 3:3.86324 4:3.13862 5:0.60105 6:1.55091 7:2.73708 8:0 9:2.55131 10:0.78788 11:2.39036 12:0.65957 13:0 14:1.68536 15:0.78205 
-8 1:13 2:17.84964 3:0.99351 4:3.94183 5:0.61444 6:2.74609 7:2.84643 8:0 9:1.9822 10:1.97799 11:1.83707 12:0.97244 13:0 14:0 15:0 
-8 1:4 2:8.99635 3:2.30233 4:1.59557 5:1.82698 6:1.71391 7:1.74833 8:0 9:0.6789 10:0 11:0 12:0 13:0 14:0.61755 15:0 
-8 1:0 2:15.31516 3:3.79865 4:2.41006 5:0 6:1.43154 7:2.60562 8:0 9:2.24072 10:2.1273 11:0 12:0 13:0 14:1.41568 15:0.65803 
-0.1626628988085765 1:1 2:6.3802 3:1.32502 4:1.31451 5:0.6116 6:0.64589 7:1.57155 8:0 9:0.92793 10:0.67321 11:0 12:0 13:0.89172 14:0 15:0 
-8 1:0 2:18.91531 3:4.83126 4:4.11456 5:0 6:1.54736 7:3.62421 8:0 9:2.5499 10:0.73502 11:1.66905 12:0.64961 13:0.93631 14:1.68793 15:0.78462 
-8 1:0 2:9.82209 3:2.45717 4:1.47539 5:0.60702 6:1.43154 7:1.86049 8:0 9:0.6506 10:1.43109 11:0 12:0 13:0 14:0 15:0 
-8 1:1 2:13.21691 3:3.73843 4:2.15867 5:0.6116 6:0.64589 7:3.23311 8:0 9:2.19659 10:0.67321 11:0 12:0 13:0.89172 14:1.35153 15:0.61856 
-8 1:0 2:1.35929 3:0.80258 4:1.30883 5:0 6:0.61798 7:2.24418 8:0 9:0 10:0.68761 11:0 12:0 13:0.6879 14:0 15:0 
-5.741528863621295 1:3 2:21.4879 3:4.83161 4:4.11205 5:0 6:2.38589 7:4.58992 8:0 9:2.53115 10:1.52248 11:1.66735 12:0.64567 13:0.93631 14:1.67117 15:0.76786 
-8 1:1 2:12.67852 3:2.36453 4:0.87268 5:0.60105 6:1.70138 7:2.76389 8:0 9:2.54932 10:0 11:0.85714 12:0 13:0.93631 14:1.6879 15:0.78205 
-8 1:0 2:17.58322 3:4.23962 4:4.13528 5:0 6:1.54736 7:3.68918 8:0 9:2.54791 10:0.78253 11:1.66565 12:0.64173 13:0.93631 14:1.68793 15:0.78462 
-3.605050962805005 1:5 2:13.74133 3:2.95782 4:3.78003 5:0.94728 6:1.52096 7:1.81549 8:0 9:1.3578 10:0.63669 11:1.37184 12:0 13:0.82166 14:0 15:0 
-2.471817184655942 1:0 2:2.74354 3:0.74894 4:0 5:0 6:0.73563 7:1.25897 8:0 9:0 10:0 11:0 12:0 13:0 14:0 15:0 
-8 1:3 2:2.20696 3:4.22443 4:4.09517 5:0.60035 6:1.55354 7:4.58721 8:0 9:2.53264 10:1.52465 11:1.67246 12:0.64173 13:0.92994 14:1.66889 15:0.77041 
-4.036177021865051 1:12 2:5.75888 3:1.43491 4:0.60651 5:0 6:0.79499 7:2.2558 8:0 9:0 10:0.66667 11:0 12:0 13:0.69872 14:0 15:0 
-8 1:3 2:0 3:0.81356 4:0.63649 5:0 6:0.625 7:1.49682 8:0 9:0 10:0 11:0 12:0 13:0 14:0 15:0 
-8 1:0 2:5.71192 3:0.65563 4:0.65563 5:0 6:2.15742 7:1.53499 8:0 9:0.65138 10:0.7125 11:0 12:0 13:0 14:0 15:0 
-8 1:3 2:12.09016 3:2.40064 4:2.23224 5:0.6116 6:1.3988 7:3.21661 8:0 9:0.91892 10:0 11:0 12:0 13:0.89172 14:0.75079 15:0 
-8 1:0 2:14.70322 3:3.79865 4:2.41149 5:0.60877 6:1.43385 7:3.50915 8:0 9:2.23171 10:0.69799 11:0 12:0 13:0.92994 14:1.41568 15:0.65803 
-1.40464995683493 1:5 2:21.68051 3:5.49348 4:7.90595 5:1.91603 6:3.798 7:2.57122 8:0 9:0.66972 10:0.63489 11:0.74903 12:0 13:0.82166 14:0.63504 15:0 
-5.056096727013811 1:0 2:12.61997 3:2.94418 4:3.22465 5:0.86614 6:2.38979 7:2.57122 8:0 9:0.6789 10:0.63849 11:0.75145 12:0 13:0.82166 14:0 15:0 
-8 1:0 2:5.95243 3:2.37859 4:1.36632 5:0 6:0.66832 7:1.53729 8:0 9:0 10:0.7039 11:0 12:0 13:0 14:0 15:0 
-0.2752691549202144 1:56 2:22.42126 3:4.20663 4:2.99351 5:0 6:1 7:5.47005 8:0 9:2.99099 10:2 11:1.84586 12:1 13:1 14:2 15:1 
-8 1:0 2:17.56052 3:3.79924 4:4.1171 5:0 6:0.84682 7:3.64916 8:0 9:2.60699 10:1.62615 11:0.91013 12:0.67717 13:0.94904 14:1.74244 15:0.81586 
-8 1:15 2:18.61343 3:3.19614 4:3.97139 5:0 6:1.75239 7:3.8452 8:0 9:2.98284 10:0.97865 11:1.87471 12:0 13:1 14:1.99747 15:1 
-8 1:0 2:4.46103 3:1.57177 4:1.37714 5:0 6:0 7:1.54884 8:0 9:0 10:0.67851 11:0 12:0 13:0 14:0 15:0 
-0.8670294352215306 1:15 2:5.58969 3:4.56538 4:5.48261 5:1.96063 6:3.14713 7:3.27768 8:0 9:0.6789 10:0.6259 11:1.99975 12:0 13:0.82803 14:0 15:0 
-8 1:5 2:20.73066 3:4.83306 4:4.96921 5:0 6:0.75862 7:4.59619 8:0 9:2.53716 10:1.52783 11:1.66565 12:0.64567 13:0.93631 14:1.67574 15:0.76989 
-8 1:6 2:15.2278 3:2.84147 4:2.37511 5:0.60284 6:1.42693 7:4.48004 8:0 9:1.32073 10:1.44441 11:0 12:0 13:0.92357 14:1.41823 15:0.65803 
-8 1:3 2:9.32344 3:3.72783 4:1.54016 5:0 6:0.64677 7:2.21812 8:0 9:1.27246 10:0.66786 11:0 12:0 13:0 14:1.36549 15:0.62435 
-4.104304406499449 1:8 2:11.15438 3:2.04349 4:4.4561 5:0 6:0.68369 7:1.74956 8:0 9:0.66972 10:0.6295 11:0.75145 12:0 13:0 14:0 15:0 
-4.185695387893322 1:3 2:24.49528 3:5.31395 4:5.35892 5:0.68627 6:2.20504 7:3.69205 8:0 9:3.37671 10:2.32749 11:2.50799 12:0.6378 13:0 14:1.68793 15:0.78462 
-7.505437649091673 1:0 2:14.35961 3:2.00902 4:2.26266 5:0 6:1.54736 7:1.84603 8:0 9:2.5499 10:1.52112 11:1.66905 12:0.64961 13:0.93631 14:1.68793 15:0.78462 
-8 1:0 2:8.84706 3:2.17003 4:1.34417 5:0.65729 6:1.46272 7:3.1606 8:0 9:0 10:0.70357 11:0 12:0 13:0.89809 14:0 15:0 
-8 1:3 2:14.4172 3:2.82309 4:2.92157 5:0.62214 6:1.38967 7:3.19076 8:0 9:2.21632 10:1.29159 11:0 12:0 13:0.89172 14:1.34437 15:0.6114 
-8 1:3 2:18.29171 3:4.22245 4:4.10901 5:0.60209 6:0.78483 7:4.59291 8:0 9:2.53066 10:0.73817 11:0.86054 12:0.65354 13:0.92994 14:1.66889 15:0.77041 
-4.270657237776862 1:3 2:3.49489 3:0.78632 4:0 5:0.60457 6:0.61 7:0.82733 8:0 9:0.66667 10:0 11:0 12:0 13:0 14:0 15:0 
-8 1:0 2:9.68062 3:2.17219 4:2.6801 5:0.60984 6:0.66667 7:2.4453 8:0 9:0.62037 10:0.61051 11:0.60284 12:0 13:0.89809 14:0 15:0 
-8 1:3 2:16.99303 3:2.82652 4:4.1217 5:0 6:1.57009 7:4.59197 8:0 9:0.98198 10:1.5207 11:1.66565 12:0.64961 13:0.93631 14:0 15:0 
-1.824054414519559 1:0 2:13.86728 3:4.10412 4:4.92174 5:0.60105 6:0 7:4.50623 8:0 9:0 10:0.71377 11:0.99252 12:0 13:0.88535 14:0 15:0 
-8 1:0 2:10.15034 3:1.53924 4:0.7977 5:0.60461 6:0.69652 7:2.65305 8:0 9:0.91892 10:1.42102 11:0 12:0 13:0.92357 14:0 15:0 
-8 1:0 2:16.40611 3:3.79865 4:2.41006 5:0.60526 6:0.69652 7:4.50675 8:0 9:2.24072 10:1.42931 11:0 12:0 13:0.92994 14:1.41568 15:0.65803 
-1.653285390356644 1:34 2:21.58915 3:5.29051 4:5.99137 5:1.22888 6:1.75737 7:3.47005 8:0 9:2 10:1 11:0.84586 12:1 13:0 14:2 15:1 
-8 1:0 2:5.1778 3:0.83898 4:0.67867 5:0.62148 6:0.75455 7:1.48645 8:0 9:0 10:0 11:0.79767 12:0 13:0 14:0 15:0 
-4.139567706724744 1:3 2:20.46413 3:4.83574 4:4.10632 5:0 6:1.54736 7:3.61477 8:0 9:3.33888 10:1.51714 11:1.66735 12:0.6378 13:0.93631 14:2.47691 15:1.5736 
-8 1:3 2:5.15932 3:1.42149 4:0.60651 5:0 6:0.79499 7:2.33633 8:0 9:0 10:0 11:0 12:0 13:0.69872 14:0 15:0 
-8 1:0 2:8.37764 3:2.17877 4:1.57597 5:0.60461 6:1.43048 7:1.81779 8:0 9:0.91892 10:0.7331 11:0 12:0 13:0 14:0 15:0 
-8 1:3 2:15.32266 3:2.82438 4:4.09712 5:0 6:1.5557 7:4.60095 8:0 9:0.98198 10:1.53098 11:0.85714 12:0.64567 13:0.93631 14:0 15:0 
-0.2202873605487125 1:15 2:13.19304 3:1.63636 4:4.24203 5:1.96063 6:2.48165 7:1.52195 8:0 9:0.6789 10:1.27087 11:1.99764 12:0 13:0.82803 14:0 15:0 
-8 1:15 2:22.16414 3:4.19853 4:3.98727 5:0.61336 6:2.74237 7:3.88561 8:0 9:2.98085 10:1.98191 11:1.83873 12:0 13:1 14:2 15:1 
-8 1:3 2:9.6152 3:3.07972 4:2.16516 5:0.61336 6:0 7:3.22581 8:0 9:0 10:0.66786 11:0 12:0 13:0.89172 14:0 15:0 
-6.878679276696578 1:6 2:19.35005 3:3.8654 4:4.10632 5:0 6:1.54736 7:3.67404 8:0 9:2.3569 10:2.29611 11:1.66735 12:0.6378 13:0.93631 14:2.47691 15:1.5736 
-8 1:0 2:9.92913 3:2.91548 4:2.97706 5:0 6:0.85433 7:2.3469 8:0 9:0.65138 10:0.64568 11:0.77457 12:0 13:0 14:0 15:0 
-8 1:0 2:8.94686 3:2.16793 4:1.99485 5:0.60984 6:1.45393 7:2.20004 8:0 9:0.61818 10:0.60579 11:0.61742 12:0 13:0 14:0 15:0 
-8 1:0 2:17.36065 3:4.8336 4:4.11312 5:0 6:0.75862 7:3.62421 8:0 9:2.5499 10:0.7861 11:0.85884 12:0.64961 13:0.93631 14:1.68793 15:0.78462 
-8 1:4 2:19.52041 3:4.8352 4:4.1007 5:0 6:1.54966 7:2.74678 8:0 9:2.54932 10:1.52783 11:2.36757 12:0.64567 13:0 14:1.69045 15:0.78205 
-4.279416186396569 1:0 2:7.62084 3:2.12311 4:3.58699 5:0.9051 6:0 7:0.82166 8:0 9:0 10:0.64568 11:0.77457 12:0 13:0.82166 14:0 15:0 
-8 1:4 2:8.37019 3:1.87633 4:3.59569 5:0.9877 6:1.52483 7:0.69392 8:0 9:0.6789 10:0 11:0 12:0 13:0 14:0 15:0 
-8 1:3 2:2.13529 3:3.74224 4:2.92157 5:0.62214 6:1.38967 7:3.19076 8:0 9:2.21632 10:0.66964 11:0 12:0 13:0.89172 14:1.34437 15:0.6114 
-8 1:0 2:12.4352 3:2.46133 4:1.67788 5:0.60526 6:1.43385 7:3.50915 8:0 9:1.31279 10:0 11:0 12:0 13:0.92994 14:1.41568 15:0.65803 
-8 1:3 2:19.8867 3:4.22245 4:4.10901 5:0.60209 6:0.78483 7:4.59291 8:0 9:2.53066 10:1.52465 11:1.66905 12:0.65354 13:0.92994 14:1.66889 15:0.77041 
-8 1:3 2:11.00854 3:2.19225 4:2.16516 5:0.62214 6:0.65757 7:2.5234 8:0 9:2.21632 10:0.66964 11:0 12:0 13:0.89172 14:1.34437 15:0.6114 
-8 1:21 2:18.49076 3:2.96996 4:3.96443 5:0 6:1.96528 7:4.84315 8:0 9:0.98022 10:1.97656 11:1.83537 12:0 13:1 14:0 15:0 
-0.5235704357475649 1:3 2:20.43939 3:4.84384 4:4.12027 5:0 6:1.54842 7:3.65689 8:0 9:2.55586 10:1.51714 11:2.36757 12:0.64961 13:0 14:1.68793 15:0.78462 
-8 1:18 2:2.45473 3:5.19603 4:4.93755 5:0.61444 6:2.74609 7:4.84643 8:0 9:3.97822 10:1.97799 11:1.83707 12:0.97244 13:1 14:1.99747 15:1 
-8 1:0 2:14.40726 3:3.79865 4:2.41149 5:0.60877 6:1.43385 7:1.79043 8:0 9:2.23171 10:1.43109 11:0 12:0 13:0.92994 14:1.41568 15:0.65803 
-8 1:18 2:2.4573 3:5.17278 4:4.95262 5:0.61444 6:2.7285 7:4.84315 8:0 9:3.96071 10:1.97656 11:1.83537 12:0.98819 13:1 14:1.99745 15:0.99745 
-0.161351452800452 1:0 2:1.47149 3:4.09164 4:4.88395 5:0.60105 6:1.44073 7:3.81275 8:0 9:0 10:0.7102 11:0.99252 12:0 13:0.88535 14:0 15:0 
-2.061521383990044 1:3 2:14.18044 3:3.55265 4:4.75886 5:1.80814 6:0.86614 7:2.57246 8:0 9:1.28968 10:0.63669 11:0.75145 12:0 13:0.82166 14:0 15:0 
-3.996319780096457 1:4 2:2.22047 3:4.83306 4:4.09569 5:0 6:1.55445 7:4.58844 8:0 9:2.54676 10:1.52605 11:1.66372 12:0.64567 13:0.93631 14:1.68534 15:0.77949 
-8 1:0 2:9.38945 3:0.73218 4:1.53993 5:0.60526 6:1.43385 7:2.71153 8:0 9:0.92793 10:1.43109 11:0 12:0 13:0 14:0 15:0 
-8 1:3 2:11.54768 3:1.47767 4:3.12884 5:0 6:1.558 7:2.77495 8:0 9:0.97297 10:0.7847 11:0.875 12:0.64173 13:0.93631 14:0 15:0 
-3.227078498047359 1:0 2:19.13387 3:4.83077 4:4.09619 5:0.60105 6:1.55091 7:2.74305 8:0 9:1.56933 10:1.52605 11:2.3729 12:0.64961 13:0.93631 14:1.68536 15:0.78205 
-0.003022946540500156 1:13 2:8.70076 3:0.60265 4:1.21967 5:1.96365 6:2.49471 7:2.56675 8:0 9:0.6789 10:0 11:0.74952 12:0 13:0.81102 14:0 15:0 
-8 1:1 2:17.9755 3:4.8352 4:3.22802 5:0 6:0 7:3.62421 8:0 9:2.54932 10:1.52783 11:2.36757 12:0.64567 13:0.93631 14:1.69045 15:0.78205 
-2.901251647738739 1:15 2:20.52274 3:5.84198 4:6.7569 5:1.96063 6:2.48165 7:3.27768 8:0 9:0.6789 10:1.2518 11:3.38506 12:0 13:0.82803 14:0 15:0 
