svm_type c_svc
kernel_type rbf
gamma 0.125
nr_class 2
total_sv 184
rho -0.560947
label 1 -1
probA -4.41599
probB -0.465856
nr_sv 107 77
SV
0.6651572524336136 1:0 2:0 3:1.86607 4:6.43835 5:1.65922 6:0.68224 7:4.22352 8:1.64541 9:0.88302 10:0.62582 11:0.99707 12:0.97698 13:1.59456 14:0 15:0 
2 1:2 2:0 3:1.88843 4:4.10509 5:0.62025 6:1.45507 7:2.50826 8:0 9:0 10:0.99323 11:1 12:0 13:0.90361 14:0 15:0 
0.07133271150501207 1:0 2:0 3:2.9162 4:5.4576 5:2.07074 6:5.5773 7:3.5756 8:3.2909 9:3.20461 10:1.33709 11:1.73882 12:0.71875 13:0.98171 14:0 15:0 
2 1:0 2:0 3:3.70162 4:6.63368 5:0 6:0.87376 7:2.44233 8:0.61022 9:0 10:0.72542 11:0 12:0 13:0.85366 14:0 15:0 
2 1:1 2:0 3:2.69167 4:4.91089 5:0.62025 6:1.62025 7:2.50826 8:0 9:0 10:0.99154 11:1 12:0 13:0.90361 14:0 15:0 
0.2513983840594707 1:12 2:0 3:2.92081 4:6.47248 5:2.07564 6:5.54873 7:2.67535 8:1.64545 9:3.34075 10:2.86899 11:0.7598 12:0.72365 13:1.60066 14:0 15:0 
2 1:0 2:0 3:3.6201 4:4.5342 5:0.98214 6:4.43323 7:2.40524 8:0 9:0 10:0 11:0.7657 12:0 13:0.90244 14:0 15:0 
2 1:1 2:0 3:0.89256 4:2.36869 5:0 6:1.83482 7:2.50826 8:0 9:0 10:0 11:0.86567 12:0 13:0.90361 14:0 15:0 
0.1743585958975514 1:9 2:0 3:2.92081 4:5.48749 5:0.71591 6:3.22711 7:3.20861 8:1.64545 9:3.31241 10:0.71291 11:1.73589 12:0.71591 13:1.58214 14:0 15:0 
0.7203439694139563 1:0 2:0 3:2.69043 4:4.06965 5:0.62025 6:3.17569 7:0.60465 8:0 9:0.72062 10:1 11:1 12:0 13:0 14:0 15:0 
0.5605076554500857 1:6 2:0 3:1.95537 4:6.41418 5:1.40632 6:3.29258 7:3.57196 8:0 9:1.63492 10:3.46159 11:1.73882 12:0.71307 13:1.59434 14:0 15:0 
2 1:2 2:0 3:2.69167 4:4.91089 5:0 6:1.83482 7:1.90361 8:0 9:0 10:0 11:1 12:0 13:0.90361 14:0 15:0 
0.1153261938942529 1:9 2:0 3:2.9098 4:3.81104 5:1.35625 6:5.57232 7:4.18551 8:0 9:3.20658 10:1.33843 11:1.75516 12:0 13:1.59456 14:0 15:0 
1.584850365684333 1:0 2:0 3:1.79911 4:4.00165 5:0 6:1.71957 7:1.61628 8:0 9:0.72447 10:1.9379 11:0.86589 12:0 13:0 14:0 15:0 
0.1252195886923155 1:0 2:0 3:4.45301 4:8.55343 5:2.92792 6:5.59236 7:3.62989 8:1.53826 9:1.89362 10:1.37478 11:0 12:1.64286 13:1.71569 14:0 15:0 
0.2778520593313533 1:2 2:0 3:1.79911 4:4.00708 5:0 6:2.55544 7:0.90361 8:0 9:0.72062 10:2.98542 11:1 12:0 13:0.90361 14:0 15:0 
0.3107199568681823 1:9 2:0 3:0.96774 4:1.91824 5:1.35937 6:5.52617 7:1.70092 8:1.64545 9:3.31241 10:1.33873 11:0.74215 12:0 13:0.61053 14:0 15:0 
0.2171202026063281 1:0 2:0 3:1.95537 4:7.13572 5:2.79101 6:5.54512 7:4.56767 8:1.64541 9:3.16609 10:2.87298 11:1.72806 12:1.4359 13:2.57605 14:0 15:0 
0.06475979989430052 1:3 2:0 3:4.43132 4:7.44443 5:1.4618 6:4.76773 7:3.58691 8:1.63594 9:3.19549 10:1.34614 11:1.74712 12:0.79202 13:2.21589 14:0 15:0 
0.1267150483424697 1:0 2:0 3:0.70276 4:2.61219 5:0.9949 6:5.19143 7:3.25755 8:1.57763 9:0.74656 10:0 11:1.73473 12:0 13:1.81708 14:0 15:0 
0.4295353382782949 1:3 2:0 3:3.47254 4:5.37885 5:0.68224 6:2.39494 7:2.54395 8:1.64541 9:1.99611 10:0.62908 11:0.99707 12:0 13:0 14:0 15:0 
0.1537043440234058 1:0 2:0 3:4.45301 4:8.55082 5:3.59104 6:5.63708 7:3.62989 8:1.53826 9:1.89362 10:1.37478 11:0.75768 12:1.64286 13:1.71569 14:0 15:0 
0.3474331691464865 1:4 2:0 3:0.96313 4:3.60679 5:2.0767 6:3.08969 7:3.25953 8:0 9:0.86106 10:0.62582 11:0.75639 12:0.72159 13:1.58846 14:0 15:0 
0.143650176404512 1:0 2:0 3:3.56578 4:8.55082 5:3.59104 6:2.8125 7:1.90278 8:1.53826 9:0 10:0.64646 11:0.75768 12:1.64286 13:0.82961 14:0 15:0 
1.992683770281887 1:1 2:0 3:1.89256 4:4.11178 5:0.62025 6:2.45507 7:2.50826 8:0 9:0 10:0 11:1 12:0 13:0.90361 14:0 15:0 
2 1:0 2:0 3:0.79911 4:3.00165 5:0 6:1.82769 7:1.51989 8:0 9:0 10:0.9661 11:0.86589 12:0 13:0.90361 14:0 15:0 
2 1:0 2:0 3:0.89256 4:2.27178 5:0.62025 6:2.45507 7:2.50826 8:0 9:0 10:0.99323 11:1 12:0 13:0.90361 14:0 15:0 
0.1057023479580034 1:3 2:0 3:4.54155 4:7.14184 5:0.62883 6:4.12981 7:3.25682 8:1.5448 9:1.70281 10:1.31913 11:1.70328 12:0 13:1.59907 14:0 15:0 
1.13963208976894 1:0 2:0 3:1.60922 4:2.57922 5:0 6:2.55216 7:2.51989 8:0 9:0.72447 10:1.9379 11:0 12:0 13:0.90361 14:0 15:0 
2 1:0 2:0 3:0.83482 4:3.09073 5:0 6:1.52989 7:1.49789 8:0.61022 9:0.69693 10:0.72542 11:0.96195 12:0 13:0.85366 14:0 15:0 
2 1:4 2:0 3:1 4:2.47004 5:0.62025 6:2.15344 7:1.50826 8:0 9:0.69837 10:1 11:0 12:0 13:0.90361 14:0 15:0 
0.01287812122151022 1:9 2:0 3:2.92081 4:6.47248 5:2.07564 6:5.52222 7:4.17352 8:1.64545 9:3.31424 10:2.86899 11:1.7393 12:0.72365 13:1.60066 14:0 15:0 
0.656192201389679 1:3 2:0 3:0.70276 4:0.875 5:0 6:4.20793 7:0.89634 8:0 9:0.75281 10:0 11:0.76401 12:0 13:0.89634 14:0 15:0 
2 1:0 2:0 3:1.89256 4:3.2712 5:0.62025 6:2.34087 7:1.60465 8:0 9:0.72062 10:1 11:1 12:0 13:0 14:0 15:0 
0.1918061502672196 1:6 2:0 3:1.94667 4:4.55914 5:1.44764 6:3.92582 7:1.63963 8:0 9:3.20081 10:1.96975 11:1.73882 12:0.75439 13:0.61263 14:0 15:0 
0.3535890879613847 1:0 2:0 3:0 4:2.61812 5:2.07812 6:2.35026 7:4.19161 8:0 9:0.76616 10:2.17078 11:0 12:0.71875 13:1.59434 14:0 15:0 
0.06649567532724815 1:3 2:0 3:1.93496 4:3.58653 5:2.07279 6:5.57524 7:4.19069 8:1.64545 9:3.31041 10:1.33219 11:1.75055 12:0.7208 13:1.59035 14:0 15:0 
1.260453789223343 1:0 2:0 3:1.70276 4:2.82968 5:0.9949 6:1.63649 7:1.74436 8:1.5543 9:0 10:0 11:0.76401 12:0 13:0.90854 14:0 15:0 
0.4348322986014629 1:2 2:0 3:4.46548 4:8.33178 5:1.67913 6:2.36018 7:2.86757 8:0 9:0.84363 10:1.34185 11:0.99854 12:1 13:1.59403 14:0 15:0 
0.4736407372708025 1:9 2:0 3:1.9481 4:5.4926 5:2.07564 6:3.16329 7:1.84105 8:1.64545 9:0.87066 10:2.86899 11:0.7598 12:0.72365 13:0 14:0 15:0 
2 1:1 2:0 3:2.69167 4:4.91089 5:0.62025 6:1.62025 7:1 8:0 9:0 10:0.99323 11:1 12:0 13:0 14:0 15:0 
0.0149054013883828 1:4 2:0 3:2.92311 4:6.41727 5:0.71875 6:3.23457 7:4.18124 8:1.6391 9:3.32157 10:2.87879 11:1.74369 12:0.71875 13:1.59645 14:0 15:0 
2 1:0 2:0 3:0.99588 4:3.77586 5:0.90206 6:0.88202 7:1.86766 8:0 9:0 10:0 11:1.7315 12:0.90206 13:1.59056 14:0 15:0 
0.2163052493598573 1:4 2:0 3:4.46548 4:6.3969 5:1.67913 6:2.39508 7:3.47222 8:1.64541 9:0.84363 10:0.7193 11:0.99854 12:1 13:1.59403 14:0 15:0 
0.07302883626672302 1:0 2:0 3:2.69167 4:4.90288 5:0 6:2.55216 7:2.51989 8:0 9:0.72447 10:1.9379 11:0.86589 12:0 13:0.90361 14:0 15:0 
0.05259924095800977 1:0 2:0 3:2.60531 4:4.50676 5:1.65867 6:3.0124 7:3.47229 8:0 9:0.62667 10:0.62582 11:0 12:0.97954 13:0.97561 14:0 15:0 
0.08611083842099472 1:6 2:0 3:2.9185 4:5.50162 5:2.075 6:4.00443 7:4.18551 8:0 9:1.63869 10:1.33843 11:0.99707 12:0.71875 13:1.59456 14:0 15:0 
1.464423814309382 1:0 2:0 3:2.91072 4:2.8831 5:0 6:1.81281 7:1.5028 8:1.5543 9:0 10:0 11:0.76401 12:0 13:0 14:0 15:0 
2 1:1 2:0 3:1.79911 4:4.00966 5:0.62025 6:1.45507 7:0.90361 8:0 9:0 10:0 11:1 12:0 13:0.90361 14:0 15:0 
0.2915403984793872 1:9 2:0 3:2.92311 4:3.51265 5:2.07528 6:3.16724 7:1.65463 8:1.64545 9:1.74452 10:1.33873 11:0.74215 12:0.71591 13:0.61053 14:0 15:0 
2 1:0 2:0 3:1.69167 4:3.28085 5:0.62025 6:2.45507 7:2.50826 8:0 9:0 10:0.99323 11:1 12:0 13:0.90361 14:0 15:0 
2 1:0 2:0 3:1.89256 4:4.1092 5:0.62025 6:3.17569 7:2.50826 8:0 9:0.72062 10:1 11:0 12:0 13:0.90361 14:0 15:0 
0.0005292840756318981 1:6 2:0 3:2.91631 4:5.50162 5:2.075 6:5.57232 7:4.18551 8:0 9:3.20658 10:1.33843 11:0.99707 12:0.71875 13:1.59456 14:0 15:0 
2 1:0 2:0 3:3.86161 4:4.78268 5:0 6:2.49764 7:0.99388 8:0 9:0 10:0 11:1.74052 12:0 13:0 14:0 15:0 
2 1:0 2:0 3:2.69167 4:4.90288 5:0 6:2.55216 7:2.51989 8:0 9:0.72447 10:1.9379 11:0.86589 12:0 13:0.90361 14:0 15:0 
2 1:0 2:0 3:3.59495 4:6.18841 5:0.6314 6:1.85608 7:0.89352 8:0 9:0 10:0.64755 11:0 12:0.6314 13:0 14:0 15:0 
2 1:0 2:0 3:2.7157 4:5.64776 5:0 6:2.40365 7:1.7981 8:0.61022 9:0.69693 10:0.72542 11:0.96195 12:0 13:0.85366 14:0 15:0 
0.3112871551683126 1:0 2:0 3:0.70276 4:1.73848 5:0.9949 6:4.38118 7:1.44047 8:1.5543 9:0.74912 10:0 11:0.76401 12:0 13:0 14:0 15:0 
2 1:1 2:0 3:1.69167 4:3.91089 5:0.62025 6:0.62025 7:1.60465 8:0 9:0 10:0.99154 11:1 12:0 13:0 14:0 15:0 
1.634097104052141 1:0 2:0 3:3.48203 4:5.70125 5:0 6:3.39532 7:1.90361 8:0 9:0.72062 10:1.99323 11:1 12:0 13:0.90361 14:0 15:0 
0.1065859972611136 1:0 2:0 3:0.87324 4:4.1076 5:0.72393 6:3.09682 7:1.65474 8:0 9:0.81871 10:1.42733 11:0.75041 12:0 13:0 14:0 15:0 
0.3703557732860558 1:6 2:0 3:3.61845 4:4.57033 5:1 6:3.44972 7:3.24106 8:0 9:0 10:0 11:1.7318 12:0 13:0.90244 14:0 15:0 
0.07137732940469738 1:0 2:0 3:2.92311 4:3.51469 5:2.07306 6:6.19922 7:3.58596 8:1.64541 9:3.82019 10:1.33455 11:1.72806 12:0.71795 13:1.59434 14:0 15:0 
1.407966810280291 1:0 2:0 3:3.59991 4:5.99809 5:0 6:3.43202 7:0.7963 8:0 9:1.66967 10:0.74219 11:0.75085 12:0 13:0 14:0 15:0 
0.3659008687649453 1:0 2:0 3:3.89082 4:8.26957 5:2.06932 6:7.15643 7:4.18852 8:1.64545 9:5.77226 10:2.88369 11:2.71709 12:0.71307 13:1.60066 14:0 15:0 
0.9515878904602572 1:3 2:0 3:1.93727 4:0.97183 5:0 6:1.79374 7:1.36113 8:1.64545 9:0.87203 10:0.63235 11:0.98243 12:0 13:0.61474 14:0 15:0 
0.05003356265136721 1:0 2:0 3:1.95537 4:6.40484 5:2.0742 6:6.36731 7:3.57623 8:1.64545 9:4.04212 10:3.66068 11:1.73456 12:0.71795 13:1.59035 14:0 15:0 
0.08006084075188059 1:3 2:0 3:1.86161 4:6.7881 5:1.67193 6:2.3107 7:2.62141 8:1.64541 9:0 10:0.62908 11:1.75516 12:0.98969 13:0.97561 14:0 15:0 
2 1:0 2:0 3:1.69167 4:3.29044 5:0 6:2.55544 7:1.90361 8:0 9:0.72062 10:1 11:0.99847 12:0 13:0.90361 14:0 15:0 
0.002852758520984816 1:3 2:0 3:0.97183 4:4.56252 5:1.40632 6:3.1298 7:1.93233 8:0 9:2.43655 10:2.25134 11:0.98243 12:0.71307 13:0.98171 14:0 15:0 
0.1013387856645383 1:0 2:0 3:4.47254 4:7.37066 5:1.66882 6:3.17652 7:2.49668 8:1.64541 9:0 10:0.62582 11:1.74931 12:0.98969 13:0 14:0 15:0 
1.57679804040657 1:0 2:0 3:0.79911 4:1.53962 5:0 6:1.55706 7:1.51989 8:0 9:0.72447 10:1.9379 11:0.86589 12:0 13:0.90361 14:0 15:0 
0.08257361177790822 1:3 2:0 3:1.95537 4:5.51396 5:0.7208 6:2.50482 7:3.58233 8:1.6423 9:2.4474 10:1.53843 11:0.98243 12:0.7208 13:1.60066 14:0 15:0 
2 1:1 2:0 3:2.69167 4:4.91089 5:0.62025 6:2.45507 7:2.50826 8:0 9:0 10:0 11:1 12:0 13:0.90361 14:0 15:0 
2 1:1 2:0 3:1 4:3.21055 5:0.62025 6:1.45507 7:1.50826 8:0 9:0 10:0.99323 11:1 12:0 13:0.90361 14:0 15:0 
0.1340326339085462 1:12 2:0 3:1.95537 4:4.48749 5:2.07102 6:4.78683 7:3.55458 8:1.64545 9:3.31241 10:1.34036 11:0.9795 12:0.71591 13:1.58214 14:0 15:0 
0.08027277965189009 1:3 2:0 3:2.9185 4:4.7024 5:0.69325 6:3.29258 7:3.57196 8:1.64545 9:0.87066 10:2.8791 11:1.73882 12:0 13:1.59434 14:0 15:0 
0.1335141492052424 1:6 2:0 3:2.9185 4:6.41418 5:2.06164 6:5.51379 7:3.57196 8:1.64545 9:3.20081 10:3.50818 11:1.73882 12:0.71307 13:1.59434 14:0 15:0 
0.8500517873327342 1:0 2:0 3:4.46807 4:6.73178 5:1.66367 6:2.3974 7:4.45966 8:0 9:0 10:0.62582 11:0.98975 12:0.98454 13:0.9939 14:0 15:0 
0.3694890564677334 1:0 2:0 3:3.62407 4:4.55412 5:0.98469 6:2.80514 7:3.25015 8:0 9:0 10:0 11:1.73642 12:0 13:0.90854 14:0 15:0 
0.2377302827203026 1:9 2:0 3:2.92081 4:2.61487 5:2.77507 6:5.40878 7:4.15923 8:1.64545 9:2.44175 10:0 11:0 12:0.71591 13:1.58214 14:0 15:0 
0.380528084137041 1:0 2:0 3:5.59495 4:7.93619 5:0.62457 6:1.83429 7:4.04962 8:1.56012 9:0.98069 10:0.71484 11:1.74273 12:0.62457 13:1.88836 14:0 15:0 
1.496322314065161 1:3 2:0 3:3.6201 4:4.54285 5:0 6:3.21236 7:2.63628 8:0 9:0.75281 10:0 11:1.7318 12:0 13:0.89634 14:0 15:0 
0.3492040643180473 1:0 2:0 3:1.95537 4:4.49867 5:2.07279 6:8.19754 7:4.19069 8:1.64545 9:5.13918 10:2.88794 11:0.98243 12:0.7208 13:1.59035 14:0 15:0 
2 1:0 2:0 3:2.69613 4:4.90863 5:0.6227 6:1.34524 7:2.51989 8:0 9:0.72254 10:1.94285 11:0.86755 12:0 13:0.90361 14:0 15:0 
2 1:1 2:0 3:1.89256 4:2.74323 5:0.62025 6:2.46311 7:2.50826 8:0 9:0 10:0.99323 11:0 12:0 13:0.90361 14:0 15:0 
0.5065490742167392 1:6 2:0 3:0.97183 4:3.79285 5:0.69325 6:3.1298 7:1.72782 8:1.64545 9:3.20081 10:1.34199 11:0 12:0 13:1.59434 14:0 15:0 
1.137460646820597 1:2 2:0 3:2.69074 4:3.33555 5:0 6:2.55544 7:1.90361 8:0 9:0.72062 10:1.99219 11:1 12:0 13:0.90361 14:0 15:0 
0.1180362291378001 1:6 2:0 3:3.61845 4:2.71188 5:1 6:3.20393 7:2.40524 8:1.55433 9:0.75421 10:0 11:0.76401 12:0 13:0.90244 14:0 15:0 
0.2679694381200923 1:12 2:0 3:2.92081 4:6.47248 5:1.42458 6:3.05986 7:4.17352 8:1.64545 9:2.44358 10:2.15608 11:1.7393 12:0.72365 13:1.60066 14:0 15:0 
0.8239030373438295 1:0 2:0 3:0.87324 4:5.41243 5:1.37276 6:3.17774 7:1.82751 8:0 9:0.77531 10:0.68803 11:0.75041 12:0.64883 13:0.94479 14:0 15:0 
2 1:1 2:0 3:1.89256 4:3.27178 5:0 6:1 7:0.60465 8:0 9:0 10:1.9908 11:0 12:0 13:0 14:0 15:0 
0.5208941811418994 1:9 2:0 3:1.94898 4:3.61788 5:2.07102 6:3.13684 7:2.44879 8:1.64545 9:0 10:0.62745 11:1.73589 12:0.71591 13:0 14:0 15:0 
0.1328803284368162 1:9 2:0 3:2.92081 4:5.74883 5:1.35199 6:5.52222 7:3.28 8:0 9:3.31424 10:2.86899 11:1.7393 12:0 13:1.60066 14:0 15:0 
0.1477481013081371 1:9 2:0 3:2.92081 4:6.47248 5:0.72365 6:3.2164 7:4.17352 8:1.64545 9:3.30105 10:2.24715 11:1.7393 12:0.72365 13:1.60066 14:0 15:0 
2 1:0 2:0 3:2.69167 4:4.90288 5:0 6:2.55216 7:2.51989 8:0 9:0.72447 10:1.9379 11:0.86589 12:0 13:0.90361 14:0 15:0 
0.1082975753116165 1:1 2:0 3:2.69167 4:4.91089 5:0 6:2.55544 7:1.90361 8:0 9:0.72062 10:1 11:1 12:0 13:0.90361 14:0 15:0 
1.20271540412745 1:3 2:0 3:2.59545 4:3.56125 5:0.63497 6:4.13882 7:1.76717 8:0 9:1.70548 10:1.37069 11:0.72671 12:0 13:0.85976 14:0 15:0 
2 1:4 2:0 3:1.69167 4:2.54034 5:0 6:1 7:1.90361 8:0 9:0 10:0 11:0 12:0 13:0.90361 14:0 15:0 
2 1:0 2:0 3:1.72978 4:4.66184 5:0 6:2.40365 7:1.7981 8:0.61022 9:0.69693 10:0.72542 11:0.96195 12:0 13:0.85366 14:0 15:0 
0.5585735378903718 1:3 2:0 3:2.93891 4:6.34483 5:0.72159 6:1.66668 7:4.47165 8:0 9:1.63492 10:3.50982 11:0.98243 12:0.72159 13:1.60066 14:0 15:0 
0.8357743705876466 1:6 2:0 3:2.91569 4:4.54285 5:0 6:4.21243 7:2.63641 8:0 9:0.75421 10:0 11:1.7318 12:0 13:0.90244 14:0 15:0 
0.03548864595914453 1:3 2:0 3:3.54155 4:6.64977 5:0.62698 6:3.50098 7:2.51589 8:1.5448 9:1.70281 10:1.31913 11:0.97657 12:0.62698 13:1.59907 14:0 15:0 
0.08840142657578177 1:9 2:0 3:1.95537 4:5.48749 5:1.41996 6:3.35644 7:4.15923 8:1.64545 9:1.74452 10:1.34036 11:1.73589 12:0.71591 13:1.58214 14:0 15:0 
0.5753467627718208 1:6 2:0 3:3.61845 4:4.54156 5:0 6:3.20393 7:2.63641 8:1.55433 9:0.75421 10:0 11:1.7318 12:0 13:0.90244 14:0 15:0 
1.105451727074923 1:0 2:0 3:1.93727 4:2.85481 5:1.36362 6:3.0898 7:1.84259 8:0 9:0 10:0.62908 11:1.71501 12:0 13:0 14:0 15:0 
2 1:0 2:0 3:2.69613 4:4.90863 5:0.6227 6:3.17293 7:1.61628 8:0 9:0.72254 10:0.96992 11:0.86755 12:0 13:0 14:0 15:0 
-2 1:0 2:0 3:2.69131 4:3.35551 5:0 6:2.43417 7:1.57461 8:0 9:0.73512 10:0.81594 11:0.89922 12:0 13:0 14:0 15:0 
-0.7087421139388832 1:3 2:0 3:1.80288 4:3.21469 5:0 6:1.59898 7:0.88415 8:0 9:0.73512 10:1.54814 11:0.89922 12:0 13:0.88415 14:0 15:0 
-2 1:0 2:0 3:2.69131 4:5.59212 5:0 6:2.43417 7:1.84248 8:0 9:0.73512 10:1.54814 11:0.89922 12:0 13:0.88415 14:0 15:0 
-1.28488129154529 1:9 2:0 3:2.69131 4:5.61379 5:0 6:2.43417 7:2.45876 8:0 9:0.73512 10:1.54814 11:0.89922 12:0 13:0.88415 14:0 15:0 
-1.092691006683677 1:6 2:0 3:0 4:2.91424 5:0 6:0.86386 7:1.50043 8:0 9:0 10:0.7322 11:0 12:0 13:0.88415 14:0 15:0 
-2 1:0 2:0 3:2.69131 4:4.91449 5:0 6:1.60803 7:0.95833 8:0.60385 9:0.73512 10:0.81594 11:0.89922 12:0 13:0 14:0 15:0 
-2 1:0 2:0 3:0.98592 4:4.43069 5:1 6:0.81696 7:1.47487 8:0 9:0 10:0.6176 11:1.43396 12:0 13:0.84906 14:0 15:0 
-0.2578210066737572 1:0 2:0 3:0 4:2.81977 5:0 6:0 7:1.45371 8:0 9:0 10:0.6176 11:0.71698 12:0 13:0.84906 14:0 15:0 
-1.694296412060301 1:0 2:0 3:1.52664 4:2.91544 5:0 6:1.58674 7:1.44694 8:0 9:0 10:0.62963 11:0.70934 12:0 13:0.82911 14:0 15:0 
-1.131790289219999 1:0 2:0 3:3.51305 4:5.02638 5:0 6:1.58674 7:1.70874 8:0 9:0 10:0.62963 11:0.69514 12:0 13:0.82911 14:0 15:0 
-0.4810554181193875 1:0 2:0 3:0.80804 4:3.6996 5:0 6:3.5755 7:2.35279 8:0 9:0 10:0.61824 11:0.70854 12:0 13:0.8239 14:0 15:0 
-2 1:1 2:0 3:1.79396 4:4.68552 5:0 6:0 7:2.35279 8:0 9:0 10:0.61824 11:0.70854 12:0 13:0.8239 14:0 15:0 
-1.525027109622812 1:0 2:0 3:1.87069 4:3.30803 5:1 6:0.79803 7:0.60465 8:0 9:0 10:0.6176 11:0.71698 12:0 13:0 14:0 15:0 
-1.276302532581771 1:3 2:0 3:2.69131 4:4.08969 5:0 6:1.59898 7:2.45876 8:0 9:0.73512 10:0.81594 11:0.89922 12:0 13:0.88415 14:0 15:0 
-2 1:0 2:0 3:1.68735 4:1.66759 5:0 6:2.77104 7:1.71279 8:0 9:0 10:1.23704 11:0 12:0 13:0.8239 14:0 15:0 
-1.910794110628975 1:0 2:0 3:2.67462 4:3.95066 5:0 6:2.78485 7:1.70833 8:0 9:0 10:0.61824 11:0.70854 12:0 13:0.81944 14:0 15:0 
-0.2917419640111444 1:3 2:0 3:2.67462 4:5.55597 5:0 6:3.5755 7:1.71279 8:0 9:0 10:0.61824 11:0.70854 12:0 13:0.8239 14:0 15:0 
-2 1:3 2:0 3:1.70539 4:3.10377 5:0 6:2.43417 7:2.45876 8:0 9:0.73512 10:1.54814 11:0.89922 12:0 13:0.88415 14:0 15:0 
-0.6456439971802749 1:0 2:0 3:3.51305 4:5.02638 5:0 6:1.58674 7:2.32657 8:0 9:0 10:1.25926 11:0 12:0 13:0.82911 14:0 15:0 
-2 1:0 2:0 3:2.75546 4:5.57523 5:1 6:1.61499 7:3.86656 8:0 9:0 10:0.62697 11:0.71698 12:0 13:0.84906 14:0 15:0 
-0.0154358844966393 1:0 2:0 3:3.51305 4:7.15592 5:0 6:0.79703 7:2.32657 8:0 9:0 10:0 11:0 12:0 13:0.82911 14:0 15:0 
-1.697658469518061 1:3 2:0 3:0.88843 4:3.11271 5:0 6:0.86386 7:2.45876 8:0 9:0 10:0 11:0 12:0 13:0.88415 14:0 15:0 
-0.0674471813799639 1:0 2:0 3:3.51305 4:6.46965 5:0 6:0 7:2.32657 8:0 9:0 10:0.62963 11:0 12:0 13:0.82911 14:0 15:0 
-0.9204833491238531 1:0 2:0 3:3.51305 4:6.34563 5:0 6:0.79703 7:0 8:0 9:0 10:0.62963 11:0 12:0 13:0 14:0 15:0 
-0.9503935455616287 1:0 2:0 3:0.98592 4:3.80569 5:1 6:1.55109 7:0 8:0 9:0 10:0.6176 11:0.71698 12:0 13:0 14:0 15:0 
-0.2449838357731459 1:0 2:0 3:0.98592 4:1.77947 5:0 6:3.5755 7:0.8239 8:0 9:0 10:0 11:0.71821 12:0 13:0.8239 14:0 15:0 
-0.4300413721425652 1:0 2:0 3:0.98592 4:1.67579 5:1 6:1.61499 7:0.62581 8:0 9:0 10:0.6176 11:0.71698 12:0 13:0 14:0 15:0 
-0.760142999452142 1:3 2:0 3:2.69131 4:5.59212 5:0 6:2.43417 7:3.43748 8:0 9:0.73512 10:1.54814 11:0.89922 12:0 13:0.88415 14:0 15:0 
-1.24791944604995 1:3 2:0 3:1.80288 4:3.21469 5:0 6:2.43417 7:0.88415 8:0 9:0.73512 10:1.54814 11:0 12:0 13:0.88415 14:0 15:0 
-1.405971599224859 1:2 2:0 3:0 4:2.81977 5:0 6:0 7:0 8:0 9:0 10:0.6176 11:0.71698 12:0 13:0 14:0 15:0 
-2 1:0 2:0 3:0.80804 4:2.28513 5:0 6:1.98039 7:2.35279 8:0 9:0 10:0.61824 11:0.70854 12:0 13:0.8239 14:0 15:0 
-0.3393988098345876 1:3 2:0 3:2.69131 4:4.91449 5:0 6:2.43417 7:2.45876 8:0 9:0.73512 10:0.81594 11:0.89922 12:0 13:0.88415 14:0 15:0 
-1.154760743730582 1:0 2:0 3:5.23731 4:6.73489 5:0 6:1.58674 7:1.49746 8:0 9:0 10:0.62963 11:0 12:0 13:0 14:0 15:0 
-2 1:3 2:0 3:2.69131 4:4.18031 5:0 6:2.43463 7:2.46774 8:0 9:0.73512 10:0.81594 11:0.89922 12:0 13:0.89313 14:0 15:0 
-1.480164804656644 1:0 2:0 3:0 4:1.47709 5:0 6:1.59511 7:1.4639 8:0 9:0 10:0.61824 11:0.70854 12:0 13:0.8239 14:0 15:0 
-2 1:3 2:0 3:2.69131 4:5.59212 5:0 6:1.69905 7:1.57461 8:0 9:0 10:0 11:0.89922 12:0 13:0 14:0 15:0 
-1.708911834006093 1:0 2:0 3:3.66054 4:6.54189 5:0 6:2.77104 7:1.52889 8:0 9:0 10:0.61824 11:1.41297 12:0 13:0 14:0 15:0 
-1.441973003037478 1:0 2:0 3:1.87069 4:4.00059 5:1 6:1.61499 7:1.51933 8:0 9:0 10:0.6176 11:0.71698 12:0 13:0 14:0 15:0 
-2 1:0 2:0 3:2.69131 4:5.61105 5:0 6:1.59898 7:1.57461 8:0 9:0.73512 10:1.54814 11:0.89922 12:0 13:0 14:0 15:0 
-2 1:0 2:0 3:1.6887 4:4.57005 5:0 6:3.52695 7:2.35279 8:0 9:0 10:0.61824 11:1.32482 12:0 13:0.8239 14:0 15:0 
-1.794463815972088 1:3 2:0 3:1.72807 4:3.09979 5:0 6:2.43417 7:1.84248 8:0 9:0.73512 10:1.54814 11:0.89922 12:0 13:0.88415 14:0 15:0 
-2 1:0 2:0 3:2.69131 4:4.87116 5:0 6:2.43417 7:2.45876 8:0 9:0.73512 10:0.81594 11:0.89922 12:0 13:0.88415 14:0 15:0 
-2 1:0 2:0 3:1.87069 4:3.25312 5:1 6:1.61499 7:2.36839 8:0 9:0 10:0.6176 11:0.71698 12:0 13:0.84906 14:0 15:0 
-0.2745278220682243 1:9 2:0 3:1.87435 4:3.92891 5:0 6:0.83519 7:1.57461 8:0 9:0 10:0.7322 11:0 12:0 13:0 14:0 15:0 
-2 1:0 2:0 3:1.79396 4:4.68552 5:0 6:2.79065 7:1.4639 8:0 9:0 10:1.23648 11:0.70854 12:0 13:0.8239 14:0 15:0 
-2 1:0 2:0 3:2.67462 4:3.34795 5:0 6:3.5755 7:2.35279 8:0 9:0 10:0.61824 11:0.70854 12:0 13:0.8239 14:0 15:0 
-1.964845123876482 1:0 2:0 3:0.98592 4:2.46301 5:0 6:2.78485 7:1.71279 8:0 9:0 10:0.61824 11:0.70854 12:0 13:0.8239 14:0 15:0 
-0.6256571133154014 1:6 2:0 3:3.31939 4:4.06824 5:0 6:2.43417 7:0 8:0 9:0.73512 10:0.81594 11:0.89922 12:0 13:0 14:0 15:0 
-0.4191936038048507 1:0 2:0 3:3.66054 4:6.54189 5:0 6:3.5755 7:2.35279 8:0 9:0 10:0 11:0 12:0 13:0.8239 14:0 15:0 
-0.4497410716908239 1:3 2:0 3:3.35088 4:4.85794 5:0 6:1.57031 7:2.45876 8:0 9:0.73512 10:1.54814 11:0.89922 12:0 13:0.88415 14:0 15:0 
-0.05403822462126737 1:6 2:0 3:2.69131 4:5.59212 5:0 6:2.43417 7:2.45876 8:0 9:0.73512 10:1.54814 11:1.79844 12:0 13:0.88415 14:0 15:0 
-1.37915754374444 1:3 2:0 3:3.55528 4:6.42642 5:0 6:3.5755 7:2.35279 8:0 9:0 10:0.61824 11:0.70854 12:0 13:0.8239 14:0 15:0 
-2 1:0 2:0 3:1.87069 4:3.9979 5:1 6:2.43195 7:2.97304 8:0 9:0 10:0.6176 11:0.71698 12:0 13:0.84906 14:0 15:0 
-2 1:0 2:0 3:2.69131 4:5.59212 5:0 6:1.59898 7:2.45876 8:0 9:0.73512 10:1.54814 11:0.89922 12:0 13:0.88415 14:0 15:0 
-0.3916207143999572 1:6 2:0 3:2.69131 4:3.33406 5:0 6:2.43417 7:2.45876 8:0 9:0.73512 10:0.81594 11:0 12:0 13:0.88415 14:0 15:0 
-0.8394244502861544 1:0 2:0 3:3.51673 4:6.36847 5:0 6:3.5755 7:2.35279 8:0 9:0 10:0.61824 11:0.70854 12:0 13:0.8239 14:0 15:0 
-0.1015888369320125 1:0 2:0 3:0.98592 4:3.06572 5:0 6:2.78485 7:1.71279 8:0 9:0 10:0.61824 11:0.70854 12:0 13:0.8239 14:0 15:0 
-0.9593328414709226 1:0 2:0 3:2.67462 4:5.55597 5:0 6:4.75143 7:2.35279 8:0 9:0 10:0.61824 11:0.70854 12:0 13:0.8239 14:0 15:0 
-2 1:0 2:0 3:2.67462 4:4.95326 5:0 6:3.5755 7:0 8:0 9:0 10:0.61824 11:0.70854 12:0 13:0 14:0 15:0 
-2 1:0 2:0 3:1.70539 4:4.6062 5:0 6:2.43417 7:2.19089 8:0 9:0.73512 10:1.54814 11:0.89922 12:0 13:0 14:0 15:0 
-2 1:0 2:0 3:1.87069 4:2.56325 5:1 6:1.61499 7:2.36839 8:0 9:0 10:0.6176 11:0.71698 12:0 13:0.84906 14:0 15:0 
-2 1:0 2:0 3:0.88477 4:3.01467 5:1 6:1.61499 7:2.36839 8:0 9:0 10:1.30496 11:0.71698 12:0 13:0.84906 14:0 15:0 
-1.139707577809467 1:0 2:0 3:1.87069 4:4.00059 5:1 6:1.61499 7:2.36839 8:0 9:0 10:0.6176 11:0.71698 12:0 13:0.84906 14:0 15:0 
-1.310813859280175 1:0 2:0 3:5.2518 4:8.25971 5:0 6:1.58674 7:2.32657 8:0 9:0 10:0.62963 11:0.69514 12:0 13:0.82911 14:0 15:0 
-1.196496112068717 1:9 2:0 3:1.80288 4:2.53706 5:0 6:2.43417 7:0.95833 8:0 9:0.73512 10:0.81594 11:0.89922 12:0 13:0 14:0 15:0 
-0.07351156783752673 1:3 2:0 3:2.72288 4:5.62003 5:0 6:2.43417 7:0.88415 8:0 9:0.73512 10:1.54814 11:0.89922 12:0 13:0.88415 14:0 15:0 
-0.3763420358687817 1:3 2:0 3:0.88477 4:3.70454 5:0 6:1.61499 7:1.47487 8:0 9:0 10:0.6176 11:0.71698 12:0 13:0.84906 14:0 15:0 
-1.195966322422733 1:3 2:0 3:1.80288 4:3.21469 5:0 6:2.43417 7:0.61628 8:0 9:0.73512 10:1.54814 11:0.89922 12:0 13:0 14:0 15:0 
-0.8757698817611326 1:6 2:0 3:2.69131 4:5.59542 5:0 6:2.43417 7:3.34291 8:0 9:0.73512 10:1.54814 11:0.89922 12:0 13:1.7683 14:0 15:0 
-1.18386909101209 1:0 2:0 3:2.67462 4:4.1415 5:0 6:4.33821 7:2.35279 8:0 9:0 10:0.61824 11:0.70854 12:0 13:0.8239 14:0 15:0 
-0.8110695313870289 1:0 2:0 3:2.67462 4:3.45796 5:0 6:2.59511 7:2.35279 8:0 9:0 10:0.61824 11:0.70854 12:0 13:0.8239 14:0 15:0 
-1.613505146538896 1:0 2:0 3:1.87069 4:4.69046 5:1 6:1.59606 7:1.45371 8:0 9:0 10:0 11:0.71698 12:0 13:0.84906 14:0 15:0 
-0.3442181564566119 1:0 2:0 3:2.67462 4:3.45796 5:0 6:3.5755 7:2.35279 8:0 9:0 10:0.61824 11:0.70854 12:0 13:0.8239 14:0 15:0 
-1.723348415357383 1:0 2:0 3:0.88477 4:3.01467 5:1 6:1.61499 7:2.36839 8:0 9:0 10:0.6176 11:0.71698 12:0 13:0.84906 14:0 15:0 
-0.9296274070670943 1:0 2:0 3:2.75546 4:5.57523 5:1 6:1.61499 7:2.97304 8:0 9:0 10:0.6176 11:0.71698 12:0 13:0.84906 14:0 15:0 
-0.342475914233476 1:9 2:0 3:2.69131 4:4.74587 5:0 6:0.86386 7:2.45876 8:0 9:0 10:0.7322 11:0.89922 12:0 13:0.88415 14:0 15:0 
-2 1:3 2:0 3:0.98592 4:1.61092 5:0 6:0.81696 7:2.07952 8:0 9:0 10:0.6176 11:0.71698 12:0 13:0.84906 14:0 15:0 
