svm_type c_svc
kernel_type rbf
gamma 2
nr_class 2
total_sv 525
rho 0.850359
label 1 -1
probA -3.10988
probB 0.0732515
nr_sv 78 447
SV
0.8036537742701177 1:0 2:0 3:0 4:2.5169 5:0 6:0.98276 7:0 8:0 9:0 10:0 11:0 12:0 13:0 14:0 15:0 
5.727717979741332 1:0 2:0 3:1.43346 4:3.19838 5:0 6:1.82419 7:0 8:0 9:1.38515 10:0 11:0 12:0 13:0 14:0 15:0 
0.1235527886115734 1:0 2:0 3:0.75198 4:0.7973 5:0 6:0.84143 7:0 8:0 9:1.39853 10:0 11:0 12:0 13:0 14:0 15:0 
0.5015086818236194 1:0 2:0 3:0 4:1.7196 5:0 6:1.82419 7:0 8:0 9:0 10:0 11:0 12:0 13:0 14:0 15:0 
1.251246994835244 1:0 2:0 3:1.43346 4:1.47878 5:0 6:2.80695 7:0 8:0 9:1.39853 10:0 11:0 12:0 13:0 14:0 15:0 
1.315470410429664 1:0 2:0 3:0.75198 4:2.5169 5:0 6:1.82419 7:0 8:0 9:2.04508 10:0 11:0 12:0 13:0 14:0 15:0 
7.42974710318694 1:0 2:0 3:1.43346 4:2.29297 5:0 6:0.98276 7:0 8:0 9:1.39853 10:0 11:0 12:0 13:0 14:0 15:0 
2.044256453976705 1:0 2:0 3:0.75198 4:1.7196 5:0 6:0.84143 7:0 8:0 9:1.39853 10:0 11:0 12:0 13:0 14:0 15:0 
1.694140245071351 1:3 2:0 3:0.75198 4:1.7196 5:0 6:1.82419 7:0 8:0 9:1.39853 10:0 11:0 12:0 13:0 14:0 15:0 
1.183901311984459 1:0 2:0 3:0 4:2.5189 5:0 6:1.82419 7:0 8:0 9:0.64655 10:0 11:0 12:0 13:0 14:0 15:0 
1.724774070872912 1:0 2:0 3:0.75198 4:3.4392 5:0 6:1.82419 7:0 8:0 9:1.39853 10:0 11:0 12:0 13:0 14:0 15:0 
0.2283949029007638 1:0 2:0 3:0.68148 4:0.68148 5:0 6:1.68286 7:0 8:0 9:0.64655 10:0 11:0 12:0 13:0 14:0 15:0 
5.344896284089928 1:0 2:0 3:0.75198 4:1.7196 5:0 6:0 7:0 8:0 9:0.75198 10:0 11:0 12:0 13:0 14:0 15:0 
3.360986157043717 1:0 2:0 3:2.11494 4:3.87986 5:0 6:1.82419 7:0 8:0 9:1.39853 10:0 11:0 12:0 13:0 14:0 15:0 
1.453013146144089 1:0 2:0 3:0.68148 4:2.40108 5:0 6:0 7:0 8:0 9:0 10:0 11:0 12:0 13:0 14:0 15:0 
0.6705216289918101 1:0 2:0 3:0.75198 4:0.7973 5:0 6:0 7:0 8:0 9:1.39853 10:0 11:0 12:0 13:0 14:0 15:0 
3.639286490731668 1:0 2:0 3:1.43346 4:2.29297 5:0 6:1.82419 7:0 8:0 9:2.0243 10:0 11:0 12:0 13:0 14:0 15:0 
2.636259344063679 1:0 2:0 3:0 4:1.7196 5:0 6:0.98276 7:0 8:0 9:0.64655 10:0 11:0 12:0 13:0 14:0 15:0 
11.95515367200284 1:0 2:0 3:0.68148 4:1.47878 5:0 6:0.98276 7:0 8:0 9:0 10:0 11:0 12:0 13:0 14:0 15:0 
2.141202794326735 1:3 2:0 3:1.43346 4:1.47878 5:0 6:0.84143 7:0 8:0 9:0.75198 10:0 11:0 12:0 13:0 14:0 15:0 
3.277358699781083 1:0 2:0 3:0.68148 4:0.68148 5:0 6:0 7:0 8:0 9:0.64655 10:0 11:0 12:0 13:0 14:0 15:0 
44.18348885575245 1:0 2:0 3:0.68148 4:1.47878 5:0 6:0.84143 7:0 8:0 9:0.64655 10:0 11:0 12:0 13:0 14:0 15:0 
0.6694985448586943 1:0 2:0 3:1.43346 4:3.19838 5:0 6:2.80695 7:0 8:0 9:1.39853 10:0 11:0 12:0 13:0 14:0 15:0 
26.7759393233096 1:0 2:0 3:1.43346 4:2.40108 5:0 6:0.84143 7:0 8:0 9:0.75198 10:0 11:0 12:0 13:0 14:0 15:0 
0.7248504948040535 1:0 2:0 3:0.75198 4:2.5169 5:0 6:0 7:0 8:0 9:1.39853 10:0 11:0 12:0 13:0 14:0 15:0 
4.025090914423668 1:0 2:0 3:1.43346 4:1.49567 5:0 6:1.82419 7:0 8:0 9:0.75198 10:0 11:0 12:0 13:0 14:0 15:0 
1.342664102361936 1:0 2:0 3:2.18544 4:3.19838 5:0 6:1.82419 7:0 8:0 9:2.15051 10:0 11:0 12:0 13:0 14:0 15:0 
5.681303995293312 1:0 2:0 3:1.43452 4:3.19944 5:0 6:0.98276 7:0 8:0 9:0.75198 10:0 11:0 12:0 13:0 14:0 15:0 
1.849013365990869 1:0 2:0 3:1.43346 4:4.91798 5:0 6:1.82419 7:0 8:0 9:1.39853 10:0 11:0 12:0 13:0 14:0 15:0 
2.69474857468644 1:0 2:0 3:0.68148 4:2.29297 5:0 6:1.82419 7:0 8:0 9:0.64655 10:0 11:0 12:0 13:0 14:0 15:0 
0.6760984404867517 1:0 2:0 3:1.43346 4:0.68148 5:0 6:0.84143 7:0 8:0 9:1.39853 10:0 11:0 12:0 13:0 14:0 15:0 
1.676243373940649 1:3 2:0 3:1.43346 4:3.19838 5:0 6:1.82419 7:0 8:0 9:1.39853 10:0 11:0 12:0 13:0 14:0 15:0 
1.099293693895389 1:1 2:0 3:1.43346 4:3.19838 5:0 6:1.82419 7:0 8:0 9:1.39853 10:0 11:0 12:0 13:0 14:0 15:0 
1.662077448518194 1:1 2:0 3:0.68148 4:1.47878 5:0 6:1.82419 7:0 8:0 9:0.64655 10:0 11:0 12:0 13:0 14:0 15:0 
3.31568333566158 1:0 2:0 3:0.68148 4:3.19838 5:0 6:0.84143 7:0 8:0 9:0 10:0 11:0 12:0 13:0 14:0 15:0 
1.469067910620177 1:1 2:0 3:0.68148 4:3.19838 5:0 6:0.98276 7:0 8:0 9:0.64655 10:0 11:0 12:0 13:0 14:0 15:0 
1.245881120696284 1:0 2:0 3:0.68148 4:2.40108 5:0 6:1.82419 7:0 8:0 9:0 10:0 11:0 12:0 13:0 14:0 15:0 
0.2887355462090673 1:0 2:0 3:1.43346 4:2.40108 5:0 6:2.66562 7:0 8:0 9:1.39853 10:0 11:0 12:0 13:0 14:0 15:0 
1.017842269668939 1:0 2:0 3:0.68148 4:1.47878 5:0 6:1.82419 7:0 8:0 9:0 10:0 11:0 12:0 13:0 14:0 15:0 
11.85603503481745 1:0 2:0 3:0 4:0.7973 5:0 6:0.98276 7:0 8:0 9:0.64655 10:0 11:0 12:0 13:0 14:0 15:0 
128 1:0 2:0 3:0.68148 4:1.47878 5:0 6:0.84143 7:0 8:0 9:0.64655 10:0 11:0 12:0 13:0 14:0 15:0 
0.5539683777103905 1:0 2:0 3:0 4:1.61149 5:0 6:1.82419 7:0 8:0 9:0.64655 10:0 11:0 12:0 13:0 14:0 15:0 
0.02439205779391695 1:0 2:0 3:1.43346 4:4.00085 5:0 6:1.82419 7:0 8:0 9:1.39853 10:0 11:0 12:0 13:0 14:0 15:0 
1.132925415518408 1:1 2:0 3:1.43346 4:3.19838 5:0 6:1.82419 7:0 8:0 9:2.04508 10:0 11:0 12:0 13:0 14:0 15:0 
2.086009158634954 1:0 2:0 3:0.68148 4:3.19838 5:0 6:0 7:0 8:0 9:0 10:0 11:0 12:0 13:0 14:0 15:0 
61.36454832596561 1:0 2:0 3:0.69149 4:3.20839 5:0 6:0.84143 7:0 8:0 9:0.64655 10:0 11:0 12:0 13:0 14:0 15:0 
0.6372350094069993 1:0 2:0 3:0.75198 4:0 5:0 6:1.82419 7:0 8:0 9:0.75198 10:0 11:0 12:0 13:0 14:0 15:0 
1.771834818601201 1:3 2:0 3:1.43346 4:2.40108 5:0 6:1.82419 7:0 8:0 9:0.75198 10:0 11:0 12:0 13:0 14:0 15:0 
4.970260274252137 1:0 2:0 3:0.75198 4:1.7196 5:0 6:1.82419 7:0 8:0 9:0.75198 10:0 11:0 12:0 13:0 14:0 15:0 
0.9599507259146992 1:0 2:0 3:1.43346 4:0.68148 5:0 6:1.82419 7:0 8:0 9:0.75198 10:0 11:0 12:0 13:0 14:0 15:0 
0.5570074492881573 1:0 2:0 3:0 4:2.5169 5:0 6:0 7:0 8:0 9:0.64655 10:0 11:0 12:0 13:0 14:0 15:0 
5.552143218791004 1:0 2:0 3:1.36296 4:3.87986 5:0 6:1.82419 7:0 8:0 9:0.64655 10:0 11:0 12:0 13:0 14:0 15:0 
11.20856098136547 1:0 2:0 3:0.68148 4:3.19838 5:0 6:0 7:0 8:0 9:0.64655 10:0 11:0 12:0 13:0 14:0 15:0 
0.3776571761684323 1:0 2:0 3:0.68148 4:2.40108 5:0 6:2.80419 7:0 8:0 9:0.64655 10:0 11:0 12:0 13:0 14:0 15:0 
2.212548930845351 1:0 2:0 3:1.43346 4:1.47878 5:0 6:1.82419 7:0 8:0 9:2.04508 10:0 11:0 12:0 13:0 14:0 15:0 
0.9390875429914424 1:0 2:0 3:1.43346 4:1.47878 5:0 6:0.84143 7:0 8:0 9:1.39853 10:0 11:0 12:0 13:0 14:0 15:0 
5.357646781260698 1:0 2:0 3:0.75198 4:2.5169 5:0 6:0.84143 7:0 8:0 9:0.75198 10:0 11:0 12:0 13:0 14:0 15:0 
17.99124968369576 1:0 2:0 3:1.43346 4:3.19838 5:0 6:0.84143 7:0 8:0 9:0.75198 10:0 11:0 12:0 13:0 14:0 15:0 
10.04971351994993 1:0 2:0 3:0.68148 4:1.47878 5:0 6:1.82419 7:0 8:0 9:0.64655 10:0 11:0 12:0 13:0 14:0 15:0 
1.197435642953825 1:0 2:0 3:0.68148 4:3.19838 5:0 6:1.82419 7:0 8:0 9:0 10:0 11:0 12:0 13:0 14:0 15:0 
24.23355024941338 1:0 2:0 3:0 4:0 5:0 6:1.82419 7:0 8:0 9:0.64655 10:0 11:0 12:0 13:0 14:0 15:0 
24.96696722181076 1:0 2:0 3:1.43346 4:3.19838 5:0 6:0 7:0 8:0 9:0.75198 10:0 11:0 12:0 13:0 14:0 15:0 
1.798655319029145 1:4 2:0 3:1.43346 4:3.19838 5:0 6:0.98276 7:0 8:0 9:1.39853 10:0 11:0 12:0 13:0 14:0 15:0 
1.070982392189025 1:0 2:0 3:0.75198 4:0 5:0 6:1.82419 7:0 8:0 9:1.39853 10:0 11:0 12:0 13:0 14:0 15:0 
1.34076832187186 1:0 2:0 3:1.43346 4:3.19565 5:0 6:1.82419 7:0 8:0 9:0.75198 10:0 11:0 12:0 13:0 14:0 15:0 
7.217674621412309 1:0 2:0 3:0 4:0.78838 5:0 6:1.82419 7:0 8:0 9:0 10:0 11:0 12:0 13:0 14:0 15:0 
1.852800023708919 1:3 2:0 3:0.75198 4:0 5:0 6:0.98276 7:0 8:0 9:1.39853 10:0 11:0 12:0 13:0 14:0 15:0 
3.531604247727587 1:0 2:0 3:0.75198 4:2.5169 5:0 6:0.98276 7:0 8:0 9:0.75198 10:0 11:0 12:0 13:0 14:0 15:0 
1.851970919262922 1:0 2:0 3:1.43346 4:1.47878 5:0 6:0 7:0 8:0 9:1.39853 10:0 11:0 12:0 13:0 14:0 15:0 
0.2393812651939994 1:0 2:0 3:0.75198 4:0.7973 5:0 6:1.82419 7:0 8:0 9:1.39853 10:0 11:0 12:0 13:0 14:0 15:0 
19.77631566248208 1:0 2:0 3:1.43346 4:1.47878 5:0 6:0.98276 7:0 8:0 9:0.75198 10:0 11:0 12:0 13:0 14:0 15:0 
0.1743524278186426 1:0 2:0 3:0.75198 4:1.7196 5:0 6:1.82419 7:0 8:0 9:1.39853 10:0 11:0 12:0 13:0 14:0 15:0 
3.224086306752341 1:0 2:0 3:1.43346 4:2.40108 5:0 6:1.82419 7:0 8:0 9:0.75198 10:0 11:0 12:0 13:0 14:0 15:0 
5.151679064841883 1:0 2:0 3:1.43346 4:4.12068 5:0 6:0.98276 7:0 8:0 9:0.75198 10:0 11:0 12:0 13:0 14:0 15:0 
0.08924057037031916 1:0 2:0 3:0.75198 4:2.5169 5:0 6:1.82419 7:0 8:0 9:1.39853 10:0 11:0 12:0 13:0 14:0 15:0 
0.3794219745301141 1:0 2:0 3:1.43346 4:0.68148 5:0 6:1.82419 7:0 8:0 9:1.39853 10:0 11:0 12:0 13:0 14:0 15:0 
15.45041000511713 1:0 2:0 3:0.68148 4:3.19838 5:0 6:1.82419 7:0 8:0 9:0.64655 10:0 11:0 12:0 13:0 14:0 15:0 
10.60010670250283 1:0 2:0 3:1.43346 4:2.29297 5:0 6:0.84143 7:0 8:0 9:1.39853 10:0 11:0 12:0 13:0 14:0 15:0 
-0.002073021626704814 1:3 2:0 3:1.3961 4:2.05475 5:0 6:1.52616 7:0 8:0 9:0 10:0 11:0 12:0.6257 13:0 14:0 15:0 
-0.1482794747417284 1:6 2:0 3:1.73723 4:0.73723 5:0 6:0.85678 7:0 8:0 9:0 10:0.62816 11:0 12:0 13:0 14:0 15:0 
-0.1485996175558459 1:4 2:8.38443 3:1 4:1.69153 5:0 6:0 7:0.99338 8:1 9:0.62931 10:0 11:0 12:0 13:0.99338 14:0 15:0 
-0.08836111843874309 1:3 2:0 3:1.31828 4:4.95247 5:0 6:0 7:0 8:0 9:0.60173 10:0.94775 11:0 12:0.99482 13:0.98246 14:0 15:0 
-0.04240424507833746 1:3 2:0.89815 3:0.71014 4:3.96841 5:0 6:0.99233 7:0.60403 8:0 9:0.60606 10:0.96396 11:0 12:0.98446 13:0.60403 14:0 15:0 
-0.4051543601734487 1:0 2:0 3:1.34107 4:0.88851 5:0 6:2.23595 7:0.67227 8:0 9:0.62931 10:0.68478 11:0 12:0 13:0 14:0 15:0 
-0.01307303791076627 1:0 2:0 3:0.65729 4:1.31594 5:0 6:0.72821 7:0 8:0 9:0 10:0 11:0 12:0.6257 13:0 14:0 15:0 
-0.1453638995462554 1:0 2:15.4988 3:1 4:1.69492 5:0 6:1.8383 7:0.99338 8:1 9:0.62931 10:0.69009 11:0 12:0 13:0.99338 14:0 15:0 
-0.03355650793135254 1:3 2:0 3:0.71014 4:3.97165 5:0 6:0.99744 7:0 8:0 9:0.61472 10:0.97117 11:0 12:0.99482 13:0 14:0 15:0 
-0.1082496249967636 1:6 2:0.89815 3:1.3142 4:4.95031 5:0 6:0.99233 7:1.2142 8:0 9:0.60606 10:0.96396 11:0 12:0.98446 13:1.58122 14:0 15:0 
-0.1377303613885164 1:3 2:6.472 3:1.69971 4:1.69971 5:0 6:1.83693 7:0 8:0.97568 9:0 10:0 11:0 12:0 13:0 14:0 15:0 
-0.01998360166301 1:3 2:0 3:2.25678 4:1.98529 5:0 6:0.72082 7:0 8:0 9:0.81944 10:0.68478 11:0 12:0 13:0 14:0 15:0 
-0.06046339540779178 1:3 2:0 3:2.17691 4:2.42954 5:0 6:2.2723 7:0.67017 8:0 9:1.45306 10:0.68478 11:0 12:0 13:0 14:0 15:0 
-12.44874757284397 1:0 2:0 3:0.66667 4:3.22072 5:0 6:1.50036 7:0 8:0 9:0.63362 10:0 11:0 12:0 13:0 14:0 15:0 
-0.1289600458774836 1:3 2:0 3:0.6624 4:1.31257 5:0 6:1.48013 7:0 8:0 9:0 10:0 11:0.65099 12:0.6257 13:0.82857 14:0 15:0 
-0.1132375683591341 1:3 2:0.89815 3:1.3142 4:3.31386 5:0 6:0 7:0 8:0 9:0.60606 10:0 11:0 12:0 13:0.97193 14:0 15:0 
-0.0008076796950758913 1:13 2:0.75595 3:0.7037 4:1.97755 5:0 6:1.41129 7:0.61745 8:0 9:1.39273 10:0 11:0 12:0.60112 13:0.61745 14:0 15:0 
-0.148989057510357 1:4 2:11.24473 3:1.70803 4:2.40295 5:0 6:1.84212 7:1.63002 8:1 9:0.62931 10:0.68829 11:0 12:0 13:0.98675 14:0 15:0 
-0.1439612082042426 1:0 2:0.89815 3:0.60406 4:3.58181 5:0 6:0 7:0.61074 8:0 9:0.61039 10:1.95293 11:0 12:0.98446 13:1.60372 14:0 15:0 
-0.09955083953391365 1:4 2:0 3:0.7029 4:3.97199 5:0 6:0.96419 7:0.61074 8:0 9:0.60086 10:0.90991 11:0 12:0 13:0.61074 14:0 15:0 
-0.1417353063953325 1:4 2:10.86853 3:1.70073 4:2.39226 5:0 6:0.85422 7:0.99338 8:0 9:0.62931 10:0 11:0 12:0 13:0.99338 14:0 15:0 
-0.02169494259754394 1:0 2:0 3:0 4:0 5:0 6:2.07816 7:0 8:0 9:0.6309 10:0 11:0 12:0 13:0 14:0 15:0 
-0.07372632179936361 1:3 2:0 3:2.13294 4:4.3187 5:0 6:2.23595 7:0.67227 8:0 9:1.45272 10:0.68478 11:0 12:0 13:0 14:0 15:0 
-0.08343577558946606 1:3 2:0 3:1.31828 4:3.67013 5:0 6:0.99233 7:0.61074 8:0 9:0 10:0.94775 11:0 12:0.99482 13:0.61074 14:0 15:0 
-0.1364603988985944 1:3 2:0 3:0.71739 4:3.98074 5:0 6:0 7:0 8:0 9:0 10:0.93514 11:0 12:0.98964 13:0 14:0 15:0 
-0.08122358088752055 1:3 2:0 3:1.40121 4:1.36451 5:0 6:2.27553 7:0 8:0 9:0 10:0 11:0.65099 12:0.6257 13:0.82857 14:0 15:0 
-0.1280276774260042 1:0 2:0 3:0 4:0 5:0.85424 6:0 7:0 8:0 9:0.62661 10:0 11:0 12:0 13:1.32674 14:0 15:0 
-0.4483322004817438 1:0 2:0.63568 3:1.37142 4:2.88515 5:0 6:0.84278 7:0 8:0 9:1.87648 10:0 11:0 12:0 13:0 14:0 15:0 
-0.1491448534974792 1:8 2:0 3:0.71014 4:4.2401 5:0 6:0.97442 7:0.61074 8:0 9:0 10:0.90991 11:0 12:0.94301 13:0.61074 14:0 15:0 
-0.09043092550435394 1:0 2:0 3:0.92562 4:0.62637 5:0 6:2.37651 7:0 8:0 9:0 10:1.4119 11:0.64641 12:0.62637 13:0 14:0 15:0 
-0.07115130818216048 1:3 2:0 3:2.47159 4:1.37149 5:0 6:2.24199 7:0 8:0 9:0 10:0 11:0 12:0 13:0 14:0 15:0 
-0.3026657907928252 1:0 2:0.60435 3:1.64484 4:3.06194 5:0 6:0.69504 7:0 8:0 9:1.60317 10:0.69801 11:0 12:0 13:0 14:0 15:0 
-0.8183272974536396 1:0 2:0.63065 3:0.74815 4:2.25871 5:0 6:0 7:0 8:0 9:1.25748 10:0 11:0 12:0 13:0 14:0 15:0 
-23.8589720725917 1:0 2:0 3:1.3702 4:2.1432 5:0 6:0.84278 7:0 8:0 9:1.25453 10:0 11:0 12:0 13:0 14:0 15:0 
-0.1495685223099746 1:3 2:9.64707 3:1.70803 4:2.40295 5:0 6:0.85422 7:0 8:0 9:0.62931 10:0 11:0 12:0 13:0 14:0 15:0 
-0.1101045581408948 1:3 2:0 3:1 4:0.60989 5:0 6:1.62719 7:0 8:0 9:0 10:0.62816 11:0 12:0.60989 13:0 14:0 15:0 
-0.107553543517557 1:9 2:0 3:2.20811 4:2.4754 5:0 6:2.1778 7:0.67086 8:0 9:0.83333 10:0.65818 11:0 12:0 13:0 14:0 15:0 
-0.2829334766034151 1:0 2:0.63568 3:1.58773 4:3.72473 5:0 6:0.84278 7:0 8:0 9:0.625 10:0 11:0 12:0 13:0 14:0 15:0 
-0.1477439428022499 1:3 2:0 3:1.3961 4:2.05475 5:0 6:2.25437 7:0 8:0 9:0 10:0 11:0 12:0.6257 13:0 14:0 15:0 
-0.05680751329722659 1:3 2:0 3:1.31674 4:4.3078 5:0 6:0.99744 7:0 8:0 9:0.61472 10:0.97117 11:0 12:0.99482 13:0 14:0 15:0 
-0.04616006538080274 1:3 2:0 3:1.3379 4:3.98074 5:0 6:0.98977 7:1.21224 8:0 9:0.61905 10:0.93694 11:0 12:0.98964 13:1.58442 14:0 15:0 
-0.1516041331888864 1:3 2:0.75595 3:0.7037 4:1.37643 5:0 6:0.61589 7:0.61745 8:0 9:0 10:0 11:0 12:0 13:0.61745 14:0 15:0 
-1.445709436832953 1:0 2:0 3:2.15698 4:2.63273 5:0 6:1.56037 7:0 8:0 9:0.64224 10:0 11:0 12:0 13:0 14:0 15:0 
-0.1243393441916307 1:0 2:0 3:0.71014 4:4.85369 5:0 6:0.97442 7:0.61074 8:0 9:1.20503 10:0 11:0 12:0.94301 13:1.58793 14:0 15:0 
-0.1259820600927868 1:5 2:0 3:0 4:0 5:1 6:0.77121 7:0 8:0 9:0.63793 10:0 11:0 12:0 13:0.66337 14:0 15:0 
-0.1497221740707646 1:16 2:0.75595 3:0.7037 4:1.97755 5:0 6:0.61589 7:0 8:0 9:1.39273 10:0 11:0 12:0.60112 13:0 14:0 15:0 
-0.09215059385088689 1:0 2:0.60652 3:1.62553 4:3.06128 5:0 6:1.55316 7:0.63758 8:0 9:2.81772 10:0.69439 11:0 12:0 13:0.63758 14:0 15:0 
-1.285957154009333 1:0 2:0.64591 3:1.43545 4:1.47878 5:0 6:1.82994 7:0 8:0 9:1.40052 10:0 11:0 12:0 13:0 14:0 15:0 
-0.5244635867180631 1:0 2:0.60435 3:0.66667 4:1.47748 5:0 6:2.17286 7:0 8:0 9:0 10:0.69801 11:0 12:0 13:0 14:0 15:0 
-0.0507067005557075 1:4 2:0.8966 3:1.3379 4:3.98074 5:0 6:0.98977 7:0.60403 8:0 9:0.62338 10:0.93694 11:0 12:0.98964 13:1.57947 14:0 15:0 
-0.07059805602217911 1:3 2:0 3:1.3379 4:3.31882 5:0 6:0.98977 7:1.21224 8:0 9:0.61905 10:0.93535 11:0 12:0.98964 13:1.58442 14:0 15:0 
-0.1291816475803433 1:1 2:0 3:0.71014 4:5.52946 5:0 6:0 7:0.61074 8:0 9:1.20503 10:0.9045 11:0 12:0.94301 13:1.58793 14:0 15:0 
-0.6302362078693667 1:0 2:0 3:0.6624 4:0.6257 5:0 6:2.27553 7:0 8:0 9:0 10:0 11:0 12:0.6257 13:0 14:0 15:0 
-0.1460851460921537 1:3 2:0 3:1.31928 4:0.71014 5:0 6:0.99233 7:0.61074 8:0 9:0 10:0 11:0 12:0 13:1.5739 14:0 15:0 
-11.48531426220694 1:0 2:0 3:0 4:0 5:0 6:1.38251 7:0 8:0 9:0.6309 10:0 11:0 12:0 13:0 14:0 15:0 
-0.08338166425985666 1:6 2:0 3:1.73723 4:0.73723 5:0 6:0.85678 7:1.36859 8:0 9:0.62679 10:1.62816 11:0 12:0 13:1 14:0 15:0 
-0.1355547793018929 1:3 2:0.99846 3:0 4:3.27952 5:0 6:0.99488 7:0.61745 8:0 9:1.22078 10:1 11:0 12:0.99482 13:0.61745 14:0 15:0 
-0.1215236244842484 1:4 2:0 3:1.93021 4:3.9176 5:0 6:0.9821 7:0 8:0 9:0.60606 10:0.89531 11:0 12:0.93264 13:0.99123 14:0 15:0 
-0.1318010549812353 1:4 2:0 3:1.3142 4:4.97609 5:0 6:0.99488 7:0.61074 8:0 9:0.60606 10:1 11:0 12:0.99482 13:2.57916 14:0 15:0 
-0.1677730427735457 1:0 2:0 3:0 4:0 5:0 6:0 7:0 8:0 9:0 10:0 11:0.86081 12:0 13:0 14:0 15:0 
-0.149061540293808 1:0 2:11.08375 3:1.70803 4:2.40295 5:0 6:1.84212 7:0.98675 8:1 9:0.62931 10:0 11:0 12:0 13:0.98675 14:0 15:0 
-0.1448086284267021 1:0 2:14.9832 3:1.70803 4:1.70803 5:0 6:0.85422 7:0.99338 8:1 9:0.62931 10:0.69009 11:0 12:0 13:0.99338 14:0 15:0 
-0.09460399744369001 1:3 2:0.97068 3:0.61282 4:3.64554 5:0 6:0 7:0.61074 8:0 9:0 10:0.98018 11:0 12:1 13:1.60021 14:0 15:0 
-0.1367278199164418 1:3 2:5.8745 3:1.70803 4:2.39617 5:0 6:1.81785 7:0 8:0.99088 9:0.62931 10:0 11:0 12:0 13:0 14:0 15:0 
-0.09101335057204431 1:6 2:0 3:1.40121 4:2.05138 5:0 6:1.54379 7:0 8:0 9:0 10:0 11:0 12:0.6257 13:0 14:0 15:0 
-0.1125984817375469 1:3 2:0 3:0.60152 4:1.66192 5:0 6:0.99488 7:0.61745 8:0 9:0 10:1 11:0 12:0 13:0.61745 14:0 15:0 
-0.06908506112223967 1:3 2:1 3:0.61421 4:3.58181 5:0 6:0.98977 7:0 8:0 9:0.60606 10:0.97297 11:0 12:0.98446 13:0.99298 14:0 15:0 
-0.1391508864879678 1:3 2:0 3:2.16448 4:1.87838 5:0 6:1.52928 7:0.67227 8:0 9:1.45272 10:0.68478 11:0 12:0 13:0 14:0 15:0 
-0.08733418661625218 1:3 2:0 3:2.21783 4:3.52969 5:0 6:1.46156 7:0 8:0 9:0.81944 10:0.68478 11:0 12:0 13:0 14:0 15:0 
-0.1429085319090171 1:0 2:0.99846 3:1.91318 4:2.98966 5:0 6:0.99488 7:0.61745 8:0 9:0.61039 10:1 11:0 12:0.99482 13:2.58587 14:0 15:0 
-0.130721072682558 1:2 2:11.22573 3:1.70803 4:2.40295 5:0 6:2.82238 7:0.99338 8:1 9:0.62931 10:0.69009 11:0 12:0 13:0.99338 14:0 15:0 
-0.006559360210419661 1:4 2:0 3:0.71533 4:2.0385 5:0 6:2.30435 7:1.40869 8:0 9:0 10:0 11:0 12:0.62722 13:0 14:0 15:0 
-0.1374557463263946 1:1 2:0 3:0.71014 4:3.91767 5:0 6:0.97442 7:0.61074 8:0 9:0.60086 10:0.9045 11:0 12:0.94301 13:0.61074 14:0 15:0 
-0.1375819618391968 1:3 2:0 3:0.61282 4:4.26314 5:0 6:0.99233 7:0 8:0 9:0.66667 10:1.9546 11:0 12:0.99482 13:0.98947 14:0 15:0 
-0.1475037084336324 1:1 2:11.17251 3:0.70803 4:1.40295 5:0 6:1.84212 7:0.99338 8:1 9:0 10:0.69009 11:0 12:0 13:0.99338 14:0 15:0 
-0.01852765022134089 1:3 2:0 3:1.31674 4:3.97165 5:0 6:0.99744 7:0 8:0 9:0.61472 10:0.97117 11:0 12:0.99482 13:0.96667 14:0 15:0 
-0.05990951865348045 1:3 2:0.99614 3:1.3379 4:3.98074 5:0 6:0.98977 7:0.61074 8:0 9:0.62338 10:0 11:0 12:0.98964 13:1.58618 14:0 15:0 
-0.05788449016281728 1:3 2:0 3:0.71739 4:3.98074 5:0 6:0.98977 7:0.6015 8:0 9:0.61905 10:0.93542 11:0 12:0.98964 13:0 14:0 15:0 
-0.117804928875357 1:4 2:0 3:0.71533 4:1.34255 5:0 6:0.82609 7:1.40869 8:0 9:0 10:0 11:0 12:0.62722 13:0 14:0 15:0 
-0.05094296044393587 1:3 2:0.99614 3:1.3379 4:3.98074 5:0 6:0.98977 7:1.21224 8:0 9:0.62338 10:0.93514 11:0 12:0.98964 13:1.58618 14:0 15:0 
-0.1326121273212876 1:4 2:9.24573 3:1 4:1 5:0 6:0.85422 7:0.99338 8:1 9:0.62931 10:0.68829 11:0 12:0 13:0.99338 14:0 15:0 
-0.678363367461532 1:0 2:0 3:1.44416 4:3.25179 5:0 6:1.70615 7:0 8:0 9:0.64224 10:0 11:0 12:0.63784 13:0 14:0 15:0 
-0.06236703859174792 1:3 2:0 3:1.31166 4:4.98966 5:0 6:0.99488 7:0 8:0 9:0.61039 10:1 11:0 12:0.99482 13:0.98421 14:0 15:0 
-0.09127043761125511 1:4 2:0.8966 3:0.71739 4:3.35796 5:0 6:0.98977 7:0.60403 8:0 9:0.62338 10:0.93694 11:0 12:0.98964 13:0.60403 14:0 15:0 
-0.1492345669376603 1:4 2:15.60925 3:1.70073 4:3.08379 5:0 6:0 7:0.99338 8:1 9:0.62931 10:0.69877 11:0 12:0 13:0.99338 14:0 15:0 
-0.05369600213878063 1:0 2:0 3:2.91604 4:4.41483 5:0 6:2.2723 7:0.67017 8:0 9:1.45306 10:0.68478 11:0 12:0 13:0 14:0 15:0 
-0.07254375549117241 1:3 2:0 3:2.83115 4:3.43356 5:0 6:2.23595 7:0.67227 8:0 9:1.45272 10:0.68478 11:0 12:0 13:0 14:0 15:0 
-0.1210960695036875 1:3 2:0 3:0.71533 4:2.0385 5:0 6:2.30435 7:1.40869 8:0 9:0 10:0 11:0 12:0.62722 13:0 14:0 15:0 
-0.09960279476307392 1:3 2:0 3:1.32296 4:4.97328 5:0 6:0.99233 7:0.61074 8:0 9:0.66667 10:0 11:0 12:0.99482 13:1.60021 14:0 15:0 
-0.1477668980337428 1:2 2:15.04821 3:1.70803 4:2.40295 5:0 6:2.82238 7:0.99338 8:1 9:0 10:0.69009 11:0 12:0 13:0.99338 14:0 15:0 
-5.355173159684828 1:0 2:0 3:1.3702 4:2.1432 5:0 6:1.47726 7:0 8:0 9:1.87953 10:0 11:0 12:0 13:0 14:0 15:0 
-0.1182793884398275 1:6 2:0 3:1.75221 4:1.3621 5:0 6:1.62719 7:0 8:0 9:0.62679 10:1 11:0 12:0.60989 13:1 14:0 15:0 
-0.1719023683863453 1:0 2:0 3:1.3379 4:2.99173 5:0 6:0 7:0 8:0 9:0.61905 10:0 11:0 12:0.98964 13:0 14:0 15:0 
-0.5542714566799444 1:0 2:0 3:0.64444 4:1.45187 5:0 6:1.55316 7:0.63758 8:0 9:1.23607 10:0 11:0 12:0 13:0.63758 14:0 15:0 
-0.08659799186100806 1:3 2:0 3:1.3379 4:3.98074 5:0 6:0.98977 7:0.61074 8:0 9:0.61905 10:0 11:0 12:0.98964 13:0.61074 14:0 15:0 
-0.09059911486427741 1:0 2:0 3:1.3127 4:3.68425 5:0 6:0.99233 7:0.61074 8:0 9:0 10:0 11:0 12:0.99415 13:1.58267 14:0 15:0 
-93.89322517843792 1:0 2:0 3:0.76471 4:1.43022 5:0 6:0.80563 7:0 8:0 9:0.63362 10:0 11:0 12:0 13:0 14:0 15:0 
-0.2500271166519527 1:0 2:0 3:0.71014 4:3.95656 5:0 6:0.97442 7:0 8:0 9:1.20503 10:0 11:0 12:0 13:0.97719 14:0 15:0 
-0.02650300887986689 1:0 2:0.63568 3:1.58773 4:3.72473 5:0 6:0.84278 7:0 8:0 9:0.625 10:0.61429 11:0 12:0 13:0 14:0 15:0 
-0.1491845456960314 1:2 2:18.84812 3:1.70803 4:2.39617 5:0 6:1.84402 7:1.59377 8:1 9:0.62931 10:0.68829 11:0 12:0 13:0.98013 14:0 15:0 
-0.1260171711115377 1:3 2:0 3:0.61538 4:1.60565 5:0 6:0.99233 7:0.61074 8:0 9:0.60173 10:0.93906 11:0 12:0 13:1.5932 14:0 15:0 
-0.0374218366201405 1:3 2:0.99846 3:1.31166 4:4.36688 5:0 6:0 7:0.61745 8:0 9:0.61039 10:1 11:0 12:0.99482 13:1.60166 14:0 15:0 
-0.7816897108984049 1:3 2:0 3:2.17691 4:1.5444 5:0 6:0.74074 7:0 8:0 9:0.81944 10:0 11:0 12:0 13:0 14:0 15:0 
-0.07173681178906451 1:3 2:0 3:0.71014 4:2.98254 5:0 6:0.99233 7:0.61074 8:0 9:0.61039 10:0.96937 11:0 12:0.99482 13:1.58267 14:0 15:0 
-0.1272400016886664 1:0 2:0.97068 3:1.32296 4:3.31654 5:0 6:0.99233 7:0.61074 8:0 9:0.66667 10:0.98018 11:0 12:0 13:1.60021 14:0 15:0 
-0.173767396201017 1:1 2:0 3:0.70073 4:0.70073 5:0 6:0 7:0 8:0 9:0 10:0 11:0 12:0 13:0 14:0 15:0 
-0.1259675201429148 1:5 2:0 3:0 4:0 5:1 6:1.39364 7:0 8:0 9:0.63793 10:0 11:0 12:0 13:0 14:0 15:0 
-43.0324161000073 1:0 2:0 3:0.69054 4:1.72973 5:0 6:0.82609 7:0 8:0 9:0.63362 10:0 11:0 12:0 13:0 14:0 15:0 
-0.1497311477976515 1:3 2:3.91669 3:1.70803 4:2.39617 5:0 6:1.81785 7:0 8:0.99088 9:0.62931 10:0 11:0 12:0 13:0 14:0 15:0 
-0.1487360251920424 1:3 2:7.90435 3:1.70803 4:2.39617 5:0 6:1.84212 7:0.99338 8:0.99392 9:0.62931 10:0 11:0 12:0 13:0.99338 14:0 15:0 
-0.3465779878201612 1:0 2:0 3:2.21783 4:1.5444 5:0 6:1.55148 7:0.67017 8:0 9:1.45306 10:0 11:0 12:0 13:0 14:0 15:0 
-0.1487957109119324 1:6 2:0.99846 3:0.60152 4:3.65674 5:0 6:0.99488 7:0.61745 8:0 9:0 10:1 11:0 12:0.99482 13:0.61745 14:0 15:0 
-0.09201230738775933 1:3 2:0 3:2.91604 4:4.41483 5:0 6:2.2723 7:0.67017 8:0 9:1.45306 10:0.68478 11:0 12:0 13:0 14:0 15:0 
-0.1282906097215106 1:0 2:0 3:1 4:0 5:0.62722 6:1.46865 7:1 8:0 9:0 10:0 11:0.68515 12:0 13:0 14:0 15:0 
-0.1388722958262179 1:0 2:0 3:0.71014 4:3.9786 5:0 6:0.99233 7:0 8:0 9:0.61039 10:0.96937 11:0 12:0.99415 13:0 14:0 15:0 
-0.10627789280558 1:3 2:0 3:2.17691 4:3.52969 5:0 6:0.72082 7:0 8:0 9:0.81944 10:0.68478 11:0 12:0 13:0 14:0 15:0 
-0.04674705596404762 1:3 2:0.97068 3:1.32296 4:3.98061 5:0 6:0 7:0.61074 8:0 9:0.66667 10:0.98018 11:0 12:0.99482 13:1.60021 14:0 15:0 
-0.008698726188946949 1:0 2:0 3:2 4:1 5:0.62722 6:1.46865 7:1 8:0 9:0 10:0 11:0.68515 12:0 13:0 14:0 15:0 
-0.1461065809439847 1:0 2:0.60435 3:0.66667 4:1.46397 5:0 6:0.69504 7:0 8:0 9:0.625 10:0.69801 11:0 12:0 13:0 14:0 15:0 
-0.1109207372724939 1:0 2:0.89815 3:1.3142 4:4.95031 5:0 6:0 7:0.61074 8:0 9:0.61039 10:0.97838 11:0 12:0.98446 13:1.60372 14:0 15:0 
-10.92977128846779 1:0 2:0 3:0.66667 4:3.21735 5:0 6:1.50292 7:0 8:0 9:0.63362 10:0 11:0 12:0 13:0 14:0 15:0 
-0.006350950104477671 1:3 2:0 3:1.47159 4:1.36094 5:0 6:2.24199 7:0 8:0 9:0 10:0 11:0 12:0 13:0 14:0 15:0 
-8.137505677791717 1:0 2:0 3:1.35721 4:1.53491 5:0 6:1.50292 7:0 8:0 9:0.63362 10:0 11:0 12:0 13:0 14:0 15:0 
-0.149684087214747 1:1 2:11.16941 3:0 4:0 5:0 6:1.84212 7:0.99338 8:0 9:0 10:0 11:0 12:0 13:0.99338 14:0 15:0 
-0.1438559696647606 1:3 2:3.92117 3:1.70803 4:2.39617 5:0 6:0.85861 7:0.99338 8:0 9:0.62931 10:0 11:0 12:0 13:0.99338 14:0 15:0 
-0.004778946372132511 1:3 2:0 3:2.83115 4:3.43356 5:0 6:2.23595 7:0 8:0 9:0.82341 10:0.68478 11:0 12:0 13:0 14:0 15:0 
-0.08215014143943208 1:3 2:0 3:2.04978 4:4.41483 5:0 6:1.55148 7:0.67017 8:0 9:0.63362 10:0.68478 11:0 12:0 13:0 14:0 15:0 
-0.1067431524872288 1:3 2:0 3:1.73723 4:1.34712 5:0 6:0.77041 7:1.36859 8:0 9:0.62679 10:0.62816 11:0 12:0.60989 13:1 14:0 15:0 
-0.1293555573047166 1:3 2:1 3:0.61421 4:2.95903 5:0 6:0 7:0 8:0 9:0 10:0.97297 11:0 12:0.98446 13:0.99298 14:0 15:0 
-0.07483786333918124 1:4 2:0 3:0 4:1.32317 5:0 6:1.56522 7:1.40869 8:0 9:0 10:0 11:0 12:0.62722 13:0 14:0 15:0 
-0.88002985012579 1:0 2:0 3:1.64484 4:2.25113 5:0 6:1.53391 7:0 8:0 9:0.97817 10:0.69801 11:0 12:0 13:0 14:0 15:0 
-0.1167230180139331 1:1 2:0 3:1.21282 4:3.20978 5:0 6:0.9821 7:0.61074 8:0 9:0 10:0 11:0 12:0.93264 13:1.60024 14:0 15:0 
-0.06490614173347825 1:3 2:1 3:0.71014 4:3.95535 5:0 6:0.99233 7:0.61074 8:0 9:0 10:0.97297 11:0 12:0.98446 13:1.60372 14:0 15:0 
-0.01191833612835744 1:3 2:0 3:1.3127 4:4.30703 5:0 6:0.99233 7:0.61074 8:0 9:0.61039 10:0 11:0 12:0.99415 13:1.58267 14:0 15:0 
-0.001625466752284093 1:0 2:0 3:0.70073 4:0.70073 5:0 6:2.24454 7:0.66736 8:0 9:0 10:0 11:0 12:0 13:0 14:0 15:0 
-0.09250657712105019 1:3 2:0 3:1.31828 4:4.99546 5:0 6:0.99233 7:0.61074 8:0 9:0 10:0.94775 11:0 12:0.99482 13:1.5932 14:0 15:0 
-0.1455420988418805 1:4 2:0 3:0 4:1.32317 5:0 6:1.56522 7:0 8:0 9:0 10:0 11:0 12:0.62722 13:0 14:0 15:0 
-0.09665701864022763 1:0 2:0 3:0.60914 4:4.26464 5:0 6:0 7:0.61074 8:0 9:0.61039 10:0 11:0 12:0.98446 13:1.59495 14:0 15:0 
-0.1061745870161586 1:3 2:0 3:1.31674 4:2.69591 5:0 6:0.99744 7:0 8:0 9:0 10:0.97117 11:0 12:0.99482 13:0.96667 14:0 15:0 
-0.8995899049878647 1:0 2:0 3:1.35721 4:3.21735 5:0 6:1.50292 7:0 8:0 9:0.63362 10:0 11:0 12:0 13:0 14:0 15:0 
-0.1416396463416699 1:0 2:0 3:1.3127 4:2.6933 5:0 6:0.99233 7:0.61074 8:0 9:0 10:1.9296 11:0 12:0.99415 13:1.58267 14:0 15:0 
-0.1490568111525486 1:1 2:14.58513 3:1.69971 4:2.39463 5:0 6:0 7:0.98675 8:0.97568 9:0 10:0.68829 11:0 12:0 13:0.98675 14:0 15:0 
-0.1461016760390689 1:2 2:14.33359 3:1 4:1.69492 5:0 6:1.8383 7:0.99338 8:1 9:0.62931 10:0.69009 11:0 12:0 13:0.99338 14:0 15:0 
-0.1470047681056129 1:6 2:0 3:1.31166 4:4.98966 5:0 6:0.99488 7:0 8:0 9:0 10:1 11:0 12:0.99482 13:0.98421 14:0 15:0 
-0.124263984436363 1:0 2:0 3:1.672 4:0.74638 5:0 6:1.58824 7:1.97634 8:0 9:0 10:1.4119 11:0.64641 12:0 13:0 14:0 15:0 
-0.1253408903329433 1:3 2:0 3:1.31674 4:3.96778 5:0 6:0.99744 7:0 8:0 9:0.61472 10:0 11:0 12:0 13:0.96667 14:0 15:0 
-0.09482555558855735 1:3 2:0 3:0.62051 4:3.02371 5:0 6:0.98977 7:0.61074 8:0 9:0.61905 10:0.93514 11:0 12:0 13:1.58442 14:0 15:0 
-0.2179833948621312 1:0 2:0 3:1.35747 4:4.41483 5:0 6:2.2723 7:0.67017 8:0 9:0.63362 10:0.68478 11:0 12:0 13:0 14:0 15:0 
-0.5039681126523463 1:0 2:0.60435 3:2.31151 4:2.93131 5:0 6:0.83887 7:0 8:0 9:1.60317 10:0 11:0 12:0 13:0 14:0 15:0 
-0.9330833084837756 1:0 2:0 3:1.51906 4:2.78378 5:0 6:0.81074 7:0.67437 8:0 9:1.45272 10:0.68297 11:0 12:0 13:0 14:0 15:0 
-0.012606806480145 1:4 2:0 3:0.71533 4:1.34255 5:0 6:1.47826 7:1.40869 8:0 9:0 10:0 11:0 12:0.62722 13:0 14:0 15:0 
-0.2344279396894821 1:0 2:0 3:2.18573 4:2.54843 5:0 6:2.15383 7:0.67437 8:0 9:1.45272 10:0.68297 11:0 12:0 13:0 14:0 15:0 
-0.1442929415766165 1:0 2:0 3:0 4:0 5:1 6:1.39364 7:0 8:0 9:0.63793 10:0 11:0 12:0 13:0.66337 14:0 15:0 
-0.1314068787782859 1:0 2:0.60652 3:1.62553 4:3.90835 5:0 6:1.55316 7:0 8:0 9:2.20234 10:0.66892 11:0 12:0 13:0 14:0 15:0 
-0.1418967822576291 1:4 2:11.0937 3:1 4:1.69492 5:0 6:0.85422 7:0.98675 8:0 9:0.62931 10:0.68829 11:0 12:0 13:0.98675 14:0 15:0 
-0.1028319335062661 1:13 2:0.75595 3:0.7037 4:1.37643 5:0 6:1.41129 7:0.61745 8:0 9:1.39273 10:0 11:0 12:0 13:0.61745 14:0 15:0 
-0.08459348269514955 1:3 2:1.51191 3:1.3142 4:3.33486 5:0 6:0.99233 7:0.61074 8:0 9:0 10:0.97838 11:0 12:0.98446 13:1.60372 14:0 15:0 
-0.1089886338691232 1:0 2:0.99846 3:0.60152 4:4.27952 5:0 6:0.99488 7:0.61745 8:0 9:0.61039 10:1 11:0 12:0.99482 13:1.60166 14:0 15:0 
-0.136003716976667 1:1 2:0 3:0.71014 4:6.51136 5:0 6:0.97442 7:0.61074 8:0 9:1.20503 10:0.9045 11:0 12:0.94301 13:1.58793 14:0 15:0 
-0.1037549503175817 1:6 2:0.89815 3:1.3142 4:4.63984 5:0 6:0.99233 7:0.60403 8:0 9:0.60606 10:0.96396 11:0 12:0.98446 13:1.58122 14:0 15:0 
-0.0866544961203955 1:3 2:0.89815 3:1.3142 4:2.35945 5:0 6:0.99233 7:0.60403 8:0 9:0 10:0.97297 11:0 12:0 13:1.57596 14:0 15:0 
-0.0617635692541649 1:6 2:0 3:1 4:0.60989 5:0 6:1.62719 7:1.36859 8:0 9:0.62679 10:1.62816 11:0 12:0.60989 13:1 14:0 15:0 
-0.1694381009485909 1:0 2:0 3:2.72392 4:1.37938 5:0 6:2.22907 7:0 8:0 9:0.62069 10:0 11:0 12:0 13:0 14:0 15:0 
-0.1492335547962666 1:6 2:0 3:2.90219 4:2.4754 5:0 6:0.81841 7:0 8:0 9:2.09787 10:0 11:0 12:0 13:0 14:0 15:0 
-0.143889314749939 1:4 2:0 3:0.71014 4:3.35849 5:0 6:0.99488 7:0 8:0 9:0.60606 10:1 11:0 12:0 13:0 14:0 15:0 
-0.1492386729536999 1:4 2:19.28841 3:1.70073 4:2.39226 5:0 6:0.85422 7:1.61459 8:1 9:0.62931 10:0.68829 11:0 12:0 13:0.99338 14:0 15:0 
-0.1496906817101787 1:6 2:14.82178 3:1.70073 4:3.08379 5:0 6:0 7:0.99338 8:1 9:0.62931 10:0.68829 11:0 12:0 13:0.99338 14:0 15:0 
-0.139519162885445 1:3 2:0.62278 3:0.71014 4:2.3284 5:0 6:0 7:0 8:0 9:0.61039 10:0 11:0 12:0 13:0.96316 14:0 15:0 
-0.1279950315207904 1:4 2:0 3:1.92809 4:3.25795 5:0 6:0.97442 7:0.61074 8:0 9:0 10:0.90991 11:0 12:0 13:1.58969 14:0 15:0 
-0.1223787434694975 1:3 2:0 3:1.31928 4:4.97478 5:0 6:0 7:1.24066 8:0 9:0.61039 10:0 11:0 12:0.98446 13:1.59495 14:0 15:0 
-0.07130030978284213 1:3 2:0 3:2.46941 4:0.67407 5:0 6:1.54032 7:0 8:0 9:0 10:0 11:0 12:0 13:0 14:0 15:0 
-0.8573281601538115 1:0 2:0 3:0 4:0.6242 5:0 6:0.82097 7:0 8:0 9:0.62931 10:0 11:0 12:0.6242 13:0 14:0 15:0 
-0.09814716378262626 1:3 2:0 3:2.83115 4:3.43356 5:0 6:2.23595 7:0 8:0 9:0.82341 10:0.68478 11:0 12:0 13:0 14:0 15:0 
-0.1178213091127936 1:6 2:0 3:1.73723 4:0.73723 5:0 6:0.77041 7:1.36859 8:0 9:0.62679 10:0.62816 11:0 12:0 13:1 14:0 15:0 
-0.1498103404289362 1:3 2:10.54799 3:0 4:0.68814 5:0 6:0.85422 7:0 8:0.99392 9:0 10:0 11:0 12:0 13:0 14:0 15:0 
-0.07095937374589553 1:4 2:0.8966 3:0.71739 4:3.98114 5:0 6:0.98977 7:0.60403 8:0 9:0.62338 10:0.93694 11:0 12:0.98964 13:0.60403 14:0 15:0 
-5.250428405208162 1:0 2:0 3:2.07444 4:1.37938 5:0 6:0.81137 7:0 8:0 9:0.62069 10:0 11:0 12:0 13:0 14:0 15:0 
-0.002420493038836791 1:1 2:0 3:0.71014 4:4.85369 5:0 6:0.97442 7:0.61074 8:0 9:1.20503 10:0.9045 11:0 12:0.94301 13:1.58793 14:0 15:0 
-0.1018181071547417 1:0 2:0 3:1.672 4:0.74638 5:0 6:1.5095 7:1.37257 8:0 9:0 10:1.4119 11:0 12:0 13:0 14:0 15:0 
-0.1497738904735352 1:1 2:3.92301 3:1.70803 4:2.39617 5:0 6:1.81785 7:0 8:0.99088 9:0.62931 10:0 11:0 12:0 13:0 14:0 15:0 
-0.3991838068850093 1:0 2:0.60435 3:1.64484 4:2.24975 5:0 6:0 7:0 8:0 9:1.60317 10:0 11:0 12:0 13:0 14:0 15:0 
-0.06895226236390659 1:4 2:0 3:1.3142 4:4.97609 5:0 6:0.99488 7:0.61074 8:0 9:0.60606 10:1 11:0 12:0.99482 13:1.59495 14:0 15:0 
-0.05245736560254062 1:3 2:0.99846 3:0.60152 4:3.27952 5:0 6:0.99488 7:0.61745 8:0 9:0.61039 10:1 11:0 12:0.99482 13:1.60166 14:0 15:0 
-0.1546136987545194 1:1 2:0 3:0.70073 4:0.70073 5:0 6:1.55804 7:0.66736 8:0 9:0 10:0 11:0 12:0 13:0 14:0 15:0 
-0.1450650964715814 1:0 2:0 3:1.93021 4:5.53638 5:0 6:0.9821 7:1.24094 8:0 9:0.60606 10:0 11:0 12:0.93264 13:1.60197 14:0 15:0 
-0.1361026802499241 1:0 2:0.89815 3:1.3142 4:3.96897 5:0 6:0.99233 7:1.20572 8:0 9:0.60606 10:0.97297 11:0 12:0.99482 13:2.54542 14:0 15:0 
-0.02614653433749683 1:0 2:0 3:2 4:1 5:0.62722 6:0.62722 7:1 8:0 9:0 10:0 11:0 12:0 13:0 14:0 15:0 
-0.1046458120148357 1:4 2:0 3:1.3142 4:3.98127 5:0 6:0.99488 7:0.61074 8:0 9:0.60606 10:1 11:0 12:0 13:1.59495 14:0 15:0 
-0.03280978890464092 1:0 2:0 3:1 4:1 5:0.62722 6:1.46865 7:1 8:0 9:0 10:0 11:0.68515 12:0 13:0 14:0 15:0 
-22.78005800787271 1:0 2:0 3:0.66667 4:1.53491 5:0 6:1.50292 7:0 8:0 9:0.63362 10:0 11:0 12:0 13:0 14:0 15:0 
-0.1200439351046517 1:0 2:0 3:1.672 4:1.37275 5:0 6:1.65528 7:1.37257 8:0 9:0 10:0.78261 11:0 12:0.62637 13:0 14:0 15:0 
-0.1298451459203268 1:2 2:11.2958 3:1.70803 4:2.40295 5:0 6:1.84212 7:0.99338 8:1 9:0.62931 10:0.69009 11:0 12:0 13:0.99338 14:0 15:0 
-0.1118755274645396 1:3 2:0.97068 3:1.32296 4:4.9907 5:0 6:0 7:0.61074 8:0 9:0.66667 10:0.98018 11:0 12:1 13:0.61074 14:0 15:0 
-0.1333051472081673 1:5 2:0 3:1.92809 4:4.20096 5:0 6:1.94884 7:0.61074 8:0 9:0 10:0.90991 11:0 12:0.94301 13:1.58969 14:0 15:0 
-0.1027265275431721 1:2 2:13.51107 3:1.70803 4:2.40295 5:0 6:1.8383 7:0 8:1 9:0.62931 10:0.69009 11:0 12:0 13:0 14:0 15:0 
-0.04821551857442539 1:0 2:0.60652 3:0.65926 4:2.27074 5:0 6:0.71429 7:0.63758 8:0 9:1.23607 10:0.69439 11:0 12:0 13:0.63758 14:0 15:0 
-1.708455116833072 1:0 2:0.63065 3:0.74815 4:2.89672 5:0 6:0.84278 7:0 8:0 9:1.25748 10:0 11:0 12:0 13:0 14:0 15:0 
-0.1189618304293884 1:0 2:0 3:1.31928 4:4.35169 5:0 6:0.99233 7:0.62866 8:0 9:0 10:0 11:0 12:0.98964 13:0.96316 14:0 15:0 
-0.09073706502929774 1:6 2:0 3:0.73723 4:0.73723 5:0 6:1.62719 7:1.36859 8:0 9:0.62679 10:1.62816 11:0 12:0 13:1 14:0 15:0 
-0.08508072037361834 1:13 2:0.75595 3:0 4:1.27385 5:0 6:1.41129 7:0.61745 8:0 9:1.39273 10:0 11:0 12:0.60112 13:0.61745 14:0 15:0 
-0.149819598984331 1:1 2:8.38885 3:1 4:1 5:0 6:0.9879 7:0 8:0.99392 9:0.62931 10:0 11:0 12:0 13:0 14:0 15:0 
-0.1486413730293154 1:3 2:8.87149 3:1.70803 4:2.40295 5:0 6:1.84212 7:1.61459 8:2 9:0.62931 10:0.69009 11:0 12:0 13:0.99338 14:0 15:0 
-0.1367596248064707 1:4 2:0.8966 3:1.3379 4:2.9911 5:0 6:0 7:0.60403 8:0 9:0.62338 10:0.93694 11:0 12:0 13:1.57947 14:0 15:0 
-0.5847421779021987 1:0 2:0.63568 3:0.62327 4:1.387 5:0 6:0 7:0 8:0 9:1.25148 10:0.61429 11:0 12:0 13:0 14:0 15:0 
-0.1165193298805156 1:3 2:12.55493 3:1.70803 4:2.40295 5:0 6:1.84212 7:0.99338 8:1 9:0.62931 10:0.69009 11:0 12:0 13:0.99338 14:0 15:0 
-0.1486738133506078 1:1 2:0.8966 3:1.95841 4:3.98074 5:0 6:0.98977 7:1.20806 8:0 9:0.62338 10:0 11:0 12:0.98964 13:3.15894 14:0 15:0 
-0.111407907375585 1:3 2:0 3:2.00774 4:3.43356 5:0 6:1.42521 7:0 8:0 9:0 10:0.68478 11:0 12:0 13:0 14:0 15:0 
-0.1008059784981566 1:0 2:0 3:1 4:1 5:0.62722 6:1.46865 7:1.60057 8:0 9:0 10:0 11:0.68515 12:0 13:0 14:0 15:0 
-0.04214441765776662 1:0 2:1.26176 3:1.62553 4:3.06804 5:0 6:1.55572 7:0.63087 8:0 9:2.21093 10:0.69078 11:0 12:0 13:0.63087 14:0 15:0 
-0.03966118614644849 1:0 2:0 3:0.71014 4:4.54756 5:0 6:0 7:0.61074 8:0 9:0.60086 10:0 11:0 12:0.94301 13:1.58793 14:0 15:0 
-7.899244191746584 1:0 2:0 3:0 4:0.80405 5:0 6:1.50581 7:0 8:0 9:0 10:0 11:0 12:0 13:0 14:0 15:0 
-0.1151493464923248 1:13 2:0.75595 3:0.7037 4:1.97755 5:0 6:0.61589 7:0 8:0 9:1.39273 10:0 11:0 12:0.60112 13:0 14:0 15:0 
-0.1496558813459369 1:3 2:16.05706 3:1.70803 4:2.40295 5:0 6:1.84212 7:0.99338 8:0 9:0 10:0.69009 11:0 12:0 13:0.99338 14:0 15:0 
-0.1025939880231568 1:5 2:0 3:1.92809 4:3.87742 5:0 6:0.97442 7:0.61074 8:0 9:0 10:0.90991 11:0 12:0.94301 13:1.58969 14:0 15:0 
-0.01223604834771274 1:3 2:0 3:0.71014 4:4.98966 5:0 6:0.99488 7:0 8:0 9:0.61039 10:1 11:0 12:0.99482 13:0 14:0 15:0 
-0.1475691354149757 1:0 2:0.60652 3:1.62553 4:3.06675 5:0 6:1.55316 7:0 8:0 9:2.20234 10:0.69439 11:0 12:0 13:0 14:0 15:0 
-0.1349847317763251 1:1 2:11.84109 3:0.70803 4:1.40295 5:0 6:0.98777 7:0.99338 8:0 9:0.62931 10:0.69009 11:0 12:0 13:0.99338 14:0 15:0 
-0.0838729292142681 1:3 2:0.99614 3:1.3379 4:2.69604 5:0 6:0.98977 7:0.61074 8:0 9:0 10:0.93514 11:0 12:0.98964 13:1.58618 14:0 15:0 
-0.1469461948325392 1:0 2:0 3:0.71014 4:5.52946 5:0 6:0 7:0 8:0 9:1.20503 10:0.9045 11:0 12:0.94301 13:0 14:0 15:0 
-0.108608135582882 1:3 2:0 3:1.3142 4:4.35331 5:0 6:0 7:0.61074 8:0 9:0 10:0 11:0 12:0.99482 13:1.59495 14:0 15:0 
-0.01107031981729164 1:0 2:0 3:2.89227 4:3.45211 5:0 6:1.85422 7:0 8:0 9:0.64224 10:0 11:0 12:0.63784 13:0 14:0 15:0 
-0.148660146595586 1:3 2:0 3:2.87328 4:4.66581 5:0 6:3.23795 7:0 8:0 9:0.63362 10:0 11:0 12:0.63784 13:0 14:0 15:0 
-0.1105813450520815 1:3 2:0 3:1.73723 4:0.73723 5:0 6:1.62719 7:1.36859 8:0 9:0.62679 10:1.62816 11:0 12:0 13:1 14:0 15:0 
-0.1359232683214809 1:0 2:0 3:0 4:4.16807 5:0 6:0.97442 7:0.61074 8:0 9:1.20503 10:0.9045 11:0 12:0.94301 13:1.58793 14:0 15:0 
-0.2800175978653818 1:3 2:0 3:1.48611 4:3.42681 5:0 6:1.46897 7:0.66947 8:0 9:1.44875 10:0.68297 11:0 12:0 13:0 14:0 15:0 
-0.1742305126212679 1:2 2:0 3:0.72593 4:1.95875 5:0 6:2.08645 7:0.60927 8:0 9:0.61277 10:0 11:0 12:0 13:0.60927 14:0 15:0 
-0.1097588011807574 1:0 2:0.89815 3:1.3142 4:1.70281 5:0 6:0.99233 7:0.61074 8:0 9:0 10:0.97838 11:0 12:0 13:1.60372 14:0 15:0 
-0.1461054174793767 1:4 2:0.8966 3:0.62051 4:2.64057 5:0 6:0.98977 7:0.60403 8:0 9:0.62338 10:0 11:0 12:0.98964 13:1.57947 14:0 15:0 
-0.1497369717514808 1:10 2:0.75595 3:0.7037 4:1.97755 5:0 6:0.68142 7:0.61745 8:0 9:0 10:0 11:0 12:0.60112 13:0.61745 14:0 15:0 
-0.4623042795738754 1:0 2:0 3:1.36232 4:3.44032 5:0 6:2.96457 7:0 8:0 9:0 10:0 11:0 12:0 13:0 14:0 15:0 
-0.09898456586219245 1:13 2:0.75595 3:0.7037 4:1.97755 5:0 6:1.41129 7:0.61745 8:0 9:1.39273 10:0 11:0 12:0.60112 13:0.61745 14:0 15:0 
-24.88633994990509 1:0 2:0 3:1.35721 4:3.21735 5:0 6:0 7:0 8:0 9:0.63362 10:0 11:0 12:0 13:0 14:0 15:0 
-0.1372835435495962 1:1 2:12.1244 3:0.70803 4:1.40295 5:0 6:1.84638 7:0.99338 8:0 9:0.62931 10:0 11:0 12:0 13:0.99338 14:0 15:0 
-0.1148834559809281 1:6 2:0 3:0.73881 4:1.42568 5:0 6:2.27553 7:0 8:0 9:0 10:0 11:0.65099 12:0 13:0.82857 14:0 15:0 
-1.003777255869279 1:0 2:0.64591 3:1.43545 4:3.20176 5:0 6:1.82994 7:0 8:0 9:1.40052 10:0 11:0 12:0 13:0 14:0 15:0 
-4.955188078819649 1:0 2:0 3:0.69054 4:2.55068 5:0 6:1.50292 7:0 8:0 9:0.63362 10:0 11:0 12:0 13:0 14:0 15:0 
-0.09787234890259072 1:3 2:0.61053 3:1.3142 4:4.93557 5:0 6:0 7:0 8:0 9:1.20692 10:0.97838 11:0 12:0.98446 13:0.97719 14:0 15:0 
-0.2965241777772336 1:1 2:0 3:0 4:1.32317 5:0 6:1.56522 7:0 8:0 9:0 10:0 11:0 12:0.62722 13:0 14:0 15:0 
-0.02163650087231535 1:3 2:0 3:0.61282 4:4.26314 5:0 6:0.99233 7:0.61074 8:0 9:0.66667 10:0.98018 11:0 12:0.99482 13:0.61074 14:0 15:0 
-0.09006520170454252 1:0 2:0 3:1.31928 4:4.97478 5:0 6:0.99488 7:0.61074 8:0 9:0.61039 10:0.97117 11:0 12:0.98446 13:1.59495 14:0 15:0 
-0.1152422082636642 1:3 2:0 3:1.73723 4:1.34712 5:0 6:1.62719 7:1.36859 8:0 9:0.62679 10:1.62816 11:0 12:0.60989 13:1 14:0 15:0 
-0.120686218473294 1:3 2:0 3:1.92085 4:3.87558 5:0 6:0.96419 7:0.61074 8:0 9:1.21753 10:0 11:0 12:0.94301 13:1.58442 14:0 15:0 
-0.0295063711171347 1:3 2:0 3:1.31928 4:2.98448 5:0 6:0.99233 7:0.61074 8:0 9:0.61039 10:0.98559 11:0 12:0.98964 13:1.5739 14:0 15:0 
-0.1300084772006779 1:4 2:9.52799 3:0.70803 4:1.40295 5:0 6:1.8383 7:0.99338 8:1 9:0.62931 10:0.69009 11:0 12:0 13:0.99338 14:0 15:0 
-0.084249102157017 1:4 2:0 3:1.21795 4:3.88635 5:0 6:0.96419 7:0.61074 8:0 9:1.21753 10:0.90991 11:0 12:0.94301 13:1.58442 14:0 15:0 
-0.08512044586866883 1:3 2:0.89815 3:0.60406 4:4.23834 5:0 6:0.99233 7:0.61074 8:0 9:1.20692 10:0.97838 11:0 12:0.98446 13:1.58793 14:0 15:0 
-0.1082981765827598 1:3 2:0 3:1.73723 4:0.73723 5:0 6:0.77041 7:1.36859 8:0 9:0.62679 10:1 11:0 12:0 13:1 14:0 15:0 
-0.3467939630403845 1:0 2:0.63568 3:0.62327 4:1.50352 5:0 6:0.84278 7:0 8:0 9:1.87648 10:0.61429 11:0 12:0 13:0 14:0 15:0 
-0.09230935143158844 1:9 2:0 3:2.20811 4:2.4754 5:0 6:2.15688 7:0.67086 8:0 9:1.47126 10:0.66 11:0 12:0 13:0 14:0 15:0 
-0.04065540012819838 1:3 2:0.60938 3:1.31928 4:3.36205 5:0 6:0.99233 7:0.61074 8:0 9:0 10:0.98559 11:0 12:0 13:1.5739 14:0 15:0 
-2.603304099538037 1:0 2:0 3:1.35721 4:2.3964 5:0 6:1.50292 7:0 8:0 9:0.63362 10:0 11:0 12:0 13:0 14:0 15:0 
-0.04788397155832486 1:1 2:0 3:0.71014 4:5.52946 5:0 6:0.97442 7:0.61074 8:0 9:1.20503 10:0.9045 11:0 12:0.94301 13:1.58793 14:0 15:0 
-0.08911034206051066 1:3 2:0 3:1.31674 4:2.35395 5:0 6:0.99233 7:0.61074 8:0 9:0 10:0.96937 11:0 12:0 13:1.58267 14:0 15:0 
-0.1347405318206308 1:3 2:1 3:0.71739 4:3.35032 5:0 6:0.98977 7:0.61074 8:0 9:0 10:0 11:0 12:0 13:1.60372 14:0 15:0 
-0.07565276290396993 1:3 2:0 3:1.31928 4:4.97447 5:0 6:0.99233 7:1.23786 8:0 9:0.61039 10:0.98559 11:0 12:0.98964 13:1.5739 14:0 15:0 
-0.1389638345540023 1:0 2:0 3:1.31928 4:4.352 5:0 6:0.99488 7:0.61074 8:0 9:0 10:1.95794 11:0 12:0.98446 13:1.59495 14:0 15:0 
-0.1554661144661171 1:0 2:0.60652 3:1.62553 4:3.04844 5:0 6:2.26745 7:0.63758 8:0 9:2.20234 10:0.69439 11:0 12:0 13:0.63758 14:0 15:0 
-0.5384888817735857 1:0 2:0 3:0.76866 4:1.45211 5:0 6:0 7:0.66129 8:0 9:0.625 10:0 11:0 12:0 13:0 14:0 15:0 
-0.06336172022612634 1:0 2:0 3:0.74815 4:1.38319 5:0 6:0 7:0.7561 8:0 9:0.62931 10:0 11:0 12:0 13:0.7561 14:0 15:0 
-0.747296595107432 1:3 2:0 3:1.37478 4:2.4754 5:0 6:2.1778 7:0 8:0 9:0.63793 10:0.65818 11:0 12:0 13:0 14:0 15:0 
-0.1177097288986464 1:3 2:13.11069 3:1.70803 4:2.39617 5:0 6:1.84212 7:0.99338 8:0.99392 9:0.62931 10:0 11:0 12:0 13:0.99338 14:0 15:0 
-0.0921553045076051 1:6 2:0 3:0.73881 4:2.05475 5:0 6:1.52616 7:0 8:0 9:0 10:0 11:0 12:0.6257 13:0 14:0 15:0 
-0.09481311062430874 1:4 2:0 3:0.71739 4:3.98074 5:0 6:0.98977 7:0 8:0 9:0.62338 10:0.93694 11:0 12:0.98964 13:0 14:0 15:0 
-0.1487279456558583 1:0 2:0 3:0.61538 4:1.98125 5:0 6:0 7:0.61074 8:0 9:0 10:0.94775 11:0 12:0.99482 13:1.5932 14:0 15:0 
-0.1476351822530996 1:9 2:0 3:2.20811 4:0.68148 5:0 6:1.54839 7:0.67086 8:0 9:2.09787 10:0.65818 11:0 12:0 13:0 14:0 15:0 
-0.09489415407938294 1:6 2:0 3:1.73723 4:0.73723 5:0 6:1.63461 7:1.36859 8:0 9:0.62679 10:1 11:0 12:0 13:1 14:0 15:0 
-0.09821583290744056 1:3 2:0 3:1.31928 4:3.36205 5:0 6:0.99233 7:0 8:0 9:0 10:0.98559 11:0 12:0 13:0.96316 14:0 15:0 
-0.129167529480167 1:3 2:0 3:0.71533 4:1.41128 5:0 6:1.56522 7:1.40869 8:0 9:0 10:0 11:0 12:0 13:0 14:0 15:0 
-0.1227286020189601 1:6 2:0 3:1.73723 4:1.34712 5:0 6:2.23194 7:0 8:0 9:0.62679 10:1.62816 11:0 12:0.60989 13:1 14:0 15:0 
-0.07326515847238801 1:0 2:0 3:2 4:1 5:0.62722 6:1.46865 7:1 8:0 9:0 10:0 11:0 12:0 13:0 14:0 15:0 
-0.004015731907760313 1:3 2:0 3:1.31928 4:2.98004 5:0 6:0.99488 7:0.61074 8:0 9:0.61039 10:0.97117 11:0 12:0 13:1.59495 14:0 15:0 
-0.1313903154086333 1:1 2:0 3:1.3379 4:2.9911 5:0 6:0.98977 7:0.60403 8:0 9:0 10:0.93694 11:0 12:0 13:1.57947 14:0 15:0 
-0.1028289268092004 1:4 2:0 3:0.60406 4:3.60403 5:0 6:0.99488 7:0.61074 8:0 9:0.60606 10:1 11:0 12:0.99482 13:1.59495 14:0 15:0 
-0.1200351625465477 1:1 2:0.8966 3:1.3379 4:2.33497 5:0 6:0.98977 7:0.60403 8:0 9:0 10:0.93694 11:0 12:0 13:1.57947 14:0 15:0 
-0.1494095938753264 1:1 2:5.885 3:1.70803 4:2.39617 5:0 6:1.81785 7:0.99338 8:0 9:0.62931 10:0 11:0 12:0 13:0.99338 14:0 15:0 
-0.1495654659906411 1:5 2:14.10125 3:1.69971 4:2.39463 5:0 6:0.98089 7:0.98675 8:0 9:0.62931 10:0.68829 11:0 12:0 13:0.98675 14:0 15:0 
-0.08380067141398814 1:3 2:0 3:2.46941 4:1.99189 5:0 6:0.71171 7:0 8:0 9:0 10:0 11:0 12:0.63095 13:0 14:0 15:0 
-0.08333988079950413 1:3 2:1 3:1.33879 4:3.34211 5:0 6:0.98977 7:0 8:0 9:0 10:0.97297 11:0 12:0.98446 13:0.99298 14:0 15:0 
-0.1050518588309524 1:0 2:0 3:0.74638 4:1.37275 5:0 6:2.37651 7:0 8:0 9:0 10:1.4119 11:0.64641 12:0.62637 13:0 14:0 15:0 
-0.1309773299130734 1:3 2:0 3:1.31674 4:3.97656 5:0 6:1.99459 7:0 8:0 9:0.61472 10:0.97117 11:0 12:0.99482 13:0.96667 14:0 15:0 
-0.1483515011743139 1:2 2:0 3:0.92562 4:0.62637 5:0 6:0.86701 7:0 8:0 9:0 10:1.4119 11:0 12:0.62637 13:0 14:0 15:0 
-0.1361450834536311 1:3 2:0 3:1.93021 4:2.99453 5:0 6:0.9821 7:0.61074 8:0 9:0 10:0 11:0 12:0 13:1.60197 14:0 15:0 
-57.00432601119907 1:0 2:0 3:0.66667 4:3.21735 5:0 6:0.67683 7:0 8:0 9:0.63362 10:0 11:0 12:0 13:0 14:0 15:0 
-0.09107737935346721 1:6 2:0 3:1.73723 4:1.34712 5:0 6:0.85678 7:1.36859 8:0 9:0.62679 10:1.62816 11:0 12:0.60989 13:1 14:0 15:0 
-0.1237536927833888 1:3 2:0 3:2.87328 4:2.7962 5:0 6:3.23795 7:0 8:0 9:0.63362 10:0 11:0 12:0 13:0 14:0 15:0 
-0.1291581742153144 1:1 2:0 3:0.71014 4:5.50675 5:0 6:0.97442 7:0.61074 8:0 9:1.20503 10:0.9045 11:0 12:0.94301 13:0.61074 14:0 15:0 
-0.1498065007757596 1:4 2:12.28172 3:0 4:0 5:0 6:0 7:0.99338 8:1 9:0.62931 10:0 11:0 12:0 13:0.99338 14:0 15:0 
-0.1467553806544381 1:4 2:4.89219 3:1.71223 4:2.40376 5:0 6:0.98025 7:0.99338 8:0 9:0.625 10:0 11:0 12:0 13:0.99338 14:0 15:0 
-0.3403939818271081 1:0 2:0 3:2.18573 4:4.33559 5:0 6:2.23823 7:0.67437 8:0 9:1.45272 10:0.68297 11:0 12:0 13:0 14:0 15:0 
-0.0802121272977081 1:6 2:0 3:1.73723 4:1.34712 5:0 6:1.62719 7:1.36859 8:0 9:0.62679 10:1.62816 11:0 12:0.60989 13:1 14:0 15:0 
-0.06224061491814588 1:3 2:0 3:1.3379 4:3.98074 5:0 6:0.98977 7:0 8:0 9:0.62338 10:0 11:0 12:0.98964 13:0.97544 14:0 15:0 
-0.02667395600100632 1:3 2:0 3:2.46941 4:1.30502 5:0 6:2.24199 7:0 8:0 9:0 10:0 11:0 12:0.63095 13:0 14:0 15:0 
-0.09142028269452232 1:0 2:0.89815 3:1.3142 4:4.94848 5:0 6:0.99233 7:0.61074 8:0 9:1.20692 10:0.97838 11:0 12:0.98446 13:1.58793 14:0 15:0 
-1.854677515633514 1:0 2:0 3:0 4:0.82095 5:0 6:0.67683 7:0 8:0 9:0.63362 10:0 11:0 12:0 13:0 14:0 15:0 
-0.7833451252629164 1:0 2:0.63065 3:0.83958 4:2.98815 5:0 6:0.84278 7:0 8:0 9:0.625 10:0 11:0 12:0 13:0 14:0 15:0 
-0.8107603129853622 1:0 2:0.67143 3:0.68889 4:1.49294 5:0 6:1.50581 7:0 8:0 9:0 10:0 11:0 12:0 13:0 14:0 15:0 
-0.04366499752220264 1:3 2:0.89815 3:0.60406 4:4.25334 5:0 6:0 7:0.60403 8:0 9:0.60606 10:0.97297 11:0 12:0.99482 13:1.57596 14:0 15:0 
-0.1493051413121415 1:0 2:0 3:2.89227 4:3.98708 5:0 6:3.41459 7:0 8:0 9:0 10:0 11:0 12:0.63784 13:0 14:0 15:0 
-0.1448337443905775 1:6 2:0 3:2.47597 4:2.01681 5:0 6:2.24974 7:0 8:0 9:0 10:0 11:0 12:0.63095 13:0 14:0 15:0 
-0.1478081178550155 1:3 2:5.86372 3:1.70803 4:2.39617 5:0 6:1.81785 7:0.99338 8:0.99088 9:0 10:0 11:0 12:0 13:0.99338 14:0 15:0 
-0.02373010234423177 1:3 2:0 3:1.73723 4:1.34712 5:0 6:0.85678 7:1.36859 8:0 9:0.62679 10:1 11:0 12:0.60989 13:1 14:0 15:0 
-0.1329599477058523 1:3 2:0 3:1.3379 4:2.9911 5:0 6:0 7:1.21224 8:0 9:0.61905 10:0.93694 11:0 12:0 13:1.58442 14:0 15:0 
-0.08169775881316253 1:3 2:0.99846 3:1.31166 4:3.99484 5:0 6:0.99488 7:0.61745 8:0 9:0.61039 10:1 11:0 12:0 13:1.60166 14:0 15:0 
-6.523074606664845 1:0 2:0 3:1.35721 4:4.12286 5:0 6:1.50292 7:0 8:0 9:0.63362 10:0 11:0 12:0 13:0 14:0 15:0 
-0.02462665771584915 1:13 2:0.76892 3:0.7037 4:1.97755 5:0 6:0.7954 7:0 8:0 9:1.39273 10:0 11:0 12:0.60112 13:0 14:0 15:0 
-0.1489191418312804 1:8 2:0 3:1.21795 4:3.52996 5:0 6:0 7:0.61074 8:0 9:0 10:0.90991 11:0 12:0.94301 13:1.58969 14:0 15:0 
-0.1045241810262453 1:4 2:0 3:0 4:1.32317 5:0 6:2.30435 7:1.40869 8:0 9:0 10:0 11:0 12:0.62722 13:0 14:0 15:0 
-0.1307413735424646 1:1 2:0 3:1.3142 4:3.35331 5:0 6:0 7:0.61074 8:0 9:0 10:0 11:0 12:0.99482 13:1.59495 14:0 15:0 
-0.09875299582800243 1:3 2:0 3:1.40121 4:2.05138 5:0 6:2.27553 7:0 8:0 9:0 10:0 11:0.65099 12:0.6257 13:0.82857 14:0 15:0 
-0.09966109955835435 1:3 2:0 3:2.46941 4:1.99189 5:0 6:2.85149 7:0 8:0 9:0 10:0 11:0 12:0.63095 13:0 14:0 15:0 
-0.126153123108772 1:3 2:0 3:0.71014 4:3.99835 5:0 6:0.99488 7:0.62712 8:0 9:0 10:0.98559 11:0 12:0 13:0 14:0 15:0 
-0.2381001160764126 1:0 2:0 3:2.15698 4:3.8866 5:0 6:1.70615 7:0 8:0 9:0.64224 10:0 11:0 12:0.63784 13:0 14:0 15:0 
-0.08925921205902701 1:0 2:0.60652 3:1.62553 4:2.25723 5:0 6:1.55316 7:0.63758 8:0 9:2.20234 10:0.69439 11:0 12:0 13:0.63758 14:0 15:0 
-0.09118282240617215 1:0 2:0 3:2 4:1 5:0.62722 6:1.46865 7:1.61314 8:0 9:0 10:0 11:0.68515 12:0 13:0 14:0 15:0 
-0.4213396271961661 1:3 2:0 3:1.47159 4:1.36094 5:0 6:1.43381 7:0 8:0 9:0 10:0 11:0 12:0 13:0 14:0 15:0 
-0.1463259008166543 1:2 2:4.89219 3:1.71223 4:2.40376 5:0 6:0.85422 7:0.99338 8:0 9:0.625 10:0 11:0 12:0 13:0.99338 14:0 15:0 
-0.2034904302783889 1:3 2:0.60435 3:1.75595 4:2.37575 5:0 6:0.83887 7:0 8:0 9:0.97817 10:0.69801 11:0 12:0 13:0 14:0 15:0 
-0.1201171624268251 1:3 2:0 3:2.05585 4:3.32249 5:0 6:3.23795 7:0 8:0 9:0.63362 10:0 11:0 12:0 13:0 14:0 15:0 
-0.1188069800078451 1:6 2:0 3:1.40121 4:1.42568 5:0 6:1.54476 7:0 8:0 9:0 10:0 11:0.65099 12:0 13:0.82857 14:0 15:0 
-0.008012772271421836 1:3 2:0.89815 3:1.3142 4:4.94848 5:0 6:0.99233 7:0.61074 8:0 9:1.20692 10:0.97838 11:0 12:0.98446 13:1.58793 14:0 15:0 
-1.161232258143956 1:0 2:0 3:1.35721 4:2.3964 5:0 6:0 7:0 8:0 9:0.63362 10:0 11:0 12:0 13:0 14:0 15:0 
-0.05925359633039093 1:0 2:1.26176 3:1.62553 4:2.25723 5:0 6:0.71429 7:0 8:0 9:2.21093 10:0.69078 11:0 12:0 13:0 14:0 15:0 
-0.1497281597329349 1:2 2:3.89219 3:0.72263 4:1.41416 5:0 6:1.83447 7:0.99338 8:0 9:0.625 10:0 11:0 12:0 13:0.99338 14:0 15:0 
-0.1953911204790381 1:3 2:0 3:1.51765 4:2.76014 5:0 6:2.27971 7:0.66947 8:0 9:1.44875 10:0.68297 11:0 12:0 13:0 14:0 15:0 
-0.1487938631361005 1:6 2:0 3:1.37478 4:2.4754 5:0 6:1.42919 7:0.67086 8:0 9:1.26454 10:0.66 11:0 12:0 13:0 14:0 15:0 
-9.274535146387738 1:0 2:0 3:1.35721 4:3.21735 5:0 6:1.50292 7:0 8:0 9:1.24676 10:0 11:0 12:0 13:0 14:0 15:0 
-0.1185801265608967 1:0 2:0 3:2.82035 4:4.33559 5:0 6:2.96457 7:1.31671 8:0 9:1.45272 10:0.68297 11:0 12:0 13:0 14:0 15:0 
-0.08496935002531036 1:0 2:1.26176 3:1.62553 4:3.06804 5:0 6:0.71429 7:0.63087 8:0 9:2.21093 10:0.69078 11:0 12:0 13:0.63087 14:0 15:0 
-0.09403546605887114 1:1 2:0 3:1.92085 4:5.53778 5:0 6:0.96419 7:0.61074 8:0 9:1.21753 10:0.90991 11:0 12:0.94301 13:1.58442 14:0 15:0 
-0.08712582013921333 1:0 2:0 3:2 4:1 5:0.62722 6:0.62722 7:1 8:0 9:0 10:0 11:0.68515 12:0 13:0 14:0 15:0 
-0.08666860122756495 1:1 2:0 3:0.70073 4:0.70073 5:0 6:2.93104 7:0.66736 8:0 9:0 10:0 11:0 12:0 13:0 14:0 15:0 
-0.1500336234314284 1:6 2:0 3:2.89446 4:3.42681 5:0 6:2.27971 7:1.3264 8:0 9:1.44875 10:0.68297 11:0 12:0 13:0 14:0 15:0 
-0.1146864328994809 1:3 2:0.89815 3:0.60406 4:4.25334 5:0 6:0 7:0.60403 8:0 9:0.60606 10:0 11:0 12:0.99482 13:1.57596 14:0 15:0 
-0.1248099963574993 1:3 2:0.89815 3:1.3142 4:3.96866 5:0 6:0 7:0.60403 8:0 9:0.60606 10:0 11:0 12:0 13:0.60403 14:0 15:0 
-0.1471821270844629 1:2 2:7.67229 3:1 4:1.68814 5:0 6:0.85422 7:0.99338 8:0 9:0.62931 10:0 11:0 12:0 13:0.99338 14:0 15:0 
-0.05429271161258898 1:0 2:1 3:1.3316 4:4.95756 5:0 6:0.98977 7:0.61074 8:0 9:0.60606 10:0.97297 11:0 12:0.98446 13:1.60372 14:0 15:0 
-0.0432515189111088 1:3 2:0 3:2.46941 4:1.30502 5:0 6:1.51989 7:0 8:0 9:0 10:0 11:0 12:0.63095 13:0 14:0 15:0 
-0.1181652798413583 1:0 2:0 3:0.92562 4:0.62637 5:0 6:1.65528 7:0 8:0 9:0 10:1.4119 11:0 12:0.62637 13:0 14:0 15:0 
-0.005568875622092295 1:3 2:0.99846 3:1.31166 4:4.98966 5:0 6:0.99488 7:1.23609 8:0 9:0.60606 10:1 11:0 12:0.99482 13:1.60166 14:0 15:0 
-0.09879712964980453 1:2 2:13.5075 3:1.70803 4:2.40295 5:0 6:1.8383 7:0.61111 8:1 9:0.62931 10:0.69009 11:0 12:0 13:0 14:0 15:0 
-0.5844934739062084 1:0 2:0 3:0.70073 4:0.70073 5:0 6:2.24454 7:0.66736 8:0 9:0 10:0 11:0 12:0 13:0 14:0 15:0 
-22.1817195890633 1:0 2:0 3:1.35721 4:2.3964 5:0 6:0.82609 7:0 8:0 9:0.63362 10:0 11:0 12:0 13:0 14:0 15:0 
-0.1230356337861157 1:4 2:0 3:1.93021 4:5.53638 5:0 6:0.9821 7:0.61074 8:0 9:0.60606 10:0.89531 11:0 12:0.93264 13:1.60197 14:0 15:0 
-0.04457283483691959 1:0 2:0 3:2 4:1 5:0.62722 6:1.46865 7:0 8:0 9:0 10:0 11:0 12:0 13:0 14:0 15:0 
-0.1498858176353876 1:1 2:10.25586 3:1.70803 4:2.39617 5:0 6:0.9879 7:0 8:0.99392 9:0.62931 10:0 11:0 12:0 13:0 14:0 15:0 
-0.2036647032166194 1:0 2:0 3:0 4:0 5:0.85424 6:0 7:0 8:0 9:0.62661 10:0 11:0 12:0 13:0 14:0 15:0 
-0.0987134163667647 1:3 2:0 3:1.4787 4:4.41483 5:0 6:1.46156 7:0 8:0 9:0.81944 10:0.68478 11:0 12:0 13:0 14:0 15:0 
-0.1503793555665724 1:1 2:0 3:0 4:0 5:0 6:0.67775 7:0 8:0 9:2 10:0 11:0.86081 12:0 13:0 14:0 15:0 
-0.07073734408508466 1:3 2:0 3:1.3379 4:3.98074 5:0 6:0.98977 7:0.61074 8:0 9:1.2381 10:0.93514 11:0 12:0.98964 13:1.58442 14:0 15:0 
-0.03248550397020668 1:3 2:0 3:1.31928 4:3.36754 5:0 6:0.99488 7:0.61074 8:0 9:0.61039 10:0.97117 11:0 12:0 13:1.59495 14:0 15:0 
-0.1470836762133219 1:2 2:8.43735 3:1.70073 4:2.39226 5:0 6:0.85422 7:0.99338 8:0 9:0.62931 10:0.68829 11:0 12:0 13:0.99338 14:0 15:0 
-26.03666835069346 1:0 2:0 3:1.35721 4:3.21735 5:0 6:0.82609 7:0 8:0 9:0.63362 10:0 11:0 12:0 13:0 14:0 15:0 
-17.91606552845935 1:0 2:0 3:0 4:0 5:0 6:2.07816 7:0 8:0 9:0.6309 10:0 11:0 12:0 13:0 14:0 15:0 
-0.08070255691070573 1:3 2:1 3:0.71014 4:4.95031 5:0 6:0.99233 7:1.22091 8:0 9:0.60606 10:0.97297 11:0 12:0.98446 13:1.60372 14:0 15:0 
-6.713599917993114 1:0 2:0 3:0.74815 4:1.3816 5:0 6:0.82864 7:0 8:0 9:0 10:0 11:0 12:0 13:0 14:0 15:0 
-0.1133856387997533 1:0 2:0.60088 3:0.66667 4:3.07545 5:0 6:1.48897 7:0.65772 8:0 9:0.61538 10:1.35279 11:0 12:0 13:0.65772 14:0 15:0 
-0.1264760577983765 1:2 2:0 3:0.72593 4:1.95875 5:0 6:1.48489 7:0.60927 8:0 9:0.61277 10:0.70397 11:0 12:0 13:0.60927 14:0 15:0 
-0.1250383303066941 1:3 2:0 3:2.21586 4:0.88176 5:0 6:1.55889 7:0 8:0 9:0.81944 10:0 11:0 12:0 13:0 14:0 15:0 
-0.1700185208525544 1:0 2:0 3:0.66667 4:4.33559 5:0 6:2.24375 7:0.67437 8:0 9:0.62931 10:0.68297 11:0 12:0 13:0 14:0 15:0 
-0.1016237641611262 1:0 2:0 3:1.27481 4:1.46397 5:0 6:1.48897 7:0.65772 8:0 9:0.61538 10:1.35279 11:0 12:0 13:0.65772 14:0 15:0 
-0.1483764229017556 1:3 2:20.12996 3:1.69971 4:2.39463 5:0 6:1.83693 7:1.60796 8:0.97568 9:0.62931 10:0.68829 11:0 12:0 13:0.98675 14:0 15:0 
-0.1134770117070411 1:5 2:0 3:1.92809 4:3.87742 5:0 6:0.97442 7:0 8:0 9:0 10:0.90991 11:0 12:0.94301 13:0.97895 14:0 15:0 
-0.1058205482549245 1:3 2:1.57272 3:1.32296 4:4.97328 5:0 6:0.99233 7:0.61074 8:0 9:0.66667 10:0.98018 11:0 12:0.99482 13:1.60021 14:0 15:0 
-0.04007691185843367 1:0 2:0 3:0 4:0 5:0.85424 6:0 7:0 8:0 9:0.62661 10:0 11:0 12:0 13:0.66337 14:0 15:0 
-0.1470117600845889 1:3 2:0 3:1.3961 4:2.05475 5:0 6:1.52616 7:0 8:0 9:0 10:0 11:0 12:0.6257 13:0 14:0 15:0 
-0.1369162226306372 1:0 2:0 3:0.71014 4:4.97478 5:0 6:0 7:0.61074 8:0 9:0.61039 10:0 11:0 12:0.98446 13:0.61074 14:0 15:0 
-0.09587612253727616 1:0 2:1 3:1.3316 4:3.35288 5:0 6:0.98977 7:0.61074 8:0 9:0 10:0.97297 11:0 12:0.98446 13:0.61074 14:0 15:0 
-0.02112080608803945 1:3 2:0 3:1.3127 4:3.35388 5:0 6:0.99233 7:0 8:0 9:0 10:0.96937 11:0 12:0.99415 13:0.97193 14:0 15:0 
-0.1489740245088681 1:3 2:10.26699 3:0.99168 4:1.6866 5:0 6:1.83693 7:0.98675 8:0 9:0 10:0.68829 11:0 12:0 13:0.98675 14:0 15:0 
-0.08667132589719007 1:3 2:0 3:0.99782 4:0.63095 5:0 6:2.24199 7:0 8:0 9:0 10:0 11:0 12:0.63095 13:0 14:0 15:0 
-0.1129365585156134 1:4 2:0 3:0.7029 4:4.86201 5:0 6:0.96419 7:0 8:0 9:1.21753 10:0.90991 11:0 12:0.94301 13:0 14:0 15:0 
-0.1473060240512136 1:4 2:13.14702 3:1 4:1 5:0 6:0.85422 7:0.99338 8:1 9:0.62931 10:0.68829 11:0 12:0 13:0.99338 14:0 15:0 
-0.0938439223611469 1:0 2:0 3:1.27481 4:3.07545 5:0 6:1.48897 7:0.65772 8:0 9:0.61538 10:1.35279 11:0 12:0 13:0.65772 14:0 15:0 
-0.1467462725129373 1:4 2:14.21652 3:0.70803 4:1.40295 5:0 6:1.84212 7:0.98675 8:1 9:0.62931 10:0.68829 11:0 12:0 13:0.98675 14:0 15:0 
-0.08607579628486434 1:4 2:0 3:0.71533 4:2.0385 5:0 6:2.30435 7:1.40869 8:0 9:0 10:0 11:0 12:0.62722 13:0 14:0 15:0 
-0.08130995817119291 1:3 2:0.61111 3:0.71014 4:4.98966 5:0 6:0.99488 7:0 8:0 9:0.60606 10:1 11:0 12:0.99482 13:0 14:0 15:0 
-0.1414705665670037 1:0 2:0 3:0.71014 4:3.91068 5:0 6:0.97442 7:1.22145 8:0 9:0.60417 10:0 11:0 12:0 13:1.58793 14:0 15:0 
-0.1405040955293356 1:0 2:0.60652 3:2.5918 4:2.25723 5:0 6:0.71429 7:0.63758 8:0 9:2.55323 10:0.69439 11:0 12:0 13:0.63758 14:0 15:0 
-0.1503711616414345 1:2 2:0 3:0 4:0 5:1 6:1.39364 7:0 8:0 9:0.63793 10:0 11:0 12:0 13:0.66337 14:0 15:0 
-0.1217907029645773 1:3 2:0 3:1.48611 4:0.66667 5:0 6:0.72082 7:0.66947 8:0 9:1.44875 10:0.68297 11:0 12:0 13:0 14:0 15:0 
-0.1120627027781376 1:13 2:0.75595 3:0 4:1.27385 5:0 6:0.61589 7:0.61745 8:0 9:1.39273 10:0 11:0 12:0.60112 13:0.61745 14:0 15:0 
-0.3595605981071489 1:0 2:0.63065 3:2.20978 4:3.7363 5:0 6:1.47726 7:0 8:0 9:1.87953 10:0 11:0 12:0 13:0 14:0 15:0 
-0.1494786490542424 1:4 2:11.07735 3:1.70803 4:2.40295 5:0 6:1.84212 7:0 8:1 9:0.62931 10:0.68829 11:0 12:0 13:0 14:0 15:0 
-0.1496336220135566 1:5 2:12.34912 3:0 4:0 5:0 6:1.84402 7:0.98013 8:0 9:0.62931 10:0.68829 11:0 12:0 13:0.98013 14:0 15:0 
-0.002360445364202657 1:3 2:0 3:2.18432 4:3.42681 5:0 6:2.27971 7:0.66947 8:0 9:1.44875 10:0.68297 11:0 12:0 13:0 14:0 15:0 
-0.0759213142700941 1:0 2:0 3:1.31928 4:3.9793 5:0 6:0.99488 7:0.61074 8:0 9:0.61039 10:0.97117 11:0 12:0.98446 13:1.59495 14:0 15:0 
-2.863303489484405 1:0 2:0 3:2.20978 4:3.74833 5:0 6:1.47726 7:0 8:0 9:1.25453 10:0 11:0 12:0 13:0 14:0 15:0 
-0.1401993714258393 1:9 2:0 3:1.52418 4:1.79392 5:0 6:2.15688 7:0.67086 8:0 9:2.09787 10:0.66 11:0 12:0 13:0 14:0 15:0 
-0.08231095500820385 1:3 2:0 3:0.71014 4:4.94848 5:0 6:0.99233 7:0 8:0 9:1.20692 10:0.97838 11:0 12:0.98446 13:0 14:0 15:0 
-0.1497550959675705 1:5 2:7.92791 3:1.70803 4:2.39617 5:0 6:1.84402 7:1.58321 8:0 9:0.62931 10:0.68829 11:0 12:0 13:0.98013 14:0 15:0 
-0.09207961153771779 1:4 2:0.8966 3:1.3379 4:3.98074 5:0 6:0.98977 7:1.20553 8:0 9:0.62338 10:0.93694 11:0 12:0.98964 13:1.57947 14:0 15:0 
-0.2781819018574472 1:3 2:0 3:2.18432 4:3.42681 5:0 6:1.55889 7:0.66947 8:0 9:1.44875 10:0 11:0 12:0 13:0 14:0 15:0 
-0.03678600173894749 1:3 2:0.89815 3:1.3142 4:3.34307 5:0 6:0.99233 7:0.60403 8:0 9:0.60606 10:0.96396 11:0 12:0 13:1.58122 14:0 15:0 
-0.1117805277048425 1:4 2:0 3:0.7029 4:4.59477 5:0 6:0.96419 7:0 8:0 9:0.61667 10:0.90991 11:0 12:0 13:0 14:0 15:0 
-0.1151977330673767 1:0 2:0.99614 3:1.3379 4:3.98074 5:0 6:0 7:0.61074 8:0 9:0.62338 10:0.93514 11:0 12:0.98964 13:1.58618 14:0 15:0 
-0.09547297880272371 1:1 2:0 3:1.93021 4:5.53638 5:0 6:0.9821 7:0.61074 8:0 9:0.60606 10:0.89531 11:0 12:0.93264 13:1.60197 14:0 15:0 
-0.4333128285079708 1:0 2:0 3:1.62553 4:3.06128 5:0 6:0 7:0 8:0 9:2.20234 10:0 11:0 12:0 13:0 14:0 15:0 
-0.1497589837722708 1:1 2:2.92423 3:0.70803 4:1.39617 5:0 6:1.81785 7:0.60526 8:0.99088 9:0 10:0 11:0 12:0 13:0 14:0 15:0 
-0.1394225370247291 1:3 2:0 3:0.71739 4:2.9911 5:0 6:0 7:0 8:0 9:0.61905 10:0.93514 11:0 12:0 13:0 14:0 15:0 
-0.08084672324814218 1:4 2:0 3:0.71533 4:2.0385 5:0 6:1.47826 7:1.40869 8:0 9:0 10:0 11:0 12:0.62722 13:0 14:0 15:0 
-0.07192601837895157 1:0 2:0.97068 3:1.32296 4:2.36301 5:0 6:0.99233 7:0.61074 8:0 9:0 10:0.98018 11:0 12:0 13:1.60021 14:0 15:0 
-0.2607273847289742 1:3 2:0 3:1.57045 4:0.88176 5:0 6:0.81074 7:0.66947 8:0 9:1.48645 10:0 11:0 12:0 13:0 14:0 15:0 
-0.144185675572379 1:1 2:11.80695 3:0.70803 4:1.40295 5:0 6:0.9879 7:0.99338 8:1 9:1.25431 10:0 11:0 12:0 13:0.99338 14:0 15:0 
-0.2059723202240193 1:3 2:0 3:0.71014 4:1.9935 5:0 6:0.99233 7:0 8:0 9:0.61039 10:0.96937 11:0 12:0 13:0 14:0 15:0 
-0.05651351226322705 1:3 2:0.99846 3:1.31166 4:4.32774 5:0 6:0.99488 7:0.61745 8:0 9:0.60606 10:0 11:0 12:0.99482 13:1.60166 14:0 15:0 
-18.09246426704517 1:0 2:0 3:0 4:1.27812 5:0 6:0.80563 7:0 8:0 9:0.63362 10:0 11:0 12:0 13:0 14:0 15:0 
-0.1493305583988018 1:3 2:5.86372 3:1 4:1 5:0 6:0.95924 7:0.99338 8:0.99088 9:0 10:0 11:0 12:0 13:0.99338 14:0 15:0 
-0.09372952484317734 1:6 2:0 3:0.73723 4:1.34712 5:0 6:1.62719 7:1.36859 8:0 9:0.62679 10:1.62816 11:0 12:0.60989 13:1 14:0 15:0 
-0.07928494927243766 1:3 2:0 3:1.79534 4:0.63095 5:0 6:2.24199 7:0 8:0 9:0 10:0 11:0 12:0.63095 13:0 14:0 15:0 
-0.1855065720275528 1:0 2:0 3:0.60152 4:2.6176 5:0 6:0.99488 7:0 8:0 9:0.61039 10:1 11:0 12:0.99482 13:0 14:0 15:0 
-0.1444381708120923 1:0 2:1 3:0 4:2.59735 5:0 6:0.99233 7:0.61074 8:0 9:0 10:0.97297 11:0 12:0 13:1.60372 14:0 15:0 
-0.09578776677281357 1:1 2:0 3:0.71014 4:4.54756 5:0 6:0.97442 7:0.61074 8:0 9:0.60086 10:0.9045 11:0 12:0.94301 13:1.58793 14:0 15:0 
-0.09543931395075153 1:0 2:0.89545 3:0.71014 4:3.34619 5:0 6:0.99233 7:0.60403 8:0 9:0 10:0.97297 11:0 12:0.99482 13:0.60403 14:0 15:0 
-0.1195574419496228 1:3 2:0 3:1.21282 4:3.48486 5:0 6:0 7:0.61074 8:0 9:0.60606 10:0 11:0 12:0.93264 13:1.60197 14:0 15:0 
-0.03281879502546076 1:3 2:0.89815 3:1.3142 4:4.94848 5:0 6:0.99233 7:0.61074 8:0 9:1.20692 10:0.97838 11:0 12:0.98446 13:1.58793 14:0 15:0 
-0.05400055958420364 1:3 2:0 3:2.46941 4:1.99189 5:0 6:2.24199 7:0 8:0 9:0 10:0 11:0 12:0.63095 13:0 14:0 15:0 
-0.1386608861660084 1:0 2:0 3:1.73723 4:1.34712 5:0 6:1.62719 7:1.36859 8:0 9:0.62679 10:1.62816 11:0 12:0.60989 13:1 14:0 15:0 
-0.0951651463935132 1:0 2:0 3:1.3379 4:3.35796 5:0 6:0.98977 7:0.61074 8:0 9:0 10:0.93514 11:0 12:0.98964 13:1.58442 14:0 15:0 
-0.1224225821877175 1:6 2:0 3:1.40121 4:2.05138 5:0 6:2.27553 7:0 8:0 9:0 10:0 11:0.65099 12:0.6257 13:0.82857 14:0 15:0 
-0.124018266592397 1:6 2:0 3:0.73881 4:1.36451 5:0 6:2.27553 7:0 8:0 9:0 10:0 11:0 12:0.6257 13:0 14:0 15:0 
-0.1493305297874039 1:3 2:1.7963 3:1.20812 4:5.24785 5:0 6:0.99233 7:1.20806 8:0 9:0.60606 10:0.97297 11:0 12:0.99482 13:3.15192 14:0 15:0 
-0.1086615818738551 1:3 2:0.97068 3:1.32296 4:1.99484 5:0 6:0 7:0.61074 8:0 9:0.66667 10:0.98018 11:0 12:0 13:1.60021 14:0 15:0 
-0.1110338160772586 1:3 2:0 3:0.71014 4:4.95031 5:0 6:0 7:0.61074 8:0 9:0.60606 10:0.97297 11:0 12:0.98446 13:1.60372 14:0 15:0 
-0.05692186215377382 1:1 2:0 3:0.7029 4:4.87942 5:0 6:0.96419 7:0.61074 8:0 9:1.21753 10:0.90991 11:0 12:0.94301 13:1.58442 14:0 15:0 
-0.1319337906324324 1:4 2:0 3:2.91604 4:4.41483 5:0 6:2.2723 7:0.67017 8:0 9:1.45306 10:0.68478 11:0 12:0 13:0 14:0 15:0 
-0.0955799306426062 1:1 2:0 3:0.70073 4:0.70073 5:0 6:2.24454 7:0.66736 8:0 9:0 10:0 11:0 12:0 13:0 14:0 15:0 
-0.1060715886936633 1:3 2:0.89815 3:1.3142 4:3.96585 5:0 6:0 7:0.61074 8:0 9:0.61039 10:0.97838 11:0 12:0 13:1.60372 14:0 15:0 
-0.1319222787734739 1:3 2:13.19758 3:0.99168 4:1.6866 5:0 6:1.83693 7:0.98675 8:0.97568 9:0.62931 10:0.68829 11:0 12:0 13:0.98675 14:0 15:0 
-0.2023905975405094 1:0 2:0.75595 3:0.7037 4:1.37643 5:0 6:0 7:0.61745 8:0 9:1.39273 10:0 11:0 12:0 13:0.61745 14:0 15:0 
-0.02121755486051115 1:0 2:0 3:2 4:1 5:0.62722 6:1.46865 7:1 8:0 9:0 10:0 11:0.68515 12:0 13:0 14:0 15:0 
-38.58102847552477 1:0 2:0 3:0.76471 4:1.37732 5:0 6:0.80563 7:0 8:0 9:0.63362 10:0 11:0 12:0 13:0 14:0 15:0 
-0.1454495134743926 1:6 2:0 3:1.82105 4:0.82105 5:0 6:0.77041 7:2.01019 8:0 9:0 10:1.62816 11:0 12:0 13:0 14:0 15:0 
-0.05760881610442856 1:0 2:0.60435 3:1.64484 4:2.25113 5:0 6:0.83887 7:0 8:0 9:1.60317 10:0.69801 11:0 12:0 13:0 14:0 15:0 
-0.134519759206771 1:4 2:8.61437 3:0.70803 4:0.70803 5:0 6:1.84212 7:0.98675 8:1 9:0.62931 10:0.68829 11:0 12:0 13:0.98675 14:0 15:0 
-0.06959593276600243 1:3 2:0.89815 3:1.3142 4:4.94848 5:0 6:0.99233 7:1.22091 8:0 9:1.20692 10:0.97838 11:0 12:0.98446 13:1.58793 14:0 15:0 
-0.1488958677479013 1:3 2:11.63792 3:1.70803 4:2.40295 5:0 6:0 7:0.99338 8:0 9:0.62931 10:0.69009 11:0 12:0 13:0.99338 14:0 15:0 
-0.09023428612359691 1:3 2:0.99846 3:1.31166 4:2.33292 5:0 6:0 7:0.61745 8:0 9:0 10:1 11:0 12:0 13:1.60166 14:0 15:0 
-0.04486444604660297 1:3 2:0 3:0.71014 4:4.98966 5:0 6:0.99488 7:0.61745 8:0 9:0.61039 10:1 11:0 12:0.99482 13:0.61745 14:0 15:0 
-0.1181050024096349 1:3 2:0 3:1.35747 4:4.41483 5:0 6:2.2723 7:0.67017 8:0 9:0.63362 10:0.68478 11:0 12:0 13:0 14:0 15:0 
-0.1022974631459493 1:3 2:0 3:2.18432 4:3.42681 5:0 6:2.88744 7:0.66947 8:0 9:0.81944 10:0.68297 11:0 12:0 13:0 14:0 15:0 
-0.2172124570172764 1:3 2:0 3:1.3961 4:2.05475 5:0 6:0.79795 7:0 8:0 9:0 10:0 11:0 12:0.6257 13:0 14:0 15:0 
-0.1327749533397849 1:0 2:0.60652 3:1.62553 4:3.06128 5:0 6:0.83887 7:1.27516 8:0 9:1.58696 10:0.69439 11:0 12:0 13:1.27516 14:0 15:0 
-0.4562396263887739 1:0 2:0 3:2.18573 4:4.33559 5:0 6:0.70667 7:0 8:0 9:0.82341 10:0.68297 11:0 12:0 13:0 14:0 15:0 
-0.1475481723093056 1:3 2:0.89815 3:0.60406 4:0.62278 5:0 6:0.99233 7:0.61074 8:0 9:1.20692 10:0.97838 11:0 12:0 13:1.58793 14:0 15:0 
-0.07776265835093109 1:3 2:0.89815 3:0.71014 4:4.95031 5:0 6:0.99233 7:0.61074 8:0 9:0.61039 10:0.97838 11:0 12:0.98446 13:0.61074 14:0 15:0 
-0.14580013260518 1:3 2:14.43559 3:1.69971 4:2.39463 5:0 6:1.83693 7:0.98675 8:0.97568 9:0 10:0.68829 11:0 12:0 13:0.98675 14:0 15:0 
-0.03818172587655753 1:3 2:0 3:1.3142 4:4.96348 5:0 6:0.99233 7:0.60403 8:0 9:0.60606 10:0.97297 11:0 12:0.99482 13:0.60403 14:0 15:0 
