svm_type c_svc
kernel_type rbf
gamma 0.125
nr_class 2
total_sv 827
rho 0.603758
label 1 -1
probA -3.11381
probB 0.161948
nr_sv 331 496
SV
2 1:12 2:21.9998 3:4.83174 4:7.70197 5:0.99474 6:1.98641 7:4.76138 8:0.82716 9:1.99174 10:0.74009 11:1.49733 12:0.99322 13:1.73919 14:1.71322 15:1 
2 1:3 2:4.7855 3:1.49372 4:1.72682 5:1.44841 6:1.59485 7:2.27818 8:0 9:0 10:0 11:0.81157 12:0 13:0 14:0 15:0 
0.4893062618298232 1:3 2:4.25891 3:2.41462 4:4.38343 5:2.22392 6:2.25325 7:2.2767 8:0.71111 9:0.6584 10:1.78 11:0.81157 12:0 13:0.88976 14:0 15:0 
1.37265457121331 1:3 2:2.39154 3:0.92045 4:3.50017 5:2.22392 6:3.03192 7:2.99247 8:0.70679 9:0.6584 10:0.80037 11:0.81157 12:0 13:0 14:0 15:0 
0.3667290060049377 1:12 2:16.18487 3:4.83174 4:8.52132 5:0.99474 6:1.98641 7:4.75897 8:0.82716 9:1.98938 10:0.74009 11:1.49733 12:0.99322 13:1.73919 14:1.71086 15:0.99764 
1.984178311744125 1:12 2:11.23796 3:4.82821 4:4.52943 5:0.99474 6:1.98641 7:2.96724 8:0 9:1.98938 10:0.74009 11:0.78543 12:0 13:0.72 14:1.71086 15:0.99764 
2 1:3 2:3.64335 3:1.70616 4:4.38298 5:1.44841 6:2.36991 7:2.23131 8:0.70679 9:0 10:0.80037 11:0.81157 12:0 13:0.88201 14:0.86691 15:0 
1.547850123262569 1:0 2:6.23777 3:1.62846 4:2.74109 5:0.69841 6:2.28192 7:2.2767 8:0 9:0.6584 10:0.99586 11:0.81157 12:0 13:0 14:0 15:0 
2 1:3 2:3.62599 3:2.41417 4:3.50017 5:2.22392 6:2.18707 7:2.99247 8:0.70679 9:0.6584 10:0 11:0.81157 12:0 13:0 14:0 15:0 
0.2262595101800506 1:12 2:14.21687 3:4.83174 4:8.52132 5:0.99474 6:1.98641 7:5.75897 8:0.82716 9:1.98938 10:0.74009 11:1.49733 12:0.99322 13:1.73919 14:1.71086 15:0.99764 
0.1808602866344262 1:0 2:6.32545 3:3.27233 4:4.38298 5:1.52551 6:3.03192 7:2.99247 8:0.70679 9:0.6584 10:1.79623 11:0.81157 12:0 13:0.88976 14:0 15:0 
2 1:0 2:4.73752 3:3.85104 4:4.35945 5:2.22392 6:3.13152 7:2.19122 8:0.72174 9:2.09482 10:0.99586 11:0.81157 12:0.7351 13:0.88976 14:1.58096 15:0 
0.799394618762989 1:9 2:21.73795 3:1.9929 4:7.67642 5:0.99474 6:0.99467 7:5.75897 8:0.82716 9:0.99764 10:0.74009 11:1.49733 12:0.99322 13:1.73919 14:1.71086 15:0.99764 
0.6363137535008718 1:0 2:4.11071 3:3.85104 4:4.15079 5:2.22392 6:3.05264 7:2.23131 8:0.70679 9:2.09482 10:1.79623 11:0 12:0.7351 13:0.88976 14:1.58096 15:0 
0.3038745640754398 1:5 2:3.50621 3:2.19998 4:4.06833 5:7.86049 6:0.67493 7:3.00192 8:0 9:0.67493 10:0.69892 11:1.73026 12:0 13:0.73324 14:0 15:0 
2 1:0 2:6.27489 3:3.85104 4:5.11853 5:1.47392 6:1.45779 7:2.99247 8:0.70679 9:2.09482 10:1.79623 11:0.81157 12:0.7351 13:0.88976 14:1.58096 15:0 
1.092299078868026 1:12 2:19.11005 3:3.83884 4:6.52975 5:0.99474 6:1.98641 7:4.96248 8:0 9:1.98938 10:0.74009 11:1.49733 12:0.99322 13:1.73919 14:1.71086 15:0.99764 
0.2534886550608734 1:2 2:0.71471 3:1.51204 4:5.05124 5:7.22688 6:1.47493 7:3.00192 8:0 9:1.64844 10:1.6776 11:1.73383 12:0 13:0 14:0 15:0 
0.5258139778830346 1:5 2:2.02458 3:2.8222 4:4.06757 5:4.08709 6:2.08574 7:2.2038 8:0.73765 9:1.64844 10:0.97868 11:1.73026 12:0 13:0.74869 14:0 15:0 
2 1:8 2:24.9158 3:3.83522 4:6.53318 5:0.99474 6:1.98641 7:2.96419 8:0 9:0.99174 10:0.74009 11:1.46244 12:0.99322 13:1.73919 14:0 15:0 
0.9244227705099554 1:12 2:13.31173 3:2.98942 4:6.67775 5:0.99474 6:1.98641 7:4.96178 8:0 9:1.98938 10:0.74009 11:0.7119 12:0.99322 13:1.73919 14:1.71086 15:0.99764 
0.9273175370587042 1:3 2:5.03639 3:3.85059 4:4.38298 5:2.22392 6:3.02831 7:2.19122 8:0.70679 9:2.09482 10:0.80037 11:0.81157 12:0 13:0.88201 14:0.82544 15:0 
0.8419557270849789 1:15 2:19.11005 3:3.83522 4:8.52132 5:0.99474 6:1.98641 7:5.75897 8:0.82716 9:0.99174 10:0.74009 11:0.7119 12:0.99322 13:1.73919 14:0 15:0 
2 1:12 2:21.9998 3:3.83174 4:5.63851 5:0 6:1.98641 7:4.75897 8:0 9:1.98938 10:0.74009 11:0.78543 12:0.99322 13:0 14:1.71086 15:0.99764 
1.523709878907784 1:9 2:20.9998 3:1.98942 4:5.67642 5:0.99474 6:1.98641 7:5.75897 8:0.82716 9:0.99174 10:0 11:1.49733 12:0.99322 13:1.73919 14:0 15:0 
0.7263181914162213 1:12 2:17.00963 3:4.83174 4:8.3512 5:0.99474 6:2.97815 7:4.76587 8:0 9:1.98348 10:1.48018 11:0.7119 12:0.99322 13:1.73919 14:0.71322 15:0 
2 1:5 2:7.65293 3:4.31051 4:5.08945 5:2.64324 6:3.15639 7:3.03034 8:1.78638 9:2.56661 10:0.9631 11:0 12:0 13:0.87402 14:0.9601 15:0 
2 1:5 2:4.13354 3:5.02627 4:5.08945 5:2.64324 6:3.15639 7:1.45492 8:0 9:2.56661 10:0.9631 11:0.81586 12:0 13:0.87402 14:0.9601 15:0 
0.02679355580141939 1:5 2:2.16073 3:0 4:3.64494 5:4.43722 6:0.67493 7:2.33802 8:0.73765 9:0.67493 10:0.69892 11:1.73026 12:0 13:0.74869 14:0 15:0 
1.811627666575062 1:12 2:18.44184 3:3.83884 4:6.53895 5:0.99474 6:1.98641 7:4.78788 8:0 9:1.98938 10:0.74009 11:1.53182 12:0.99322 13:1.73919 14:1.71086 15:0.99764 
0.1380599452662847 1:0 2:4.95542 3:3.85104 4:5.11853 5:2.22392 6:3.05264 7:2.19122 8:0.70679 9:2.09482 10:1.79623 11:0.81157 12:0.7351 13:0.88976 14:1.58096 15:0 
1.463681338726841 1:3 2:5.66139 3:3.85059 4:4.38298 5:0.77551 6:0.77867 7:1.51554 8:0.70679 9:1.43642 10:0.80037 11:0.81157 12:0 13:0.88976 14:0.82544 15:0 
0.2458687760860138 1:3 2:4.86364 3:3.85059 4:4.38298 5:2.22392 6:1.59485 7:2.99247 8:0.70679 9:1.43642 10:1.79623 11:0 12:0 13:0.88976 14:0.82544 15:0 
0.2912293068280208 1:5 2:2.16073 3:2.19998 4:4.77748 5:7.9135 6:0.8 7:3.00192 8:0.73765 9:0 10:1.6776 11:0 12:0 13:0 14:0 15:0 
1.487185096922637 1:3 2:7.65293 3:5.02627 4:5.08945 5:0.95349 6:3.31551 7:3.03034 8:0 9:1.91923 10:0.9631 11:0.81586 12:0 13:0.87402 14:0.9601 15:0 
1.757897495666224 1:5 2:8.37793 3:5.02627 4:5.81338 5:2.64324 6:4.80222 7:3.03034 8:1.78638 9:2.56661 10:0.9631 11:0.81586 12:0.72393 13:0.87402 14:0.9601 15:0 
1.267113722283832 1:0 2:3.62599 3:1.49372 4:1.73571 5:2.22392 6:1.59485 7:0.80125 8:0 9:0 10:1.79623 11:0.81157 12:0 13:0.88976 14:0 15:0 
2 1:5 2:4.28132 3:4.30127 4:3.3709 5:2.66948 6:3.84873 7:2.264 8:1.78638 9:2.56661 10:0.9631 11:0.81586 12:0 13:0.87402 14:0.9601 15:0 
2 1:12 2:23.36615 3:4.83174 4:8.52132 5:0.99474 6:1.98641 7:5.75897 8:0 9:1.98938 10:0.74009 11:1.49733 12:0.99322 13:1.73919 14:1.71086 15:0.99764 
1.559177260783621 1:15 2:15.11838 3:3.83522 4:6.7125 5:0.99474 6:1.98641 7:2.76828 8:0.82716 9:1.98938 10:0.74009 11:1.49733 12:0.99322 13:1.73919 14:1.71086 15:0.99764 
0.01836577860759003 1:9 2:21.9998 3:4.83174 4:7.5281 5:0.99474 6:1.98641 7:4.96178 8:0.82716 9:0.99174 10:0.74009 11:1.49733 12:0 13:1.73919 14:0 15:0 
1.038662552578013 1:12 2:21.99757 3:4.83174 4:8.52132 5:0.99474 6:1.98641 7:4.76587 8:0.82716 9:0.99174 10:0.74009 11:2.28276 12:0.99322 13:1.73919 14:0 15:0 
2 1:3 2:4.28132 3:2.39128 4:3.23652 5:1.68975 6:3.84873 7:1.54852 8:0.99691 9:0.64738 10:0 11:0 12:0 13:0 14:0 15:0 
0.1569740810697014 1:5 2:7.65293 3:4.13738 4:4.19424 5:3.37176 6:4.80222 7:2.33024 8:0 9:2.56661 10:0.9631 11:0.81586 12:0 13:0.87402 14:0.9601 15:0 
0.09709595503327148 1:0 2:2.7915 3:1.51204 4:3.32818 5:7.27512 6:1.47493 7:1.39578 8:0.73765 9:1.64844 10:1.6776 11:1.73026 12:0 13:0.74869 14:0 15:0 
2 1:0 2:3.49466 3:2.22213 4:3.46253 5:2.22392 6:3.05264 7:2.99247 8:0.70679 9:2.09482 10:0.99586 11:0 12:0 13:0.88567 14:1.58096 15:0 
0.824347641334655 1:2 2:6.14378 3:1.44076 4:4.20056 5:1.68975 6:3.8506 7:1.57542 8:0.99691 9:0.64925 10:0.9631 11:0.81586 12:0 13:0.87402 14:0 15:0 
1.670031179145051 1:6 2:9.25436 3:2.83522 4:4.64904 5:0 6:0.99467 7:3.76138 8:0.82716 9:0.99764 10:0 11:0 12:0.99322 13:0 14:0.99764 15:0.99764 
2 1:10 2:14.34288 3:4.83174 4:8.52132 5:0.99474 6:1.98641 7:4.76587 8:0.82716 9:1.98938 10:0.74009 11:1.54627 12:0.99322 13:1.73919 14:1.71086 15:0.99764 
0.2134047992712826 1:3 2:3.4429 3:3.85059 4:3.43379 5:1.44841 6:1.59485 7:0.71429 8:0.70679 9:1.43642 10:1.79623 11:0.81157 12:0 13:0.88976 14:0.82544 15:0 
2 1:12 2:14.12648 3:3.83174 4:6.52132 5:0.99474 6:1.98641 7:2.76828 8:0.82716 9:1.98938 10:0.74009 11:1.49733 12:0.99322 13:0.73919 14:1.71086 15:0.99764 
0.1467122697545661 1:5 2:7.65293 3:1.44076 4:3.43488 5:1.66351 6:4.81718 7:2.2909 8:0.99691 9:0 10:0.9631 11:0.81586 12:0 13:0.87402 14:0 15:0 
2 1:12 2:19.03018 3:1.98942 4:5.67642 5:0 6:1.98641 7:3.75835 8:0.82716 9:1.98938 10:0.74009 11:1.49733 12:0.99322 13:0.73919 14:1.71086 15:0.99764 
0.9108182786110252 1:3 2:4.26121 3:3.85104 4:5.00369 5:1.52551 6:3.05264 7:1.43006 8:0.70679 9:2.09482 10:0.99586 11:0.81157 12:0.7351 13:0.88976 14:1.58096 15:0 
0.7623884373340329 1:10 2:16.23263 3:4.83174 4:8.52132 5:0.99474 6:0.99467 7:5.75786 8:0.82716 9:0.99764 10:0.74009 11:0.7119 12:0.99322 13:1.73919 14:1.78588 15:0.99764 
0.3097705136250536 1:6 2:7.65293 3:3.10704 4:5.08945 5:2.64324 6:4.0565 7:3.03034 8:1.78638 9:0.64738 10:0.9631 11:0.81586 12:0 13:0.87402 14:0.9601 15:0 
0.0164245421831226 1:2 2:1.34548 3:2.83507 4:3.05518 5:7.9135 6:1.49699 7:2.2038 8:0.73765 9:1.64844 10:1.6776 11:0.86024 12:0 13:0 14:0 15:0 
2 1:3 2:2.77182 3:2.93014 4:3.45134 5:1.52551 6:3.88033 7:1.56241 8:0.70679 9:2.09482 10:1.79623 11:0.81157 12:0 13:0.88201 14:0.82544 15:0 
0.1198475166470072 1:5 2:2.7915 3:2.19998 4:6.34177 5:7.9135 6:1.47493 7:3.00192 8:0.73765 9:1.64844 10:1.6776 11:1.73026 12:0.60335 13:0.74869 14:0 15:0 
1.358035669863865 1:5 2:2.7915 3:2.19998 4:5.73842 5:11.98447 6:1.47493 7:2.27004 8:0.73765 9:1.64844 10:1.6776 11:1.73026 12:0 13:0.74869 14:0 15:0 
1.03142200550451 1:12 2:17.00813 3:4.83174 4:8.52132 5:0.99474 6:1.98641 7:5.75897 8:0.82716 9:1.98938 10:0.74009 11:1.49733 12:0.99322 13:1.73919 14:1.71086 15:0.99764 
0.4475998989914665 1:5 2:4.13354 3:5.02627 4:3.23895 5:2.64324 6:3.96289 7:1.45492 8:0 9:2.56661 10:0.9631 11:0.81586 12:0 13:0.87402 14:0.9601 15:0 
0.7887587947712724 1:3 2:3.65357 3:3.85104 4:4.38343 5:2.22392 6:3.1316 7:2.99247 8:0.70679 9:2.09482 10:0.80037 11:0 12:0 13:0.88976 14:1.58096 15:0 
1.272676744765753 1:8 2:11.31918 3:2.98942 4:4.97426 5:0.99474 6:0.99174 7:5.75897 8:0.82716 9:1.98938 10:0.74009 11:0 12:0.99322 13:1 14:1.71086 15:0.99764 
0.5816497300458211 1:12 2:18.00813 3:5.43812 4:6.64904 5:0 6:1.98641 7:5.75767 8:0 9:1.59812 10:0.74009 11:0.78543 12:0.99322 13:1 14:0.69741 15:0 
1.269506696871552 1:0 2:6.9175 3:4.29989 4:4.36445 5:2.64324 6:2.37506 7:2.264 8:0 9:2.56523 10:0.9631 11:0.81586 12:0 13:0.87402 14:0.9601 15:0 
0.008020071886181476 1:3 2:2.07679 3:2.19998 4:2.91968 5:7.9135 6:1.47493 7:1.47192 8:0 9:1.64844 10:1.6776 11:1.73026 12:0 13:0 14:0 15:0 
1.004972792736434 1:5 2:13.19232 3:4.83174 4:6.53318 5:0.99474 6:1.98641 7:4.96178 8:0.82716 9:1.98938 10:0.74009 11:1.49733 12:0.99322 13:1.73919 14:1.69291 15:0.99764 
1.540050277447064 1:3 2:6.83121 3:3.35999 4:4.20056 5:2.64324 6:3.38065 7:2.2909 8:1.78638 9:1.91923 10:0.9631 11:0.8204 12:0 13:0.87402 14:0.9601 15:0 
0.1332950803630395 1:3 2:5.04044 3:3.06533 4:4.38343 5:2.22392 6:3.05264 7:2.99247 8:0.70679 9:2.09482 10:0.80037 11:0 12:0 13:0.88976 14:1.58096 15:0 
0.96685526253381 1:5 2:2.7915 3:0.68794 4:2.22329 5:7.9135 6:1.47493 7:0.80802 8:0 9:2.62195 10:1.6776 11:0.86024 12:0 13:0 14:0 15:0 
0.880842413413894 1:15 2:18.20834 3:5.46884 4:7.5281 5:0.99474 6:1.98641 7:4.96178 8:0.82716 9:2.62648 10:0.74009 11:0.7119 12:0 13:1.73919 14:1.71086 15:0.99764 
0.6785377801144312 1:10 2:21.00356 3:5.44763 4:6.52943 5:0.99474 6:0.99467 7:4.96178 8:0 9:1.61353 10:0.74009 11:1.49733 12:0 13:1.73919 14:1.71086 15:0.99764 
1.595736630753507 1:0 2:2.7915 3:0.68794 4:5.06996 5:6.69704 6:0.8 7:0.79812 8:0.73765 9:0.97351 10:1.6776 11:1.72873 12:0 13:0.75667 14:0 15:0 
0.5188939960851195 1:2 2:3.76267 3:3.53312 4:5.08945 5:2.64324 6:3.15639 7:3.03034 8:0 9:2.56661 10:0.9631 11:0 12:0 13:0.87402 14:0.9601 15:0 
1.865418451851156 1:5 2:16.88753 3:2.98942 4:7.67642 5:0.99474 6:0.99174 7:4.75894 8:0 9:1.98938 10:0.74009 11:1.49733 12:0.99322 13:1.73919 14:1.71086 15:0.99764 
1.357873245013034 1:3 2:5.03458 3:3.85059 4:4.39416 5:2.22392 6:2.18707 7:2.99247 8:0.70679 9:2.09482 10:0.80037 11:0.81157 12:0 13:0.88976 14:0.82544 15:0 
1.07175967810104 1:9 2:21.9954 3:4.83174 4:8.52132 5:0.99474 6:1.98641 7:4.75897 8:0.82716 9:1.98938 10:0.74009 11:1.49733 12:0.99322 13:1.73919 14:1.71086 15:0.99764 
2 1:0 2:4.23728 3:3.11731 4:5.08945 5:1.66351 6:2.50901 7:2.21632 8:0 9:0 10:0.9631 11:0 12:0 13:0.87402 14:0.9601 15:0 
0.5105906186947485 1:6 2:14.02029 3:4.83174 4:5.71383 5:0.99474 6:0.99467 7:3.96178 8:0 9:0.99764 10:0 11:0.7119 12:0.99322 13:1.73919 14:1.71086 15:0.99764 
1.341543162635343 1:12 2:12.45762 3:3.83884 4:6.5352 5:0 6:0.99174 7:3.79478 8:0 9:1.98938 10:0 11:1.49733 12:0 13:1.73919 14:1.71086 15:0.99764 
0.2490019547728217 1:3 2:7.65293 3:4.30127 4:3.59877 5:2.64324 6:3.21439 7:3.03034 8:1.78638 9:2.56661 10:0.9631 11:0.81586 12:0 13:0.87402 14:0.9601 15:0 
0.9803282977029364 1:5 2:2.16073 3:2.19998 4:5.73842 5:1.30692 6:2.27263 7:2.1939 8:0.73765 9:0.67493 10:0 11:0 12:0 13:0.74869 14:0 15:0 
0.8463009524897189 1:5 2:4.05483 3:5.02627 4:5.08945 5:1.93322 6:3.96289 7:3.03191 8:1.78638 9:2.56661 10:0.9631 11:0.81586 12:0 13:0.87402 14:0.9601 15:0 
1.048604787001239 1:0 2:6.28889 3:3.14303 4:5.11853 5:2.22392 6:3.05264 7:2.99247 8:0.70679 9:2.09482 10:1.79623 11:0.81157 12:0.7351 13:0.88976 14:1.58096 15:0 
1.200339062058839 1:3 2:4.19958 3:2.14443 4:3.46253 5:2.22392 6:3.03192 7:2.27818 8:0.70679 9:2.09482 10:1.79623 11:0.81157 12:0 13:0.88976 14:0.82544 15:0 
2 1:5 2:4.61879 3:5.02627 4:4.32377 5:1.93322 6:3.2467 7:1.57542 8:1.78638 9:2.56661 10:0.9631 11:0.81586 12:0 13:0.87402 14:0.9601 15:0 
0.03677203797770771 1:5 2:2.7915 3:0.68794 4:5.04203 5:4.1629 6:1.47493 7:1.60614 8:0.73765 9:1.64844 10:1.6776 11:1.73026 12:0 13:0.74869 14:0 15:0 
1.248972902075744 1:5 2:5.65593 3:3.51239 4:5.06872 5:1.68181 6:3.84873 7:0.71548 8:1.78638 9:2.56661 10:0.9631 11:0.81586 12:0 13:0.87402 14:0.9601 15:0 
1.02630535279406 1:15 2:20.00725 3:4.83174 4:6.52943 5:0.99474 6:1.98641 7:3.96419 8:0.82716 9:0.99174 10:0.74009 11:0.7119 12:0 13:1.73919 14:0 15:0 
0.1438113107676529 1:5 2:2.07679 3:2.19998 4:4.77748 5:10.13993 6:1.47493 7:3.00192 8:0.73765 9:1.64844 10:1.6776 11:0.86024 12:0 13:0 14:0 15:0 
0.07339317923546267 1:3 2:5.65116 3:2.41417 4:1.88819 5:1.47392 6:0.6584 7:2.2767 8:0 9:0.6584 10:0 11:0 12:0 13:0 14:0 15:0 
1.176292267829216 1:6 2:3.41646 3:3.85104 4:3.50062 5:2.22392 6:3.04311 7:3.00372 8:0.70679 9:2.09482 10:1.79623 11:0.81157 12:0 13:0 14:1.58096 15:0 
1.801419736581887 1:0 2:4.11071 3:1.62891 4:2.64772 5:0.69841 6:0.84485 7:2.2767 8:0.70679 9:0 10:1.79623 11:0.81157 12:0 13:0 14:0 15:0 
0.4757697778821834 1:8 2:2.07679 3:1.50359 4:4.33288 5:5.0756 6:1.47493 7:1.60261 8:0.73765 9:0.67493 10:0.69892 11:0.87002 12:0 13:0.74869 14:0 15:0 
1.093792025365905 1:12 2:11.68041 3:1.98942 4:5.67642 5:0.99474 6:1.98641 7:2.79478 8:0 9:1.98938 10:0.74009 11:1.49733 12:0.99322 13:0.73919 14:1.71086 15:0.99764 
2 1:0 2:2.79612 3:2.19998 4:4.77748 5:4.1629 6:1.47493 7:2.1939 8:0 9:1.64844 10:1.6776 11:0.86024 12:0 13:0 14:0 15:0 
2 1:11 2:13.46678 3:1.99652 4:5.69405 5:0.99474 6:1.98641 7:3.79029 8:0 9:0.99174 10:0.74009 11:1.49733 12:0.99322 13:1.73919 14:0.71322 15:0 
0.7637811640443559 1:0 2:2.8037 3:2.19998 4:5.73842 5:7.9135 6:1.47493 7:3.00192 8:0.73765 9:0.67493 10:1.6776 11:1.73026 12:0 13:0.74869 14:0 15:0 
0.3186605596961501 1:9 2:21.9998 3:4.83174 4:6.81916 5:0 6:1.98641 7:5.75897 8:0 9:1.98938 10:0.74009 11:0.78543 12:0.99322 13:1 14:1.71086 15:0.99764 
2 1:18 2:21.9998 3:4.83174 4:8.52132 5:0 6:1.98641 7:4.76587 8:0.82716 9:0.99174 10:0.74009 11:1.49733 12:0.99322 13:1.73919 14:0 15:0 
1.658436775259981 1:12 2:15.02153 3:2.98942 4:4.69506 5:0.99474 6:0 7:4.96178 8:0 9:0.99764 10:0 11:1.49733 12:0 13:1.73919 14:1.71086 15:0.99764 
1.592499362361093 1:6 2:14.15227 3:1.9929 4:6.79361 5:0.99474 6:1.98641 7:4.76587 8:0.82716 9:0.99174 10:0.74009 11:0 12:0.99322 13:1 14:0 15:0 
0.5878250596857808 1:5 2:7.65293 3:5.02627 4:5.08945 5:2.64324 6:4.02803 7:3.03034 8:1.78638 9:2.56661 10:0.9631 11:0.81586 12:0 13:0.87402 14:0.9601 15:0 
0.5856390876886899 1:0 2:2.7915 3:2.19998 4:3.17223 5:5.0756 6:0.8 7:2.93935 8:0 9:0.97351 10:0.69892 11:0.89 12:0 13:0 14:0 15:0 
0.02145936609606968 1:0 2:2.08862 3:0.70801 4:1.85055 5:0.77551 6:2.28823 7:1.56241 8:0.70679 9:0.66471 10:1.79623 11:0 12:0 13:0.88976 14:0 15:0 
0.6007324002052942 1:0 2:5.49136 3:4.24888 4:5.08945 5:0 6:2.36202 7:1.50578 8:0 9:1.91923 10:0.9631 11:0.81586 12:0 13:0.87402 14:0.9601 15:0 
2 1:5 2:7.65293 3:4.31181 4:4.36445 5:2.64324 6:2.37506 7:3.03034 8:1.78638 9:2.56661 10:0.9631 11:0.81586 12:0 13:0.87402 14:0.9601 15:0 
2 1:3 2:3.62599 3:2.41417 4:4.38298 5:0.75 6:2.2084 7:2.99247 8:0.70679 9:0.6584 10:0.80037 11:0.81157 12:0 13:0.88976 14:0 15:0 
1.368302814757971 1:3 2:0 3:3.85059 4:3.4986 5:1.52551 6:2.18707 7:2.2767 8:0.70679 9:2.09482 10:0.99586 11:0.81157 12:0 13:0 14:0.82544 15:0 
0.2831756791439198 1:12 2:19.49064 3:5.82481 4:8.52132 5:0.99474 6:1.98641 7:4.76138 8:0.82716 9:0.99174 10:0.74009 11:1.49733 12:0.99322 13:1.73919 14:0 15:0 
1.561472750623089 1:3 2:2.08862 3:3.85059 4:3.53008 5:2.22392 6:1.4084 7:0.71429 8:0.70679 9:2.09482 10:0.80037 11:0.81157 12:0 13:0.88976 14:0.82544 15:0 
0.4263477047532878 1:5 2:5.26487 3:1.91923 4:2.61618 5:1.93322 6:2.37506 7:2.22126 8:0 9:2.56661 10:0 11:0.81586 12:0 13:0 14:0.9601 15:0 
0.3519217869059859 1:6 2:20.99696 3:4.83322 4:7.63851 5:0.99474 6:1.98641 7:5.75897 8:0.82716 9:0.99174 10:0.74009 11:0.78543 12:0.99322 13:1 14:0 15:0 
2 1:3 2:6.14808 3:3.50315 4:2.62739 5:2.64324 6:2.51659 7:2.264 8:1.78638 9:1.91923 10:0 11:0.81586 12:0 13:0 14:0.9601 15:0 
0.3668963161992014 1:5 2:1.45602 3:0 4:3.52789 5:7.27512 6:1.47493 7:1.60614 8:0 9:0.67493 10:1.6776 11:1.73026 12:0 13:0.74869 14:0 15:0 
0.566321734720866 1:3 2:2.76625 3:1.51204 4:4.22428 5:7.27512 6:0 7:1.39578 8:0 9:0.97351 10:1.6776 11:0.87002 12:0 13:0.74869 14:0 15:0 
0.6154021407545865 1:3 2:5.71311 3:1.49372 4:2.70345 5:0.75 6:2.37352 7:2.99247 8:0.70679 9:0 10:1.79623 11:0.81157 12:0 13:0.88976 14:0 15:0 
2 1:0 2:2.79184 3:2.19998 4:5.02927 5:4.46366 6:0.8 7:3.00192 8:0.73026 9:0.97351 10:0.69892 11:1.73026 12:0 13:0.74869 14:0 15:0 
2 1:10 2:7.68895 3:2.83884 4:3.64694 5:0 6:0.99467 7:2.99069 8:0 9:0 10:0 11:0.76471 12:0.99322 13:0 14:0 15:0 
0.793775775083452 1:2 2:2.7915 3:2.19998 4:3.81578 5:0.63838 6:1.47493 7:3.00192 8:0.73765 9:1.64844 10:0.97868 11:0.86024 12:0 13:0 14:0 15:0 
1.44502238181835 1:12 2:22.99385 3:4.83174 4:7.5281 5:0.99474 6:1.98641 7:4.96178 8:0.82716 9:1.98938 10:0.74009 11:2.20923 12:0 13:2.4523 14:1.71086 15:0.99764 
0.6077199425801655 1:8 2:15.03219 3:2.98942 4:6.85707 5:0.99474 6:1.98641 7:5.75646 8:0.82716 9:1.98938 10:0.74009 11:0.7119 12:0.99322 13:1.73919 14:1.71086 15:0.99764 
2 1:3 2:7.54919 3:4.30127 4:3.37258 5:1.93322 6:2.37506 7:3.03034 8:1.78638 9:2.56661 10:0.9631 11:0.81586 12:0 13:0.87402 14:0.9601 15:0 
0.9297040808406635 1:12 2:15.34029 3:2.8378 4:8.52132 5:0.99474 6:0.99174 7:6.75207 8:0.82716 9:0.99174 10:0.74009 11:1.49733 12:0.99322 13:1.73919 14:0 15:0 
0.772244900284466 1:7 2:10.24841 3:4.83174 4:7.52265 5:0.99474 6:1.98641 7:4.76138 8:0.82716 9:0.99174 10:0.74009 11:1.49733 12:0.99322 13:1.73919 14:0 15:0 
2 1:3 2:3.49902 3:2.41417 4:4.38298 5:2.22392 6:3.88033 7:2.99247 8:0.70679 9:0.6584 10:0.99586 11:0.81157 12:0 13:0.88201 14:0.82544 15:0 
1.79037250672058 1:9 2:16.61858 3:3.83884 4:6.53895 5:0.99474 6:0 7:1 8:0 9:0 10:0.74009 11:1.54385 12:0.99322 13:1.73919 14:0 15:0 
2 1:3 2:5.66139 3:3.37225 4:5.30343 5:2.21995 6:3.02795 7:3.70676 8:0.70679 9:1.4073 10:1.79623 11:0.81157 12:0 13:0.88976 14:0.82544 15:0 
2 1:9 2:20.97042 3:3.83174 4:6.52132 5:0 6:0.99467 7:3.76138 8:0 9:0.99764 10:0 11:1.49733 12:0.99322 13:0.73919 14:1.71086 15:0.99764 
0.5780159253114528 1:1 2:4.04633 3:2.41462 4:1.67998 5:0.75 6:2.39424 7:2.23131 8:0.70679 9:0 10:0.99586 11:0.81157 12:0 13:0 14:0 15:0 
0.4658770450563064 1:3 2:2.16073 3:2.19998 4:5.73842 5:7.27512 6:0 7:3.00192 8:0 9:0 10:1.6776 11:0.87002 12:0 13:0.74869 14:0 15:0 
1.381525003793405 1:0 2:2.7915 3:0.68794 4:3.37194 5:4.38898 6:1.47493 7:0.79812 8:0.73765 9:0.67493 10:0 11:1.71009 12:0 13:0 14:0 15:0 
2 1:5 2:8.03744 3:3.42162 4:2.34763 5:0.71002 6:3.20135 7:1.57072 8:1.78638 9:1.91923 10:0 11:0.81586 12:0 13:0 14:0.9601 15:0 
1.778201690959117 1:9 2:18.44004 3:3.83884 4:7.5172 5:0.99474 6:1.98641 7:3.99069 8:0 9:1.98938 10:0.74009 11:1.49733 12:0.99322 13:1.73919 14:1.71086 15:0.99764 
1.469232926134041 1:8 2:15.20321 3:4.83174 4:6.70197 5:0.99474 6:1.98641 7:3.75897 8:0 9:0.99174 10:0.74009 11:1.49733 12:0.99322 13:0.73919 14:0 15:0 
1.870638743694108 1:5 2:8.0238 3:3.41238 4:3.47556 5:2.64324 6:2.37506 7:2.2909 8:0 9:2.56661 10:0.9631 11:0.81586 12:0 13:0.87402 14:0.9601 15:0 
0.2152775079590269 1:15 2:20.17654 3:4.83174 4:7.70197 5:0.99474 6:1.98641 7:5.75897 8:0.82716 9:1.98938 10:0.74009 11:1.49733 12:0.99322 13:1.73919 14:1.71086 15:0.99764 
0.5617390779969182 1:0 2:5.66139 3:3.85059 4:0.92045 5:2.22392 6:3.03073 7:1.43006 8:0.72241 9:2.09482 10:0.99586 11:0.81157 12:0 13:0 14:0.82544 15:0 
1.139284817266996 1:2 2:1.34548 3:2.19998 4:5.73842 5:4.1629 6:0.67493 7:3.00192 8:0.73765 9:1.64844 10:1.6776 11:1.73026 12:0 13:0.74869 14:0 15:0 
2 1:3 2:8.27129 3:3.10704 4:4.2325 5:2.65006 6:3.39737 7:2.22126 8:0.99691 9:0 10:0.9631 11:0.81586 12:0 13:0.87402 14:0 15:0 
1.2071492974693 1:6 2:20.17654 3:4.83174 4:7.63851 5:0 6:1.98641 7:4.76138 8:0.82716 9:1.98938 10:0.74009 11:0.78543 12:0.99322 13:1 14:1.71086 15:0.99764 
0.9012587871668789 1:3 2:4.73752 3:2.41462 4:5.26624 5:1.45363 6:1.59485 7:2.99247 8:0.70679 9:0 10:1.79623 11:0.81157 12:0 13:1.76608 14:0 15:0 
0.2889167933093587 1:5 2:0.71471 3:1.51204 4:4.15438 5:3.47628 6:1.47493 7:3.76166 8:0.73765 9:1.64844 10:1.6776 11:1.73026 12:0 13:0.74869 14:0 15:0 
0.159505085652536 1:12 2:12.46124 3:3.83884 4:5.65239 5:0.99474 6:1.98641 7:2.79478 8:0 9:1.98938 10:0.74009 11:0.78543 12:0 13:1 14:1.71086 15:0.99764 
0.6672493150351886 1:5 2:7.65293 3:5.02627 4:3.37312 5:0.95349 6:3.1729 7:2.22126 8:0 9:2.56661 10:0 11:0 12:0 13:0 14:0.9601 15:0 
0.4891411440083031 1:5 2:2.16073 3:1.51204 4:2.36648 5:3.52452 6:0.67493 7:1.39578 8:0.73765 9:1.64844 10:1.6776 11:1.73026 12:0 13:0.74869 14:0 15:0 
1.453196046756807 1:5 2:2.7915 3:1.51204 4:5.05048 5:3.51125 6:1.47493 7:2.2038 8:0.73765 9:1.64844 10:1.6776 11:1.73026 12:0 13:0.74869 14:0 15:0 
2 1:5 2:2.7915 3:2.19998 4:5.73842 5:3.47628 6:1.47493 7:1.39578 8:0.73765 9:1.64844 10:1.6776 11:1.73026 12:0 13:0.74869 14:0 15:0 
0.06383026288654119 1:3 2:2.86785 3:2.14443 4:2.34708 5:1.47392 6:2.31011 7:1.47693 8:0.70679 9:2.09482 10:0.99586 11:0 12:0.7351 13:0.87939 14:1.58096 15:0 
0.4947126461009672 1:12 2:11.35033 3:2.83522 4:5.63851 5:0 6:1.98641 7:4.75897 8:0 9:1.98938 10:0.74009 11:0 12:0.99322 13:0 14:1.71086 15:0.99764 
0.2686517515896563 1:5 2:2.78954 3:2.19998 4:5.73842 5:7.27271 6:1.47493 7:3.80994 8:0.72973 9:1.64844 10:1.6776 11:1.73026 12:0 13:0.74869 14:0 15:0 
1.619064612094455 1:3 2:3.01835 3:2.93014 4:2.70345 5:2.22392 6:2.18707 7:2.27818 8:0 9:2.09482 10:0.80037 11:0.81157 12:0 13:0.88976 14:0.82544 15:0 
0.7100362538200895 1:3 2:3.01835 3:2.41417 4:5.26579 5:2.22392 6:1.4084 7:2.2767 8:0.70679 9:0.6584 10:0.80037 11:0.81157 12:0 13:1.77952 14:0 15:0 
0.1002798988385783 1:5 2:3.41862 3:0.68794 4:5.04203 5:7.9135 6:1.47493 7:1.60614 8:0.73765 9:1.64844 10:1.68372 11:1.73026 12:0 13:0.74869 14:0 15:0 
2 1:0 2:2.66221 3:1.43642 4:2.67354 5:0.75 6:2.18707 7:2.27818 8:0.70679 9:2.09482 10:0 11:0.81157 12:0 13:0 14:0.82544 15:0 
0.6779403138080934 1:8 2:19.1803 3:4.83174 4:9.5092 5:0.99474 6:1.98641 7:4.76587 8:0.82716 9:0.99174 10:0.74009 11:1.49733 12:0.99322 13:1.73919 14:0 15:0 
0.5850359131374524 1:3 2:7.65293 3:4.13738 4:2.44133 5:1.93322 6:2.54132 7:2.31486 8:1.78638 9:1.91923 10:0.9631 11:0.81586 12:0 13:0.87402 14:0.9601 15:0 
0.7208196523778041 1:5 2:5.65593 3:1.50239 4:4.20056 5:1.93322 6:4.80222 7:1.52456 8:1.78638 9:0.64738 10:0.9631 11:0.81586 12:0 13:0.87402 14:0.9601 15:0 
0.4327870256597297 1:10 2:21.00575 3:4.83174 4:8.3512 5:0.99474 6:0.99467 7:6.75897 8:0 9:0.99764 10:0.74009 11:1.49733 12:0.99322 13:2.73919 14:1.71086 15:0.99764 
2 1:12 2:14.03219 3:2.98942 4:6.85707 5:0.99474 6:0.99174 7:4.76649 8:0.82716 9:1.98938 10:0.74009 11:1.49733 12:0.99322 13:1.73919 14:1.71086 15:0.99764 
1.574246309465704 1:0 2:5.42072 3:1.70661 4:3.26798 5:1.44841 6:1.59485 7:2.23131 8:0.70679 9:0 10:0.80037 11:0.81157 12:0.7351 13:0 14:0 15:0 
1.661877275704407 1:3 2:3.60246 3:2.41462 4:3.26798 5:1.47392 6:1.50325 7:2.2767 8:0.70679 9:0.6584 10:0.99586 11:0.81157 12:0.7351 13:0 14:1.58096 15:0 
0.03895184499038939 1:3 2:3.65692 3:1.62891 4:3.38282 5:0.69841 6:0.84485 7:1.47545 8:0 9:0 10:0.99586 11:0.81157 12:0.7351 13:0 14:0 15:0 
0.8682172817788087 1:0 2:2.7915 3:2.19998 4:4.06833 5:5.0756 6:0.8 7:3.00192 8:0.73765 9:0.97351 10:0.69892 11:0.86024 12:0 13:0 14:0 15:0 
1.771029942985233 1:11 2:19.12605 3:2.98942 4:6.68695 5:0.99474 6:0.99174 7:3.76587 8:0.82716 9:1.98938 10:0.74009 11:1.49733 12:0.99322 13:1.73919 14:1.71086 15:0.99764 
2 1:3 2:1.22097 3:2.20173 4:1.85463 5:1.44841 6:1.41429 7:2.99247 8:0.70312 9:0.66429 10:0 11:0 12:0 13:0 14:0.83117 15:0 
0.6601534933132249 1:7 2:15.23858 3:4.83174 4:8.52132 5:0.99474 6:1.98641 7:4.76138 8:0.82716 9:1.98938 10:0 11:0.78543 12:0.99322 13:1.73919 14:1.71086 15:0.99764 
1.738609136295778 1:12 2:20.11005 3:2.98942 4:7.67642 5:0.99474 6:1.98641 7:4.76138 8:0.82716 9:1.98938 10:0.74009 11:1.49733 12:0.99322 13:1.73919 14:1.71086 15:0.99764 
1.924655186428706 1:3 2:2.14501 3:2.41417 4:3.50017 5:2.22392 6:3.03192 7:2.99247 8:0.70679 9:0.6584 10:0.99586 11:0 12:0 13:0 14:0 15:0 
0.3610090865680504 1:3 2:3.62599 3:2.93014 4:4.19763 5:2.22392 6:3.05264 7:1.47693 8:0.70679 9:2.09482 10:1.79623 11:0.81157 12:0.7351 13:0.88976 14:1.58096 15:0 
0.2145160211124721 1:12 2:15.26685 3:3.83174 4:6.52132 5:0.99474 6:0.99467 7:3.76138 8:0 9:0 10:0 11:1.49733 12:0.99322 13:0.73919 14:0.71322 15:0 
0.05637501814225011 1:3 2:3.65357 3:3.88396 4:2.56279 5:1.44841 6:3.21368 7:2.23131 8:0.69474 9:1.43642 10:1.79623 11:0 12:0 13:0.88976 14:0 15:0 
1.500654119639619 1:8 2:8.52795 3:4.83174 4:6.7125 5:0.99474 6:1.98641 7:4.75897 8:0 9:1.98938 10:0.74009 11:1.49733 12:0.99322 13:0.73919 14:1.71086 15:0.99764 
0.7372468185102876 1:3 2:3.51638 3:2.22213 4:2.49479 5:1.52551 6:3.03192 7:0 8:0.70679 9:2.09482 10:1.79623 11:0.81543 12:0 13:0.88976 14:0.82544 15:0 
0.5087533568965872 1:0 2:2.7915 3:2.19998 4:5.73842 5:7.9135 6:1.47493 7:3.00192 8:0.73765 9:1.64844 10:1.6776 11:1.73026 12:0 13:0.74869 14:0 15:0 
0.05831186671012701 1:3 2:3.61183 3:2.22213 4:2.49479 5:2.22411 6:4.01349 7:2.27818 8:0.70679 9:2.09482 10:1.79623 11:0.81157 12:0 13:0.86301 14:1.58096 15:0 
1.093532184831575 1:3 2:3.39682 3:1.49372 4:2.60963 5:2.22392 6:3.71849 7:2.27818 8:0.70679 9:0.6584 10:1.79623 11:0.81858 12:0 13:0.88976 14:0 15:0 
1.332437863302499 1:8 2:15.45524 3:3.83884 4:5.53653 5:0.99474 6:0.99467 7:2.9931 8:0 9:0.99764 10:0 11:0.7119 12:0 13:1.73919 14:1.71086 15:0.99764 
0.8937826003066547 1:12 2:14.12583 3:3.83174 4:4.7125 5:0 6:1.98641 7:5.75897 8:0.82716 9:0.99174 10:0.74009 11:1.49733 12:0.99322 13:1.73919 14:0 15:0 
1.313778489822878 1:12 2:12.64579 3:0.99652 4:3.80071 5:0 6:0.99174 7:3.78788 8:0 9:1.99174 10:0.74009 11:0.78543 12:0.99322 13:0 14:1 15:1 
2 1:12 2:16.55209 3:3.83884 4:4.71718 5:0.99474 6:1.98641 7:2.99069 8:0.82716 9:0.99174 10:0.74009 11:1.49733 12:0 13:1.73919 14:0 15:0 
2 1:3 2:6.9175 3:5.82364 4:3.46682 5:1.67284 6:2.29321 7:1.50578 8:1.78638 9:2.56661 10:0.9631 11:0.81586 12:0 13:0.87402 14:0.9601 15:0 
1.05600408360572 1:5 2:7.65293 3:5.02627 4:4.32377 5:1.68975 6:3.84873 7:1.54852 8:1.78638 9:2.56661 10:0.9631 11:0.81586 12:0 13:0.87402 14:0.9601 15:0 
0.6218195397661729 1:0 2:2.07679 3:2.19998 4:5.73842 5:7.30156 6:1.51947 7:2.27004 8:0 9:0.71947 10:1.6776 11:1.72638 12:0 13:1.63275 14:0 15:0 
0.219217404827981 1:0 2:4.51458 3:4.77194 4:4.33659 5:2.97392 6:3.80264 7:2.9456 8:0.69707 9:2.09482 10:1.79623 11:0.81157 12:0 13:0.87678 14:1.58096 15:0 
0.3156497805154752 1:5 2:5.75967 3:5.02627 4:5.08945 5:2.64324 6:4.15484 7:2.22126 8:1.78638 9:1.91923 10:0.9631 11:0.81586 12:0 13:0.87402 14:0.9601 15:0 
0.01915112694737748 1:0 2:4.96877 3:3.85148 4:4.38298 5:2.22392 6:3.03192 7:2.99247 8:0.70679 9:2.09571 10:1.79623 11:0.81171 12:0 13:0.88976 14:0.82544 15:0 
0.0006298030463476117 1:9 2:16.55209 3:3.83884 4:6.52975 5:0.99474 6:1.98641 7:4.78788 8:0 9:1.98938 10:0.74009 11:1.49733 12:0.99322 13:1.73919 14:1.71086 15:0.99764 
0.727856050713579 1:5 2:3.76267 3:2.32965 4:3.46439 5:2.6148 6:4.15484 7:1.45492 8:0 9:0 10:0 11:0.81586 12:0 13:0 14:0 15:0 
1.519075065553305 1:5 2:5.3903 3:3.58551 4:2.51395 5:0.97973 6:2.26804 7:1.50578 8:1.78638 9:2.56661 10:0.9631 11:0.81586 12:0 13:0.87402 14:0.9601 15:0 
0.8321799048059532 1:3 2:4.82693 3:1.49372 4:0 5:1.44841 6:3.03192 7:1.51702 8:0.70679 9:0.6584 10:0.99586 11:0.81157 12:0 13:0 14:0.85993 15:0 
2 1:3 2:3.62599 3:2.35687 4:3.53008 5:0.75 6:1.52867 7:2.2767 8:0.70679 9:1.43642 10:0.80037 11:0.81157 12:0 13:0.88976 14:1.68466 15:0 
2 1:5 2:7.65293 3:5.08657 4:3.23895 5:1.68975 6:2.29321 7:1.50578 8:0.99691 9:2.56661 10:0.9631 11:0.81586 12:0 13:0.87402 14:0.9601 15:0 
0.5158428960563644 1:8 2:14.12583 3:3.83522 4:8.52132 5:0.99474 6:1.98641 7:4.75897 8:0.82716 9:0.99174 10:0.74009 11:1.52371 12:0.99322 13:1.73919 14:0 15:0 
0.3997622969130579 1:3 2:4.79391 3:5.28746 4:4.26563 5:2.30102 6:4.51043 7:2.19122 8:0.70679 9:4.18964 10:0.99586 11:0 12:0.7351 13:0.88976 14:3.16192 15:0 
0.8465094938398491 1:0 2:0.71471 3:2.19998 4:5.73842 5:6.06906 6:1.47493 7:3.00192 8:0.73765 9:1.64844 10:1.6776 11:0.86024 12:0 13:0.74869 14:0 15:0 
2 1:5 2:2.07426 3:2.19998 4:5.02927 5:0.68662 6:1.47493 7:3.00192 8:0.73765 9:1.64844 10:0.69892 11:1.73026 12:0 13:0.74869 14:0 15:0 
0.07151069418020155 1:12 2:16.55209 3:4.83174 4:8.52132 5:0.99474 6:0.99174 7:4.78788 8:0.82716 9:1.98938 10:0.74009 11:1.49761 12:0.99322 13:1.73919 14:1.71086 15:0.99764 
1.652912508308211 1:12 2:20.17654 3:4.83174 4:8.52132 5:0.99474 6:1.98641 7:4.75842 8:0 9:1.98938 10:0.74009 11:0.7119 12:0.99322 13:1.73919 14:1.69133 15:0.99764 
0.9911144294281491 1:5 2:7.65293 3:4.30127 4:2.74182 5:2.64324 6:4.80222 7:3.03191 8:1.78638 9:2.56661 10:0.9631 11:0.81586 12:0 13:0.87402 14:0.9601 15:0 
0.9935405876330788 1:8 2:19.12666 3:2.8378 4:7.53185 5:0.99474 6:1.98641 7:4.75954 8:0.82716 9:1.98938 10:0.74009 11:1.49733 12:0.99322 13:1.73919 14:1.71086 15:0.99764 
0.835640189227226 1:2 2:2.79396 3:1.38433 4:5.73842 5:7.9135 6:1.47493 7:2.33802 8:0 9:0.67493 10:1.6776 11:0.87002 12:0 13:0.74869 14:0 15:0 
0.00826757007898633 1:3 2:5.66139 3:2.41417 4:4.38298 5:2.22392 6:3.02831 7:2.99247 8:0.70679 9:0.6584 10:0.80037 11:0 12:0 13:0.88201 14:0 15:0 
2 1:12 2:23.25042 3:1.9929 4:5.69373 5:0.99474 6:1.98641 7:4.76587 8:0 9:1.98938 10:0.74009 11:0.7119 12:0 13:1.73919 14:1.71086 15:0.99764 
2 1:9 2:18.44184 3:3.84022 4:4.72093 5:0.99474 6:0.99174 7:3.79398 8:0 9:1.98938 10:0.74009 11:1.47951 12:0.99322 13:1.73919 14:1.71086 15:0.99764 
2 1:0 2:4.10736 3:1.62891 4:4.23572 5:1.47392 6:1.50325 7:1.47545 8:0.70679 9:0.6584 10:1.80355 11:0 12:0.7351 13:0 14:0 15:0 
0.9053583594695189 1:6 2:10.4177 3:4.83174 4:8.5211 5:0.99474 6:1.98641 7:2.76587 8:0.82716 9:1.98938 10:0.74009 11:1.50441 12:0.99322 13:0.73919 14:1.71086 15:0.99764 
1.627525597824367 1:5 2:7.65293 3:3.08631 4:5.06872 5:1.68975 6:3.84873 7:3.03034 8:1.78638 9:0.64738 10:0.9631 11:0.81586 12:0 13:0.87402 14:0 15:0 
0.8070947494892365 1:9 2:13.41532 3:4.83174 4:7.63851 5:0.99444 6:0 7:5.75897 8:0 9:0.99764 10:0.74009 11:0.78543 12:0.99322 13:1 14:1.71086 15:0.99764 
0.4866985331840304 1:0 2:6.35707 3:3.63815 4:2.55574 5:2.22392 6:3.05264 7:1.47693 8:0.70679 9:2.09482 10:0 11:0.81157 12:0.7351 13:0 14:1.58096 15:0 
2 1:3 2:6.27489 3:2.41462 4:5.11853 5:1.47392 6:1.50325 7:2.2767 8:0.70679 9:0.6584 10:1.79623 11:0.81157 12:0.7351 13:0.88976 14:0 15:0 
1.749383221783331 1:12 2:17.02474 3:3.8359 4:8.52132 5:0.99474 6:1.98641 7:3.76138 8:0 9:0.99174 10:0.74009 11:1.49733 12:0.99322 13:1.73919 14:0 15:0 
2 1:8 2:6.13054 3:4.30127 4:4.36445 5:1.66351 6:3.21439 7:1.48405 8:0.99691 9:2.56661 10:0.9631 11:0.82698 12:0 13:0.87402 14:0.9601 15:0 
1.718552983320254 1:7 2:11.52557 3:2.98942 4:5.68453 5:0.99474 6:0.99467 7:1.96868 8:0.82716 9:0.99764 10:0 11:0.7119 12:0 13:0.73919 14:1.71086 15:0.99764 
1.885191850312105 1:7 2:7.01375 3:3.10704 4:2.47084 5:2.64324 6:3.31551 7:3.03034 8:0 9:0 10:0 11:0 12:0 13:0.87149 14:0 15:0 
1.586069174881059 1:12 2:21.01526 3:2.98942 4:6.85707 5:0.99474 6:0.99174 7:4.76138 8:0.82716 9:0.99174 10:0.74009 11:1.49733 12:0.99322 13:1.73919 14:0 15:0 
1.446829202367751 1:12 2:21.00575 3:3.83174 4:5.5281 5:0 6:0.99467 7:3.96178 8:0.82716 9:0 10:0.74009 11:1.49733 12:0 13:1.73919 14:0 15:0 
1.833586358709887 1:7 2:4.13354 3:5.02627 4:4.23007 5:3.35326 6:3.96289 7:3.03034 8:0.99691 9:2.56661 10:0 11:0.81586 12:0 13:0 14:0.9601 15:0 
0.682974001141379 1:12 2:15.30935 3:1.9929 4:7.73988 5:0.99474 6:1.98641 7:5.75897 8:0.82716 9:0.99174 10:0 11:0.7119 12:0.99322 13:2.4291 14:0 15:0 
1.03762475309268 1:12 2:17.13411 3:2.98942 4:7.67642 5:0.99474 6:1.98641 7:4.75897 8:0 9:0.99174 10:0.74009 11:1.49733 12:0.99322 13:1.73919 14:0 15:0 
0.628381458793035 1:3 2:4.12402 3:4.59502 4:4.38298 5:1.52551 6:3.0322 7:2.19122 8:0.70679 9:2.09482 10:0.80037 11:0.81157 12:0 13:0.88976 14:0.82544 15:0 
1.673002618855574 1:4 2:14.45017 3:0.99652 4:2.80749 5:0 6:0.99174 7:3.78788 8:0 9:1.98938 10:0.74009 11:1.49733 12:0 13:0 14:1.71086 15:0.99764 
0.008339175535710954 1:2 2:4.894 3:3.53312 4:3.23652 5:2.64324 6:4.80222 7:3.03034 8:1.78638 9:2.56661 10:0.9631 11:0.81586 12:0 13:0 14:0.9601 15:0 
0.3773421420005658 1:0 2:4.80722 3:3.85059 4:1.77335 5:2.23001 6:2.25325 7:2.99247 8:0.70679 9:2.09482 10:0.80037 11:0.81157 12:0 13:0 14:0.82544 15:0 
1.959309538905124 1:3 2:3.51638 3:3.85059 4:4.38298 5:0.77551 6:2.28192 7:2.2767 8:1.41358 9:2.09482 10:1.79623 11:0 12:0 13:0.88976 14:0.82544 15:0 
0.6624638110502382 1:3 2:4.80722 3:3.18141 4:3.50017 5:2.22392 6:3.03192 7:2.99247 8:0.70679 9:1.42564 10:0.99586 11:0.81157 12:0 13:0 14:0.82544 15:0 
0.5340619746482487 1:5 2:6.13054 3:3.95113 4:5.08945 5:1.62525 6:3.21439 7:3.03034 8:0 9:0.64738 10:0.9631 11:0 12:0 13:0.87402 14:0 15:0 
0.3995900439594406 1:2 2:2.0614 3:1.51204 4:5.05048 5:7.9135 6:1.47493 7:2.2038 8:0.73765 9:1.64844 10:1.6776 11:2.60523 12:0 13:0.74869 14:0 15:0 
2 1:3 2:5.01675 3:2.37597 4:2.55752 5:1.69517 6:0.64738 7:2.31486 8:1.78638 9:0.64738 10:0.9631 11:0.81759 12:0 13:0.87402 14:0 15:0 
1.03206632987885 1:5 2:4.23728 3:2.38204 4:3.59877 5:2.64324 6:2.37506 7:2.22126 8:0 9:0.64738 10:0.9631 11:0.81586 12:0 13:0.87402 14:0 15:0 
0.9410983586822862 1:10 2:15.25599 3:2.83522 4:4.81916 5:0 6:0.99467 7:4.75897 8:0.82716 9:0.99764 10:0 11:0 12:0.99322 13:0 14:1.71086 15:0.99764 
2 1:3 2:4.26121 3:2.41462 4:5.11853 5:2.22392 6:3.05264 7:2.99247 8:0.70679 9:0.6584 10:0.80037 11:0.81157 12:0.7351 13:0.88976 14:0 15:0 
0.9022101383442098 1:12 2:15.13499 3:4.83174 4:4.72061 5:0.99474 6:1.98641 7:3.96419 8:0.82716 9:1.98938 10:0.74009 11:1.49733 12:0 13:1.73919 14:1.71086 15:0.99764 
0.4094214085667605 1:3 2:6.33742 3:1.62891 4:4.26563 5:0.69841 6:0.84485 7:2.2767 8:0 9:0 10:0.80037 11:0 12:0.7351 13:0.88976 14:0 15:0 
0.2572280081341807 1:0 2:5.64682 3:2.41417 4:2.65616 5:2.22392 6:3.88033 7:2.23131 8:0.70679 9:0.6584 10:1.79623 11:0.81157 12:0 13:0.88201 14:0 15:0 
2 1:8 2:19.00813 3:2.98942 4:4.80547 5:0 6:1.98641 7:2.97109 8:0 9:1.98938 10:0 11:0 12:0.99322 13:1 14:1.71086 15:0.99764 
0.2316051157141959 1:0 2:6.27489 3:3.14303 4:5.11853 5:2.22392 6:3.05264 7:2.99247 8:0.70679 9:2.09482 10:0.80037 11:0.81157 12:0.7351 13:0.88976 14:1.58096 15:0 
0.07509872238446054 1:5 2:2.7915 3:0.81565 4:3.45799 5:7.90417 6:1.47493 7:0.6639 8:1.46925 9:1.64844 10:1.6776 11:0.87002 12:0 13:0.74869 14:0 15:0 
0.6814829719866506 1:0 2:0.71471 3:1.50359 4:3.18423 5:3.47628 6:1.47493 7:1.60614 8:0.73765 9:1.64844 10:1.6776 11:1.73026 12:0 13:0.74869 14:0 15:0 
0.01848854275365087 1:0 2:2.7915 3:1.51204 4:3.12784 5:7.22688 6:0.8 7:2.2038 8:0 9:0.97351 10:1.6776 11:0.86024 12:0 13:0 14:0 15:0 
2 1:9 2:16.55121 3:1.84232 4:3.82759 5:0 6:1.98641 7:2.99069 8:0 9:1.98938 10:0.74009 11:0.78543 12:0.99322 13:0 14:1.71086 15:0.99764 
1.715178294990018 1:3 2:5.66139 3:0.70801 4:3.46253 5:2.22392 6:2.25325 7:1.51702 8:0.70679 9:0.6584 10:1.79623 11:0.81157 12:0 13:0.88976 14:0.82544 15:0 
1.42939013680546 1:10 2:10.24841 3:3.83174 4:6.52132 5:0 6:1.98641 7:4.75897 8:0.82716 9:1.98938 10:0.74009 11:1.49733 12:0.99322 13:0.73919 14:1.71086 15:0.99764 
2 1:9 2:18.01189 3:4.83174 4:7.53185 5:0.99474 6:1.98641 7:3.96868 8:0.82716 9:1.98938 10:0.74009 11:0.7119 12:0.99322 13:1.73919 14:1.71086 15:0.99764 
0.07006366782456093 1:3 2:5.63967 3:2.93014 4:3.22989 5:2.23124 6:3.05264 7:0.71577 8:0.70679 9:2.09482 10:0.80037 11:0.81157 12:0.7351 13:0.88976 14:1.58096 15:0 
2 1:6 2:21.00262 3:3.83522 4:5.65037 5:0.99474 6:1.98641 7:2.97109 8:0.82716 9:1.98938 10:0.74009 11:0.78543 12:0.99322 13:1 14:1.71086 15:0.99764 
1.416431892717567 1:3 2:3.65357 3:1.62891 4:4.23572 5:0.77551 6:1.50325 7:2.2767 8:0.70679 9:0.6584 10:0 11:0 12:0.7351 13:0 14:0 15:0 
1.083342394854229 1:6 2:20.17654 3:4.83174 4:8.52132 5:0.99474 6:1.98641 7:5.75897 8:0.82716 9:0.99174 10:0.74009 11:1.49733 12:0.99322 13:1.73919 14:0 15:0 
1.201310614751087 1:0 2:1.48098 3:1.70616 4:3.53008 5:0.77551 6:2.28192 7:2.19122 8:0.70679 9:0.6584 10:1.79623 11:0 12:0 13:0.88976 14:0 15:0 
1.550537224761583 1:8 2:13.45393 3:1.84232 4:3.54028 5:0 6:1.98641 7:2.79478 8:0 9:1.98938 10:0.74009 11:1.49733 12:0.99322 13:0.73919 14:1.71086 15:0.99764 
0.3747716665942371 1:0 2:6.26187 3:3.10704 4:3.46439 5:1.66351 6:4.80222 7:2.22126 8:0.99691 9:0.64738 10:0 11:0.86164 12:0 13:0 14:0.9601 15:0 
0.2739302945219652 1:5 2:8.26831 3:5.02627 4:5.08464 5:2.64324 6:4.80222 7:2.264 8:1.78638 9:2.56661 10:0.9631 11:0.81586 12:0 13:0.87402 14:0.9601 15:0 
2 1:3 2:7.65293 3:5.02627 4:5.13736 5:1.68975 6:3.0674 7:2.31486 8:0.99691 9:2.56661 10:0.9631 11:0.81586 12:0 13:0.87402 14:0.9601 15:0 
1.748086700966605 1:11 2:18.44444 3:3.83884 4:5.65614 5:0.99474 6:0.99174 7:4.78788 8:0 9:0.99174 10:0.74009 11:0 12:0.99322 13:1 14:0 15:0 
0.4520724770749312 1:0 2:2.79681 3:2.19998 4:2.98958 5:7.27512 6:0.67493 7:2.2038 8:0 9:1.64844 10:1.6776 11:0.86024 12:0 13:0 14:0 15:0 
1.132720808311996 1:5 2:6.78726 3:5.00554 4:3.16329 5:1.68975 6:3.84873 7:1.57542 8:1.78638 9:2.56661 10:0.9631 11:0.81586 12:0 13:0 14:0.9601 15:0 
1.771315744879157 1:3 2:4.19958 3:3.85059 4:2.74109 5:2.22392 6:2.18707 7:2.19122 8:0.70679 9:2.09482 10:0 11:0.81157 12:0 13:0 14:0.82544 15:0 
2 1:5 2:6.44289 3:5.02627 4:4.0959 5:0.95349 6:3.18739 7:3.03034 8:1.78638 9:2.56661 10:0.9631 11:0.81586 12:0 13:0.87402 14:0.9601 15:0 
1.385712818901279 1:5 2:4.23728 3:3.10704 4:5.08945 5:2.64324 6:4.02089 7:3.07181 8:0.99691 9:0.64738 10:0.9631 11:0.81586 12:0 13:0.87402 14:0.9601 15:0 
0.5640797952476806 1:5 2:2.07679 3:2.19998 4:2.21053 5:5.70417 6:1.3035 7:3.01221 8:0.73765 9:2.62195 10:0.69892 11:0.86024 12:0 13:0 14:0 15:0 
0.6775414849672472 1:5 2:3.89026 3:3.9605 4:2.34763 5:0.71002 6:3.20135 7:1.57542 8:0 9:1.91923 10:0 11:0.81586 12:0 13:0 14:0.9601 15:0 
0.9951050875128145 1:9 2:21.99276 3:4.83174 4:6.81916 5:0 6:1.98641 7:4.76541 8:0 9:0.99174 10:0.74009 11:0.78543 12:0.99322 13:1 14:0 15:0 
0.6724804187725791 1:2 2:7.65293 3:5.24039 4:3.5075 5:2.64324 6:4.80222 7:2.22126 8:1.78638 9:2.56661 10:0.9631 11:0.81586 12:0 13:0.87402 14:0.95946 15:0 
1.7413897244771 1:2 2:4.38506 3:4.24888 4:5.08945 5:2.64324 6:4.80222 7:2.22126 8:1.78638 9:2.56661 10:0.9631 11:0.81586 12:0 13:0.87402 14:0.9601 15:0 
0.4373846705795792 1:3 2:5.06039 3:3.85104 4:3.41569 5:2.22392 6:3.05264 7:2.99247 8:0.70679 9:2.09482 10:0 11:0.81157 12:0 13:0.88976 14:1.58096 15:0 
2 1:3 2:19.02086 3:4.83174 4:7.5281 5:0.99474 6:0.99467 7:4.75897 8:0 9:0 10:0 11:1.49733 12:0 13:1.73919 14:0 15:0 
0.3544219329048923 1:5 2:5.02424 3:3.05465 4:5.81445 5:1.93322 6:5.58355 7:3.03034 8:1.78638 9:0.64738 10:0.9631 11:0.81586 12:0 13:0.87402 14:0 15:0 
0.8295832395125614 1:8 2:2.98682 3:2.19998 4:5.02927 5:5.0756 6:1.49437 7:2.1939 8:0.73765 9:0.67493 10:0 11:1.73026 12:0 13:0.74869 14:0 15:0 
0.3867943459948872 1:5 2:7.65293 3:2.64423 4:4.20056 5:0 6:2.29321 7:1.57542 8:0.99691 9:2.56661 10:0.9631 11:0.81586 12:0 13:0.87402 14:0.9601 15:0 
0.2875710000309366 1:6 2:10.56787 3:4.45022 4:7.52132 5:0.99474 6:1.98641 7:3.78788 8:0.82716 9:2.60438 10:0 11:0.7119 12:0.99322 13:0.73919 14:1.71086 15:0.99764 
0.4512951385177992 1:2 2:2.77871 3:1.51204 4:4.15438 5:7.9135 6:1.47493 7:3.00192 8:0.73765 9:1.64844 10:0.97868 11:1.73026 12:0 13:0.74869 14:0 15:0 
1.069294075389918 1:0 2:5.05375 3:2.22213 4:1.85055 5:1.55102 6:2.27831 7:2.27818 8:0.70679 9:2.09482 10:0.80037 11:0.81157 12:0 13:0.88201 14:0.82544 15:0 
0.388561915104124 1:7 2:10.22607 3:4.83174 4:7.63851 5:0.99474 6:0.99174 7:5.75897 8:0.82716 9:0.99174 10:0.74009 11:0.78543 12:0.99322 13:1 14:0 15:0 
1.030123593975334 1:3 2:0.63099 3:2.19998 4:5.73842 5:7.27512 6:1.47493 7:0.6639 8:0.73765 9:1.64844 10:1.6776 11:0.87002 12:0 13:0.74869 14:0 15:0 
2 1:0 2:3.24813 3:2.22213 4:4.19763 5:1.52551 6:2.20779 7:2.27818 8:0 9:2.09482 10:1.76589 11:0.81157 12:0.7351 13:0.88976 14:1.58096 15:0 
1.870302168030065 1:8 2:25.5656 3:2.98942 4:7.67642 5:0.99474 6:1.98641 7:6.73006 8:0.82716 9:1.98938 10:0.74009 11:0.7119 12:0.99322 13:1.73919 14:1.71086 15:0.99764 
0.3710297300500592 1:3 2:5.66073 3:3.85059 4:4.38298 5:2.22392 6:1.4084 7:2.99247 8:0.70679 9:2.09482 10:0.80037 11:0.81157 12:0 13:0.88976 14:0.82544 15:0 
1.448029637024842 1:12 2:20.11005 3:4.83174 4:8.52132 5:0.99474 6:1.98641 7:3.76138 8:0.82716 9:1.99174 10:0.74009 11:1.49733 12:0.99322 13:1.73919 14:1.71322 15:1 
0.1053159129161884 1:0 2:2.14501 3:3.14258 4:1.88819 5:1.52551 6:3.03192 7:2.99247 8:0 9:2.09482 10:0.99586 11:0 12:0 13:0 14:0.82544 15:0 
0.5120328115339714 1:9 2:23.88904 3:3.83522 4:8.52132 5:0.99474 6:0.99174 7:5.75897 8:0.82716 9:1.98848 10:0.74009 11:1.49733 12:0.99322 13:1.73919 14:1.70996 15:0.99674 
2 1:0 2:5.66139 3:2.41417 4:3.6239 5:2.22392 6:2.18707 7:3.05552 8:0.70679 9:0.6584 10:0.80037 11:0.81157 12:0 13:0.88976 14:0 15:0 
2 1:5 2:6.73727 3:4.30127 4:4.43275 5:1.68975 6:3.0674 7:1.54852 8:1.78638 9:2.56661 10:0.9631 11:0.81586 12:0 13:0.87402 14:0.9601 15:0 
2 1:12 2:20.11005 3:4.83174 4:6.52943 5:0.99474 6:1.98641 7:4.96178 8:0 9:1.98938 10:0.74009 11:1.49733 12:0 13:1.73919 14:1.71086 15:0.99764 
1.440384585706996 1:7 2:7.65293 3:2.21815 4:4.20056 5:2.64324 6:4.80222 7:2.2909 8:1.78638 9:0.64738 10:0.9631 11:0.81586 12:0 13:0.87402 14:0.9601 15:0 
2 1:12 2:18.35504 3:2.84232 4:6.53895 5:0.99474 6:1.98641 7:3.79478 8:0 9:1.98938 10:0.74009 11:1.50873 12:0.99322 13:1.73919 14:1.71086 15:0.99764 
1.095476560351117 1:12 2:21.01641 3:2.99032 4:5.86385 5:0.99474 6:1.98641 7:5.75897 8:0 9:1.98938 10:0.74009 11:0.7119 12:0 13:1.73919 14:1.71086 15:0.99764 
0.7815995400698157 1:10 2:10.67789 3:0.99652 4:3.68485 5:0 6:1.98641 7:3.78788 8:0 9:1.98938 10:0.74009 11:1.49733 12:0.99322 13:0.73919 14:1.71086 15:0.99764 
0.167654641315403 1:5 2:6.27729 3:5.05457 4:5.97713 5:2.64324 6:4.80222 7:2.28487 8:1.78638 9:2.56661 10:0.9631 11:0.81586 12:0 13:1.74804 14:0.9601 15:0 
0.7455553435819212 1:10 2:14.15441 3:4.83174 4:8.53692 5:0.99474 6:0.99174 7:4.76138 8:0.82716 9:0.99174 10:0.74009 11:0 12:0.99322 13:1.73919 14:0 15:0 
1.850072754483007 1:0 2:7.65293 3:5.03525 4:5.08945 5:2.64324 6:4.80222 7:3.03034 8:1.78638 9:2.56661 10:0.9631 11:0.81586 12:0 13:0.87402 14:0.9601 15:0 
2 1:9 2:11.93086 3:2.83884 4:5.52842 5:0.99474 6:0.99174 7:3.78788 8:0 9:0.99174 10:0.74009 11:0.7119 12:0.99322 13:0.73919 14:0 15:0 
0.1235952817929159 1:2 2:1.34548 3:1.51204 4:5.05048 5:3.52452 6:1.48504 7:3.00192 8:0.73765 9:1.65855 10:0.97868 11:1.73026 12:0 13:0.74869 14:0 15:0 
0.537345912241183 1:12 2:15.03069 3:4.83174 4:5.71928 5:0.99474 6:0.99467 7:3.76138 8:0.82716 9:0 10:0 11:1.49733 12:0 13:1.73919 14:0 15:0 
0.3866453158298823 1:5 2:2.7915 3:0.68794 4:4.08033 5:4.1629 6:1.47493 7:0.79812 8:0.73765 9:1.64844 10:1.6776 11:0.87002 12:0 13:0.74869 14:0 15:0 
2 1:0 2:2.01804 3:2.93014 4:1.82064 5:2.19947 6:2.18707 7:1.47693 8:0.70679 9:2.09482 10:0 11:0.81157 12:0 13:0 14:0.82544 15:0 
0.307817011492823 1:9 2:21.29819 3:1.9929 4:6.79361 5:0.99474 6:0.99174 7:4.78788 8:0.82716 9:0.99174 10:0.74009 11:0.78543 12:0.99322 13:1 14:0 15:0 
1.253776830120453 1:8 2:13.44144 3:5.81795 4:7.52265 5:0.99474 6:1.98641 7:2.99069 8:0 9:1.98938 10:0.74009 11:1.49733 12:0.99322 13:1.73919 14:1.71086 15:0.99764 
1.975403165050595 1:15 2:15.5687 3:1.99652 4:4.69163 5:0.99474 6:0.99174 7:2.99069 8:0 9:1.98938 10:0.74009 11:1.49733 12:0 13:1.73919 14:1.71086 15:0.99764 
2 1:3 2:4.12402 3:3.06488 4:4.38298 5:2.22392 6:2.18707 7:2.19122 8:0.70679 9:2.09482 10:0.80037 11:0.81157 12:0 13:0.88976 14:0.82544 15:0 
1.691337971316105 1:5 2:6.14808 3:5.02627 4:2.37957 5:2.64324 6:4.15484 7:3.03034 8:1.78638 9:1.91923 10:0 11:0.81586 12:0 13:0 14:0.9601 15:0 
2 1:9 2:16.11838 3:2.98942 4:6.79361 5:0.99474 6:1.98641 7:4.75897 8:0.82716 9:1.98938 10:0.74009 11:0.78543 12:0.99322 13:1 14:1.71086 15:0.99764 
1.251719529139944 1:6 2:6.27489 3:3.14303 4:5.11853 5:2.22392 6:3.05264 7:2.99247 8:0.72247 9:2.09482 10:1.80355 11:0.81157 12:0.7351 13:0.88976 14:1.58096 15:0 
0.5913726325664281 1:5 2:4.23728 3:5.00554 4:3.44609 5:1.68975 6:3.0674 7:1.48182 8:0 9:2.56661 10:0.9631 11:0 12:0 13:0.87402 14:0 15:0 
1.062025704686022 1:12 2:21.9998 3:4.83297 4:7.70197 5:0.99474 6:1.98641 7:5.75897 8:0 9:1.98928 10:0.74009 11:1.49733 12:0.99322 13:1.73919 14:1.71076 15:0.99754 
2 1:0 2:4.18222 3:2.42588 4:2.74109 5:1.52551 6:3.03192 7:2.99247 8:0.70679 9:0.6584 10:0.99586 11:0.81157 12:0 13:0 14:0 15:0 
1.333311850400283 1:9 2:18.28679 3:3.83522 4:8.52132 5:0.99474 6:1.98641 7:4.76138 8:0.82716 9:0.99174 10:0 11:1.49733 12:0.99322 13:1.73919 14:0 15:0 
2 1:3 2:5.02424 3:2.21815 4:3.34361 5:2.64324 6:3.2467 7:2.22126 8:1.78638 9:0.64738 10:0.9631 11:0.81586 12:0 13:0.87402 14:0 15:0 
0.1175834137444733 1:5 2:6.78726 3:4.13738 4:3.34118 5:2.64324 6:4.80222 7:2.2909 8:1.78638 9:2.56661 10:0 11:0 12:0 13:0 14:0.9601 15:0 
0.6704137439650234 1:5 2:6.13054 3:5.02627 4:4.0959 5:2.64324 6:3.31551 7:3.03034 8:0 9:1.91923 10:0.9631 11:0.81586 12:0 13:0.87402 14:0.9601 15:0 
1.651382891676237 1:4 2:13.41532 3:2.98684 4:4.8676 5:0.99474 6:0 7:5.75897 8:0.82716 9:0.99764 10:0 11:0 12:0.99322 13:1.73919 14:1.71086 15:0.99764 
0.9513391304960124 1:3 2:4.23768 3:3.85104 4:4.38343 5:1.44841 6:1.54939 7:2.99247 8:0.70679 9:1.43642 10:0.80037 11:0.81157 12:0 13:0.88976 14:1.58096 15:0 
0.4289241837111138 1:3 2:5.66139 3:2.41417 4:4.38298 5:0.69841 6:1.62352 7:2.99247 8:0.70679 9:0 10:0.99586 11:0.81157 12:0 13:0.88976 14:0 15:0 
0.3838696656172047 1:10 2:13.42456 3:3.83174 4:6.5281 5:0 6:1.98641 7:5.75897 8:0.82716 9:1.98938 10:0.74009 11:1.49733 12:0 13:1.73919 14:1.71086 15:0.99764 
1.166082459896762 1:3 2:2.09232 3:3.17221 4:3.53008 5:1.52551 6:3.03192 7:1.47545 8:0.70679 9:2.09482 10:1.79623 11:0.86026 12:0 13:0.88976 14:0.82544 15:0 
1.703948606877823 1:12 2:19.17654 3:3.98684 4:5.68695 5:0.99474 6:1.98641 7:4.75897 8:0.82716 9:1.98938 10:0.74009 11:1.49733 12:0.99322 13:0.73919 14:1.71086 15:0.99764 
2 1:0 2:5.75967 3:1.61389 4:4.2325 5:1.93322 6:3.2467 7:2.264 8:1.78638 9:0.64738 10:0.9631 11:0.81586 12:0 13:0.87402 14:0 15:0 
0.6472983351808558 1:5 2:2.07679 3:2.19998 4:5.73842 5:7.22688 6:2.14986 7:3.00192 8:0.73765 9:2.32337 10:1.6776 11:1.73026 12:0 13:0.74869 14:0 15:0 
0.7302691225556611 1:0 2:0 3:2.19998 4:2.91968 5:7.88587 6:0.67493 7:2.1939 8:0.73765 9:1.64844 10:0.97868 11:0.86344 12:0 13:0 14:0 15:0 
0.2287417693313204 1:5 2:2.7915 3:0.68794 4:2.47508 5:5.0756 6:1.47493 7:1.60614 8:0.73765 9:0.67493 10:0.69892 11:0 12:0 13:0.74869 14:0 15:0 
1.028940313000395 1:5 2:20.89788 3:4.46891 4:5.63851 5:0.99474 6:1.98641 7:4.75897 8:0 9:2.62655 10:0.74009 11:0.78543 12:0.99322 13:0 14:1.71086 15:0.99764 
0.2969797031882078 1:3 2:7.01375 3:3.86734 4:4.21771 5:1.68975 6:3.20135 7:1.54852 8:0.99691 9:0 10:0 11:0.81586 12:0 13:0 14:0 15:0 
0.5445727600753515 1:0 2:1.34548 3:0.68794 4:5.04203 5:6.5885 6:2.14986 7:0.79812 8:0.73765 9:2.32337 10:1.6776 11:1.73026 12:0 13:0.74869 14:0 15:0 
2 1:5 2:18.02981 3:2.98942 4:6.6832 5:0.99474 6:1.98641 7:3.96868 8:0.82716 9:0.99174 10:0 11:1.49733 12:0 13:1.73919 14:0.67577 15:0 
2 1:0 2:2.99918 3:3.06488 4:4.38349 5:1.44841 6:2.37352 7:2.19122 8:0.70679 9:1.43642 10:1.79623 11:0.81157 12:0 13:0.88976 14:0.82544 15:0 
0.5484005285674702 1:9 2:20.14288 3:4.83174 4:7.52132 5:0.99474 6:1.98641 7:3.75897 8:1.65432 9:1.98938 10:0.74009 11:1.49733 12:0.99322 13:0.73919 14:1.71086 15:0.99764 
1.819741201345445 1:3 2:3.41565 3:3.35999 4:2.34763 5:2.64324 6:4.80086 7:2.2909 8:1.78638 9:2.56661 10:0 11:0.81586 12:0 13:0 14:0.9601 15:0 
2 1:7 2:6.77214 3:5.02627 4:4.23007 5:1.68975 6:3.84873 7:3.03034 8:1.78638 9:2.56661 10:0 11:0.81586 12:0 13:0 14:0.9601 15:0 
1.880431513721425 1:9 2:24.16821 3:4.83174 4:5.82969 5:0 6:1.98641 7:4.76138 8:0.82716 9:1.98938 10:0.74009 11:0.78543 12:0.99322 13:1 14:1.71086 15:0.99764 
0.3679857201074895 1:3 2:5.03639 3:3.06488 4:4.38298 5:1.52551 6:3.88033 7:2.99247 8:0.70679 9:2.09482 10:0.99586 11:0.81157 12:0 13:0.88201 14:0.82544 15:0 
0.5556777657426161 1:3 2:2.16237 3:2.93014 4:2.49479 5:2.20874 6:2.37352 7:2.9456 8:0.70679 9:1.43642 10:1.79623 11:0.81157 12:0 13:0.88976 14:0.82544 15:0 
-1.852818288837035 1:9 2:8.78937 3:2.84179 4:5.72161 5:0.99649 6:1.98925 7:3.9938 8:0 9:1.99253 10:0.74009 11:1.50305 12:0.99186 13:1.73919 14:1.71099 15:0.99528 
-2 1:0 2:4.92231 3:1.51506 4:4.36036 5:2.46857 6:2.91881 7:2.20815 8:0 9:1.31456 10:1.7097 11:0.81941 12:0.99594 13:0.9895 14:0.77057 15:0 
-0.07995709294333833 1:14 2:8.8833 3:5.72786 4:5.71265 5:2.68485 6:3.21035 7:3.03132 8:1 9:2.63636 10:0 11:0 12:0 13:0.87927 14:1 15:0 
-2 1:6 2:6.39785 3:4.38904 4:4.25104 5:1.99612 6:3.41229 7:2.22441 8:1.83333 9:2.63252 10:1 11:0.75105 12:0 13:0.87795 14:1 15:0 
-0.3747410468047272 1:13 2:14.71003 3:4.31064 4:4.3265 5:3.39334 6:2.41648 7:3.02983 8:1.82716 9:2.63252 10:1 11:0 12:0 13:0.87795 14:1 15:0 
-0.3776423579228118 1:9 2:33.38798 3:0 4:2.67269 5:0 6:2 7:3.97106 8:0 9:1 10:0.74009 11:0.71762 12:1.78988 13:1.73919 14:0 15:0 
-2 1:3 2:4.9773 3:4.32585 4:2.61201 5:2.69647 6:2.41915 7:1.45807 8:1.83333 9:2.63444 10:1 11:0.81586 12:0 13:0 14:1 15:0 
-0.2911786662652642 1:12 2:14.10895 3:3.83664 4:7.53163 5:0.98772 6:6.80669 7:2.99069 8:0.82716 9:1.98938 10:0.74009 11:0.7119 12:0.99322 13:1.73919 14:1.71335 15:0.99764 
-0.1900539638017297 1:32 2:34.22687 3:4.80231 4:7.54294 5:0.99825 6:1 7:5.6919 8:0 9:2 10:0.74009 11:1.50305 12:1 13:1.73919 14:1.71571 15:1 
-0.6195840658024843 1:12 2:17.05666 3:4.88135 4:5.09053 5:1.69473 6:2.79326 7:3.02983 8:2.67489 9:0 10:0.99631 11:1.56691 12:0 13:0.87927 14:0 15:0 
-2 1:9 2:17.60308 3:4.55899 4:7.36495 5:0.99298 6:0.99725 7:4.78445 8:1.66667 9:0.99725 10:0.74009 11:0.78543 12:0.99322 13:1 14:0 15:0 
-0.09685776752160929 1:15 2:13.31807 3:7.60686 4:3.4515 5:2.69473 6:3.21987 7:2.26349 8:0.99691 9:2.63636 10:0 11:1.56691 12:0 13:0 14:1 15:0 
-0.2778442511168535 1:13 2:14.48035 3:4.23624 4:1.7252 5:1.99612 6:7.35232 7:2.28515 8:0.83333 9:2.63252 10:1 11:0.81586 12:0 13:0.87795 14:1 15:0 
-0.09034875792509887 1:23 2:10.74113 3:4.10407 4:4.25269 5:0.99612 6:3.57993 7:3.03132 8:2.83333 9:0 10:1 11:1.56691 12:0 13:0.87927 14:0 15:0 
-0.3128313131704403 1:3 2:15.59414 3:4.88885 4:4.94651 5:1.69473 6:2.43671 7:3.02777 8:2.67489 9:0.63636 10:0.99631 11:2.34989 12:0 13:0 14:0 15:0 
-1.282001401750908 1:0 2:2.72156 3:1.43681 4:3.3342 5:0 6:0.78177 7:2.41804 8:0 9:1.40109 10:0.72577 11:1.51657 12:0 13:0 14:1.5188 15:0 
-0.03797192470442473 1:18 2:7.33476 3:5.09151 4:5.05672 5:1.99612 6:4.21553 7:2.26166 8:1.82716 9:2.63252 10:1 11:1.56691 12:0 13:0 14:1 15:0 
-0.09117689229578115 1:9 2:14.28124 3:4.23882 4:2.69309 5:1.69473 6:3.42821 7:2.28515 8:1.83024 9:2.63252 10:1 11:0.82303 12:0 13:0 14:1 15:0 
-0.07622813904053692 1:17 2:15.86536 3:4.8157 4:5.09932 5:1.69473 6:7.03276 7:3.02983 8:1.82716 9:1.63123 10:1 11:1.56691 12:0 13:0.87664 14:1 15:0 
-0.1105548634810491 1:20 2:8.67135 3:4.66139 4:3.50289 5:1 6:3.22017 7:3.03132 8:2.83333 9:2.63444 10:1 11:1.56691 12:0 13:0 14:1 15:0 
-0.07633766247615821 1:18 2:9.7866 3:7.71583 4:5.18816 5:1.99612 6:5.03478 7:1.55219 8:1.82716 9:3.56298 10:1 11:0.75105 12:0 13:0.87795 14:1 15:0 
-0.3067042728895538 1:8 2:9.5818 3:2.38217 4:5.80997 5:1.98062 6:7.99346 7:0.74468 8:2.67489 9:0.63636 10:1 11:1.55854 12:0.71779 13:0 14:0 15:0 
-0.2129099608734622 1:26 2:9.20017 3:3.77703 4:2.7252 5:2.69473 6:3.41257 7:2.28612 8:0.83333 9:2.63252 10:1 11:0.75105 12:0 13:0.87664 14:1 15:0 
-0.5955285751220678 1:12 2:22.31765 3:1.99468 4:6.6829 5:0.99123 6:0.99725 7:4.79342 8:0 9:1.99253 10:0.74009 11:1.49524 12:0.9905 13:1.73919 14:1.71099 15:0.99528 
-2 1:3 2:3.42147 3:2.48543 4:2.69419 5:1.4949 6:1.41116 7:2.9982 8:0.67593 9:1.36934 10:0 11:0.81561 12:0 13:0 14:0 15:0 
-2 1:8 2:21.19085 3:3.83831 4:7.53394 5:0.99649 6:1.98925 7:4.79411 8:0 9:1.99253 10:0.74009 11:1.50343 12:0.99186 13:1.73919 14:1.71099 15:0.99528 
-0.02430096522863524 1:20 2:7.55094 3:3.72116 4:4.21423 5:2 6:3.22585 7:2.28515 8:1.83024 9:2.63252 10:1 11:0.81586 12:0 13:0.87927 14:1 15:0 
-0.3693388291320624 1:10 2:8.56094 3:3.55899 4:4.42974 5:0.99298 6:1.99192 7:0.9988 8:1.69136 9:1.99489 10:0 11:1.50093 12:0.99322 13:0.73657 14:1.71086 15:0.99764 
-0.1685710424471899 1:15 2:4.86866 3:4.95053 4:3.43949 5:1.99612 6:3.28936 7:1.47764 8:0.99383 9:2.63252 10:1 11:1.56691 12:0 13:0.87795 14:1 15:0 
-0.1506497379946121 1:0 2:4.31027 3:2.34802 4:4.48378 5:2.36916 6:2.26483 7:3.00367 8:0 9:0 10:0.77963 11:0.82075 12:0.94858 13:0.98819 14:0 15:0 
-0.0449135662997106 1:26 2:14.88706 3:6.12583 4:4.37789 5:2.69473 6:5.67636 7:3.02983 8:2.66357 9:2.63252 10:1 11:1.56691 12:0 13:0.87795 14:1 15:0 
-0.3274204857411009 1:33 2:6.50968 3:5.08886 4:4.20838 5:2.10271 6:1.59127 7:2.94127 8:2.83025 9:1.99808 10:0.99631 11:0.81586 12:0 13:0 14:0.99751 15:0 
-2 1:3 2:4.93641 3:3.21957 4:4.42532 5:0.71252 6:2 7:2.2941 8:1.67593 9:0.70818 10:0.78889 11:0.81561 12:0 13:0.87927 14:0.82544 15:0 
-0.8662769859317181 1:5 2:9.18583 3:2.16528 4:2.5829 5:2.18968 6:1.55494 7:1.45017 8:0.99383 9:1.3705 10:0.7597 11:0.81586 12:0 13:0.85039 14:0.76309 15:0 
-0.1404131965622399 1:9 2:24.63286 3:6.50135 4:8.51887 5:0.99474 6:6.43544 7:1.99587 8:1.66741 9:1.99017 10:0.74009 11:1.49389 12:0.9905 13:1.73677 14:1.70863 15:0.99292 
-0.3702044011153537 1:12 2:36.60407 3:3.83952 4:11.35265 5:0 6:14.7171 7:4.79014 8:0.82407 9:0.99725 10:0 11:2.20087 12:5.81892 13:1.73657 14:0 15:0 
-0.00691335706768716 1:14 2:16.04174 3:5.85335 4:5.09218 5:2.67923 6:8.78013 7:3.04492 8:2.67489 9:2.63252 10:0 11:1.55854 12:0 13:0.87795 14:1 15:0 
-0.2882061556933691 1:33 2:7.8045 3:4.3731 4:5.91035 5:0.99612 6:4.01318 7:3.02214 8:2.83025 9:2.6372 10:0.99624 11:0 12:0 13:1.76733 14:0.99751 15:0 
-0.384304604709386 1:8 2:33.46512 3:1.99652 4:2.81935 5:0.99474 6:9.15529 7:3.98723 8:0.82716 9:1.99489 10:0.74009 11:1.4918 12:0 13:0.99342 14:1.71335 15:0.99764 
-1.589175309005528 1:3 2:6.4788 3:5.9302 4:4.09819 5:2.69473 6:2.43389 7:2.26132 8:1.83024 9:2.63252 10:0 11:0.81586 12:0 13:0.87795 14:1 15:0 
-2 1:3 2:4.29065 3:3.18969 4:4.41885 5:1.45402 6:3.6544 7:2.25478 8:0 9:1.36748 10:0.78704 11:0.81561 12:0 13:0.87927 14:0.82793 15:0 
-0.3184974313015896 1:9 2:8.41565 3:1 4:3.87874 5:1.97311 6:1.99182 7:2.79875 8:0 9:0.99449 10:0.74009 11:0.70981 12:0.99593 13:1.73788 14:0 15:0 
-2 1:11 2:17.60308 3:4.55899 4:7.36495 5:0.99298 6:1.99192 7:4.78445 8:1.67901 9:1.99489 10:0.74009 11:0.78543 12:0.99322 13:1 14:1.71086 15:0.99764 
-0.1660000374488785 1:15 2:26.69792 3:3.84088 4:7.52584 5:0.99474 6:1.99458 7:4.78497 8:0 9:1.99253 10:0.74009 11:0.70981 12:0.98643 13:1.73919 14:1.71099 15:0.99528 
-1.82553289221662 1:14 2:12.69057 3:1.99652 4:6.68974 5:0.99298 6:0.99449 7:4.79462 8:0 9:1.99213 10:0.74009 11:1.45762 12:0.99593 13:1.73919 14:1.71514 15:0.99764 
-0.2511075367709406 1:23 2:12.11041 3:6.89751 4:3.50289 5:1.69861 6:2.22585 7:2.3195 8:2.83024 9:2.63252 10:0 11:0 12:0 13:0 14:1 15:0 
-0.1962119027618887 1:12 2:38.3404 3:1.99652 4:7.47205 5:0.99825 6:2 7:5.7383 8:0 9:1.99528 10:0.74009 11:1.50305 12:1.78988 13:1.73919 14:1.71028 15:0.99528 
-0.08906138292035999 1:18 2:13.29609 3:5.83754 4:5.09053 5:1.69861 6:3.24678 7:1.51102 8:1.82716 9:2.63252 10:1 11:1.56691 12:0 13:0.87795 14:1 15:0 
-2 1:5 2:8.19891 3:4.38904 4:5.13458 5:1.99612 6:3.42733 7:2.31853 8:2.67489 9:2.63252 10:1 11:1.56691 12:0 13:0.87795 14:1 15:0 
-2 1:0 2:4.95486 3:1.48361 4:2.5769 5:1.42058 6:3.01074 7:2.28449 8:0.69753 9:0 10:1.72015 11:0.82075 12:0 13:0.98819 14:0 15:0 
-0.2055476342928433 1:9 2:16.92731 3:4.33346 4:4.95153 5:3.39334 6:3.42962 7:3.02983 8:2.67489 9:2.63252 10:0 11:0.75105 12:0 13:0 14:1 15:0 
-0.2526270411688707 1:3 2:2.75408 3:1.70801 4:2.79619 5:1.45742 6:2.66116 7:2.2941 8:1.67593 9:0.66116 10:0 11:0.81561 12:0 13:0 14:0 15:0 
-0.2612217492161146 1:8 2:8.80563 3:7.94773 4:5.19131 5:2.68659 6:3.20642 7:3.03192 8:2.82716 9:4.57846 10:0 11:0.81452 12:0 13:0 14:2 15:0 
-2 1:3 2:4.93641 3:3.19358 4:4.42532 5:2.21223 6:3.41597 7:3.0006 8:1.67593 9:1.36934 10:0.78889 11:0.81561 12:0 13:0.87927 14:0.82544 15:0 
-0.1231457706253354 1:23 2:10.93626 3:5.22438 4:5.65867 5:3.39682 6:4.21629 7:3.04369 8:2.83333 9:2.63444 10:1 11:0.75105 12:0.71779 13:0.87927 14:1 15:0 
-1.239450118941124 1:12 2:15.56582 3:1.84694 4:7.50025 5:1.97311 6:1.98989 7:2.79462 8:0 9:1.99213 10:0.74009 11:1.49524 12:0.99593 13:1.73788 14:1.71086 15:0.99764 
-0.2415933739587907 1:12 2:25.54857 3:1.99468 4:6.68667 5:0.99474 6:0.99725 7:4.77973 8:0.82716 9:1.99253 10:0.74009 11:1.49107 12:0.99457 13:1.73919 14:1.71099 15:0.99528 
-1.756039729121457 1:0 2:3.99626 3:1.50635 4:4.09613 5:6.05203 6:0.82488 7:1.46985 8:0 9:0 10:1.67535 11:1.72743 12:0 13:0.75 14:0.71178 15:0 
-2 1:12 2:15.75466 3:3.84162 4:8.52615 5:0.99649 6:1.99725 7:4.79462 8:0 9:0.99725 10:1.48728 11:2.2037 12:1 13:2.47584 14:0 15:0 
-2 1:3 2:3.01352 3:3.18969 4:4.41885 5:2.20883 6:3.40962 7:2.9994 8:0.68519 9:1.36748 10:0.78704 11:0.81561 12:0 13:0.87927 14:0.82793 15:0 
-1.588761255652829 1:0 2:5.0207 3:0.81749 4:3.27542 5:0.76855 6:1.5767 7:3.25946 8:0 9:0.78177 10:0.72848 11:0.78833 12:0 13:0 14:0.7594 15:0 
-0.4910448255469403 1:7 2:9.22195 3:2.83664 4:3.71525 5:0.98772 6:6.7905 7:1.99069 8:0.82716 9:0.99174 10:0.74009 11:1.49733 12:0.99322 13:0.73919 14:0 15:0 
-1.365819049974526 1:0 2:4.92351 3:0.70801 4:5.16211 5:1.70246 6:1.54016 7:1.60242 8:0.70062 9:0 10:0.77963 11:0.81941 12:1 13:0.98819 14:0 15:0 
-0.2882747724448009 1:10 2:26.55079 3:2.9972 4:7.39634 5:0.99474 6:8.15804 7:5.7283 8:0.82716 9:0.99764 10:0.74009 11:1.4918 12:1.8775 13:1.73261 14:1.77087 15:0.99764 
-1.571031195636208 1:14 2:17.33553 3:2.84088 4:5.53668 5:0.99298 6:0.99449 7:4.75298 8:0 9:0.99449 10:0.70984 11:1.49524 12:0.99593 13:1.73919 14:0 15:0 
-1.77704528260708 1:3 2:2.98751 3:1.70818 4:2.79619 5:1.45742 6:2.66116 7:2.28084 8:1.67593 9:1.36934 10:0 11:0 12:0 13:0 14:0.82544 15:0 
-2 1:0 2:2.80219 3:3.19358 4:2.62913 5:2.92475 6:2.41597 7:1.49778 8:0.6821 9:1.36934 10:0.78889 11:0.81561 12:0 13:0.87927 14:0.82544 15:0 
-2 1:3 2:8.83291 3:4.81098 4:3.54717 5:1.53372 6:3.02842 7:1.43006 8:0 9:2.0678 10:1.80037 11:0.81886 12:0 13:0.89108 14:0.8275 15:0 
-2 1:0 2:4.63837 3:2.16528 4:1.61791 5:1.3992 6:0.65097 7:2.29068 8:0.99383 9:2.02147 10:0 11:0.81586 12:0 13:0 14:0.76309 15:0 
-0.9965012954087393 1:9 2:26.69852 3:3.84088 4:6.52851 5:0.99474 6:1.99458 7:4.78497 8:0 9:0.99725 10:0.74009 11:1.49524 12:0.98643 13:1.73919 14:0 15:0 
-0.9786449805923557 1:3 2:8.83302 3:3.40158 4:5.36916 5:2.23566 6:2.25242 7:2.20756 8:1.69984 9:0.6584 10:1.80037 11:0.81886 12:0 13:0.89108 14:0 15:0 
-0.2339363133082872 1:11 2:15.91349 3:5.07222 4:4.3329 5:2.67923 6:8.78013 7:1.47764 8:2.67489 9:2.63226 10:1 11:0.74268 12:0 13:0.87795 14:1 15:0 
-0.716568486637201 1:8 2:7.37217 3:4.35819 4:4.22068 5:1.67923 6:6.42043 7:3.02983 8:2.67489 9:1.99616 10:1 11:0.81586 12:0.71779 13:0 14:1 15:0 
-0.3052794375920394 1:27 2:10.59622 3:3.06051 4:5.09053 5:1.69473 6:1.98954 7:0.7113 8:0.83333 9:0 10:1 11:0.75105 12:0 13:0.87795 14:0 15:0 
-0.3082945471732552 1:30 2:12.96033 3:2.49516 4:4.20382 5:2.69473 6:5.6379 7:1.47764 8:2.67489 9:0.63636 10:1 11:1.57579 12:0 13:0.87795 14:0 15:0 
-0.4447501825132678 1:3 2:7.03333 3:4.68108 4:5.78307 5:1.99612 6:1.62046 7:1.45598 8:0 9:0.62434 10:1.9977 11:0 12:0 13:0.87795 14:0 15:0 
-2 1:12 2:16.73613 3:1.97338 4:5.69325 5:0.99649 6:0.99725 7:4.79462 8:0 9:1.99489 10:0.74009 11:1.49389 12:1 13:1.73919 14:1.77667 15:0.99764 
-0.07964685636054129 1:18 2:9.68871 3:3.45537 4:2.61258 5:2.69473 6:4.22575 7:2.28515 8:1.82716 9:2.63252 10:0 11:1.56691 12:0 13:0 14:1 15:0 
-0.3402141317552174 1:9 2:35.34444 3:3.83627 4:6.52707 5:0.99825 6:1 7:5.7383 8:0 9:0 10:0 11:1.50305 12:0 13:1.73919 14:0 15:0 
-0.1356456673182884 1:18 2:13.28535 3:4.0141 4:4.26325 5:0.69861 6:1.79905 7:2.31853 8:1.82716 9:0 10:1 11:1.56691 12:0 13:0.87795 14:0 15:0 
-0.7657818345182127 1:3 2:4.87997 3:3.19344 4:4.42209 5:2.20566 6:2.40703 7:2.98362 8:1.67284 9:1.36934 10:0.78519 11:0.81561 12:0 13:0.87795 14:0.82793 15:0 
-0.2307865053566805 1:17 2:16.43156 3:5.1282 4:4.24033 5:1.69473 6:3.57847 7:3.02983 8:2.67489 9:2 10:1 11:1.56691 12:0 13:0.87795 14:1 15:0 
-0.04139859734869251 1:8 2:12.13174 3:4.05122 4:5.3059 5:1.99612 6:3.41811 7:1.51102 8:0.99691 9:0.62434 10:1.9977 11:3.20014 12:0 13:0.87795 14:0 15:0 
-1.172185887828773 1:5 2:4.0929 3:2.19824 4:6.98894 5:2.94555 6:2.31226 7:2.99516 8:0.74074 9:1.66776 10:1.68415 11:1.72533 12:1.26782 13:0.75 14:0 15:0 
-2 1:6 2:8.3195 3:5.15497 4:5.09767 5:1.99612 6:4.07369 7:2.97071 8:1.83333 9:2.63252 10:1 11:0 12:0 13:0.87795 14:1 15:0 
-1.214047420402864 1:12 2:16.16871 3:3.84005 4:6.54236 5:1.97311 6:2.98721 7:1.79875 8:0 9:0.99449 10:0.74009 11:1.49524 12:0.99593 13:1.73788 14:0 15:0 
-2 1:0 2:4.90468 3:2.99782 4:4.36036 5:1.75703 6:2.20727 7:3.0094 8:0.70062 9:1.31456 10:0.77778 11:0 12:0.99594 13:0.9895 14:0.77057 15:0 
-0.522010440221806 1:6 2:8.10152 3:5.10672 4:4.2275 5:1 6:2.26514 7:2.22441 8:0 9:2.63444 10:2 11:0.81586 12:0 13:0.86751 14:1 15:0 
-2 1:2 2:4.60389 3:2.18988 4:2.97948 5:1.33541 6:1.47218 7:2.99985 8:0 9:0.67218 10:1.67535 11:0.8616 12:0 13:0 14:0.71178 15:0 
-0.02029142252479382 1:9 2:11.275 3:5.52251 4:4.45405 5:2.69473 6:3.40975 7:3.02983 8:0.83333 9:3.56298 10:1 11:0 12:0 13:0.87795 14:1 15:0 
-0.1125132483199102 1:27 2:13.28535 3:4.31064 4:5.09053 5:2.69473 6:5.03679 7:3.02983 8:0.99383 9:2.63252 10:1 11:1.56691 12:0 13:0.87795 14:1 15:0 
-0.1450714771696133 1:9 2:12.66986 3:7.63104 4:5.09053 5:1.69861 6:2.22726 7:1.55219 8:2.67489 9:2.63252 10:0.99631 11:1.56691 12:0 13:0.87927 14:1 15:0 
-0.0116254845278273 1:9 2:7.68977 3:3.1282 4:4.24033 5:0.69861 6:2.60468 7:2.31853 8:1.82716 9:0 10:0 11:1.56691 12:0 13:0.87795 14:0 15:0 
-1.085151709504913 1:9 2:22.31816 3:3.83904 4:6.53251 5:0 6:1.99192 7:3.99433 8:0 9:1.99253 10:0.74009 11:1.49524 12:0.9905 13:1.73919 14:1.71099 15:0.99528 
-0.4793958203485785 1:3 2:9.18583 3:2.16528 4:2.49291 5:2.18968 6:2.19164 7:2.29068 8:0.99383 9:2.0072 10:0.7597 11:0.81586 12:0 13:0.85039 14:0.76309 15:0 
-0.1061920540628383 1:23 2:13.73762 3:6.10215 4:5.82068 5:2.69647 6:4.21629 7:3.03132 8:2.83333 9:2.63444 10:1 11:1.56691 12:0.71779 13:0.87927 14:1 15:0 
-0.2954428055939377 1:6 2:8.54436 3:5.10222 4:3.37604 5:1.99612 6:7.77893 7:3.03289 8:0.83333 9:2.63252 10:0 11:1.56691 12:0 13:0 14:1 15:0 
-0.6414867194775001 1:2 2:2.80315 3:0.68794 4:5.05322 5:5.31857 6:2.30472 7:0.79499 8:0 9:1.66335 10:1.67976 11:1.72533 12:0 13:0.75 14:0 15:0 
-0.208674620887158 1:5 2:13.66824 3:2.22163 4:3.33899 5:1.67782 6:2.43401 7:2.31853 8:2.67489 9:0.63636 10:0 11:0.75105 12:0 13:0 14:0 15:0 
-0.2868314452799056 1:12 2:7.5056 3:4.37722 4:2.64939 5:2.69473 6:7.9125 7:3.02983 8:0.83333 9:2.63252 10:0 11:1.56691 12:0 13:0 14:1 15:0 
-2 1:8 2:17.2122 3:5.83952 4:8.53181 5:0.99649 6:1.99007 7:3.99467 8:0 9:0.99764 10:0.74009 11:1.49389 12:0.99457 13:1.73919 14:1.71584 15:0.99764 
-2 1:3 2:4.87997 3:2.48543 4:4.42209 5:1.45566 6:0.99587 7:1.44221 8:1.67284 9:0.70818 10:0.78519 11:0 12:0 13:0.87795 14:0.82793 15:0 
-0.1415652846934463 1:9 2:11.4141 3:7.60302 4:5.09053 5:1.99612 6:6.3927 7:2.26349 8:2.51131 9:2.63252 10:1 11:1.57408 12:0 13:0.87795 14:1 15:0 
-0.02947971198630407 1:12 2:14.41061 3:4.34496 4:4.37624 5:1.69473 6:3.57993 7:3.02983 8:2.67489 9:1.99616 10:0 11:0.75105 12:0 13:0.87927 14:0 15:0 
-0.1055793674938762 1:13 2:7.60686 3:3.59635 4:4.37624 5:1 6:3.22016 7:2.31853 8:0 9:2.63252 10:1 11:0 12:0 13:0.87795 14:1 15:0 
-1.999035829978971 1:5 2:19.37892 3:3.83831 4:7.53261 5:0.99649 6:0.992 7:3.80031 8:0 9:0.99528 10:0.74009 11:1.50305 12:0.99186 13:1.73919 14:1.71099 15:0.99528 
-0.1270366111409101 1:24 2:14.37293 3:5.09151 4:5.09053 5:2.69473 6:5.06248 7:1.45598 8:1.82881 9:2.63252 10:1 11:0.75105 12:0 13:0.87795 14:1 15:0 
-2 1:3 2:5.11903 3:5.14933 4:4.10124 5:1.69861 6:2.22444 7:1.45598 8:1.83024 9:2.63252 10:1 11:0.81586 12:0 13:0.87795 14:1 15:0 
-0.1164738124682829 1:12 2:32.34458 3:3.83627 4:7.33099 5:0.99825 6:2 7:4.7395 8:0 9:1.99528 10:0 11:1.50305 12:1.78988 13:1.73919 14:1.71028 15:0.99528 
-0.7041678384670121 1:0 2:0.73574 3:0.82319 4:4.82432 5:0.76367 6:0.81215 7:3.30564 8:0 9:0.81215 10:1.46136 11:0.72399 12:0 13:0.84211 14:0.75561 15:0 
-2 1:12 2:19.59076 3:3.84162 4:6.71382 5:0.99649 6:1.99725 7:3.79462 8:0 9:1.99489 10:1.48761 11:1.49389 12:1 13:1.73919 14:1.73871 15:0.99764 
-2 1:8 2:17.53967 3:3.83831 4:5.5491 5:0.99649 6:0.99725 7:4.79411 8:0 9:1.99253 10:0 11:1.50305 12:0 13:1.72644 14:1.71099 15:0.99528 
-0.6000034914153699 1:7 2:11.20299 3:4.51619 4:5.36958 5:0.99474 6:4.44352 7:3.99467 8:0 9:0.99292 10:0.74009 11:0.70981 12:0 13:1.73677 14:1.70863 15:0.99292 
-0.2795713369583271 1:38 2:9.15573 3:3.30799 4:5.14632 5:3.09883 6:3.37406 7:3.02214 8:2.83025 9:0.99808 10:0.99631 11:0 12:0 13:1.76733 14:0.99649 15:0 
-0.3061117370791217 1:11 2:8.51429 3:3.85951 4:3.41454 5:0.99612 6:2.79517 7:3.02983 8:0.99383 9:0 10:1 11:1.56691 12:0 13:0 14:0 15:0 
-0.06342306061293546 1:21 2:8.02 3:5.10123 4:4.09794 5:2.69473 6:2.41648 7:2.22232 8:0.83333 9:2.63252 10:1 11:0.81586 12:0 13:0.88514 14:1 15:0 
-0.2639856040040291 1:13 2:32.34631 3:1.83975 4:5.50088 5:0.99825 6:2 7:3.7395 8:0 9:1.99528 10:0.74009 11:1.50305 12:1.78988 13:0.73919 14:1.71028 15:0.99528 
-0.8432440866502267 1:12 2:22.69013 3:1.84436 4:5.64303 5:0 6:1.99458 7:3.78904 8:0 9:0.99725 10:0.74009 11:0.78543 12:0.98643 13:1 14:0 15:0 
-0.04869690998548828 1:8 2:14.65677 3:4.9991 4:4.25269 5:1.99612 6:6.53431 7:2.26226 8:1.67798 9:2.63252 10:1 11:0.84229 12:0 13:0.87795 14:1 15:0 
-0.3627087533364412 1:32 2:40.2694 3:4.80231 4:6.65777 5:0 6:3 7:6.64613 8:0.82716 9:2 10:0.74009 11:0.78543 12:1 13:1 14:1.71571 15:1 
-0.3948312847498508 1:26 2:17.86221 3:4.95356 4:6.69568 5:0.99825 6:1 7:4.75298 8:0.82716 9:1 10:0 11:1.50305 12:1 13:1.73919 14:1.71571 15:1 
-0.2371604961206198 1:19 2:10.70177 3:7.8337 4:4.09053 5:3.69473 6:5.63589 7:2.26349 8:0.99383 9:5.26504 10:1 11:1.56691 12:0 13:0.87795 14:2 15:0 
-0.0107185015558005 1:9 2:13.16384 3:4.82599 4:3.4515 5:2.69473 6:3.57948 7:3.02983 8:3.50822 9:0 10:1 11:0.75105 12:0 13:0 14:0 15:0 
-2 1:12 2:18.21453 3:4.8349 4:8.41444 5:0.98772 6:3.63874 7:4.7746 8:0.82716 9:1.98938 10:0.74009 11:1.49733 12:0.99322 13:2.47838 14:1.71335 15:0.99764 
-2 1:12 2:20.58412 3:3.83904 4:7.52867 5:0.99123 6:1.99192 7:4.79342 8:0 9:0.99725 10:0.74009 11:1.49524 12:0.9905 13:1.73919 14:0.70556 15:0 
-0.6658393591203612 1:11 2:12.68246 3:2.34622 4:4.37459 5:1.69861 6:1.62978 7:2.31853 8:0.99383 9:0.63636 10:1 11:1.57828 12:0 13:0.87795 14:0 15:0 
-0.1215655813811308 1:15 2:8.97529 3:3.31018 4:6.01854 5:1.69861 6:4.03866 7:1.51102 8:0.99383 9:0.63636 10:1 11:1.56691 12:0 13:0.87795 14:0 15:0 
-0.2314925307024829 1:8 2:26.98571 3:3.84005 4:6.71599 5:1.97311 6:2.98722 7:4.79342 8:0 9:1.99213 10:0.74009 11:1.49524 12:0.99593 13:1.73788 14:1.71647 15:0.99764 
-0.161551129717266 1:14 2:11.49191 3:5.85335 4:5.09218 5:1.69861 6:6.99528 7:1.51102 8:0 9:2.63252 10:1 11:1.55854 12:0 13:0.87795 14:1 15:0 
-0.05152821607338717 1:12 2:15.04952 3:6.88873 4:4.40579 5:1.99612 6:6.39347 7:3.02983 8:3.50822 9:2.63252 10:1 11:1.57408 12:0 13:0.87795 14:1 15:0 
-0.4496554046024075 1:15 2:14.37853 3:5.09151 4:5.09053 5:2.39722 6:3.39996 7:3.02983 8:0.99383 9:1.99616 10:1 11:1.56691 12:0 13:0.87795 14:1 15:0 
-2 1:12 2:17.6954 3:3.84088 4:7.53668 5:0.99298 6:0.992 7:5.74885 8:0 9:0.99764 10:0 11:1.49524 12:0.99593 13:1.73919 14:1.71514 15:0.99764 
-0.3291278766092428 1:2 2:3.99626 3:2.17656 4:4.88455 5:6.68939 6:1.5 7:1.39371 8:0.74074 9:0.7 10:0.69892 11:1.7076 12:0 13:0.75 14:0.71178 15:0 
-2 1:5 2:8.29547 3:3.66596 4:2.72431 5:1.97386 6:3.26881 7:3.03498 8:1.83642 9:2.64271 10:0 11:0 12:0 13:0 14:0.99713 15:0 
-2 1:5 2:7.57648 3:5.10864 4:5.08669 5:1.69359 6:2.28819 7:2.29606 8:0.99691 9:2.64463 10:0.99631 11:0.81586 12:0 13:0.88058 14:0.99751 15:0 
-0.3640751719346086 1:12 2:31.59812 3:4.83952 4:13.35265 5:0.99474 6:13.71985 7:4.79014 8:0.82407 9:0.99764 10:0.74009 11:1.49315 12:5.81892 13:1.73657 14:1.71584 15:0.99764 
-0.251279480332336 1:0 2:0.7482 3:0.82319 4:4.82432 5:0.76367 6:1.61169 7:3.30564 8:0 9:1.41266 10:0.73068 11:1.50701 12:0 13:0.84211 14:1.35612 15:0.60051 
-0.3006632915623212 1:15 2:37.32295 3:3.83627 4:7.4976 5:0.99825 6:2 7:4.73818 8:0 9:1.99528 10:0 11:1.50305 12:1.78988 13:0.73919 14:1.71028 15:0.99528 
-2 1:0 2:5.21757 3:2.17656 4:2.25701 5:1.33541 6:2.29706 7:2.99985 8:0 9:0.67218 10:0.69892 11:0.8616 12:0 13:0 14:0 15:0 
-0.06659656836434943 1:18 2:7.88866 3:5.83754 4:5.97801 5:2.69473 6:3.22211 7:3.02983 8:1.82716 9:2.63252 10:1 11:0.82602 12:0 13:1.7559 14:1 15:0 
-2 1:2 2:1.95977 3:2.19824 4:5.75702 5:5.92131 6:2.31218 7:2.26276 8:0.74074 9:1.66335 10:1.67976 11:1.73031 12:0 13:0.75 14:0 15:0 
-0.2665793641399937 1:12 2:9.16775 3:5.09151 4:4.21553 5:1 6:3.21941 7:1.55219 8:0 9:2.63252 10:0 11:0.75105 12:0 13:0 14:1 15:0 
-0.02043555003213398 1:21 2:12.68246 3:5.12436 4:5.09053 5:2.69473 6:4.21553 7:2.26442 8:1.82716 9:2.63252 10:1 11:0.75105 12:0 13:0.87795 14:1 15:0 
-0.3650854852149175 1:12 2:35.73757 3:3.84142 4:7.42189 5:0.99474 6:9.15529 7:5.7283 8:0.82716 9:0.99725 10:0.74009 11:1.4918 12:1.8775 13:1.73261 14:0 15:0 
-0.2328989294765829 1:9 2:16.6948 3:5.65525 4:5.4746 5:0 6:6.43544 7:2.9988 8:1.66741 9:1.99017 10:0.74009 11:0.78408 12:0 13:1 14:1.70863 15:0.99292 
-0.3408256399571423 1:18 2:9.41711 3:8.56603 4:6.88856 5:2.69473 6:7.92526 7:3.0081 8:0.99383 9:3.56298 10:1 11:1.56691 12:0 13:0.87795 14:1 15:0 
-0.1181144187443124 1:15 2:25.72419 3:1.99652 4:5.79609 5:0.99474 6:1.99458 7:4.78497 8:0 9:1.99253 10:0.74009 11:0.77403 12:0.98643 13:1 14:1.71099 15:0.99528 
-0.05280687143554497 1:8 2:13.07419 3:7.7001 4:6.03447 5:1.99612 6:5.02585 7:3.02983 8:0.99691 9:3.54465 10:1.9977 11:3.20014 12:0 13:0.87795 14:0.9797 15:0 
-2 1:9 2:16.06238 3:3.84316 4:7.52624 5:0.99298 6:1.99192 7:3.9857 8:1.69136 9:1.99489 10:0.74009 11:1.50093 12:0.99322 13:1.73657 14:1.71086 15:0.99764 
-2 1:11 2:13.65653 3:4.55899 4:7.25478 5:0.99298 6:0.99725 7:3.79065 8:0.82716 9:1.99489 10:0.74009 11:0.7155 12:0.99322 13:1.73657 14:1.71086 15:0.99764 
-0.2563445380113614 1:23 2:11.73161 3:6.16242 4:3.37604 5:2.69861 6:6.61089 7:3.02983 8:1.83024 9:2.63252 10:1 11:1.55854 12:0 13:0 14:1 15:0 
-0.09403957117218156 1:6 2:7.424 3:3.06578 4:3.3706 5:0.69861 6:0.99342 7:1.51102 8:1.82716 9:0 10:0 11:1.56691 12:0 13:0 14:0 15:0 
-0.08279052382471565 1:14 2:7.10498 3:5.72786 4:5.71265 5:1.9845 6:3.21035 7:3.03132 8:2.83642 9:2.63636 10:0.99631 11:0.81586 12:0 13:0.87927 14:1 15:0 
-0.1785300046702177 1:9 2:15.1499 3:7.60302 4:5.80832 5:2.69473 6:4.21488 7:3.02983 8:3.50822 9:2.63252 10:1 11:1.57408 12:0.71779 13:0.87795 14:1 15:0 
-0.3360725548383019 1:41 2:7.16307 3:4.13792 4:2.35818 5:4.09883 6:3.22651 7:2.31084 8:2.83025 9:0.63912 10:0 11:0.81586 12:0 13:0 14:0 15:0 
-2 1:2 2:4.60389 3:2.90205 4:5.01464 5:1.33541 6:1.47218 7:2.20173 8:0.74074 9:0.67218 10:1.67535 11:1.72743 12:0 13:0.75 14:0 15:0 
-0.3144632316133643 1:41 2:7.15573 3:4.85368 4:5.85616 5:3.10271 6:3.01706 7:2.2301 8:2.83025 9:0.63912 10:0.99631 11:0.81586 12:0 13:1.76733 14:0 15:0 
-2 1:12 2:11.75681 3:2.84179 4:5.72161 5:0.99649 6:1.98925 7:3.79411 8:0 9:0.99725 10:0.74009 11:0.71762 12:0.99186 13:1.73919 14:0 15:0 
-0.02596053708519927 1:15 2:10.82296 3:5.1667 4:3.48923 5:2.69473 6:3.4099 7:2.28515 8:0 9:3.56298 10:1 11:1.56691 12:0 13:0.87795 14:1 15:0 
-0.4176215693164581 1:6 2:6.12281 3:5.0173 4:4.09932 5:1 6:2.5923 7:1.45598 8:1.82716 9:1.99616 10:1 11:0.81586 12:0 13:0.87795 14:1 15:0 
-0.2882894070914173 1:11 2:12.3106 3:3.85719 4:5.09218 5:2.67923 6:8.78803 7:3.02983 8:2.67489 9:0.63636 10:1 11:1.55854 12:0 13:0.87795 14:0 15:0 
-0.3124323066732074 1:22 2:17.21931 3:3.10507 4:5.09932 5:1.69861 6:6.03664 7:2.26349 8:1.82716 9:0.63636 10:1 11:1.56691 12:0 13:0.87664 14:0 15:0 
-0.3567494477554752 1:23 2:4.59469 3:4.90135 4:2.61221 5:2.69473 6:5.5067 7:2.26446 8:0 9:0.63636 10:1 11:0.81586 12:0 13:0.87664 14:0 15:0 
-1.106750318589518 1:15 2:15.26019 3:3.8452 4:7.53749 5:0.99649 6:1.99265 7:4.61957 8:0 9:0.99725 10:0.74009 11:1.49389 12:0.99457 13:1.73919 14:0 15:0 
-0.1438574418338935 1:14 2:17.10823 3:4.37833 4:5.09053 5:3.39334 6:7.31934 7:3.02983 8:0.99691 9:2.63252 10:1 11:1.56691 12:0 13:0 14:1 15:0 
-0.4697913530908945 1:5 2:14.30819 3:4.83952 4:8.53181 5:0 6:6.2596 7:4.61957 8:0.82716 9:1.99489 10:0 11:1.49389 12:0.99457 13:1.73919 14:1.71584 15:0.99764 
-0.07814178957489294 1:18 2:11.83255 3:4.95053 4:3.43949 5:2.69473 6:6.44689 7:1.51881 8:1.82716 9:2.63252 10:1 11:0.81586 12:0 13:0.87795 14:1 15:0 
-0.8005729048478705 1:2 2:12.75506 3:3.84162 4:5.83101 5:0.99649 6:1.99725 7:5.77729 8:0 9:1.99489 10:0.74009 11:0 12:1 13:1 14:1.71335 15:0.99764 
-2 1:6 2:6.31997 3:5.10672 4:4.23649 5:0.98062 6:2.60662 7:2.2265 8:0.99691 9:1.99808 10:0.99631 11:0.83333 12:0 13:0.88058 14:0.99751 15:0 
-1.27054829593236 1:0 2:4.26353 3:2.48526 4:4.42209 5:2.20566 6:3.40036 7:2.98624 8:1.67284 9:0.66116 10:0.78519 11:0 12:0 13:0.87795 14:0 15:0 
-0.906009564966085 1:5 2:4.0929 3:1.5103 4:5.03261 5:0.69946 6:2.31226 7:3.00975 8:0.74074 9:1.66776 10:0.70323 11:1.72533 12:0 13:0.75 14:0 15:0 
-1.158367884890231 1:8 2:25.99138 3:3.84005 4:8.35469 5:1.97311 6:0.99449 7:4.79342 8:0 9:1.99213 10:0.74009 11:0.78543 12:0.99593 13:1.73788 14:1.71086 15:0.99764 
-0.1117834799075874 1:6 2:6.53416 3:2.39288 4:3.37604 5:1.69647 6:2.58309 7:2.26498 8:2.83333 9:0 10:1 11:0.81586 12:0 13:0 14:0 15:0 
-0.05453516965653435 1:9 2:8.03146 3:5.09151 4:3.36533 5:1.69861 6:0.63636 7:1.55219 8:1.82716 9:2.63252 10:0 11:0 12:0 13:0 14:1 15:0 
-0.04009255150106757 1:9 2:10.11493 3:3.88663 4:5.10124 5:1.99612 6:7.33852 7:3.07928 8:0.83333 9:0.63636 10:0 11:1.56691 12:0 13:0.87795 14:1 15:0 
-0.2661269468045111 1:32 2:11.92968 3:5.31322 4:4.21583 5:2.69473 6:3.22338 7:3.02983 8:2.67489 9:2.63252 10:0 11:0.75105 12:0 13:0 14:1 15:0 
-1.232121291546719 1:12 2:22.1876 3:3.83831 4:6.53963 5:0.99649 6:1.98925 7:4.79411 8:0 9:1.99253 10:0.74009 11:1.50305 12:0.99186 13:1.73919 14:1.71099 15:0.99528 
-0.2461391364867209 1:26 2:15.12942 3:6.90845 4:5.81903 5:2.69861 6:6.61089 7:3.02983 8:1.83024 9:2.63252 10:1 11:1.55854 12:0.71779 13:0.87927 14:1 15:0 
-0.6830127349647692 1:3 2:9.11502 3:5.9621 4:3.25104 5:1.69861 6:1.58808 7:3.02766 8:1.83024 9:1.99616 10:0 11:0.81586 12:0 13:0.87795 14:1 15:0 
-0.2459983425978312 1:14 2:18.73041 3:5.85335 4:5.80997 5:2.67923 6:8.78013 7:3.02983 8:2.67489 9:2.63252 10:1 11:1.55854 12:0.71779 13:0.87795 14:1 15:0 
-2 1:3 2:2.39366 3:3.18969 4:2.6923 5:2.20883 6:2.41375 7:2.20812 8:0 9:1.36748 10:0 11:0.82206 12:0 13:0 14:0.82793 15:0 
-0.3658270995355128 1:12 2:33.65909 3:2.99258 4:10.62557 5:0 6:14.7171 7:2 8:0.82407 9:0.99725 10:0.74009 11:0 12:5.81892 13:1 14:0 15:0 
-0.05857908501002647 1:18 2:7.54015 3:4.37833 4:5.09053 5:2.69473 6:2.41648 7:1.45598 8:1.82716 9:2.63252 10:1 11:0.81586 12:0 13:0.87795 14:1 15:0 
-2 1:3 2:7.29554 3:4.81098 4:4.40142 5:2.23566 6:2.18921 7:2.94552 8:0.70679 9:2.0678 10:1.80037 11:0.81886 12:0 13:0.89108 14:0.8275 15:0 
-0.2035568681013331 1:17 2:22.58683 3:2.607 4:6.68974 5:0.99298 6:0.99449 7:5.74885 8:0 9:2.60261 10:0.74009 11:1.49524 12:0.99593 13:1.73919 14:1.71514 15:0.99764 
-2 1:0 2:7.10894 3:4.02527 4:5.36916 5:2.23566 6:3.02842 7:2.99332 8:1.7037 9:2.0678 10:1.80037 11:0.81886 12:0 13:0.89108 14:0.8275 15:0 
-0.1130694588913075 1:33 2:15.04226 3:5.3798 4:4.37654 5:2.69473 6:5.6379 7:3.02983 8:2.67489 9:2.63252 10:1 11:1.56691 12:0 13:0.87795 14:1 15:0 
-0.9654637154532206 1:12 2:24.00885 3:2.99311 4:4.98624 5:0 6:2.98722 7:4.79342 8:0 9:1.99213 10:0.74009 11:0.78543 12:0.99593 13:1 14:1.71086 15:0.99764 
-0.1368168561722541 1:5 2:13.18385 3:7.02062 4:5.3059 5:1.69861 6:3.833 7:2.31853 8:2.67489 9:4.16899 10:1.9977 11:0.75105 12:0 13:0.87795 14:0.9797 15:0 
-0.4266956428705936 1:3 2:2.74416 3:3.19344 4:3.56919 5:0.7449 6:3.64988 7:1.50042 8:0.99691 9:1.36934 10:0.78519 11:0.81561 12:0 13:0.87795 14:0.82793 15:0 
-0.4227350121743862 1:12 2:20.29176 3:1.99652 4:5.687 5:0.99649 6:0 7:3 8:0 9:0.99528 10:0.74009 11:1.50305 12:0.99186 13:1.73919 14:1.65232 15:0.99528 
-0.3058789791668687 1:12 2:16.32451 3:3.83664 4:5.71906 5:0.98772 6:3.63874 7:1 8:0.82716 9:1.98938 10:0 11:1.49733 12:0 13:1.73919 14:1.71335 15:0.99764 
-0.3342641987884937 1:15 2:22.62852 3:7.50135 4:10.85436 5:0 6:6.43544 7:3.7825 8:1.66741 9:1.99017 10:0.74009 11:1.49389 12:2.50397 13:0.74265 14:1.70863 15:0.99292 
-0.004876545240145056 1:13 2:11.28213 3:4.31064 4:5.85456 5:2.69473 6:3.4099 7:2.26349 8:1.82716 9:2.63252 10:1 11:1.56691 12:0 13:0.87795 14:1 15:0 
-2 1:3 2:4.87997 3:3.19344 4:4.42209 5:2.20566 6:2.40449 7:2.9982 8:0.67593 9:1.36934 10:0.78519 11:0.81561 12:0 13:0.87795 14:0.82793 15:0 
-0.1220114746154679 1:13 2:9.60053 3:2.88317 4:2.61221 5:1.99612 6:4.21553 7:3.03451 8:1.98766 9:2.63252 10:1 11:1.56691 12:0 13:0.87795 14:1 15:0 
-0.1105424101455083 1:13 2:7.7257 3:2.38217 4:4.3265 5:2.69473 6:4.34973 7:1.51102 8:0 9:0.63636 10:1 11:0.81586 12:0 13:0.87795 14:0 15:0 
-1.059342241564259 1:4 2:3.99626 3:1.36091 4:4.88455 5:0.63736 6:2.29706 7:2.20173 8:0.74074 9:0.67218 10:0 11:1.72743 12:0 13:0.75 14:0 15:0 
-0.3922641752932901 1:3 2:31.78842 3:3.84142 4:4.54706 5:0 6:9.15529 7:4.94047 8:0 9:1.99489 10:0.74009 11:1.4918 12:0 13:1.73261 14:1.71335 15:0.99764 
-0.0683645595106409 1:15 2:12.68246 3:3.1276 4:5.12278 5:0.69861 6:1.79905 7:2.31853 8:0.99383 9:0 10:1 11:1.56691 12:0 13:0.87795 14:0 15:0 
-2 1:3 2:2.70606 3:3.89008 4:5.18336 5:1.48085 6:2.27361 7:1.57719 8:0.99691 9:2.0678 10:1.80037 11:0.81886 12:0.7351 13:0.89108 14:0.8275 15:0 
-0.6670775075339704 1:0 2:8.94885 3:3.84162 4:4.54552 5:0.99649 6:0.99725 7:3.99587 8:0 9:1.99489 10:0.74009 11:1.49389 12:0 13:1.73919 14:1.71335 15:0.99764 
-0.05221847351807742 1:16 2:13.72993 3:4.23624 4:2.7252 5:1.69861 6:4.04553 7:1.57385 8:1.82716 9:2.63252 10:1 11:1.56691 12:0 13:0.87795 14:1 15:0 
-0.2396595874504589 1:30 2:15.04226 3:6.09409 4:5.80862 5:2.69473 6:5.6379 7:3.02983 8:2.67489 9:2.63252 10:1 11:1.56691 12:0.71779 13:0.87795 14:1 15:0 
-0.08353809180034645 1:20 2:11.41669 3:3.06051 4:4.21553 5:1.69473 6:2.79517 7:3.02983 8:1.82716 9:0 10:1 11:1.56691 12:0 13:0 14:0 15:0 
-0.3765346389027504 1:28 2:32.55206 3:2.96089 4:6.64768 5:0.99825 6:2 7:3.89728 8:0 9:2 10:0.74009 11:0.71762 12:0 13:1.73919 14:1.71571 15:1 
-1.872059761608103 1:6 2:15.84289 3:3.84316 4:6.71258 5:0.99298 6:0.99725 7:3.79065 8:1.69136 9:0.99725 10:0.74009 11:1.50093 12:0.99322 13:1.73657 14:0 15:0 
-0.2795923152277465 1:12 2:46.75179 3:3.837 4:6.71222 5:0.99474 6:5.48745 7:5.69438 8:0.82716 9:0.99725 10:0.74009 11:1.49107 12:0.99457 13:1.73919 14:0 15:0 
-0.1691307819227394 1:26 2:10.69577 3:6.83093 4:5.09218 5:2.69473 6:4.21539 7:2.22232 8:2.82715 9:2.63252 10:1 11:0.81586 12:0 13:0.87664 14:1 15:0 
-0.3862149861814578 1:12 2:26.73821 3:2.99258 4:12.50571 5:0 6:14.7171 7:4.79014 8:0.82407 9:1.99489 10:1.3816 11:0.70772 12:5.81892 13:1.73657 14:1.71584 15:0.99764 
-1.892824809779943 1:6 2:11.81788 3:1.99826 4:5.69406 5:0.99649 6:0.99725 7:3.79342 8:0 9:1.99489 10:0.74009 11:0.70981 12:0.99457 13:1.73919 14:1.71584 15:0.99764 
-0.3257737543289675 1:8 2:44.05413 3:3.837 4:5.53833 5:0.99474 6:5.48745 7:4.90639 8:0 9:1.99253 10:0 11:0.70564 12:0 13:1.73919 14:1.71099 15:0.99528 
-1.400492893794493 1:12 2:13.64597 3:4.55899 4:8.24776 5:0.99298 6:1.99192 7:3.79065 8:2.51852 9:1.99489 10:0.74009 11:1.50093 12:0.99322 13:1.73657 14:1.77902 15:0.99764 
-2 1:3 2:4.87997 3:3.19344 4:4.42209 5:2.20566 6:3.40036 7:2.9982 8:1.67284 9:1.36934 10:0.78519 11:0.81561 12:0 13:0.87795 14:0.82793 15:0 
-1.752711962472332 1:6 2:8.5114 3:3.93404 4:4.96883 5:2.69473 6:3.22056 7:3.02766 8:1.83024 9:0.63636 10:0 11:0.81586 12:0.71779 13:0.87795 14:0 15:0 
-2 1:3 2:4.93641 3:2.19358 4:3.42532 5:2.21223 6:3.41597 7:2.26489 8:1.67593 9:1.36934 10:0.78889 11:0.81561 12:0 13:0.87927 14:0.82544 15:0 
-0.01487786930784157 1:23 2:11.54617 3:5.10123 4:4.22432 5:1.69861 6:2.22599 7:2.28515 8:1.82716 9:2.63252 10:0 11:1.53143 12:0 13:0 14:1 15:0 
-2 1:3 2:2.77818 3:2.34717 4:2.5208 5:1.414 6:2.2549 7:3.0094 8:0.70062 9:0 10:0 11:0.81941 12:0 13:0 14:0 15:0 
-0.4043793847033255 1:6 2:16.57609 3:0.99826 4:7.95863 5:0 6:1.99273 7:2.99467 8:0 9:0 10:0.74009 11:0 12:6.1463 13:0 14:0 15:0 
-1.065230879708087 1:12 2:22.3163 3:3.83904 4:6.53251 5:0.99123 6:0.99725 7:3.99467 8:0 9:0.99725 10:0.74009 11:1.49524 12:0.9905 13:1.73919 14:0.71571 15:0 
-0.1461018860472331 1:6 2:11.02484 3:7.13835 4:4.33007 5:1.70515 6:2.22726 7:2.31853 8:0 9:4.62868 10:1 11:0.81586 12:0 13:0.87795 14:2 15:0 
-0.3195267035505072 1:10 2:30.10928 3:1.99652 4:6.57699 5:0 6:9.15529 7:4.77592 8:0.82716 9:1.99489 10:0.74009 11:1.4918 12:1.8775 13:1.73261 14:1.71335 15:0.99764 
-0.02878905232268667 1:15 2:15.05666 3:7.60302 4:5.80832 5:2.69473 6:4.21629 7:3.02983 8:2.67489 9:2.63252 10:0.99631 11:1.56691 12:0.71779 13:0.87927 14:1 15:0 
-2 1:10 2:12.7192 3:3.83831 4:6.53394 5:0.99649 6:0.99725 7:4.79411 8:0 9:1.99253 10:0.74009 11:1.50305 12:0.99186 13:1.73919 14:1.71099 15:0.99528 
-0.3712851530102285 1:29 2:45.2694 3:4.80231 4:7.54058 5:0.99825 6:3 7:6.64613 8:0.82716 9:2 10:0.74009 11:1.50305 12:1 13:1.73919 14:1.71571 15:1 
-0.1619565879127194 1:14 2:8.87142 3:5.72786 4:6.43044 5:2.68485 6:3.21035 7:1.51102 8:2.83642 9:2.63636 10:0 11:0.81586 12:0.71779 13:0.87927 14:1 15:0 
-0.07272525450887891 1:14 2:15.91349 3:5.07248 4:5.04429 5:2.67923 6:8.78013 7:3.02983 8:2.67489 9:2.63252 10:0 11:0.74268 12:0.71779 13:0.87795 14:1 15:0 
-1.775805417242909 1:6 2:6.57535 3:4.39096 4:5.10124 5:1.99612 6:3.22338 7:3.02405 8:2.83333 9:2.63444 10:1 11:0.81586 12:0 13:0.87927 14:1 15:0 
-0.03568693921410038 1:14 2:8.25236 3:3.10864 4:5.09343 5:1.68485 6:1.78732 7:1.51102 8:1 9:0 10:0.99631 11:0.81586 12:0 13:0.87927 14:0 15:0 
-0.1555965438675567 1:21 2:8.67725 3:4.34349 4:4.09053 5:2.67158 6:3.4099 7:1.45598 8:0 9:2.63252 10:1 11:1.5481 12:0 13:0.87795 14:1 15:0 
-0.3003461933797618 1:6 2:15.4486 3:3.52306 4:1.7252 5:2.69473 6:3.41206 7:2.26349 8:2.67489 9:2.63252 10:0 11:2.31796 12:0 13:0.87795 14:1 15:0 
-0.1682627606385669 1:31 2:9.6289 3:5.37833 4:5.09083 5:0.99612 6:4.19731 7:3.02983 8:1.67798 9:1.99616 10:1 11:0.75105 12:0 13:0.87795 14:1 15:0 
-1.979340487175777 1:6 2:6.32047 3:2.37794 4:5.09926 5:1.69473 6:2.79328 7:2.22232 8:1 9:0 10:1 11:0.81586 12:0 13:0.87795 14:0 15:0 
-0.9491410315007466 1:6 2:7.98567 3:2.49328 4:3.61221 5:1.69473 6:1.98954 7:3.0308 8:0.99691 9:0 10:1 11:0.81586 12:0 13:0.87664 14:0 15:0 
-0.08405892766750281 1:14 2:16.55954 3:5.85335 4:5.80997 5:2.67923 6:8.78013 7:2.22232 8:2.67489 9:2.63252 10:1 11:1.55854 12:0.71779 13:0.87795 14:0 15:0 
-2 1:12 2:21.48013 3:4.8349 4:8.5211 5:0.98772 6:1.98733 7:4.77471 8:0 9:1.98938 10:0.74009 11:0.7119 12:0.99322 13:1.73919 14:1.71335 15:0.99764 
-0.4313168491730182 1:12 2:18.60065 3:1.99468 4:5.69156 5:0.99649 6:0.99725 7:3.99587 8:0 9:1.99489 10:1.48728 11:1.49389 12:1 13:1.73919 14:1.71335 15:0.99764 
-0.3797278883459676 1:9 2:23.32368 3:3.8452 4:10.65617 5:0.99474 6:1.99192 7:2.79255 8:0 9:1.99489 10:0.74009 11:0.70772 12:5.81892 13:1 14:1.71584 15:0.99764 
-1.01600350423966 1:7 2:19.84945 3:1.99652 4:5.6789 5:0.99474 6:0.99725 7:2.78704 8:0 9:0.99725 10:0.74009 11:1.49524 12:0.98643 13:0.73919 14:0 15:0 
-0.5376824692131537 1:11 2:6.25837 3:2.32777 4:2.46221 5:1.68485 6:2.57399 7:2.26498 8:0 9:0 10:0.99631 11:0 12:0 13:0 14:0 15:0 
-0.138187302108895 1:5 2:6.73557 3:5.18219 4:4.2161 5:2.68659 6:1.62086 7:3.03192 8:1.82716 9:2.60741 10:1 11:0.81452 12:0 13:0 14:1 15:0 
-0.3929587230366518 1:8 2:26.72486 3:4.83952 4:10.53597 5:0.99474 6:13.72243 7:2 8:0.82407 9:0.99725 10:0.74009 11:1.48439 12:5.81892 13:1.73657 14:0 15:0 
-2 1:9 2:19.57876 3:3.83904 4:6.71049 5:0.99123 6:1.99192 7:4.79342 8:0 9:1.99253 10:0.74009 11:1.46797 12:0.9905 13:1.73919 14:1.71099 15:0.99528 
-1.310506099471237 1:3 2:6.73651 3:3.59746 4:3.4763 5:1 6:3.21876 7:1.55219 8:3.50822 9:2.63252 10:1 11:1.57408 12:0 13:0.87795 14:1 15:0 
-2 1:11 2:18.62556 3:3.84088 4:5.54777 5:0.99298 6:1.98649 7:5.74885 8:0 9:0.99449 10:0 11:1.49524 12:0 13:1.73919 14:0 15:0 
-0.235408030495816 1:26 2:12.71058 3:7.6118 4:4.24198 5:1 6:2.41645 7:2.3195 8:0.83333 9:2.63252 10:1 11:1.56691 12:0 13:0.87664 14:1 15:0 
-0.213425366995741 1:0 2:3.44194 3:2.14165 4:3.45202 5:3.13025 6:2.1292 7:2.28449 8:0.69753 9:1.32195 10:0 11:0.82075 12:0.94858 13:0 14:0.76808 15:0 
-1.51517271583863 1:10 2:18.38691 3:1.99258 4:3.97568 5:0 6:1.64967 7:3.78788 8:0.82716 9:0.99764 10:0.74009 11:1.49733 12:0.99322 13:0 14:1.71335 15:0.99764 
-0.3537007474245067 1:32 2:28.6541 3:2.80837 4:7.54058 5:0.99825 6:2 7:4.74885 8:0.82716 9:1 10:0.74009 11:1.50305 12:1 13:1.73919 14:1.71571 15:1 
-1.659493219028411 1:9 2:20.73533 3:3.84088 4:4.8307 5:0.99474 6:1.99458 7:3.78704 8:0 9:1.99253 10:0.74009 11:0.70981 12:0.98643 13:1 14:1.71099 15:0.99528 
-0.07036997382600123 1:24 2:12.35744 3:2.49516 4:4.20382 5:1.69861 6:3.05088 7:1.57385 8:2.67489 9:0.63636 10:1 11:0.75105 12:0 13:0.87795 14:0 15:0 
-0.5312866295444764 1:5 2:6.73087 3:5.92306 4:4.33007 5:2.70127 6:3.22338 7:2.22232 8:2.67489 9:2.63252 10:1 11:0.81586 12:0 13:0.87795 14:1 15:0 
-0.1373621667193348 1:18 2:13.28535 3:2.31448 4:5.09053 5:1.69473 6:2.80059 7:3.02983 8:0.99383 9:0 10:1 11:1.56691 12:0 13:0.87795 14:0 15:0 
-0.2082466443926694 1:9 2:16.23805 3:4.86083 4:4.3265 5:1.69473 6:2.79326 7:1.51102 8:2.67489 9:0 10:0.99631 11:1.56691 12:0 13:0.87927 14:0 15:0 
-0.8414176230836082 1:0 2:4.37331 3:4.39096 4:4.32431 5:0.99324 6:2.43023 7:0.74468 8:1.83642 9:1.99808 10:0.99631 11:0.81586 12:0 13:0.88058 14:0.99751 15:0 
-2 1:3 2:4.90807 3:3.18969 4:4.41885 5:2.92135 6:3.40962 7:2.9994 8:0.68519 9:1.36748 10:0.78704 11:0.81561 12:0 13:0.87927 14:0.82793 15:0 
-1.591512280874556 1:12 2:18.58478 3:3.84162 4:5.5385 5:0.99649 6:1.99725 7:2.79875 8:0 9:1.99489 10:0.80392 11:1.49389 12:0 13:1.73919 14:1.71335 15:0.99764 
-1.421526555259631 1:6 2:13.64114 3:2.99406 4:3.98407 5:0.99649 6:1 7:3.79462 8:0 9:0.99764 10:1.48761 11:0 12:1 13:0 14:1.71335 15:0.99764 
-0.1149485479912193 1:12 2:20.10608 3:4.83952 4:7.53448 5:0.99649 6:6.2596 7:2.9988 8:0.82716 9:0.99725 10:1.37167 11:1.49389 12:0.99457 13:1.73919 14:0 15:0 
-0.2451289191934656 1:5 2:4.79036 3:5.10483 4:4.223 5:1.70035 6:2.22866 7:1.51102 8:2 9:2.63444 10:1 11:0.81586 12:0 13:0 14:1 15:0 
-0.4311209365791797 1:3 2:7.10719 3:0 4:2.7252 5:0.99612 6:2.58702 7:2.24511 8:2.83333 9:0 10:1 11:0 12:0 13:0.87927 14:0 15:0 
-0.1628691566896326 1:15 2:16.53521 3:7.60302 4:5.09053 5:1.69861 6:5.62973 7:3.02983 8:2.67489 9:2.63252 10:0.99631 11:0.75105 12:0 13:0.87927 14:1 15:0 
-0.4443882959275693 1:9 2:16.6207 3:4.55899 4:8.24776 5:0.99298 6:0 7:4.78445 8:2.51852 9:0.99764 10:0.74009 11:1.50093 12:0.99322 13:1.73657 14:1.71086 15:0.99764 
-0.1327023210660576 1:0 2:3.40281 3:3.19358 4:4.42532 5:1.49971 6:3.41597 7:3.00402 8:1.67593 9:1.36934 10:0.78889 11:0.81561 12:0 13:0.87927 14:0.82544 15:0 
-0.9174646711278504 1:5 2:20.58819 3:3.99 4:7.67589 5:0.98772 6:1.98907 7:5.78788 8:0 9:1.98938 10:0.74009 11:0.7119 12:0.99322 13:2.73919 14:1.71335 15:0.99764 
-1.395563620698651 1:6 2:6.48074 3:4.31819 4:1.61423 5:2.69473 6:3.22056 7:2.28298 8:1.83024 9:2.63252 10:1 11:0.81586 12:0 13:0 14:1 15:0 
-0.2848585625125016 1:10 2:8.33741 3:2.84005 4:4.53941 5:1.97311 6:1.99273 7:2.78778 8:0 9:0.99764 10:0.74009 11:1.49524 12:0 13:0.73788 14:1.71086 15:0.99764 
-0.3601572091974747 1:7 2:8.74302 3:1.99432 4:4.87416 5:0 6:1.98907 7:3.79029 8:0.82716 9:0.99174 10:0.74009 11:1.49733 12:0 13:1.73919 14:0 15:0 
-1.958940401375812 1:0 2:7.85805 3:4.38172 4:3.37624 5:2.69647 6:3.22338 7:1.51102 8:2 9:2.63444 10:1 11:0.81586 12:0 13:0.87927 14:1 15:0 
-0.1798975533535864 1:12 2:16.2454 3:6.8963 4:3.3265 5:2.69473 6:3.41206 7:2.26349 8:2.67489 9:2.63252 10:0.99631 11:2.34989 12:0 13:0.87927 14:1 15:0 
-0.3856350893064148 1:9 2:7.14948 3:3.07122 4:3.37604 5:1.69473 6:1.80175 7:2.26655 8:1 9:0 10:1 11:0.81586 12:0 13:0 14:0 15:0 
-0.2468629603201916 1:8 2:24.6291 3:5.65525 4:9.33822 5:0.9951 6:6.43544 7:1.99467 8:1.66741 9:1.99017 10:0.74009 11:1.49389 12:0.9905 13:0.73677 14:1.70863 15:0.99292 
-2 1:4 2:18.62556 3:3.84088 4:6.53286 5:0.99298 6:1.98649 7:4.74885 8:0 9:0.99449 10:0.74009 11:1.49524 12:0.99593 13:1.73919 14:0 15:0 
-0.179866246636921 1:8 2:11.5833 3:6.13057 4:6.03447 5:1.99612 6:4.20478 7:3.02983 8:0.99691 9:3.54465 10:1.9977 11:3.20014 12:0 13:0.87795 14:0.9797 15:0 
-0.7062340762898601 1:8 2:13.27164 3:2.99087 4:5.09932 5:2.69861 6:2.98009 7:2.95283 8:0 9:0 10:0 11:1.56691 12:0 13:0.87795 14:0 15:0 
-0.08959083407976463 1:14 2:4.70755 3:5.29148 4:5.07322 5:1 6:2.26124 7:2.22232 8:1.82716 9:3.56298 10:1 11:0.81586 12:0 13:0.87795 14:1 15:0 
-2 1:3 2:5.72826 3:2.61587 4:6.10426 5:2.23566 6:3.02842 7:2.19363 8:1.7037 9:0.6584 10:1.80037 11:0 12:0.7351 13:0.89108 14:0 15:0 
-0.01536176384365717 1:16 2:11.28535 3:4.37722 4:4.37624 5:1.69861 6:2.41378 7:1.55219 8:1.82716 9:2.63252 10:1 11:1.56691 12:0 13:0.87795 14:1 15:0 
-0.1014136661393021 1:23 2:9.07965 3:2.95437 4:3.43949 5:1.69861 6:4.206 7:1.58267 8:1.82716 9:0.63636 10:0 11:1.56691 12:0 13:0.87795 14:0 15:0 
-1.181357730593767 1:10 2:12.68273 3:3.55899 4:6.24776 5:0.99298 6:1.99192 7:3.78445 8:1.66667 9:0.99725 10:0.74009 11:1.50093 12:0.99322 13:0.73657 14:0 15:0 
-0.8908637427221714 1:3 2:9.82047 3:3.18559 4:2.61221 5:1.69861 6:3.70521 7:2.33396 8:1.83024 9:0.63636 10:1 11:0.81586 12:0 13:0.87664 14:0 15:0 
-0.371520159329549 1:8 2:33.70543 3:3.84126 4:13.35265 5:0.99474 6:14.7171 7:4.79014 8:0.82407 9:1.99489 10:0.74009 11:0 12:5.81892 13:1.72401 14:0.99764 15:0.99764 
-0.09238445178567521 1:16 2:8.81883 3:3.84138 4:4.3265 5:1.69473 6:2.79517 7:1.45598 8:0.83333 9:0 10:0 11:1.58393 12:0 13:0.87795 14:0 15:0 
-0.4593406952273145 1:12 2:24.71146 3:3.84088 4:4.54643 5:0.99474 6:0.99733 7:3.78497 8:0 9:0.99528 10:0 11:0.78543 12:0 13:0.73919 14:1.71099 15:0.99528 
-0.2341594548830109 1:3 2:12.51075 3:5.38838 4:5.09053 5:1.69473 6:5.8407 7:1.45598 8:2.67489 9:2.63252 10:0.99631 11:0.81586 12:0 13:0.87927 14:1 15:0 
-0.38623067557193 1:9 2:30.74795 3:2.99258 4:5.68946 5:0 6:13.72243 7:2.99034 8:0.82407 9:1.99489 10:0.74009 11:1.49315 12:0 13:0.73657 14:1.71584 15:0.99764 
-0.3631405163982449 1:12 2:40.26308 3:3.84205 4:5.54439 5:0.99474 6:0.99467 7:7.0685 8:0.82716 9:1.99528 10:0 11:1.4918 12:0 13:1.73261 14:3.4267 15:1.99528 
-2 1:2 2:7.65588 3:1.6799 4:3.44497 5:2.15539 6:2.20591 7:2.27881 8:0 9:0.65097 10:0 11:0.81586 12:0 13:0 14:0 15:0 
-0.02773532908236545 1:9 2:9.98742 3:3.46362 4:3.36046 5:1.99612 6:4.21764 7:1.51881 8:0.83333 9:2.63252 10:1 11:0.75105 12:0 13:0.87795 14:1 15:0 
-2 1:0 2:2.65131 3:2.19824 4:5.04209 5:5.92131 6:0.84 7:2.99464 8:0.74074 9:0.99117 10:0.70108 11:0.86373 12:0 13:0.75 14:0 15:0 
-0.5953648667469759 1:0 2:3.99021 3:2.17656 4:6.32714 5:6.68939 6:2.29706 7:2.99985 8:0 9:0.67218 10:1.68835 11:1.72743 12:0.60335 13:0.75 14:0.71178 15:0 
-1.58998889492687 1:0 2:3.48264 3:2.19824 4:5.36353 5:2.94555 6:1.50996 7:2.99516 8:0.74074 9:2.66334 10:1.68886 11:0.8616 12:0.60335 13:0 14:0 15:0 
-0.2586421093723447 1:30 2:9.76249 3:5.3798 4:2.52769 5:1.69861 6:3.85511 7:2.31849 8:0.99691 9:2.63252 10:1 11:0.75105 12:0 13:0.87795 14:1 15:0 
-0.4008000270561817 1:9 2:3.33087 3:5.83754 4:4.21553 5:2.69473 6:2.41648 7:2.26527 8:1.82716 9:2.63252 10:1 11:0 12:0 13:0 14:1 15:0 
-2 1:5 2:3.40534 3:2.19824 4:4.82502 5:2.94555 6:2.31226 7:2.18714 8:0.74074 9:1.66776 10:1.68415 11:1.72533 12:0 13:0.75 14:0 15:0 
-0.3196100980406678 1:14 2:10.52277 3:7.08767 4:3.3265 5:3.69473 6:7.28714 7:2.22232 8:0.99383 9:5.26504 10:1 11:1.56691 12:0 13:0.87795 14:2 15:0 
-0.03807428550504097 1:15 2:9.6504 3:3.09535 4:4.24033 5:0.69861 6:0.99345 7:2.2893 8:1.82716 9:0 10:1 11:1.56691 12:0 13:0.87795 14:0 15:0 
-0.25646126035925 1:11 2:35.34338 3:2.83627 4:5.33427 5:0 6:1 7:5.7383 8:0 9:0.99528 10:0.74009 11:1.50305 12:1.78988 13:0.73919 14:1.71028 15:0.99528 
-0.04914518456631436 1:23 2:12.68048 3:7.6118 4:5.09218 5:2.69473 6:4.21539 7:3.02147 8:1.83024 9:2.63252 10:1 11:1.56691 12:0 13:0.87664 14:1 15:0 
-0.4306096254939255 1:6 2:6.1102 3:5.10672 4:4.82068 5:1.69647 6:2.58702 7:3.02147 8:1.83333 9:1.99808 10:0 11:0.81586 12:0.71779 13:0.85465 14:1 15:0 
-0.1963147150866264 1:3 2:10.61173 3:3.04907 4:3.36302 5:1.69861 6:4.82422 7:2.36725 8:1.83024 9:0.63636 10:0 11:0.74268 12:0 13:0 14:0 15:0 
-0.2378242347176708 1:15 2:7.54109 3:4.30213 4:3.61221 5:1.99612 6:7.3188 7:3.02983 8:0.83333 9:2.63252 10:1 11:0.81586 12:0 13:0.87795 14:1 15:0 
-0.2832199155208845 1:33 2:31.58293 3:4.80231 4:7.54058 5:0.99825 6:3 7:5.65026 8:0.82716 9:2 10:0.74009 11:1.50305 12:1 13:1.73919 14:1.71571 15:1 
-0.435951004903668 1:0 2:3.42149 3:1.42282 4:4.40563 5:2.46857 6:2.91881 7:1.51583 8:0 9:1.31456 10:1.71942 11:0.81941 12:0.99594 13:0.9895 14:0.77057 15:0 
-1.141455558615047 1:3 2:7.85704 3:5.83093 4:4.24198 5:2.69473 6:2.41915 7:3.06182 8:0 9:2.63252 10:1 11:0.81586 12:0 13:0.87664 14:1 15:0 
-2 1:9 2:17.5948 3:2.8452 4:3.66096 5:0 6:1.99725 7:2.79875 8:0 9:1.99489 10:1.48728 11:0 12:1 13:0 14:1.71335 15:0.99764 
-2 1:5 2:5.57532 3:4.39922 4:4.37324 5:2.68767 6:4.00642 7:2.31853 8:1 9:2.60741 10:1 11:0.81452 12:0 13:0.88058 14:1 15:0 
-1.018224734868638 1:6 2:5.77584 3:5.1048 4:3.33721 5:1.65222 6:2.5842 7:2.26132 8:1.83024 9:1.99616 10:1 11:0 12:0 13:0.87795 14:1 15:0 
-0.3752123873207474 1:2 2:14.45496 3:7.68729 4:4.3059 5:2.69473 6:7.28765 7:3.02983 8:1.67798 9:3.54465 10:1.9977 11:3.25097 12:0 13:0.87795 14:0.9797 15:0 
-1.285485203320463 1:9 2:18.28234 3:3.837 4:5.53833 5:0.99474 6:0 7:3.99346 8:0 9:0 10:0 11:0.70564 12:0 13:1.73919 14:0 15:0 
-0.2502600561998449 1:32 2:35.63685 3:4.80231 4:5.66128 5:0.99825 6:3 7:4.74885 8:0.82716 9:2 10:0.74009 11:0.71762 12:1 13:1 14:1.71571 15:1 
-0.5391158304125372 1:6 2:9.44084 3:3.84126 4:7.71246 5:0.99649 6:6.2596 7:4.79342 8:0.82716 9:0.99725 10:0.74009 11:0.70981 12:0.99457 13:1.73919 14:0 15:0 
-0.05418415315403482 1:9 2:6.77492 3:6.71601 4:3.20352 5:1.99612 6:3.41206 7:3.0764 8:2.67489 9:2.63252 10:0.99631 11:0 12:0 13:0.87927 14:1 15:0 
-0.05004602216191105 1:12 2:11.50557 3:2.95695 4:2.46948 5:1.69861 6:0.63636 7:1.55219 8:2.67489 9:0.63636 10:0.99631 11:0.75105 12:0 13:0.87927 14:0 15:0 
-0.203089267372229 1:3 2:3.01352 3:1.70255 4:2.78972 5:1.49631 6:3.40962 7:2.23349 8:0.68519 9:1.36748 10:0 11:0.81561 12:0 13:0 14:0.82793 15:0 
-0.6050461815727868 1:12 2:10.64492 3:5.95123 4:2.61221 5:1.69861 6:2.41456 7:3.02983 8:0 9:2.63252 10:0 11:1.56691 12:0 13:0.87927 14:1 15:0 
-0.06551530982094687 1:18 2:10.33476 3:4.37833 4:2.4515 5:1.99612 6:5.08307 7:3.02983 8:0.99383 9:2.63252 10:1 11:1.56691 12:0 13:0 14:1 15:0 
-2 1:3 2:2.13342 3:3.18969 4:2.62536 5:1.49631 6:3.40856 7:2.23349 8:0.68519 9:1.36748 10:0.78704 11:0.81561 12:0 13:0.87927 14:0.82793 15:0 
-2 1:0 2:3.4329 3:1.37122 4:3.52548 5:1.65281 6:0.74894 7:2.28449 8:0.69753 9:0.65804 10:1.72015 11:0.82075 12:0.94858 13:0.98819 14:0.76808 15:0 
-0.1195818259013571 1:12 2:10.40671 3:6.85017 4:3.34027 5:1.69473 6:3.57993 7:3.02983 8:2.67489 9:1.99616 10:0.99631 11:0.75105 12:0 13:0.87927 14:1 15:0 
-0.3689543280024277 1:8 2:37.71967 3:2.99652 4:6.57699 5:0 6:9.15529 7:5.7283 8:0.82716 9:0.99725 10:0.74009 11:0.70772 12:1.8775 13:1.73261 14:0 15:0 
-0.152650512921225 1:17 2:8.53963 3:4.22199 4:2.35643 5:2.68485 6:2.40753 7:2.26498 8:1.83642 9:2.63636 10:0.99631 11:0 12:0 13:0 14:1 15:0 
-0.2289511640237167 1:23 2:12.98401 3:2.38217 4:5.09083 5:0.99612 6:4.21487 7:2.31886 8:2.67489 9:0 10:1 11:1.56691 12:0 13:0.87795 14:0 15:0 
-0.2711324886640493 1:12 2:12.66698 3:5.09151 4:5.93172 5:2.69473 6:4.21553 7:3.02983 8:0.83333 9:2.63252 10:1 11:1.56691 12:0 13:0.87795 14:1 15:0 
-0.4299562328802067 1:8 2:7.10565 3:1.50587 4:2.36238 5:1.69359 6:3.05971 7:1.57482 8:1.83642 9:0.62948 10:0.99631 11:0.81586 12:0 13:0.88058 14:0 15:0 
-0.2990846687211629 1:26 2:13.28535 3:3.12709 4:2.73721 5:1.69473 6:2.79517 7:1.47764 8:0 9:0 10:0 11:1.58263 12:0 13:0 14:0 15:0 
-0.1900498569106697 1:18 2:18.15034 3:4.21422 4:4.21231 5:2.69473 6:6.24876 7:2.28515 8:1.82716 9:2.63252 10:1 11:1.56691 12:0 13:0.87664 14:1 15:0 
-0.1061059898746816 1:12 2:28.87381 3:3.84005 4:7.53534 5:1.97311 6:2.98722 7:4.79342 8:0 9:1.99213 10:0.74009 11:1.49524 12:0.99593 13:1.73788 14:1.71086 15:0.99764 
-0.03426506683570091 1:9 2:12.71943 3:6.10414 4:5.82151 5:2.69473 6:3.41206 7:2.22232 8:0.99691 9:2.63252 10:0.99631 11:2.34989 12:0 13:0.87927 14:1 15:0 
-1.058476493536674 1:6 2:6.2731 3:5.04319 4:3.21423 5:1.99612 6:3.22056 7:1.51664 8:1.83024 9:2.63252 10:2 11:0.81586 12:0 13:0.87795 14:1 15:0 
-2 1:0 2:4.29567 3:3.6641 4:5.03801 5:1.46532 6:1.41285 7:2.23397 8:0.69753 9:1.97999 10:1.72015 11:0 12:0.7561 13:0.98819 14:1.53616 15:0 
-0.2169495985256595 1:9 2:18.12601 3:4.83952 4:8.53181 5:0.99649 6:6.2596 7:3.79755 8:0.82716 9:1.99489 10:0.74009 11:1.54068 12:0.99457 13:1.73919 14:1.71584 15:0.99764 
-0.1662451889151275 1:15 2:22.45914 3:3.84088 4:6.70649 5:0.99474 6:1.99458 7:4.78548 8:0 9:1.99253 10:0.74009 11:1.49524 12:0.98643 13:1.73919 14:1.71099 15:0.99528 
-0.4100752789887682 1:6 2:9.11302 3:5.2052 4:5.11229 5:2.69473 6:2.41915 7:3.02766 8:0.83333 9:2.63252 10:1 11:0.81586 12:0.71779 13:0.87795 14:1 15:0 
-2 1:3 2:2.75328 3:3.18969 4:3.5673 5:2.20883 6:3.40962 7:2.24086 8:0.68519 9:1.36748 10:0.78704 11:0.81561 12:0 13:0.87927 14:0.82793 15:0 
-0.2333823559996183 1:12 2:17.06255 3:4.14507 4:4.24033 5:1.69473 6:2.79326 7:1.51102 8:2.67489 9:0 10:0.99631 11:1.56691 12:0 13:0.87927 14:0 15:0 
-0.5783143124659724 1:5 2:3.59872 3:2.32777 4:5.10289 5:1.69861 6:0.63636 7:2.26349 8:2.67489 9:0.63636 10:1 11:1.57083 12:0 13:0.87795 14:1 15:0 
-1.755761702465385 1:8 2:20.47091 3:3.83904 4:6.71049 5:0.99123 6:1.99192 7:2.79755 8:0 9:1.99253 10:0.74009 11:0.70981 12:0.9905 13:1.73919 14:1.71099 15:0.99528 
-0.08391547649223025 1:12 2:13.71684 3:4.10798 4:3.97131 5:0.69861 6:1.79714 7:1.55219 8:2.67489 9:0 10:0.99631 11:2.34989 12:0 13:0.87927 14:0 15:0 
-0.1448957904512174 1:9 2:11.77559 3:2.31448 4:2.6013 5:1.69473 6:3.60972 7:3.02983 8:0.99383 9:0 10:0 11:1.56691 12:0 13:0 14:0 15:0 
-0.4222647324479405 1:10 2:7.54336 3:2.99174 4:8.64145 5:0.98772 6:3.63874 7:3.79029 8:0.82716 9:1.98938 10:0.74009 11:1.49733 12:2.94794 13:1.73919 14:1.71335 15:0.99764 
-0.06767483511716965 1:20 2:16.86536 3:3.59893 4:4.37789 5:2.69473 6:6.24876 7:2.22232 8:1.82716 9:2.63252 10:1 11:1.56691 12:0 13:0.84632 14:1 15:0 
-0.1422802226749539 1:6 2:14.44998 3:6.91528 4:4.09053 5:2.69473 6:4.21629 7:2.22232 8:0 9:2.63252 10:0.99631 11:0.75105 12:0 13:0.87927 14:1 15:0 
-2 1:12 2:22.31816 3:3.83904 4:7.52984 5:0.99123 6:1.99192 7:4.79342 8:0 9:1.99253 10:0.74009 11:1.49524 12:0.9905 13:1.73919 14:1.71099 15:0.99528 
