svm_type c_svc
kernel_type rbf
gamma 0.125
nr_class 2
total_sv 193
rho -0.792506
label 1 -1
probA -5.70983
probB -0.137753
nr_sv 155 38
SV
0.3804032571125222 1:0 2:0 3:1.95832 4:6.67104 5:4.7807 6:2.89289 7:3.97805 8:0 9:0.98425 10:0 11:0 12:0.84966 13:1.96536 14:0 15:0 
0.1693184112382949 1:6 2:0 3:5.87493 4:7.54899 5:13.37785 6:4.61142 7:3.96978 8:0 9:0 10:0 11:0 12:0.84966 13:1.96235 14:0 15:0 
0.09016683641920546 1:6 2:0 3:6.86023 4:3.97197 5:0 6:2.9267 7:4.83314 8:0 9:0.98425 10:0 11:0.99223 12:0.98131 13:1.98433 14:0 15:0 
0.03972710093564578 1:6 2:0 3:3.93872 4:5.77275 5:3.55366 6:4.68939 7:2.96733 8:0 9:0 10:0.92557 11:0 12:0 13:0 14:0 15:0 
0.05413402587091664 1:6 2:0 3:5.84782 4:6.63309 5:4.72306 6:2.78986 7:1 8:0 9:0.98425 10:0.96012 11:0 12:0.84966 13:2.93072 14:0 15:0 
0.01903546959205703 1:6 2:0 3:5.87838 4:7.60519 5:2.76287 6:2.79184 7:2.97928 8:0 9:0 10:0.92366 11:0 12:0.8451 13:1 14:0 15:0 
0.0574110222214034 1:6 2:0 3:4.82014 4:4.97621 5:1.98297 6:1.95403 7:0.95833 8:0 9:1.79718 10:0 11:1 12:0 13:0.99548 14:1.59761 15:0.90398 
0.1115588916836304 1:3 2:0 3:5.88314 4:3.71343 5:6.05166 6:1.80716 7:3.99355 8:0 9:2.98819 10:0 11:0 12:0.8656 13:1.96235 14:1.69608 15:1 
0.1693545516885508 1:3 2:0 3:2.95441 4:6.52053 5:4.28688 6:2.78758 7:2.97295 8:0 9:1.97857 10:0.92939 11:0 12:1.74239 13:0.99367 14:1.68667 15:0.99059 
0.1007829598351501 1:0 2:0 3:4.84728 4:4.98942 5:3.79383 6:1.95377 7:3.86163 8:0 9:1.78975 10:0.97519 11:0 12:1 13:0.98734 14:1.60006 15:0.90398 
0.01740033475645152 1:6 2:0 3:6.86212 4:3.8402 5:2.75805 6:3.73942 7:1.99478 8:0 9:2 10:0 11:0 12:0 13:0.96235 14:1.69608 15:1 
0.09707919845197252 1:6 2:0 3:6.87303 4:3.80964 5:8.24856 6:4.50024 7:0.99304 8:0 9:1.99765 10:0 11:0 12:0 13:0.96084 14:1.69373 15:0.99765 
0.181763288631224 1:0 2:0 3:7.86501 4:5.64943 5:3.54699 6:1.90213 7:3.9858 8:0 9:2 10:0.91794 11:0 12:0.8656 13:1.96235 14:1.69608 15:1 
0.06070487262163375 1:6 2:0 3:4.92965 4:4.71764 5:10.64906 6:0.90213 7:3.96978 8:0 9:2 10:1.84509 11:0 12:0.84966 13:1.96235 14:1.69608 15:1 
0.5041140685015741 1:3 2:0 3:2.94476 4:3.73826 5:0.94444 6:2.80626 7:4.6909 8:0 9:1.97857 10:0 11:0 12:0.82916 13:1.95903 14:1.68667 15:0.99059 
0.0291022928729797 1:6 2:0 3:4.89983 4:4.7192 5:3.41419 6:0.90833 7:4.96855 8:0 9:0.98425 10:1.72626 11:0 12:0.86333 13:1.96536 14:0 15:0 
0.159521348595568 1:6 2:0 3:3.93328 4:1.84203 5:10.64906 6:2.79957 7:3.96978 8:0 9:2 10:0.91985 11:0 12:0.84966 13:1.96235 14:1.69608 15:1 
0.1207848179967667 1:6 2:0 3:9.84995 4:5.65731 5:3.54699 6:3.70929 7:3.9858 8:0 9:2 10:0.91794 11:0 12:0.8656 13:1.96235 14:1.69608 15:1 
0.05310289270628128 1:6 2:0 3:4.91147 4:8.43095 5:2.75805 6:3.70662 7:4.94948 8:0 9:1.90653 10:0.92557 11:0 12:0.8656 13:1.96235 14:0 15:0 
0.08285493194302943 1:0 2:0 3:6.87706 4:7.50152 5:3.57163 6:2.81185 7:4.9858 8:0 9:2 10:0 11:0 12:1.7312 13:2.96235 14:1.69608 15:1 
0.1096558619460467 1:0 2:0 3:5.88619 4:2.85742 5:12.1978 6:2.80957 7:1.99304 8:0 9:2 10:0.92585 11:0 12:0 13:0.96235 14:1.69608 15:1 
0.04469280918953061 1:6 2:0 3:6.86875 4:6.63159 5:1.8088 6:4.61457 7:4.97683 8:0 9:2.97545 10:0 11:0 12:0.8656 13:1.96536 14:1.68891 15:0.99528 
0.0240254761937828 1:6 2:0 3:4.90656 4:4.649 5:8.24856 6:4.52377 7:1 8:0 9:1.99765 10:0 11:0 12:0.84966 13:1.96084 14:1.69373 15:0.99765 
0.06832181756459438 1:6 2:0 3:7.85993 4:3.82307 5:1.84472 6:3.70929 7:3.9858 8:0 9:1 10:0.91794 11:0 12:0.8656 13:2.9247 14:0.69608 15:0 
0.1902839421714451 1:12 2:0 3:3.92333 4:8.35292 5:2.75805 6:2.79412 7:5.94948 8:0 9:3.89851 10:0 11:0 12:1.7312 13:2.96235 14:1.69363 15:1 
0.0606098837770856 1:12 2:0 3:5.87889 4:5.65111 5:3.55032 6:3.68997 7:3.97152 8:0 9:0 10:0.92366 11:0 12:0.8656 13:1.96687 14:0 15:0 
0.007237553991537299 1:6 2:0 3:5.87506 4:6.62506 5:3.09411 6:0.89744 7:3.95112 8:0 9:0.97244 10:0.91985 11:0 12:0.84055 13:1.96235 14:0 15:0 
0.07923521757764357 1:6 2:0 3:5.91285 4:5.64437 5:5.68291 6:2.71008 7:2.97928 8:0 9:4.93951 10:0.92176 11:0 12:0.84966 13:1.96536 14:3.35944 15:1.96728 
0.1198535917936446 1:6 2:0 3:3.9229 4:6.68221 5:0.94259 6:1.88466 7:6.30502 8:0 9:2.9783 10:1.84407 11:0 12:0.84966 13:1.96536 14:1.68685 15:0.98832 
0.0172057385116495 1:9 2:0 3:6.87303 4:6.61998 5:7.30412 6:4.52377 7:3.96855 8:0 9:2.99465 10:0 11:0 12:0.84966 13:1.96084 14:2.69073 15:1.99465 
0.9926588687970133 1:0 2:0 3:4.85866 4:1 5:3.79383 6:3.95011 7:2.9469 8:0 9:1.78975 10:0.97519 11:0 12:0 13:1.98583 14:1.60006 15:0.90398 
0.1237896383914401 1:6 2:0 3:3.9104 4:6.71622 5:4.91482 6:2.70979 7:0 8:0 9:0 10:0 11:0 12:0 13:0.96536 14:0 15:0 
0.009704898876369919 1:6 2:0 3:4.91489 4:6.62169 5:11.56239 6:3.70929 7:2.96978 8:0 9:0 10:0.91985 11:0 12:0.84966 13:1 14:0 15:0 
0.03590405916348047 1:6 2:0 3:3.91138 4:4.64283 5:11.56239 6:2.70929 7:2.97674 8:0 9:0 10:0.91985 11:0 12:0.84966 13:1.96235 14:0 15:0 
0.004740948156298688 1:12 2:0 3:6.87087 4:6.6376 5:3.55032 6:3.68997 7:3.97152 8:0 9:1.98963 10:0.92366 11:0 12:0.8656 13:1.96687 14:1.69373 15:0.99765 
0.1403706876808803 1:6 2:0 3:7.83993 4:6.5449 5:5.67234 6:0 7:4.97683 8:0 9:2.97545 10:0.92176 11:0 12:0.8656 13:1.96536 14:1.68891 15:0.99528 
0.02062910160029511 1:12 2:0 3:6.87087 4:6.6376 5:2.60773 6:2.78025 7:3.97152 8:0 9:1.98963 10:0.92366 11:0 12:0.8656 13:1.96687 14:1.69373 15:0.99765 
0.003124852617518061 1:0 2:0 3:6.87303 4:5.77032 5:7.30412 6:4.52377 7:2.96855 8:0 9:1.99765 10:0.91794 11:0 12:0 13:0.96084 14:1.69373 15:0.99765 
0.0132998775729393 1:6 2:0 3:5.88205 4:3.72116 5:2.92245 6:3.79399 7:1 8:0 9:1.97763 10:0 11:0 12:0.84966 13:1.96536 14:1.67972 15:0.98364 
0.08641624102292431 1:6 2:0 3:3.95231 4:2.83821 5:3.86504 6:0.9011 7:2.97928 8:0 9:2.96188 10:0 11:0 12:0.84966 13:1.96536 14:1.67972 15:0.98364 
0.1303649594846437 1:12 2:0 3:2.95664 4:4.76591 5:1.73245 6:1.88238 7:3.97152 8:0 9:1.98963 10:0.92366 11:0 12:0.8656 13:1 14:1.69373 15:0.99765 
0.044977960352224 1:6 2:0 3:6.78466 4:4.93885 5:6.26495 6:4.86151 7:1.93934 8:0 9:1.78775 10:0.93893 11:1 12:1.95846 13:2.97197 14:1.59761 15:0.90398 
0.02685204742270141 1:6 2:0 3:3.88577 4:1.99324 5:3.79383 6:3.95011 7:1.95956 8:0 9:1.78975 10:0.97519 11:0 12:0 13:0.99849 14:1.60006 15:0.90398 
0.1455164465808725 1:0 2:0 3:6.87826 4:8.43095 5:7.65092 6:2.80449 7:4.94948 8:0 9:3.89851 10:0.92557 11:0 12:0.8656 13:1.96235 14:1.69363 15:1 
0.02211784543066645 1:6 2:0 3:4.87796 4:5.78997 5:0.94815 6:2.79844 7:2.96855 8:0 9:0 10:0 11:0 12:0 13:0.96536 14:0 15:0 
0.2877421794706386 1:0 2:0 3:5.74325 4:3.95849 5:0 6:3.89621 7:3.83967 8:0 9:1.78975 10:0 11:1.98419 12:0.98169 13:1.98433 14:1.59761 15:0.90398 
0.01053040250949939 1:6 2:0 3:5.88711 4:7.62047 5:3.54884 6:3.70929 7:4.94826 8:0 9:0 10:0.91985 11:0 12:0.8656 13:1.96235 14:0 15:0 
0.07731079892149818 1:9 2:0 3:4.9109 4:3.64299 5:3.79963 6:3.70662 7:3.9547 8:0 9:2.8947 10:0.92557 11:0 12:0.8656 13:1.96235 14:0 15:0 
0.03345298085580221 1:6 2:0 3:4.91809 4:6.57298 5:5.65555 6:2.80552 7:3.94948 8:0 9:3.89851 10:0.92557 11:0 12:0 13:0 14:1.69363 15:1 
0.01967453881412553 1:6 2:0 3:5.90708 4:6.5576 5:0.93922 6:2.80449 7:4.94948 8:0 9:3.89851 10:0.92557 11:0 12:0.8656 13:1.96235 14:1.69363 15:1 
0.05609997851127546 1:6 2:0 3:3.8286 4:3.97964 5:6.26433 6:4.86151 7:0.99478 8:0 9:1.78775 10:0 11:1 12:0 13:0.99548 14:1.59761 15:0.90398 
0.07340009957467997 1:0 2:0 3:5.90653 4:5.77436 5:11.56237 6:3.70701 7:1.97674 8:0 9:2 10:0 11:0 12:0 13:0.96235 14:1.69608 15:1 
0.06790612091897663 1:4 2:0 3:2.95864 4:4.68929 5:2.46901 6:1.88971 7:3.97295 8:0 9:0 10:0.92939 11:0 12:0.80337 13:0.99367 14:0 15:0 
0.006224222869636457 1:6 2:0 3:6.75601 4:6.9143 5:6.18429 6:3.90261 7:3.90066 8:0 9:0.875 10:1.85059 11:0.98705 12:0.97254 13:0.98101 14:0 15:0 
0.0599823635572561 1:12 2:0 3:3.9383 4:3.77678 5:2.63032 6:3.68997 7:2.97674 8:0 9:0.99765 10:0.92366 11:0 12:0.8656 13:1.96687 14:1.70244 15:0.99765 
0.01795922792438401 1:6 2:0 3:2.96797 4:5.95256 5:5.26865 6:4.86151 7:2.85407 8:0 9:0.90398 10:0 11:0 12:0.98398 13:1.97649 14:1.59761 15:0.90398 
0.07093675933249308 1:6 2:0 3:3.91961 4:5.62932 5:8.25522 6:1.7959 7:1.99304 8:0 9:0 10:0.91794 11:0.92487 12:0.84966 13:1 14:0 15:0 
0.9032696698381113 1:3 2:0 3:2.90887 4:1.80643 5:2.46901 6:1.88971 7:3.7064 8:0 9:0 10:0.92939 11:0 12:0.82916 13:1.95903 14:0 15:0 
0.05842258936383127 1:6 2:0 3:4.90277 4:7.57176 5:8.23924 6:3.70068 7:4.68868 8:0 9:1 10:0.92748 11:0 12:0.84966 13:1.96536 14:0 15:0 
0.1035223703084503 1:6 2:0 3:1.97373 4:6.95055 5:5.26865 6:3.87818 7:3.80525 8:0 9:0 10:0.93893 11:1 12:0.98398 13:1.97649 14:0 15:0 
0.108333290042517 1:6 2:0 3:7.8655 4:5.69416 5:9.74693 6:0.90972 7:3.96978 8:0 9:2 10:0.91985 11:0 12:0.84966 13:2.9247 14:1.69608 15:1 
0.09471810688612289 1:0 2:0 3:6.87856 4:5.64308 5:11.56239 6:1.81185 7:3.96978 8:0 9:2 10:0.91985 11:0 12:0.84966 13:1.96235 14:1.69608 15:1 
0.09702095042697162 1:9 2:0 3:6.87303 4:5.67635 5:8.24856 6:4.52377 7:3.96855 8:0 9:2.9953 10:0.91794 11:0 12:0.84966 13:1.96084 14:3.45381 15:1.9953 
0.1645622375834102 1:12 2:0 3:5.90185 4:5.6762 5:9.15523 6:5.4321 7:3.96855 8:0 9:1.99765 10:0.91794 11:0 12:0.84966 13:1.96084 14:1.69373 15:0.99765 
0.02278108757507212 1:12 2:0 3:3.92847 4:5.65111 5:2.76215 6:3.69094 7:3.97152 8:0 9:0 10:0.92366 11:0 12:0.8656 13:1.96687 14:0 15:0 
0.04807968859347818 1:6 2:0 3:5.87303 4:4.68986 5:7.30411 6:4.52377 7:3.96855 8:0 9:0 10:0.91794 11:0 12:0.84966 13:1.96084 14:0 15:0 
0.00758082112586608 1:6 2:0 3:2.84246 4:2.94874 5:6.18429 6:2.93436 7:2.93167 8:0 9:1.78741 10:0.9313 11:0.98964 12:0.97254 13:1.97499 14:1.59037 15:0.90164 
0.02957354483555474 1:6 2:0 3:6.87856 4:7.50363 5:11.56239 6:3.70929 7:2.97674 8:0 9:2 10:0.91985 11:0 12:0.84966 13:1.96235 14:1.69608 15:1 
0.06100981086449961 1:6 2:0 3:3.92442 4:4.80197 5:0 6:1.79504 7:3.97805 8:0 9:0.98425 10:1.7693 11:0 12:0.84966 13:1.96536 14:0 15:0 
0.01682644735320311 1:0 2:0 3:5.81469 4:6.95163 5:8.47288 6:3.97094 7:3.87365 8:0 9:2.79176 10:0.98473 11:0.98187 12:0.98627 13:1.9783 14:1.60006 15:0.90398 
0.04304779306431569 1:6 2:0 3:5.87856 4:6.62169 5:10.61795 6:2.70929 7:3.96978 8:0 9:0 10:0 11:0 12:0.84966 13:1.96235 14:0 15:0 
0.002901971901739406 1:6 2:0 3:1.97474 4:3.93386 5:5.21605 6:2.91861 7:3.90066 8:0 9:0.9008 10:0 11:0.98964 12:0.97254 13:0.98101 14:0.9008 15:0.9008 
0.02625200953256364 1:6 2:0 3:5.87826 4:8.43095 5:5.65555 6:3.70662 7:4.94948 8:0 9:3.89851 10:0.92557 11:0 12:0.8656 13:1.96235 14:1.69363 15:1 
0.1371875081829043 1:6 2:0 3:3.92986 4:2.9209 5:0.89787 6:3.78075 7:0.99877 8:0 9:1.97763 10:0.92176 11:0 12:0 13:0.96536 14:1.67972 15:0.98364 
0.009241305882604746 1:6 2:0 3:4.90931 4:4.97621 5:6.26495 6:2.94603 7:0.95833 8:0 9:0 10:0.93893 11:1 12:0 13:0.99548 14:0 15:0 
0.1086531250954222 1:12 2:0 3:5.8785 4:5.64523 5:3.55032 6:3.68997 7:1 8:0 9:1.98963 10:0.92366 11:0 12:0.8656 13:1.96687 14:1.69373 15:0.99765 
0.109386082949887 1:9 2:0 3:5.87671 4:3.96364 5:1.98244 6:3.90365 7:2.94045 8:0 9:0.90398 10:0 11:1.98419 12:0.97902 13:0.98734 14:1.59761 15:0.90398 
0.08999541902465938 1:6 2:0 3:2.86212 4:4.93201 5:6.18429 6:3.90261 7:5.8195 8:0 9:1.78741 10:0.93321 11:0 12:0.97254 13:0.98101 14:1.56468 15:0.90164 
0.5247544186231533 1:0 2:0 3:4.8844 4:5.63922 5:5.6678 6:2.80691 7:0.99755 8:0 9:0 10:0 11:0 12:0.8656 13:0.96536 14:0 15:0 
0.02870627474430193 1:6 2:0 3:6.84533 4:7.50152 5:4.37972 6:3.70929 7:3.99478 8:0 9:0 10:0.91794 11:0 12:1.7312 13:2 14:0 15:0 
0.02595038857809199 1:6 2:0 3:5.90118 4:6.63835 5:2.61107 6:4.68939 7:1.97674 8:0 9:1.99198 10:0.92557 11:0 12:0.8656 13:1.96536 14:1.69363 15:1 
0.008721259216266253 1:6 2:0 3:5.90345 4:8.43095 5:3.53854 6:3.49622 7:4.94948 8:0 9:3.89851 10:0 11:0 12:0.8656 13:1.96235 14:1.69363 15:1 
0.1039110330395315 1:0 2:0 3:3.86608 4:3.98131 5:3.79383 6:1.97639 7:0.95956 8:0 9:1.78975 10:0.97519 11:0 12:0 13:0.99849 14:1.60006 15:0.90398 
0.02907522391516266 1:6 2:0 3:6.87608 4:6.61911 5:11.38948 6:2.70284 7:4.60855 8:0 9:1.99565 10:1.83588 11:0.92487 12:0.84966 13:1.96235 14:1.69373 15:0.99765 
0.2435733103183336 1:0 2:0 3:4.90804 4:5.91697 5:6.18429 6:1.96733 7:2.92209 8:0 9:0 10:0 11:0.98705 12:0.97254 13:0.99398 14:0 15:0 
0.1581784355651612 1:6 2:0 3:2.94046 4:3.83432 5:1.85111 6:3.62164 7:0.97674 8:0 9:0 10:1.82435 11:0 12:0 13:0 14:0 15:0 
0.02516547862466256 1:12 2:0 3:6.87087 4:5.64967 5:1.86259 6:2.7921 7:3.97152 8:0 9:1.98963 10:0.92366 11:0 12:0.8656 13:1.96687 14:1.69373 15:0.99765 
0.07047457589952244 1:6 2:0 3:6.76248 4:2.97761 5:6.25997 6:4.88421 7:2.94045 8:0 9:1.78975 10:0 11:1.98419 12:0 13:0.98734 14:1.59761 15:0.90398 
0.004386174153510306 1:6 2:0 3:5.89737 4:4.95182 5:1.98111 6:1.94122 7:4.85518 8:0 9:0 10:0 11:0.99482 12:0.98169 13:1.98282 14:0 15:0 
0.02981562935588286 1:6 2:0 3:4.79792 4:2.97013 5:3.96355 6:1.96856 7:1.95311 8:0 9:1.78975 10:0 11:1.98419 12:0.98169 13:0.99699 14:1.59761 15:0.90398 
0.04721618745018305 1:12 2:0 3:5.8785 4:4.70369 5:2.64859 6:1.80349 7:2 8:0 9:1.98963 10:0.92366 11:0 12:0.8656 13:1.96687 14:1.69373 15:0.99765 
0.04459687344089045 1:6 2:0 3:3.84196 4:3.98502 5:5.94969 6:4.9667 7:2.59244 8:0 9:2.79176 10:0.98473 11:0.98187 12:0 13:0 14:1.60006 15:0.90398 
2 1:0 2:0 3:3.92502 4:3.86551 5:2.50086 6:0.89011 7:1.97551 8:0 9:0 10:0.92748 11:0 12:0 13:0.96536 14:0 15:0 
1.819161352218088 1:0 2:0 3:3.90462 4:3.84247 5:4.28688 6:2.80303 7:1.71795 8:0 9:0 10:0 11:0 12:0 13:0.96536 14:0 15:0 
1.760379167088561 1:0 2:0 3:4.90738 4:3.84005 5:2.7599 6:1.90213 7:2.96978 8:0 9:2 10:0.91985 11:0 12:0 13:0.96235 14:1.69608 15:1 
0.1241369864189427 1:0 2:0 3:4.88619 4:2.85742 5:11.56239 6:1.81185 7:1 8:0 9:0 10:0.91985 11:0 12:0 13:0.96235 14:0 15:0 
0.05711605160623945 1:0 2:0 3:5.78594 4:2.97701 5:5.19762 6:1.96733 7:0 8:0 9:1.78741 10:0 11:0.98964 12:0 13:0.99398 14:1.59037 15:0.90164 
0.05418971624999153 1:6 2:0 3:5.90565 4:2.79516 5:1.55271 6:2.79844 7:4.96855 8:0 9:2.97789 10:0.92748 11:0 12:0.86333 13:1.96536 14:1.69373 15:0.99765 
0.01525541786494442 1:6 2:0 3:8.70486 4:5.94445 5:5.27197 6:3.89621 7:2.94045 8:0 9:1.78975 10:0 11:0 12:0.98169 13:2.98132 14:1.59761 15:0.90398 
0.08301667014311244 1:9 2:0 3:3.84607 4:5.95182 5:7.19155 6:2.93322 7:2.8604 8:0 9:1.78507 10:0 11:0.99482 12:0.98169 13:0.98734 14:1.59293 15:0.8993 
1.04005974178307 1:0 2:0 3:4.82543 4:4.93811 5:2.96697 6:2.93436 7:3.90066 8:0 9:1.78741 10:0 11:0.98964 12:0.97254 13:0.98101 14:1.59037 15:0.90164 
0.02123493774213521 1:7 2:0 3:4.88469 4:2.79572 5:2.63366 6:3.70929 7:3.98979 8:0 9:0 10:0.91794 11:0 12:0.8656 13:1.96235 14:0 15:0 
0.05618714271891081 1:6 2:0 3:3.92301 4:5.95369 5:6.19711 6:1.96252 7:4.85518 8:0 9:0.98031 10:0 11:1.98964 12:0.98169 13:1.98282 14:0 15:0 
0.1170625159036905 1:6 2:0 3:7.86889 4:7.61253 5:5.40723 6:3.70068 7:4.68868 8:0 9:4.96595 10:0 11:0 12:0.84966 13:1.96536 14:3.37303 15:1.97597 
0.01144854577176945 1:0 2:0 3:7.86501 4:5.77032 5:2.75805 6:3.70929 7:0.99225 8:0 9:2 10:0.91794 11:0 12:0 13:0.96235 14:1.69608 15:1 
0.08333681706169206 1:9 2:0 3:5.87604 4:5.64137 5:8.24856 6:1.81046 7:2.96978 8:0 9:1.99765 10:1.73666 11:0 12:0.84966 13:1.96084 14:1.69373 15:0.99765 
1.855947076259824 1:0 2:0 3:3.94341 4:4.82654 5:2.75805 6:1.81185 7:1.99102 8:0 9:0 10:0.91794 11:0 12:0 13:0.96235 14:0 15:0 
0.2146005049400196 1:3 2:0 3:6.84493 4:5.94445 5:2.96911 6:0.988 7:0.97959 8:0 9:0 10:0 11:1.98419 12:0.98169 13:1.97658 14:0 15:0 
0.01185388220173552 1:6 2:0 3:6.8485 4:7.9856 5:3 6:3.95011 7:3.93424 8:0 9:1.78975 10:0.97519 11:0 12:2 13:2.97468 14:1.60006 15:0.90398 
0.09588361311133352 1:6 2:0 3:5.88619 4:4.77966 5:11.56298 6:3.70929 7:1 8:0 9:2 10:0.91985 11:0 12:0 13:0.96235 14:1.69608 15:1 
1.031648360144248 1:0 2:0 3:3.93283 4:5.68796 5:5.6678 6:1.81602 7:3.97928 8:0 9:0.98819 10:0 11:0 12:0.8656 13:1 14:0 15:0 
0.005033436367916117 1:6 2:0 3:5.90287 4:4.7667 5:0.94259 6:1.80716 7:2.99877 8:0 9:2.98819 10:0.91794 11:0.92487 12:0.8656 13:1.96235 14:1.69608 15:1 
0.06671289945026598 1:9 2:0 3:6.76694 4:5.95182 5:5.25203 6:2.92088 7:3.85273 8:0 9:0.86957 10:0 11:0.99482 12:0.98169 13:1.98433 14:0 15:0 
0.08064617933127964 1:0 2:0 3:5.90375 4:6.62169 5:11.56239 6:2.79957 7:3.96978 8:0 9:2 10:0 11:0 12:0.84966 13:1.96235 14:1.69608 15:1 
0.4622146173754496 1:0 2:0 3:3.83572 4:2.97921 5:5.43523 6:3.97094 7:2.94342 8:0 9:2.79176 10:0.98473 11:0.98187 12:0.98627 13:1.9783 14:1.60006 15:0.90398 
0.07376397704460463 1:6 2:0 3:6.77174 4:5.94247 5:0 6:2.91861 7:2.94478 8:0 9:0.87905 10:0.9313 11:0.98964 12:0.97254 13:1.97668 14:0 15:0 
0.06097493353725089 1:6 2:0 3:2.95215 4:5.68076 5:3.85033 6:2.79855 7:4.98205 8:0 9:3.96364 10:1.80759 11:0 12:0.8656 13:1.96536 14:1.68891 15:0.99528 
0.1202117122927878 1:6 2:0 3:7.74511 4:5.94445 5:6.25997 6:6.77088 7:3.83967 8:0 9:1.78975 10:0 11:1.98419 12:0.98169 13:1.98433 14:1.59761 15:0.90398 
0.01652271276064534 1:6 2:0 3:6.78314 4:6.94347 5:7.19155 6:4.88893 7:4.85518 8:0 9:3.73776 10:0 11:0.99482 12:0.98169 13:1.98282 14:1.59293 15:0.8993 
0.06653361640168501 1:6 2:0 3:6.86889 4:8.55825 5:1.86259 6:2.79855 7:4.68868 8:0 9:2.9783 10:0.92557 11:0 12:0.84966 13:1.96536 14:1.7235 15:0.98832 
0.03584409037419004 1:6 2:0 3:3.94528 4:5.62723 5:11.56239 6:2.81185 7:2.99304 8:0 9:2 10:0.91985 11:0 12:0.84966 13:1 14:1.69608 15:1 
0.04023967601434176 1:6 2:0 3:5.86458 4:5.94445 5:6.25997 6:4.88421 7:3.83967 8:0 9:0 10:0 11:1.98419 12:0.98169 13:1.98433 14:0 15:0 
0.108148446966996 1:0 2:0 3:3.83665 4:6.94347 5:2.97311 6:1.96252 7:2.89685 8:0 9:1.78507 10:0 11:0.99482 12:0.98169 13:1.98282 14:1.59293 15:0.8993 
0.274398322359912 1:0 2:0 3:4.92621 4:5.69869 5:1.73153 6:1.89299 7:2.96978 8:0 9:1.99198 10:0.92557 11:0 12:0.8656 13:1.96536 14:1 15:1 
0.09313762000570541 1:9 2:0 3:6.87826 4:6.62172 5:4.71296 6:4.69751 7:3.94948 8:0 9:3.89851 10:0.92557 11:0 12:0 13:0.96235 14:1.69363 15:1 
0.1066898937833662 1:6 2:0 3:4.90446 4:4.69157 5:11.56239 6:2.70929 7:1 8:0 9:0 10:0.91985 11:0 12:0.84966 13:1.96235 14:0 15:0 
0.1211905272524262 1:0 2:0 3:6.78545 4:7.92913 5:6.26495 6:4.86151 7:3.84885 8:0 9:1.78775 10:0.93893 11:1 12:1.95846 13:1.97654 14:1.59761 15:0.90398 
0.05067768666365253 1:6 2:0 3:6.68879 4:4.96498 5:7.19155 6:3.91655 7:3.89685 8:0 9:4.55045 10:0 11:0.99482 12:0.98169 13:1.98282 14:3.18586 15:1.7986 
0.03185371422955024 1:6 2:0 3:5.88628 4:8.43095 5:5.65217 6:3.70662 7:4.94948 8:0 9:0.98425 10:0.92557 11:0 12:0.8656 13:1.96235 14:0 15:0 
0.1085331020476156 1:0 2:0 3:5.90176 4:4.7058 5:3.54699 6:2.70929 7:4.9858 8:0 9:2.98819 10:0 11:0 12:0.8656 13:1.96235 14:1.69608 15:1 
0.04962933265255422 1:6 2:0 3:7.77969 4:7.92536 5:6.26495 6:4.86151 7:3.84885 8:0 9:1.78775 10:0.93893 11:1 12:1.95846 13:1.97649 14:1.59761 15:0.90398 
0.0319396189299922 1:6 2:0 3:5.77256 4:2.97432 5:6.25997 6:2.93927 7:3.83967 8:0 9:1.78975 10:0 11:1.98419 12:0 13:1.98433 14:1.59761 15:0.90398 
0.001912725109649031 1:3 2:0 3:3.93098 4:7.43858 5:5.65577 6:3.70662 7:1.99877 8:0 9:0 10:0.92557 11:0 12:0.8656 13:1.96235 14:0 15:0 
0.001431562216705452 1:6 2:0 3:5.88168 4:3.79146 5:1.85592 6:1.80716 7:3.9858 8:0 9:2.98819 10:0.91794 11:0.92487 12:0 13:0.96235 14:1.69608 15:1 
0.09552310170620104 1:6 2:0 3:6.87856 4:6.62169 5:11.56239 6:3.70929 7:3.96978 8:0 9:3 10:0.91985 11:0 12:0.84966 13:1.96235 14:2.69608 15:2 
0.05726453025267097 1:6 2:0 3:5.89408 4:8.55825 5:4.91482 6:1.81602 7:2.6939 8:0 9:1.9783 10:0.92748 11:0 12:0.84966 13:1.96536 14:1.68685 15:0.98832 
1.315749831232104 1:0 2:0 3:4.96151 4:4.97747 5:2.79383 6:2.95377 7:2.90207 8:0 9:0 10:0.97519 11:0 12:1 13:1.98583 14:0 15:0 
0.009169756838041511 1:6 2:0 3:4.93567 4:6.61614 5:2.65558 6:0.9011 7:2.97928 8:0 9:1.97587 10:0.91489 11:0 12:0.8451 13:1 14:1.67551 15:0.98188 
0.08155475164778264 1:0 2:0 3:5.88066 4:3.79146 5:8.24856 6:4.52377 7:0.99877 8:0 9:1.99765 10:0.91794 11:0 12:0 13:0.96084 14:1.69373 15:0.99765 
0.2512851698121558 1:0 2:0 3:3.82652 4:2.97756 5:4.21362 6:1.93528 7:0.95588 8:0 9:1.78741 10:0.93321 11:0.98705 12:0 13:0.99398 14:1.59037 15:0.90164 
0.05235955297552321 1:6 2:0 3:2.95847 4:5.69625 5:8.80249 6:1.80716 7:3.96978 8:0 9:1 10:0.91985 11:0 12:0.84966 13:1.96235 14:0.69608 15:0 
0.04502520228265942 1:0 2:0 3:6.87608 4:4.8284 5:8.25522 6:2.70284 7:1.99181 8:0 9:1.99565 10:0.91794 11:0.92487 12:0 13:0.96235 14:1.69373 15:0.99765 
0.06730920744269167 1:6 2:0 3:7.72919 4:4.95881 5:9.80625 6:3.9147 7:4.83314 8:0 9:2.76041 10:0.93893 11:0.99223 12:0.98131 13:1.98433 14:1.59516 15:0.90398 
0.07810940546445291 1:6 2:0 3:2.84976 4:2.98685 5:5.27828 6:1.9627 7:2.86784 8:0 9:1.77926 10:0.93893 11:1 12:0 13:0 14:1.59761 15:0.90398 
0.08399399379515061 1:12 2:0 3:6.87405 4:5.69229 5:2.6044 6:3.70929 7:3.99102 8:0 9:2.98819 10:0 11:0.92487 12:0.8656 13:1.96235 14:1.69608 15:1 
0.02064424952138975 1:6 2:0 3:7.86474 4:8.59049 5:3.55642 6:3.70573 7:4.96255 8:0 9:1.9753 10:0.92366 11:0 12:0.8451 13:1.95442 14:1.67494 15:0.98131 
0.1892273811101239 1:12 2:0 3:5.87856 4:7.6003 5:11.56239 6:4.60673 7:2.96978 8:0 9:0 10:0.9084 11:0 12:0.84966 13:1.96235 14:0 15:0 
0.04596476520953855 1:9 2:0 3:4.93928 4:4.7667 5:3.84009 6:2.80449 7:4.94948 8:0 9:2.97623 10:1.86454 11:0 12:0.8656 13:1 14:1.69363 15:1 
0.002453914077767167 1:0 2:0 3:5.88589 4:5.59879 5:6.43604 6:3.58457 7:0 8:0 9:1.99198 10:0.92557 11:0 12:0 13:0.96235 14:1.69363 15:1 
0.1086794032415783 1:12 2:0 3:3.94279 4:6.63608 5:3.55032 6:2.78025 7:3.97152 8:0 9:0 10:0.92366 11:0 12:0.8656 13:1 14:0 15:0 
0.0007288689880710948 1:6 2:0 3:7.86501 4:6.63592 5:2.64486 6:1.80716 7:2.98703 8:0 9:2 10:0.91794 11:0 12:0.8656 13:1.96235 14:1.69608 15:1 
0.01672428663355152 1:6 2:0 3:3.93283 4:6.63082 5:2.75139 6:2.70979 7:5.97161 8:0 9:0.98819 10:0.92176 11:0 12:0.8656 13:1.96536 14:0 15:0 
0.004471508542733484 1:0 2:0 3:5.89573 4:6.63592 5:7.72324 6:1.90972 7:2.99877 8:0 9:2 10:0.91794 11:0 12:0.8656 13:1.96235 14:1.69608 15:1 
0.02779106021483755 1:0 2:0 3:6.87994 4:5.79471 5:6.44972 6:4.57125 7:1.97928 8:0 9:2.96188 10:0.92176 11:0 12:0 13:0.96536 14:1.67972 15:0.98364 
0.09354110333359086 1:0 2:0 3:4.88619 4:4.77966 5:11.56239 6:2.81185 7:1.99304 8:0 9:0 10:1.84529 11:0 12:0 13:0.96235 14:0 15:0 
-1.388388210102682 1:0 2:0 3:4.35948 4:3.19542 5:2.14121 6:1.98553 7:4.13025 8:0 9:2.20367 10:0 11:0 12:0 13:1.48329 14:1.6025 15:0.60993 
-0.4749218285784069 1:0 2:0 3:5.10803 4:1.66478 5:2.14121 6:1.98553 7:4.29481 8:0 9:2.58587 10:0 11:0 12:0 13:0.64785 14:0.99257 15:0 
-0.5056041746523697 1:0 2:0 3:4.3625 4:3.28731 5:3.75679 6:1.95256 7:0.92 8:0 9:0.60362 10:0 11:0 12:1.64227 13:0.64837 14:0.97772 15:0 
-1.302102028056528 1:0 2:0 3:3.75888 4:4.1776 5:3.03962 6:1.95256 7:2.22427 8:0 9:0 10:0 11:0 12:0.9251 13:0.83544 14:0 15:0 
-1.540122099089712 1:0 2:0 3:3.26077 4:4.97198 5:1.32105 6:0.97639 7:1.57008 8:0 9:1.66363 10:0.97959 11:0 12:0 13:0.74051 14:0 15:0 
-0.4308617190227584 1:0 2:0 3:2.8756 4:0.7027 5:0.80741 6:0 7:2.21025 8:0 9:0.60161 10:0 11:0 12:0 13:1.48329 14:0.99257 15:0 
-0.2999692438929286 1:0 2:0 3:0.69084 4:2.30397 5:0.70741 6:0.67198 7:0 8:1 9:0.68724 10:0.97959 11:0 12:0 13:0 14:0 15:0 
-0.2210448352145342 1:0 2:0 3:4.3625 4:4.91048 5:4.68189 6:0.61033 7:3.10978 8:0 9:0.60362 10:0 11:0 12:2.56737 13:0.83544 14:0.97772 15:0 
-0.3858994839989277 1:0 2:0 3:1.63991 4:4.34284 5:0 6:0 7:2.83704 8:0 9:0 10:0 11:0 12:0 13:0.76582 14:0 15:0 
-2 1:0 2:0 3:3.68878 4:4.8452 5:5.17798 6:2.56289 7:2.30883 8:0 9:0.60362 10:0 11:0 12:1.64227 13:0.64837 14:0.97772 15:0 
-0.4349635455210694 1:0 2:0 3:2.30244 4:4.04355 5:1.32105 6:2.62476 7:2.17899 8:1 9:2.64002 10:0.97455 11:0 12:0 13:0.74051 14:0 15:0 
-0.4768026664442307 1:1 2:0 3:4.35696 4:1.66478 5:2.14121 6:1.98553 7:1.62378 8:0 9:0.60161 10:0 11:0 12:0 13:0.64785 14:0.99257 15:0 
-0.2640035538557355 1:0 2:0 3:3.54579 4:0.7027 5:0.80741 6:0.63869 7:2.37481 8:0 9:1.59374 10:0 11:0 12:0 13:0 14:0 15:0 
-0.2092775804339848 1:0 2:0 3:0.69847 4:1.33361 5:0 6:0 7:2.83704 8:0 9:0 10:0 11:0 12:0 13:0.76582 14:0 15:0 
-0.2146650160915928 1:0 2:0 3:0.69847 4:1.52279 5:0.74307 6:0 7:0.83304 8:0 9:0 10:0 11:0 12:0 13:0 14:0 15:0 
-0.5197223966785278 1:0 2:0 3:3.75888 4:4.8452 5:3.75679 6:1.23807 7:1.63166 8:0 9:0 10:0 11:0 12:1.64227 13:0 14:0 15:0 
-0.5223341178134632 1:0 2:0 3:2.30244 4:3.97289 5:1.32105 6:0.67198 7:0.82957 8:1 9:0 10:0.97959 11:0 12:0 13:0 14:0 15:0 
-1.907799540755302 1:0 2:0 3:2.84042 4:1.64163 5:4.04261 6:3.88693 7:3.42473 8:0 9:2.58587 10:0 11:0 12:0 13:1.48329 14:0.99257 15:0 
-1.204592923745263 1:3 2:0 3:2.30244 4:1.69084 5:1.32105 6:0.97639 7:1.57008 8:1 9:1.66363 10:0.97959 11:0 12:0 13:0.74051 14:0 15:0 
-0.1877340464936059 1:0 2:0 3:3.68878 4:4.12803 5:3.03962 6:1.95256 7:0.92 8:0 9:0.60362 10:0 11:0 12:0.9251 13:0.64837 14:0.97772 15:0 
-0.7015998744708013 1:0 2:0 3:5.11105 4:2.47639 5:2.11452 6:1.95256 7:2.31525 8:0 9:0.60362 10:0 11:0 12:0 13:0.64837 14:0.97772 15:0 
-0.3733297144568903 1:0 2:0 3:3.68291 4:1.51639 5:1.3338 6:1.27249 7:4.96569 8:0 9:1.59374 10:0 11:0 12:0 13:2.31873 14:0.99257 15:0 
-0.9999306538939245 1:0 2:0 3:3.75888 4:4.12803 5:2.34629 6:1.94764 7:1.5471 8:0 9:0 10:0 11:0 12:0.9251 13:1.48381 14:0 15:0 
-0.1681872867804758 1:0 2:0 3:1.63991 4:3.7077 5:0.74307 6:0 7:3.60286 8:0 9:0 10:0 11:0 12:0 13:1.53164 14:0 15:0 
-0.1006161284115373 1:0 2:0 3:3.75888 4:4.84381 5:3.7554 6:1.95256 7:2.43261 8:0 9:0 10:0 11:0 12:1.64088 13:1.48381 14:0 15:0 
-0.1984276439293265 1:0 2:0 3:2.30244 4:2.49011 5:0 6:0 7:0.82957 8:1 9:0 10:0.97484 11:0 12:0 13:0 14:0 15:0 
-0.2478806754449507 1:2 2:0 3:2.30244 4:3.97289 5:1.32105 6:1.64837 7:2.24955 8:1 9:0.97639 10:0.97959 11:0 12:0 13:0.74051 14:0 15:0 
-0.2431048398706287 1:0 2:0 3:4.3625 4:3.99001 5:1.64227 6:0 7:3.15164 8:0 9:0.60362 10:0 11:0 12:1.64227 13:1.48381 14:0.97772 15:0 
-0.300184140455003 1:0 2:0 3:2.26366 4:4.8452 5:3.75679 6:0.61033 7:3.14427 8:0 9:0.60362 10:0 11:0 12:1.64227 13:1.48381 14:0.97772 15:0 
-0.2199167001342079 1:0 2:0 3:4.37969 4:4.04408 5:1.44121 6:1.34684 7:2.21025 8:0 9:0.60161 10:0 11:0 12:0 13:1.48329 14:0.99257 15:0 
-0.1307249984497802 1:0 2:0 3:2.94166 4:1.53064 5:2.14121 6:1.98553 7:1.37481 8:0 9:0 10:0 11:0 12:0 13:0.64785 14:0 15:0 
-0.2950443488662537 1:0 2:0 3:4.3625 4:3.9201 5:2.83169 6:2.5803 7:3.14427 8:0 9:0.60362 10:0 11:0 12:0.71717 13:1.48381 14:0.97772 15:0 
-0.7424312445221621 1:0 2:0 3:3.75535 4:3.93799 5:1.3338 6:2.62422 7:3.12851 8:0 9:0 10:0 11:0 12:0 13:1.46599 14:0 15:0 
-2 1:0 2:0 3:5.88257 4:4.8452 5:3.75679 6:1.95256 7:3.14427 8:0 9:0.60362 10:0 11:0 12:1.64227 13:1.48381 14:0.97772 15:0 
-0.9109177490874315 1:0 2:0 3:0 4:0.79927 5:0.61364 6:1.64837 7:1.41574 8:1 9:1.66363 10:0.97959 11:0 12:0 13:0.74051 14:0 15:0 
-1.029567134857567 1:0 2:0 3:4.54665 4:4.00911 5:2.14121 6:1.98553 7:5.05025 8:0 9:0.99213 10:0 11:0 12:0 13:1.48329 14:0 15:0 
-0.8142430810270888 1:0 2:0 3:1.49026 4:4.8452 5:3.75679 6:1.95256 7:2.43471 8:0 9:0 10:0 11:0 12:1.64227 13:1.48381 14:0 15:0 
-0.5294363877780021 1:0 2:0 3:0 4:2.06779 5:0.74307 6:0 7:2.83704 8:0 9:0 10:0 11:0 12:0 13:0.76582 14:0 15:0 
