svm_type c_svc
kernel_type rbf
gamma 0.125
nr_class 2
total_sv 433
rho -0.103244
label 1 -1
probA -2.50864
probB 0.012337
nr_sv 233 200
SV
0.3768067911848562 1:0 2:0 3:2.99385 4:1.43326 5:1.99573 6:5.87628 7:4.05621 8:0 9:2.94127 10:0 11:0.66525 12:0 13:3.46493 14:0.61576 15:0 
2 1:0 2:0 3:4.1738 4:5.46894 5:0 6:0.69182 7:2.09507 8:0.79692 9:0 10:0 11:0 12:0.65365 13:1.38024 14:0 15:0 
2 1:0 2:0 3:6.07156 4:4.0366 5:0 6:0.69182 7:2.77623 8:0.79692 9:0 10:0.85533 11:0 12:1.54356 13:1.38024 14:0 15:0 
2 1:0 2:0 3:2.07707 4:3.31985 5:0 6:0.64939 7:3.27686 8:0 9:0.64939 10:0 11:0 12:0 13:1.61247 14:0 15:0 
2 1:0 2:0 3:3.47289 4:3.95757 5:0 6:0.6934 7:2.77623 8:1.58408 9:0 10:0 11:0 12:0 13:1.38024 14:0 15:0 
2 1:0 2:0 3:2.67968 4:1.96422 5:0 6:0.64939 7:2.9719 8:0 9:0.64939 10:0 11:0 12:0 13:2.31739 14:0 15:0 
1.595587096637725 1:3 2:0 3:2.99418 4:2.58999 5:0 6:0.78992 7:3.45787 8:0 9:2.90034 10:0.63158 11:0 12:0 13:1.44385 14:1.94196 15:0.98137 
2 1:0 2:0 3:3.47207 4:2.28286 5:0 6:0.6934 7:3.72371 8:1.59578 9:0 10:0.62929 11:0 12:0 13:2.31058 14:0 15:0 
0.3299161131593252 1:0 2:0 3:1.62432 4:2.11387 5:0 6:0 7:2.78899 8:0 9:1.9297 10:0.62936 11:0.61783 12:0 13:0.73885 14:1.85533 15:0.93168 
0.768648757189797 1:0 2:0 3:2.38015 4:2.91765 5:1.99573 6:6.46224 7:4.16495 8:0 9:2.92302 10:0.66304 11:0.66525 12:0 13:1.43281 14:1.21856 15:0.60526 
1.523866992475077 1:0 2:0 3:3.27823 4:3.14755 5:1.98291 6:6.32416 7:3.05621 8:0 9:3.29195 10:0.66304 11:0.66596 12:0 13:2.12372 14:0 15:0 
2 1:0 2:0 3:0.61736 4:0.66621 5:2 6:1.9977 7:3.31122 8:0 9:1.32586 10:0 11:0.66525 12:0 13:1.38814 14:0.6133 15:0 
2 1:0 2:0 3:3.32023 4:3.93876 5:0 6:0.64939 7:3.9719 8:0 9:0.64939 10:0 11:0 12:0 13:2.31739 14:0 15:0 
0.4633195799875577 1:0 2:0 3:0.61933 4:0.66485 5:2 6:6.4485 7:4.04428 8:0 9:1.32783 10:1.40446 11:0.66525 12:0 13:2.12512 14:0.6133 15:0 
2 1:0 2:0 3:6.08757 4:6.49932 5:0 6:0.69182 7:2.77623 8:0.79692 9:0 10:0.85533 11:0 12:1.54356 13:1.38024 14:0 15:0 
2 1:0 2:0 3:2.09064 4:2.62416 5:0 6:0.98947 7:2.74491 8:0 9:0.94488 10:0 11:0 12:0 13:1.32608 14:0 15:0 
2 1:0 2:0 3:2.6001 4:2.59858 5:0 6:0 7:2.84789 8:0 9:0 10:0 11:0 12:0 13:2.19338 14:0 15:0 
1.023602001704462 1:0 2:0 3:3.26179 4:3.13308 5:2 6:5.46188 7:2.32442 8:0 9:1.60521 10:0 11:0.66525 12:0 13:1.39094 14:0.6133 15:0 
2 1:0 2:0 3:0.76577 4:1.43198 5:2 6:1.9977 7:2.45462 8:0 9:0.98785 10:0.66304 11:0.66314 12:0 13:2.12512 14:0 15:0 
0.2009196899768116 1:0 2:0 3:3 4:8.57409 5:0 6:1.98705 7:4.57962 8:1 9:1.29994 10:3 11:0.71709 12:1.96 13:3.21955 14:0 15:0 
1.247586192437966 1:0 2:0 3:2.37887 4:0.76577 5:2 6:3.98497 7:3.33338 8:0 9:2.30966 10:0.66304 11:0.66314 12:0 13:2.12512 14:0.6133 15:0 
0.1195332480589606 1:0 2:0 3:6.76616 4:9.57409 5:0 6:1.98705 7:3.84885 8:2 9:1.29994 10:2 11:0.71709 12:1.96 13:2.53066 14:0 15:0 
2 1:0 2:0 3:3.37974 4:3.93876 5:0 6:0.64939 7:3.9719 8:0 9:0.64939 10:0 11:0 12:0 13:2.31739 14:0 15:0 
2 1:0 2:0 3:2.09064 4:2.62416 5:0 6:0.98947 7:2.74491 8:0 9:0.94488 10:0.62752 11:0 12:0 13:1.32608 14:0 15:0 
2 1:0 2:0 3:2.38015 4:2.25008 5:1 6:2.97775 7:1.3217 8:0 9:2.30966 10:0 11:0.66525 12:0 13:0.69863 14:0.6133 15:0 
2 1:0 2:0 3:2.70632 4:3.31796 5:0 6:0.66777 7:3.2012 8:0 9:0.66777 10:0 11:0 12:0 13:1.54669 14:0 15:0 
0.1206514764648816 1:3 2:0 3:2.99768 4:1.25743 5:0 6:0.79216 7:1.34177 8:0 9:2.90034 10:0.62976 11:0 12:0 13:0.69863 14:1.94196 15:0.98137 
1.348505337482134 1:0 2:0 3:2.38015 4:1.43462 5:1 6:2.98358 7:4.05724 8:0 9:2.97766 10:0.66304 11:0.66525 12:0 13:1.43281 14:0.6133 15:0 
2 1:3 2:0 3:2.3582 4:1.28598 5:0 6:0.7948 7:2.76883 8:0 9:1.90034 10:0.63158 11:0 12:0 13:1.44385 14:1.94196 15:0.98137 
2 1:3 2:0 3:3.55415 4:4.75612 5:0 6:0.69182 7:2.15314 8:0 9:0 10:0.85533 11:0 12:0.65796 13:1.37387 14:0 15:0 
0.1238429985810859 1:0 2:0 3:0.99574 4:0.66621 5:1 6:3.93769 7:3.0586 8:0 9:0.70445 10:0.66304 11:0.66525 12:0 13:1.42649 14:0 15:0 
0.2512420809716058 1:0 2:0 3:6.11088 4:3.86457 5:0.7193 6:0 7:0.70149 8:0.95455 9:0 10:0.62929 11:0 12:2.00067 13:0 14:0 15:0 
0.4802162048717558 1:3 2:0 3:4.26557 4:3.05895 5:0.71537 6:2.00146 7:3.5688 8:0 9:0.62575 10:0.86076 11:0 12:2.17375 13:2.24124 14:0 15:0 
0.09800572480720918 1:3 2:0 3:1.38441 4:2.25144 5:2 6:2.9821 7:2.45701 8:0 9:2.31776 10:0.66304 11:0.66525 12:0 13:2.12372 14:0.6133 15:0 
0.6174084630981767 1:0 2:0 3:5.99792 4:7.61409 5:0 6:1.98705 7:5.22919 8:2 9:1.29994 10:3 11:0.71709 12:0 13:3.21955 14:0 15:0 
2 1:0 2:0 3:2.08922 4:3.38574 5:0 6:0.98423 7:2.81775 8:0 9:0.94882 10:1.62679 11:0 12:0 13:0.73885 14:0 15:0 
0.1116341117389104 1:0 2:0 3:3.76616 4:9.61409 5:1 6:1.98705 7:5.22919 8:1 9:1.29994 10:2 11:0.71709 12:4 13:3.21955 14:0 15:0 
2 1:0 2:0 3:3.39981 4:1.53079 5:0 6:0.69182 7:1.39539 8:0.79692 9:0 10:0.85533 11:0 12:1.53079 13:1.38024 14:0 15:0 
2 1:0 2:0 3:6.98593 4:5.58444 5:0.71537 6:2.00146 7:3.01179 8:0 9:0.62575 10:0.86076 11:0 12:2.17375 13:1.63807 14:0 15:0 
1.039841058594055 1:0 2:0 3:2.48314 4:5.51986 5:0 6:0.69182 7:2.77623 8:0.82212 9:0 10:0.85533 11:0 12:1.54356 13:1.38024 14:0 15:0 
0.7968032699331599 1:3 2:0 3:6.98593 4:5.58444 5:0.71537 6:2.00146 7:3.63774 8:0.66234 9:0.62575 10:0.86076 11:0 12:2.17375 13:2.24124 14:0 15:0 
2 1:0 2:0 3:4.1738 4:5.69794 5:0 6:0.69182 7:2.77623 8:0.79692 9:0 10:0 11:0 12:0 13:1.38024 14:0 15:0 
2 1:3 2:0 3:1.44132 4:0.62004 5:0 6:1.64831 7:1.34177 8:0 9:0 10:0.62976 11:0 12:0 13:0.69863 14:0 15:0 
0.5396700572038199 1:0 2:0 3:3.76616 4:3.57664 5:1 6:1.32385 7:4.57962 8:1 9:0.63674 10:1 11:0.71709 12:2.96 13:3.21955 14:0 15:0 
0.02459651460154338 1:0 2:0 3:1.44758 4:0.6263 5:0 6:1 7:2.10428 8:0 9:0 10:4.44185 11:0 12:0 13:1.42378 14:0 15:0 
0.3309136388022208 1:0 2:0 3:3.08866 4:1.26936 5:0 6:1 7:0.60456 8:0 9:2.87852 10:4.44185 11:0.61996 12:0 13:0 14:1.85533 15:0.93168 
0.1291672391217125 1:0 2:0 3:3.23432 4:2.4394 5:1 6:2.97734 7:2 8:0 9:2.30561 10:0 11:1.32981 12:0 13:0.69231 14:0.6133 15:0 
1.256501825386854 1:0 2:0 3:1.6131 4:0 5:1 6:2.9899 7:1.73179 8:0 9:2.30966 10:0.66304 11:0.66314 12:0 13:1.42649 14:0.6133 15:0 
2 1:3 2:0 3:2.84594 4:3.50951 5:0 6:0.79216 7:2.78185 8:0 9:0.99606 10:0.62976 11:0 12:0 13:1.44385 14:0 15:0 
1.240396078748893 1:3 2:0 3:6.093 4:5.75612 5:0 6:0.69182 7:2.77909 8:0.78769 9:0 10:0.85533 11:0 12:1.65796 13:1.37387 14:0 15:0 
2 1:0 2:0 3:0.99574 4:0.66621 5:2 6:2.99302 7:3.04905 8:0 9:0.7085 10:0 11:0.66525 12:0 13:0.73418 14:0 15:0 
1.430377780167479 1:0 2:0 3:1.38441 4:2.25144 5:2 6:2.97267 7:2.45701 8:0 9:2.31776 10:0 11:0.66525 12:0 13:2.1202 14:0.6133 15:0 
2 1:0 2:0 3:1.74018 4:2.19506 5:0 6:0.6934 7:1.99916 8:1.58408 9:0 10:0 11:0 12:0.65104 13:0.60317 14:0 15:0 
0.1797740039641409 1:0 2:0 3:3.76616 4:9.61409 5:1 6:1.29994 7:5.22919 8:1 9:1.29994 10:3 11:0.71709 12:4 13:2.53066 14:0 15:0 
1.647509991046872 1:0 2:0 3:1.6131 4:0.66621 5:2 6:2.94918 7:3.06392 8:0 9:0.61736 10:0.71141 11:0.66525 12:0 13:1.43813 14:0.6133 15:0 
2 1:0 2:0 3:0.61736 4:0.66342 5:1 6:1.98128 7:2.31371 8:0 9:0.61736 10:0.66304 11:0.66102 12:0 13:0.69863 14:0.6133 15:0 
2 1:3 2:0 3:2.02466 4:3.50951 5:0 6:0.79216 7:2.18109 8:0 9:0.99606 10:0 11:0 12:0 13:1.44385 14:0 15:0 
2 1:0 2:0 3:1.46162 4:1.30701 5:0 6:0 7:1.44147 8:0 9:0.9252 10:0 11:0.61359 12:0 13:0.67123 14:0 15:0 
2 1:0 2:0 3:3.32023 4:3.27242 5:0 6:0.64939 7:4.01432 8:0 9:0.64939 10:0 11:0 12:0 13:1.61247 14:0 15:0 
2 1:0 2:0 3:0.99574 4:1.48439 5:1 6:1.98358 7:4.04272 8:0 9:0.98381 10:0.66304 11:0 12:0 13:0.72785 14:0 15:0 
0.0370149416806187 1:0 2:0 3:2.33814 4:1.54322 5:1 6:0.99376 7:3.33577 8:0 9:2.30561 10:0 11:1.32981 12:0 13:1.43281 14:0.6133 15:0 
2 1:0 2:0 3:2.09064 4:1.94147 5:0 6:0.99054 7:2.05014 8:0 9:0.94488 10:0 11:0 12:0 13:0.69863 14:0 15:0 
1.02599985688217 1:0 2:0 3:3.25854 4:3.12847 5:1 6:4.70736 7:4.0586 8:0 9:2.30966 10:0 11:0.66525 12:0 13:0.73418 14:0.6133 15:0 
0.2948552767183199 1:3 2:0 3:2.99713 4:1.92688 5:0 6:0.78992 7:2.02224 8:0 9:3.60911 10:0 11:0 12:0 13:0.69863 14:1.94196 15:0.98137 
2 1:0 2:0 3:3.49636 4:3.06574 5:0 6:0.6934 7:2.09507 8:1.58839 9:0 10:0 11:0 12:0 13:1.38024 14:0 15:0 
2 1:0 2:0 3:6.98593 4:6.46091 5:0.71537 6:1.316 7:2.3041 8:0 9:0.62575 10:0 11:0 12:2.17375 13:1.53355 14:0 15:0 
0.2666033092099659 1:0 2:0 3:0.61736 4:0.66621 5:1 6:5.70736 7:1.45701 8:0 9:1.32181 10:0.66304 11:0.66525 12:0 13:2.12512 14:0.6133 15:0 
2 1:0 2:0 3:3.43244 4:3.04929 5:0 6:0.68051 7:0.69968 8:1.58408 9:0 10:0 11:0 12:0 13:0.60317 14:0 15:0 
0.3869499814995114 1:3 2:0 3:3.61372 4:1.90232 5:0 6:0.82109 7:2.76883 8:0 9:3.80148 10:0.62795 11:0.66667 12:0 13:1.44385 14:1.94196 15:0.98137 
0.3106405022788148 1:3 2:0 3:3.08866 4:1.94011 5:0 6:0 7:2.02812 8:0 9:2.87852 10:2.4741 11:0.61996 12:0 13:1.42378 14:1.85533 15:0.93168 
0.1386132061525555 1:0 2:0 3:2.38084 4:2.25016 5:1.98291 6:6.4374 7:4.05621 8:0 9:1.61528 10:0.66304 11:0.66596 12:0 13:2.12372 14:0.6133 15:0 
2 1:0 2:0 3:1.73935 4:2.28999 5:0 6:0.69182 7:2.77623 8:1.5927 9:0 10:0.85714 11:0 12:0 13:1.38024 14:0 15:0 
2 1:0 2:0 3:5.99357 4:3.95757 5:0 6:0.6934 7:2.15791 8:1.58408 9:0 10:0 11:0 12:0 13:1.38024 14:0 15:0 
1.278917996382313 1:6 2:0 3:1.43553 4:1.28228 5:0 6:0.79048 7:2.76883 8:0 9:1.90114 10:0.62795 11:0 12:0 13:1.44385 14:0 15:0 
0.2457208317538607 1:0 2:0 3:2.38015 4:2.25144 5:2 6:5.68414 7:4.05621 8:0 9:1.60926 10:0.66123 11:0.66525 12:0 13:3.46493 14:0.61576 15:0 
0.6348911395094807 1:0 2:0 3:2.99385 4:2.25144 5:1.99573 6:4.88121 7:3.45462 8:0 9:2.92741 10:0.66123 11:0.66525 12:0 13:3.46493 14:0.61576 15:0 
2 1:0 2:0 3:2.09064 4:1.94011 5:0 6:0 7:2.05014 8:0 9:0.94882 10:0.62385 11:0.61996 12:0 13:0.68493 14:0 15:0 
0.08137234645924646 1:0 2:0 3:2.38332 4:2.25144 5:1 6:6.61396 7:4.05621 8:0 9:2.31688 10:0.66123 11:0 12:0 13:1.43281 14:0 15:0 
2 1:0 2:0 3:3.32847 4:3.93876 5:0 6:0.64939 7:3.9719 8:0 9:0.64939 10:0 11:0 12:0 13:1.61247 14:0 15:0 
0.1688857177093945 1:0 2:0 3:6.76616 4:8.61409 5:1 6:1.98705 7:4.35658 8:1 9:1.29994 10:3 11:0.71709 12:1 13:1.65805 14:0 15:0 
2 1:0 2:0 3:1.96574 4:2.67085 5:0 6:0 7:3.19889 8:0 9:0 10:0 11:0 12:0 13:2.16138 14:0 15:0 
1.330408754946161 1:0 2:0 3:4 4:2.61664 5:0 6:1.98705 7:4.35658 8:2 9:1.29994 10:2 11:0.71709 12:0 13:2.34694 14:0 15:0 
1.277515372675756 1:0 2:0 3:2.43765 4:2.25008 5:1 6:3.72813 7:2.0586 8:0 9:0.67486 10:0 11:0.66525 12:0 13:2.12512 14:0.6133 15:0 
2 1:0 2:0 3:3.34074 4:2.61679 5:0 6:0.6711 7:4.01001 8:0 9:0.6711 10:0 11:0 12:0 13:2.34562 14:0 15:0 
0.009792200913264272 1:0 2:0 3:6.08757 4:7.37716 5:0 6:0.69182 7:2.77623 8:1.46139 9:0 10:0.85533 11:0 12:1.54356 13:1.38024 14:0 15:0 
1.710070659784641 1:0 2:0 3:3.14487 4:2.88947 5:0 6:0.79216 7:2.03663 8:0 9:1.91503 10:1.25952 11:0 12:0 13:0.69863 14:0.96059 15:0 
2 1:0 2:0 3:1.46434 4:1.31245 5:0 6:0.98686 7:2.02736 8:0 9:0.94882 10:0.79798 11:0 12:0 13:0.68493 14:0 15:0 
2 1:0 2:0 3:3.08997 4:2.75835 5:0 6:0.99264 7:2.78899 8:0 9:1.94673 10:0.62936 11:0.61783 12:0 13:1.42378 14:0 15:0 
0.2661172357560473 1:0 2:0 3:3.49462 4:4.90717 5:0 6:0 7:2.07422 8:1.58839 9:0 10:0 11:0 12:1.5409 13:1.38024 14:0 15:0 
2 1:0 2:0 3:1.72348 4:4.87142 5:0 6:0 7:2.15791 8:0.79692 9:0 10:0.85533 11:0 12:0.89512 13:1.38024 14:0 15:0 
1.473261665815668 1:0 2:0 3:1.6131 4:0 5:2 6:3.98161 7:1.60159 8:0 9:0.61736 10:0.66123 11:0.66525 12:0 13:1.38954 14:0.6133 15:0 
0.2987916411584414 1:0 2:0 3:5.76616 4:9.99745 5:1 6:1.98705 7:3.40327 8:2 9:1.29994 10:2 11:0 12:4 13:4.09216 14:0 15:0 
0.7377527412478154 1:0 2:0 3:2.45777 4:0.61587 5:0 6:0.78824 7:2.82501 8:0 9:4.78828 10:0.63339 11:0 12:0 13:2.18907 14:3.86658 15:1.95032 
2 1:0 2:0 3:2.09064 4:1.94147 5:0 6:0.9904 7:2.05014 8:0 9:0.94488 10:0.62752 11:0 12:0 13:1.32608 14:0 15:0 
0.7415529753453287 1:0 2:0 3:2 4:4.61664 5:0 6:1.98705 7:4.57962 8:2 9:1.29994 10:2 11:0.71709 12:0 13:3.21955 14:0 15:0 
0.1019388980763746 1:0 2:0 3:6.76616 4:10.57409 5:1 6:1.32385 7:5.22919 8:2 9:0.63674 10:2 11:0.71709 12:2.96 13:3.21955 14:0 15:0 
2 1:0 2:0 3:3.08885 4:2.75835 5:0 6:0.99067 7:2.78899 8:0 9:1.94561 10:0.62936 11:0.61783 12:0 13:1.42378 14:0 15:0 
0.2384098015863106 1:3 2:0 3:3.14487 4:2.88947 5:0 6:0 7:1.43587 8:0 9:2.8964 10:0.62976 11:0 12:0 13:0.69863 14:1.94196 15:0.98137 
2 1:0 2:0 3:3.39871 4:0.63574 5:0 6:0 7:2.77623 8:0.79692 9:0 10:0 11:0 12:0 13:1.38024 14:0 15:0 
0.993131908927237 1:0 2:0 3:6.76616 4:5.94666 5:1 6:1.98705 7:5.81661 8:1 9:1.29994 10:3 11:0.71709 12:2.71338 13:3.21955 14:0 15:0 
0.5152621392302127 1:0 2:0 3:4 4:7.61409 5:0 6:1.35031 7:5.22919 8:2 9:0.6632 10:2 11:0.71709 12:0 13:3.21955 14:0 15:0 
1.75616917070799 1:0 2:0 3:6.14913 4:7.82097 5:0.7193 6:0.69182 7:3.72371 8:0 9:0 10:0.62929 11:0 12:2.00067 13:2.31058 14:0 15:0 
1.585183743189177 1:0 2:0 3:4.99856 4:5.69794 5:0 6:0.69182 7:2.0249 8:0 9:0 10:0 11:0 12:0 13:0 14:0 15:0 
0.5820468762370341 1:3 2:0 3:3.29409 4:0.63881 5:0 6:0 7:2.07979 8:0 9:5.50748 10:0.62795 11:0 12:0 13:1.44385 14:3.88392 15:1.96274 
2 1:0 2:0 3:0.99574 4:0.66621 5:1 6:4.71885 7:2.32442 8:0 9:0.70445 10:0 11:0.66525 12:0 13:0.69863 14:0 15:0 
1.598955229685653 1:0 2:0 3:1.46292 4:2.12272 5:0 6:0.98423 7:2.02736 8:0 9:0.94882 10:1.62679 11:0 12:0 13:0.68493 14:0 15:0 
0.347792145826797 1:0 2:0 3:2.99713 4:1.92688 5:0 6:0.78992 7:2.76746 8:0 9:3.60911 10:0.62795 11:0 12:0 13:1.44385 14:1.94196 15:0.98137 
2 1:0 2:0 3:0.99574 4:1.48303 5:1 6:2.954 7:2.7109 8:0 9:0.7085 10:0.66123 11:0.66525 12:0 13:0.69231 14:0 15:0 
1.426114678229826 1:0 2:0 3:2.38015 4:2.25008 5:2 6:3.96831 7:5.04531 8:0 9:2.32181 10:0.66304 11:1.3461 12:0 13:2.12512 14:0.61084 15:0 
0.2641781348736077 1:0 2:0 3:3.06785 4:1.9193 5:0 6:0 7:2.78899 8:0 9:1.9297 10:0.62752 11:0.61996 12:0 13:1.42378 14:1.85533 15:0.93168 
2 1:0 2:0 3:0.63739 4:0.63739 5:0 6:0.82336 7:1.34177 8:0 9:0.99606 10:0.62795 11:0 12:0 13:0.69863 14:0 15:0 
0.4087361875353816 1:3 2:0 3:2.45428 4:0.64306 5:0 6:0 7:1.49972 8:0 9:2.87655 10:0.79449 11:0.62208 12:0 13:0.73885 14:1.85286 15:0.93168 
2 1:0 2:0 3:2.46158 4:4.23568 5:0 6:0 7:0.77707 8:0.79692 9:0 10:0.85533 11:0 12:0.89512 13:1.38024 14:0 15:0 
0.1051258033526113 1:3 2:0 3:2.37623 4:1.30401 5:0 6:0.78992 7:2.76883 8:0 9:2.90034 10:0.63158 11:0 12:0 13:0.74522 14:1.94196 15:0.98137 
0.2620707216021042 1:0 2:0 3:2.38015 4:0.76705 5:1.99573 6:1.99573 7:3.33577 8:0 9:1.60521 10:0.72549 11:0.66525 12:0 13:1.43281 14:0.6133 15:0 
2 1:3 2:0 3:2.07521 4:1.92196 5:0 6:0.78992 7:2.76883 8:0 9:1 10:0.63158 11:0 12:0 13:0.74522 14:0 15:0 
0.9507011393744623 1:0 2:0 3:5.35122 4:7.10167 5:0 6:0 7:3.72371 8:0 9:0 10:0.62929 11:0 12:1.28137 13:2.31058 14:0 15:0 
0.6300287119234113 1:3 2:0 3:2.38015 4:2.25144 5:2 6:6.45958 7:2.72044 8:0 9:2.30966 10:1.32246 11:0.66525 12:0 13:1.39094 14:0.6133 15:0 
1.119164031757426 1:3 2:0 3:2.61788 4:5.12174 5:0 6:1.95762 7:2.07781 8:0.78769 9:1.2658 10:0.85533 11:0 12:1.65796 13:0.7707 14:0 15:0 
0.5761020335060639 1:0 2:0 3:3.23432 4:2.28743 5:2 6:4.7444 7:3.32442 8:0 9:2.31371 10:0.66304 11:0 12:0 13:1.39094 14:0.6133 15:0 
2 1:3 2:0 3:2.07521 4:1.92196 5:0 6:0.79104 7:2.02361 8:0 9:1 10:0 11:0 12:0 13:0.69863 14:0 15:0 
2 1:0 2:0 3:5.12756 4:4.60664 5:0 6:0 7:2.7739 8:0 9:0 10:0 11:0 12:1.5409 13:1.38024 14:0 15:0 
0.9525223416181134 1:0 2:0 3:0.61736 4:0.66757 5:1 6:1.98358 7:4.05724 8:0 9:2.97766 10:0.66304 11:1.30489 12:0 13:1.43281 14:0.6133 15:0 
0.3115545232836598 1:0 2:0 3:2 4:5.61409 5:0 6:1.35031 7:5.22919 8:1 9:0.6632 10:3 11:0.71709 12:0 13:3.21955 14:0 15:0 
0.3437285671485299 1:0 2:0 3:2.38015 4:2.25144 5:2 6:5.62136 7:4.0586 8:0 9:2.30966 10:2.48833 11:0.66525 12:0 13:2.12512 14:0.6133 15:0 
0.5090052831388063 1:3 2:0 3:6.093 4:4.09816 5:0 6:1.95762 7:2.77909 8:0.78769 9:1.2658 10:0.85533 11:0 12:0 13:1.37387 14:0 15:0 
2 1:3 2:0 3:2.3582 4:1.28598 5:0 6:0.79885 7:2.16807 8:0 9:1.90034 10:0.63158 11:0 12:0 13:0.74522 14:1.94196 15:0.98137 
1.556539621364704 1:0 2:0 3:2.38015 4:2.25008 5:2 6:3.96831 7:4.04531 8:0 9:2.32181 10:0.66304 11:1.3461 12:0 13:2.12512 14:0.61084 15:0 
0.5354649058938015 1:0 2:0 3:3 4:5.61664 5:1 6:0.63674 7:3.57114 8:2 9:0.63674 10:2 11:0.71709 12:4 13:1.5615 14:0 15:0 
2 1:0 2:0 3:6.12912 4:5.8203 5:0 6:1.38364 7:3.72371 8:0.95455 9:0 10:0.62929 11:0 12:0 13:2.31058 14:0 15:0 
2 1:0 2:0 3:1.76279 4:2.25144 5:1 6:2.93769 7:3.0586 8:0 9:1.6923 10:0 11:0.66525 12:0 13:2.12512 14:0 15:0 
1.601898266818325 1:0 2:0 3:2.48677 4:0.87792 5:2.97959 6:2.98128 7:3.29563 8:0 9:2.31776 10:0.66304 11:0.66102 12:0 13:2.12232 14:0.6133 15:0 
0.2804493332733879 1:0 2:0 3:5.32791 4:6.09298 5:0 6:0.69182 7:1.29948 8:0 9:0 10:0.85533 11:0 12:0.89512 13:0.60317 14:0 15:0 
0.3559202021432245 1:0 2:0 3:0 4:1.48439 5:2 6:4.68907 7:4.05621 8:0 9:0.70445 10:0 11:0.66525 12:0 13:3.46493 14:0 15:0 
0.816817739445509 1:0 2:0 3:3.40697 4:2.88024 5:0.71106 6:0.6934 7:2.09051 8:1.59578 9:0 10:0.62929 11:0 12:1.36991 13:1.37387 14:0 15:0 
0.2352204413956439 1:0 2:0 3:6.76616 4:9.57409 5:0 6:1.98705 7:5.22919 8:1 9:1.29994 10:2 11:0.71709 12:1.96 13:3.21955 14:0 15:0 
2 1:0 2:0 3:1.38441 4:1.43326 5:2 6:2.98128 7:3.04471 8:0 9:0.61736 10:0 11:0.66102 12:0 13:1.43281 14:0.6133 15:0 
0.8795801495609399 1:0 2:0 3:1.8193 4:0 5:0 6:0.98657 7:1.49972 8:0 9:1.9297 10:0.62385 11:0.61996 12:0 13:1.42378 14:1.85533 15:0.93168 
0.299391484352357 1:0 2:0 3:1.38214 4:2.24917 5:3 6:5.6922 7:2.45701 8:0 9:1.60521 10:0.66304 11:0.66525 12:0 13:2.12512 14:0.6133 15:0 
2 1:0 2:0 3:1.43652 4:1.96392 5:0 6:0.64939 7:2.27686 8:0 9:0.64939 10:0 11:0 12:0 13:2.31739 14:0 15:0 
2 1:0 2:0 3:2.69598 4:3.93876 5:0 6:0.64939 7:2.9719 8:0 9:0.64939 10:0 11:0 12:0 13:2.31739 14:0 15:0 
0.6972819451510688 1:0 2:0 3:4.25339 4:3.2812 5:0 6:0 7:0.61832 8:1.58408 9:0 10:0 11:0 12:0.86765 13:0.60317 14:0 15:0 
0.1668746717801875 1:0 2:0 3:1.62467 4:2.29088 5:0 6:2.9719 7:1.69658 8:0 9:2.6923 10:0.66304 11:0.66102 12:0 13:1.38814 14:0 15:0 
2 1:0 2:0 3:1.6131 4:0 5:1 6:0.9922 7:3.33338 8:0 9:1.32181 10:0.66304 11:0.66314 12:0 13:1.43281 14:0.6133 15:0 
0.07678153385284044 1:6 2:0 3:2.1729 4:1.92196 5:0 6:0.78992 7:2.03502 8:0 9:2.90034 10:0.63158 11:0 12:0 13:1.44385 14:1.94196 15:0.98137 
0.4105818609812114 1:0 2:0 3:1.76279 4:1.43567 5:1.99573 6:2.9908 7:3.3314 8:0 9:2.3603 10:0.71759 11:1.3305 12:0 13:0.69863 14:0 15:0 
0.08399797514002832 1:0 2:0 3:0.61736 4:1.48439 5:2 6:5.91126 7:3.45701 8:0 9:1.32181 10:0.66123 11:0 12:0 13:1.42649 14:0.6133 15:0 
0.7333488214364641 1:0 2:0 3:2.38015 4:1.43326 5:1 6:3.62292 7:4.66019 8:0 9:1.60521 10:0.66304 11:0 12:0 13:1.43281 14:0.6133 15:0 
0.4513678890949737 1:0 2:0 3:5.99357 4:3.06271 5:0 6:0 7:2.15791 8:1.58408 9:0 10:0 11:0 12:1.51869 13:1.38024 14:0 15:0 
0.9720435587621369 1:0 2:0 3:1.58061 4:5.51986 5:0 6:0 7:1.318 8:0 9:0 10:0 11:0 12:1.54356 13:0.60317 14:0 15:0 
2 1:0 2:0 3:3.23206 4:3.10138 5:1.98291 6:5.52783 7:4.05621 8:0 9:2.61123 10:0.66304 11:0.66596 12:0 13:2.12372 14:0.6133 15:0 
2 1:0 2:0 3:1.44758 4:1.29841 5:0 6:0.99054 7:1.28927 8:0 9:0 10:0.62752 11:0.61996 12:0 13:1.32608 14:0 15:0 
1.372684621292027 1:3 2:0 3:5.10005 4:3.13694 5:0 6:1.95762 7:1.47198 8:0.78769 9:1.2658 10:0.85533 11:0 12:0 13:1.37387 14:0 15:0 
0.6668824179412335 1:6 2:0 3:2.26541 4:3.23071 5:0 6:0.98633 7:2.71922 8:0 9:2.87655 10:1.42018 11:0.62208 12:0 13:1.42378 14:1.85286 15:0.93168 
1.821752946111138 1:0 2:0 3:0.99574 4:1.48439 5:1 6:3.93769 7:2.0586 8:0 9:0.70445 10:0.66304 11:0.66525 12:0 13:2.12512 14:0 15:0 
0.6457893955989344 1:0 2:0 3:0.76705 4:2.25144 5:1 6:2.96831 7:3.44508 8:0 9:1.7004 10:0.66304 11:0.66525 12:0 13:1.42649 14:0.6133 15:0 
2 1:0 2:0 3:0 4:0.66621 5:2 6:1.9931 7:1.45701 8:0 9:0 10:0.66123 11:0 12:0 13:2.12512 14:0 15:0 
2 1:0 2:0 3:4.23173 4:5.99643 5:0.71106 6:0.6934 7:3.10539 8:1.59578 9:0 10:0.62929 11:0 12:1.36991 13:2.31058 14:0 15:0 
0.7433747679547665 1:0 2:0 3:3.26936 4:2.62416 5:0 6:0 7:4.22261 8:0 9:4.80824 10:0.62752 11:1.23992 12:0 13:2.80378 14:3.71066 15:1.86336 
2 1:0 2:0 3:4.25339 4:2.15443 5:0 6:0.6934 7:2.77623 8:1.58408 9:0 10:0 11:0 12:1.51869 13:0.77707 14:0 15:0 
1.812589561584726 1:3 2:0 3:2.96134 4:1.22109 5:0 6:0 7:2.07979 8:0 9:2.8964 10:0.62795 11:0 12:0 13:1.44385 14:1.94196 15:0.98137 
2 1:0 2:0 3:2.64786 4:3.29821 5:0 6:0.64939 7:3.2012 8:0 9:0.64939 10:0 11:0 12:0 13:1.54669 14:0 15:0 
2 1:0 2:0 3:2.37817 4:0.76705 5:1.99145 6:2.97043 7:3.32883 8:0 9:3.24628 10:0 11:0.66525 12:0 13:2.12372 14:0.6133 15:0 
1.39523698059541 1:0 2:0 3:1.38441 4:2.25144 5:2 6:4.63285 7:1.72283 8:0 9:2.30966 10:0.66304 11:0.66525 12:0 13:0.69863 14:0.6133 15:0 
0.2631331955741216 1:0 2:0 3:3 4:9.61409 5:0 6:1.98705 7:4.57962 8:2 9:1.29994 10:2 11:0.71709 12:3 13:3.22561 14:0 15:0 
2 1:0 2:0 3:3.39871 4:1.28939 5:0 6:0.69182 7:1.38084 8:0.79692 9:0 10:0 11:0 12:0.65365 13:0 14:0 15:0 
0.41681368157771 1:3 2:0 3:6.98593 4:4.69924 5:0.71537 6:1.31121 7:1.40258 8:0 9:0.62575 10:0.85372 11:0 12:2.17375 13:1.31086 14:0 15:0 
0.4207068959248943 1:0 2:0 3:3.12757 4:1.30827 5:0 6:0 7:2.81599 8:0 9:2.87852 10:4.44185 11:0 12:0 13:1.42378 14:1.85533 15:0.93168 
0.138225207347947 1:0 2:0 3:1.38313 4:2.25016 5:2 6:3.92966 7:4.0586 8:0 9:3.29751 10:0 11:0.66525 12:0 13:2.12512 14:0.6133 15:0 
2 1:3 2:0 3:3.58163 4:2.50941 5:0 6:0.79048 7:2.76883 8:0 9:2.8964 10:0.62795 11:0 12:0 13:1.44385 14:1.94196 15:0.98137 
2 1:3 2:0 3:1.74025 4:0.66803 5:0 6:0 7:2.76883 8:0 9:1.90034 10:0 11:0 12:0 13:1.44385 14:1.94196 15:0.98137 
1.114074814846476 1:3 2:0 3:2.44758 4:1.29841 5:0 6:0.99054 7:2.78899 8:0 9:1.93168 10:0.62752 11:0.61996 12:0 13:2.06493 14:1.85533 15:0.93168 
1.466341707589343 1:0 2:0 3:6.08757 4:7.37716 5:0 6:0.69182 7:2.77623 8:1.46139 9:0 10:0.85533 11:0 12:1.54356 13:1.38024 14:0 15:0 
2 1:0 2:0 3:0.61795 4:0.61795 5:0 6:0.79104 7:1.33457 8:0 9:0 10:0 11:0 12:0 13:0.69863 14:0 15:0 
1.131193469500439 1:0 2:0 3:0.99574 4:0.81818 5:1 6:2.98079 7:1.60159 8:0 9:0.7085 10:1.40446 11:0.66525 12:0 13:1.39094 14:0 15:0 
0.6151847947596705 1:0 2:0 3:6.76616 4:8.95745 5:0 6:1.98705 7:1.60338 8:2 9:1.29994 10:3 11:0.71709 12:1.96 13:1.5615 14:0 15:0 
2 1:0 2:0 3:2.00124 4:3.33187 5:0 6:0 7:3.86328 8:0 9:0 10:0 11:0 12:0 13:2.16138 14:0 15:0 
0.7677825267953459 1:0 2:0 3:2.3581 4:1.2839 5:0 6:0.78824 7:2.76883 8:0 9:1.89611 10:0.63339 11:0 12:0 13:1.44385 14:1.93329 15:0.97516 
2 1:3 2:0 3:2.08013 4:1.92688 5:0 6:1.57984 7:2.1667 8:0 9:1.71074 10:0 11:0 12:0 13:1.44385 14:0 15:0 
0.04835327788998673 1:0 2:0 3:1.76824 4:2.61664 5:1 6:1.32385 7:5.22919 8:1 9:0.63674 10:1 11:0.71709 12:2 13:3.21955 14:0 15:0 
2 1:0 2:0 3:4.29988 4:4.13694 5:0 6:1.95762 7:2.77909 8:0 9:1.2658 10:0.85533 11:0 12:1 13:1.37387 14:0 15:0 
0.4603076939089453 1:0 2:0 3:0.61736 4:0.66621 5:2 6:2.97923 7:4.0586 8:0 9:0.61736 10:0 11:0.67111 12:0 13:0.73418 14:0.6133 15:0 
0.6372509837594033 1:0 2:0 3:0.99574 4:1.48303 5:1 6:4.70717 7:1.72283 8:0 9:0.72674 10:0.66304 11:0.66667 12:0 13:0.69863 14:0 15:0 
2 1:0 2:0 3:3.43507 4:4.60664 5:0 6:0.6934 7:2.7739 8:0 9:0 10:0 11:0 12:1.5409 13:1.38024 14:0 15:0 
1.350119442960944 1:0 2:0 3:2.41214 4:0.76705 5:0 6:1.99507 7:2.33338 8:0 9:0.9919 10:0.66123 11:0.66525 12:0 13:3.46493 14:0.61576 15:0 
2 1:3 2:0 3:1.75854 4:0.76705 5:1 6:2.97176 7:2.5992 8:0 9:1.68826 10:0.66123 11:0 12:0 13:2.04382 14:0 15:0 
2 1:0 2:0 3:6.08757 4:7.37716 5:0 6:0.69182 7:2.77623 8:1.46139 9:0 10:0.85533 11:0 12:1.54356 13:1.38024 14:0 15:0 
2 1:0 2:0 3:5.99357 4:6.31717 5:0 6:0.6934 7:2.77623 8:1.58408 9:0 10:0.63158 11:0 12:1.51869 13:1.38024 14:0 15:0 
0.1808379684354075 1:3 2:0 3:3.12752 4:2.87212 5:0 6:0.79216 7:2.78185 8:0 9:1.90034 10:0.62976 11:0 12:0 13:1.44385 14:1.94196 15:0.98137 
1.511346550288777 1:0 2:0 3:2.37887 4:1.43198 5:2 6:3.98317 7:4.04905 8:0 9:2.31371 10:1.31071 11:0.66525 12:0 13:2.12232 14:0.6133 15:0 
0.6886612003455268 1:0 2:0 3:2.38015 4:0.76705 5:2 6:1.99697 7:1.73418 8:0 9:1.60926 10:0.66123 11:0.66525 12:0 13:2.12512 14:0.6133 15:0 
0.1657376840779021 1:0 2:0 3:1.39129 4:2.25144 5:2 6:4.95414 7:1.45701 8:0 9:1.7004 10:0.66304 11:0 12:0 13:2.81883 14:0 15:0 
2 1:0 2:0 3:6.06386 4:2.52499 5:0 6:1.31121 7:2.70736 8:0.66234 9:0.62575 10:0.86076 11:0 12:0 13:1.31086 14:0 15:0 
0.2948490223446007 1:3 2:0 3:2.3759 4:2.25144 5:2.99573 6:3.96749 7:4.05485 8:0 9:2.30562 10:0.66123 11:0.66525 12:0 13:2.778 14:0.61084 15:0 
2 1:3 2:0 3:2.3582 4:1.28598 5:0 6:0.78992 7:2.76883 8:0 9:0.91897 10:0 11:0 12:0 13:1.44385 14:0.96059 15:0 
2 1:0 2:0 3:0.99574 4:0.66621 5:1 6:2.98317 7:1.45701 8:0 9:0.7085 10:0.66304 11:0.66525 12:0 13:0.73418 14:0 15:0 
0.1214233422976194 1:0 2:0 3:2.36029 4:1.30946 5:0 6:0.79048 7:2.17107 8:0 9:1.90034 10:0.62795 11:0 12:0 13:0.74522 14:1.94196 15:0.98137 
0.4394970240374371 1:0 2:0 3:5.76616 4:11.61409 5:1 6:1.29994 7:4.49842 8:2 9:1.29994 10:3 11:0.71709 12:4 13:2.53066 14:0 15:0 
2 1:0 2:0 3:0.99574 4:0.81818 5:1 6:1 7:2.33577 8:0 9:0.70445 10:0.66304 11:0 12:0 13:1.42649 14:0 15:0 
0.5733271558186521 1:0 2:0 3:4.24698 4:6.00342 5:0.7193 6:0.69182 7:3.72371 8:0.95455 9:0 10:0.62929 11:0 12:2.00067 13:2.31058 14:0 15:0 
0.1180082001125108 1:0 2:0 3:0.61933 4:1.48439 5:1.98291 6:6.31883 7:4.05621 8:0 9:1.33954 10:0 11:0.66596 12:0 13:1.43281 14:0.6133 15:0 
0.0854845993467592 1:0 2:0 3:2.37887 4:1.43198 5:2 6:2.98385 7:4.04905 8:0 9:2.31371 10:0.66304 11:0.66525 12:0 13:2.12232 14:0.6133 15:0 
0.7276948889192802 1:3 2:0 3:2.97245 4:1.90023 5:0 6:0 7:2.16807 8:0 9:2.8964 10:0.62795 11:0 12:0 13:0.74522 14:1.94196 15:0.98137 
1.841504264042988 1:0 2:0 3:4.99856 4:5.69794 5:0 6:0.69182 7:2.77623 8:0.79692 9:0 10:0 11:0 12:0 13:1.38024 14:0 15:0 
1.901511964116964 1:0 2:0 3:0.61736 4:1.48303 5:0 6:3.96501 7:3.0586 8:0 9:2.30966 10:0 11:0.66525 12:0 13:1.43281 14:0.6133 15:0 
0.6626541574520989 1:0 2:0 3:3.40697 4:5.99643 5:0.71106 6:0.6934 7:3.72371 8:1.59578 9:0 10:0 11:0 12:1.36991 13:2.31058 14:0 15:0 
1.109334222505815 1:3 2:0 3:2.3582 4:1.28598 5:0 6:0.78992 7:2.76883 8:0 9:1.90034 10:0.63158 11:0 12:0 13:0.74522 14:1.94196 15:0.98137 
2 1:0 2:0 3:2.69598 4:3.93876 5:0 6:0.64939 7:3.9719 8:0 9:0.64939 10:0 11:0 12:0 13:2.31739 14:0 15:0 
0.6465167580832678 1:0 2:0 3:2.09064 4:1.26936 5:0 6:0.98793 7:0.60456 8:0 9:0.94882 10:1.78679 11:0.61996 12:0 13:0.68493 14:0 15:0 
2 1:0 2:0 3:1.43553 4:1.28228 5:0 6:0 7:2.02361 8:0 9:0.99606 10:0 11:0 12:0 13:0.69863 14:0 15:0 
2 1:0 2:0 3:2.6001 4:3.93257 5:0 6:0 7:3.84789 8:0 9:0 10:0 11:0 12:0 13:2.19338 14:0 15:0 
2 1:0 2:0 3:3.06785 4:1.9193 5:0 6:0.98791 7:2.78899 8:0 9:1.9297 10:0 11:0.61996 12:0 13:1.42378 14:1.85533 15:0.93168 
0.8454801121934691 1:0 2:0 3:2.3581 4:0.61587 5:0 6:0 7:2.80884 8:0 9:1.89611 10:0.63339 11:0 12:0 13:1.44385 14:1.93329 15:0.97516 
1.984507649386345 1:0 2:0 3:3.34074 4:3.32085 5:0 6:0.6711 7:3.34562 8:0 9:0.6711 10:0 11:0 12:0 13:3.00315 14:0 15:0 
2 1:3 2:0 3:2.99713 4:1.92688 5:0 6:0.78992 7:2.76746 8:0 9:3.60911 10:0.62795 11:0 12:0 13:1.44385 14:1.94196 15:0.98137 
1.431927588804534 1:0 2:0 3:5.76616 4:2.61664 5:0 6:1.32385 7:3.57114 8:2 9:0.63674 10:3 11:0.71709 12:0 13:0.87261 14:0 15:0 
0.04905614920124102 1:0 2:0 3:3.14917 4:3.01713 5:1 6:5.45786 7:2.0586 8:0 9:3.31973 10:0.66304 11:0.66525 12:0 13:2.12512 14:0.6133 15:0 
0.5130588581633944 1:0 2:0 3:2.38015 4:2.25144 5:1 6:2.98161 7:4.05621 8:0 9:1.60521 10:0 11:0.66525 12:0 13:1.43281 14:0.6133 15:0 
2 1:0 2:0 3:0.99574 4:1.48303 5:2 6:2.98235 7:3.05588 8:0 9:0 10:0.66304 11:0.66525 12:0 13:2.12512 14:0.61125 15:0 
0.0529888245992853 1:0 2:0 3:0.76705 4:2.91765 5:1 6:4.98423 7:3.17745 8:0 9:0.98785 10:0.66486 11:0.66525 12:0 13:1.42509 14:0 15:0 
1.89921583542176 1:0 2:0 3:4.23173 4:2.00293 5:0.71106 6:0.6934 7:2.08551 8:1.59578 9:0 10:0.62929 11:0 12:1.36991 13:1.37387 14:0 15:0 
2 1:0 2:0 3:0.91897 4:0.66667 5:0 6:0 7:2.77466 8:0 9:0.91897 10:0 11:0 12:0 13:1.44385 14:0 15:0 
0.02990268788498561 1:0 2:0 3:1.44758 4:1.29705 5:0 6:0.98738 7:2.78519 8:0 9:0 10:2.47594 11:0.61996 12:0 13:1.42378 14:0 15:0 
2 1:3 2:0 3:2.3545 4:0.61425 5:0 6:0.79048 7:1.47903 8:0 9:2.8964 10:0.62795 11:0 12:0 13:1.44385 14:1.94196 15:0.98137 
2 1:0 2:0 3:2.09064 4:1.26936 5:0 6:0.99054 7:1.36543 8:0 9:0.94488 10:0.62752 11:0.61996 12:0 13:1.32608 14:0 15:0 
0.173456814668554 1:0 2:0 3:5.76616 4:8.99745 5:1 6:1.98705 7:2.53066 8:2 9:1.29994 10:3 11:0 12:2 13:3.91658 14:0 15:0 
0.4912184126293289 1:3 2:0 3:1.51966 4:1.27069 5:0 6:0 7:2.76746 8:0 9:3.60911 10:0 11:0 12:0 13:1.44385 14:1.94196 15:0.98137 
0.6819835770133904 1:0 2:0 3:2.44363 4:1.29705 5:0 6:0 7:1.42356 8:0 9:1.92773 10:0.62569 11:0 12:0 13:1.42378 14:1.85286 15:0.93168 
1.391557961938509 1:0 2:0 3:2.76616 4:2.61664 5:0 6:0.63674 7:2.84037 8:2 9:0.63674 10:2 11:0.71709 12:1 13:1.5615 14:0 15:0 
2 1:0 2:0 3:1.53901 4:1.43822 5:0 6:0 7:2.09418 8:0 9:1.90034 10:0 11:0 12:0 13:1.44385 14:1.94196 15:0.98137 
2 1:0 2:0 3:5.99357 4:5.47626 5:0 6:0.6934 7:2.77623 8:1.58408 9:0 10:0 11:0 12:1.51869 13:1.38024 14:0 15:0 
0.03288908483943422 1:0 2:0 3:1.38638 4:2.25008 5:2 6:4.9462 7:2.45701 8:0 9:2.32378 10:0 11:0 12:0 13:2.12512 14:0.6133 15:0 
2 1:0 2:0 3:2.10028 4:2.74902 5:0 6:0 7:1.4228 8:0 9:0.94882 10:1.62679 11:0 12:0 13:0.68493 14:0 15:0 
-2 1:0 2:0 3:0.85957 4:0.69948 5:1.24179 6:3.17 7:2.79611 8:0 9:0 10:0 11:0 12:0 13:1.32885 14:0 15:0 
-0.01642989559533632 1:0 2:0 3:0 4:0.70794 5:0 6:0 7:1.46123 8:0 9:0.61069 10:0 11:0.62839 12:0 13:0.9589 14:1.2446 15:0.61069 
-2 1:0 2:0 3:5.97028 4:6.23698 5:0 6:1.39575 7:3.10791 8:0.83908 9:0.70707 10:0.81111 11:0 12:1.36494 13:2.31691 14:0 15:0 
-2 1:3 2:0 3:2.99768 4:1.92002 5:0 6:0.79216 7:2.78342 8:0 9:2.90034 10:0.62976 11:0 12:0 13:1.44385 14:1.94196 15:0.98137 
-0.3507691802904936 1:4 2:0 3:0.8319 4:3.50601 5:0 6:3.44704 7:1.81597 8:1.2524 9:1.97619 10:0 11:1.97343 12:0 13:0.82278 14:0 15:0 
-2 1:0 2:0 3:7.0413 4:5.64674 5:0 6:1.36271 7:2.24109 8:0 9:0.66944 10:0 11:0 12:0.68852 13:1.45667 14:0 15:0 
-0.5169497572964484 1:0 2:0 3:1.57855 4:3.40736 5:0 6:0 7:3.0633 8:0.65538 9:0 10:0.77858 11:0.67247 12:0 13:1.66806 14:0 15:0 
-2 1:3 2:0 3:2.36029 4:0.62004 5:0 6:0 7:1.48623 8:0 9:1.90034 10:0.62976 11:0 12:0 13:1.44385 14:1.94196 15:0.98137 
-2 1:0 2:0 3:1.96598 4:1.94792 5:0 6:0.67442 7:2.53681 8:0 9:0.67442 10:0 11:0 12:0 13:1.4993 14:0 15:0 
-1.973185291380074 1:0 2:0 3:1.37917 4:1.28265 5:0 6:0.61472 7:3.18767 8:0 9:0.61472 10:0 11:0 12:0 13:0.84177 14:0 15:0 
-1.528447919178985 1:0 2:0 3:0 4:0.69194 5:0.70053 6:7.00575 7:2.41672 8:0 9:0 10:0.69565 11:0 12:0 13:0.82278 14:0 15:0 
-2 1:0 2:0 3:2.6868 4:2.61094 5:0 6:1.28315 7:4.03356 8:0 9:1.28315 10:0 11:0 12:0 13:2.34562 14:0 15:0 
-2 1:0 2:0 3:4.31908 4:6.23698 5:0 6:0.70707 7:3.05527 8:0.83908 9:0.70707 10:0.73721 11:0 12:1.36494 13:1.71374 14:0 15:0 
-0.8967098573054202 1:3 2:0 3:2.78714 4:1.33289 5:0 6:1.30431 7:2.21429 8:0 9:0.64865 10:0 11:0 12:0 13:2.21551 14:0 15:0 
-2 1:0 2:0 3:0.61736 4:0 5:1 6:1.97638 7:3.32384 8:0 9:1.60926 10:0.66304 11:0 12:0 13:1.43281 14:0.6133 15:0 
-2 1:0 2:0 3:1.87766 4:3.21429 5:0 6:0.61472 7:3.18767 8:0 9:0.61472 10:0 11:0 12:0 13:1.54669 14:0 15:0 
-0.7888618081132344 1:0 2:0 3:5.24033 4:5.01423 5:0 6:1.36271 7:1.36014 8:1.76615 9:0.66944 10:0.91388 11:2.05992 12:0.68852 13:0.60317 14:0 15:0 
-2 1:3 2:0 3:2.99768 4:1.92002 5:0 6:0.79216 7:2.78342 8:0 9:2.90034 10:0.62976 11:0 12:0 13:1.44385 14:1.94196 15:0.98137 
-0.7252588682609394 1:0 2:0 3:0 4:0 5:0 6:10.99736 7:0 8:0 9:0 10:0.69565 11:0 12:0 13:0.60563 14:0 15:0 
-2 1:0 2:0 3:2.31459 4:0.70149 5:1 6:1.97718 7:3.32384 8:0 9:1.32586 10:0.66304 11:0 12:0 13:2.12512 14:0.6133 15:0 
-0.07812549778704636 1:5 2:0 3:3.90932 4:5.11264 5:0 6:2.03228 7:2.92323 8:2.65252 9:1.33888 10:1.68859 11:0.67583 12:0 13:1.61046 14:0 15:0 
-2 1:1 2:0 3:3.28661 4:4.62626 5:0 6:0 7:2.2309 8:1.76615 9:0 10:0 11:0 12:1.42356 13:1.52294 14:0 15:0 
-2 1:0 2:0 3:4.19009 4:4.73034 5:0 6:0 7:3.78018 8:0.85231 9:0 10:0.89873 11:0.69548 12:0.71398 13:3.05888 14:0 15:0 
-1.369021830269078 1:0 2:0 3:0.76596 4:3.36172 5:0 6:0.6341 7:0.65324 8:0 9:0.6341 10:0.67754 11:0 12:0 13:0 14:0 15:0 
-2 1:0 2:0 3:1.61112 4:1.48999 5:0 6:2.45978 7:2.34158 8:0 9:1.31334 10:0 11:0 12:0 13:1.45284 14:0.6133 15:0 
-0.3424503969499906 1:3 2:0 3:0.86809 4:0 5:0.63194 6:0.79338 7:4.3825 8:0 9:0 10:0 11:0 12:0 13:3.03167 14:0 15:0 
-1.229288599756322 1:0 2:0 3:8.64541 4:7.37342 5:0.72932 6:0.68868 7:2.92668 8:0.85231 9:0 10:0.89873 11:0.69548 12:1.4433 13:1.54581 14:0 15:0 
-0.122091213917759 1:0 2:0 3:0.80769 4:1.37003 5:0.70232 6:11.85759 7:2.37944 8:0 9:0 10:0.69565 11:0 12:0 13:1.42841 14:0 15:0 
-1.709677415201521 1:0 2:0 3:2.59689 4:4.77623 5:0 6:0.64449 7:0.66895 8:0 9:0.64449 10:0.71971 11:0 12:0 13:0.64384 14:0 15:0 
-2 1:0 2:0 3:3.87543 4:4.26461 5:0 6:0.6934 7:2.93864 8:1.63765 9:0 10:0 11:0 12:0 13:2.27531 14:0 15:0 
-0.567844915736837 1:0 2:0 3:0.85957 4:0.65531 5:1.24379 6:2.96298 7:2.14406 8:0 9:0 10:0 11:0.65503 12:0 13:1.32885 14:0 15:0 
-2 1:0 2:0 3:2.99768 4:1.92002 5:0 6:0 7:2.78342 8:0 9:2.90034 10:0.62976 11:0 12:0 13:1.44385 14:1.94196 15:0.98137 
-2 1:0 2:0 3:6.88295 4:7.09893 5:0 6:0.69182 7:2.76826 8:1.5866 9:0 10:0 11:0 12:2.13856 13:1.37387 14:0 15:0 
-2 1:0 2:0 3:1.35334 4:2.77774 5:0 6:0.64449 7:2.50071 8:0 9:0.64449 10:0.71971 11:0 12:0 13:1.47295 14:0 15:0 
-2 1:0 2:0 3:1.61112 4:1.48999 5:1.84317 6:3.41704 7:2.34158 8:0 9:0.61538 10:0.66304 11:0.65466 12:0 13:1.45284 14:0.6133 15:0 
-2 1:1 2:0 3:0 4:1.27968 5:2.42269 6:1.67556 7:2.95171 8:0.60429 9:0.88223 10:0 11:0.72414 12:0 13:1.42024 14:0 15:0 
-2 1:3 2:0 3:2.99768 4:1.92002 5:0 6:0.79216 7:2.78342 8:0 9:2.90034 10:0.62976 11:0 12:0 13:1.44385 14:1.94196 15:0.98137 
-0.6588032468143427 1:6 2:0 3:0.8319 4:3.47991 5:0.97143 6:3.44704 7:3.18659 8:0 9:1.97619 10:0 11:2.97229 12:0 13:0.82278 14:0 15:0 
-1.104085782685261 1:0 2:0 3:6.80187 4:6.41654 5:0.72932 6:0.68868 7:3.78018 8:3.57127 9:0 10:0.89873 11:0.69548 12:1.4433 13:3.05888 14:0 15:0 
-0.1121150315610894 1:8 2:0 3:2.28651 4:3.40369 5:0 6:0.66944 7:2.9246 8:1.58511 9:0.66944 10:0 11:0 12:0 13:0.94937 14:0 15:0 
-2 1:3 2:0 3:2.36029 4:1.28263 5:0 6:0.79216 7:2.04241 8:0 9:1.90034 10:0.62976 11:0 12:0 13:1.44385 14:1.94196 15:0.98137 
-0.9628907631362291 1:0 2:0 3:2.15522 4:0.62619 5:0 6:0 7:1.98661 8:0 9:0 10:0.66362 11:0 12:0 13:0 14:0 15:0 
-1.4765006077372 1:0 2:0 3:2.11451 4:1.31645 5:0 6:0 7:1.40167 8:0 9:0.60181 10:0 11:0.6263 12:0 13:0.9726 14:0.63636 15:0 
-1.386394726898259 1:0 2:0 3:0.87607 4:0 5:0 6:0.639 7:2.07024 8:0 9:0.639 10:0 11:0.63083 12:0 13:1.36262 14:0 15:0 
-1.372483712716416 1:3 2:0 3:3.8644 4:4.27842 5:0 6:1.36284 7:2.89817 8:1.61963 9:0.66944 10:0.76993 11:0 12:0 13:2.27714 14:0 15:0 
-2 1:0 2:0 3:2.1058 4:2.75431 5:0 6:0.64657 7:2.224 8:0 9:0.64657 10:0.71248 11:0 12:0 13:1.4993 14:0 15:0 
-2 1:0 2:0 3:0.85957 4:0.69948 5:1.24179 6:3.17 7:2.79611 8:0 9:0 10:0 11:0.65092 12:0 13:1.32885 14:0 15:0 
-0.2184293363200304 1:0 2:0 3:7.0413 4:5.64674 5:0 6:1.36271 7:2.92291 8:1.76615 9:0.66944 10:0.91388 11:2.05992 12:0.68852 13:1.45667 14:0 15:0 
-2 1:0 2:0 3:6.06009 4:6.28075 5:0 6:0.69182 7:2.76826 8:1.5866 9:0 10:0 11:0 12:2.13856 13:1.37387 14:0 15:0 
-0.3423335412189073 1:0 2:0 3:0.82911 4:0.65395 5:1.24179 6:3.10704 7:2.14131 8:0 9:0 10:0 11:0 12:0 13:1.32885 14:0 15:0 
-2 1:0 2:0 3:1.6131 4:0 5:2 6:2.97718 7:3.32384 8:0 9:0.61736 10:0.66304 11:1.35077 12:0 13:1.42649 14:0.6133 15:0 
-0.01414900124717969 1:0 2:0 3:1.34508 4:1.35044 5:0 6:0.65549 7:2.20829 8:0 9:0.65549 10:0 11:0 12:0 13:1.4993 14:0 15:0 
-2 1:0 2:0 3:3.36822 4:2.74625 5:0 6:0.64449 7:2.20019 8:0 9:0.64449 10:0.71971 11:0 12:0 13:1.47295 14:0 15:0 
-0.6794624127712184 1:0 2:0 3:0.80392 4:3.42135 5:0 6:0 7:3.02225 8:1.89776 9:0 10:0.77717 11:0 12:0 13:1.66592 14:0 15:0 
-0.9747745250067236 1:0 2:0 3:0.86325 4:0 5:0 6:2.42606 7:0.79618 8:0 9:0.82025 10:0 11:0.63169 12:0 13:1.40181 14:0 15:0 
-2 1:0 2:0 3:4.37657 4:4.24073 5:2 6:5.6212 7:4.0523 8:0 9:2.31973 10:0.66123 11:0.66314 12:0 13:2.12232 14:0.61576 15:0 
-2 1:0 2:0 3:0.8319 4:2.29232 5:0.97143 6:2.77744 7:2.50264 8:0 9:1.97744 10:0 11:1.96944 12:0 13:0.82278 14:0 15:0 
-2 1:0 2:0 3:3.00206 4:2.13256 5:0 6:1.3547 7:3.06894 8:0.65231 9:0.67869 10:0.77536 11:0 12:0 13:1 14:0 15:0 
-1.800908727652672 1:0 2:0 3:0 4:0 5:0 6:0 7:1.34488 8:0 9:0 10:0.82759 11:0 12:0 13:0.60274 14:0 15:0 
-2 1:3 2:0 3:2.78714 4:1.98066 5:0 6:1.30431 7:2.90862 8:0 9:0.64865 10:0 11:0 12:0 13:2.21551 14:0 15:0 
-0.4828181298762143 1:4 2:0 3:0.8319 4:1.62905 5:0.97143 6:2.47085 7:3.18659 8:0 9:1 10:0 11:1.97343 12:0 13:0.82278 14:0 15:0 
-2 1:0 2:0 3:1.61112 4:0.82468 5:1.84317 6:2.55497 7:1.62245 8:0 9:1.31334 10:0.66304 11:0.65466 12:0 13:1.45284 14:0.6133 15:0 
-0.380366228888648 1:0 2:0 3:0.86383 4:0.65536 5:0 6:0 7:1.41823 8:0 9:0.61069 10:0 11:0.62839 12:0 13:0.9589 14:1.2446 15:0.61069 
-2 1:3 2:0 3:2.99768 4:1.92002 5:0 6:0.79216 7:2.18266 8:0 9:2.90034 10:0.62976 11:0 12:0 13:0.74522 14:1.94196 15:0.98137 
-2 1:3 2:0 3:1.74025 4:0.66259 5:0 6:0.79216 7:2.78342 8:0 9:1.90034 10:0.62976 11:0 12:0 13:1.44385 14:1.94196 15:0.98137 
-0.4996231816172986 1:0 2:0 3:3.07776 4:4.2543 5:0 6:0.69497 7:1.59587 8:1.66742 9:0 10:0 11:0 12:0 13:0.9434 14:0 15:0 
-1.087882391345122 1:0 2:0 3:2.72314 4:4.0472 5:0 6:0.64657 7:3.20247 8:0 9:0.64657 10:0.7179 11:0 12:0 13:1.4993 14:0 15:0 
-2 1:0 2:0 3:5.03989 4:5.45966 5:0.72932 6:0 7:2.92668 8:0 9:0 10:0.89873 11:0.69548 12:1.4433 13:0.8535 14:0 15:0 
-0.4906568071739372 1:0 2:0 3:3.17831 4:4.86782 5:0 6:2.10937 7:3.76683 8:1.58576 9:1.4318 10:0.77858 11:0.67247 12:0 13:1.66806 14:0 15:0 
-2 1:0 2:0 3:2.38015 4:2.25144 5:1 6:1.99532 7:4.03147 8:0 9:1.61331 10:0.66123 11:0.66525 12:0 13:1.43281 14:0.6133 15:0 
-2 1:0 2:0 3:3.93933 4:3.85978 5:0 6:0 7:3.85618 8:0 9:0 10:0 11:0 12:0 13:2.20877 14:0 15:0 
-1.207358719245102 1:1 2:0 3:2.69834 4:3.91211 5:0 6:0 7:2.90514 8:1.76615 9:0 10:0 11:0.70727 12:1.42356 13:2.12679 14:0 15:0 
-2 1:0 2:0 3:3.33458 4:3.95894 5:0 6:0.65549 7:3.97899 8:0 9:0.65549 10:0 11:0 12:0 13:2.27 14:0 15:0 
-1.458833353720007 1:3 2:0 3:2.17838 4:1.37902 5:0 6:1.30431 7:2.18251 8:0 9:0.64865 10:0 11:0 12:0 13:1.4894 14:0 15:0 
-2 1:0 2:0 3:3.33458 4:2.61935 5:0 6:0.65549 7:3.97899 8:0 9:0.65549 10:0 11:0 12:0 13:1.61247 14:0 15:0 
-2 1:0 2:0 3:2.38015 4:1.43326 5:1.99573 6:3.98612 7:4.04189 8:0 9:2.31776 10:0.66123 11:0.66525 12:0 13:2.12372 14:0.6133 15:0 
-0.1300454367205555 1:0 2:0 3:0.80769 4:1.37003 5:0.70232 6:11.85759 7:1.64333 8:0 9:0 10:0 11:0 12:0 13:1.42841 14:0 15:0 
-0.06880889707915189 1:0 2:0 3:3.60794 4:5.64674 5:0 6:0.69327 7:2.92291 8:0.85538 9:0 10:0.91388 11:2.05992 12:0.68852 13:1.45667 14:0 15:0 
-2 1:0 2:0 3:7.0413 4:2.28407 5:0 6:1.36271 7:2.92291 8:1.76615 9:0.66944 10:0.91388 11:0 12:0.68852 13:0.8535 14:0 15:0 
-2 1:0 2:0 3:1.99508 4:3.32989 5:0 6:0.65549 7:3.20829 8:0 9:0.65549 10:0 11:0 12:0 13:1.4993 14:0 15:0 
-2 1:0 2:0 3:0.61736 4:1.48439 5:1.99573 6:2.99105 7:1.45701 8:0 9:1.32181 10:0.66123 11:0.66525 12:0 13:2.12372 14:0.6133 15:0 
-2 1:0 2:0 3:2.32542 4:2.79194 5:0 6:0.67869 7:1.66412 8:1.58902 9:0.67869 10:0.77536 11:0 12:0 13:1 14:0 15:0 
-2 1:0 2:0 3:3.31761 4:3.94731 5:0 6:0.61472 7:3.18767 8:0 9:0.61472 10:0 11:0 12:0 13:1.54669 14:0 15:0 
-0.658074293047654 1:1 2:0 3:3.5173 4:5.5893 5:0 6:0.66944 7:2.90514 8:1.76615 9:0.66944 10:0.91627 11:0.70727 12:1.42356 13:2.12611 14:0 15:0 
-2 1:0 2:0 3:3.38274 4:1.92379 5:0 6:0.69182 7:2.76826 8:1.5866 9:0 10:0 11:0 12:1.28941 13:1.37387 14:0 15:0 
-2 1:0 2:0 3:0 4:1.48999 5:1.84317 6:3.41704 7:1.45964 8:0 9:0 10:0.66304 11:0.65466 12:0 13:0.74051 14:0.6133 15:0 
-2 1:1 2:0 3:2.52266 4:4.55995 5:0 6:1.36598 7:2.05164 8:0.85538 9:0.66944 10:0 11:0.70727 12:1.35725 13:1.26883 14:0 15:0 
-2 1:0 2:0 3:6.88295 4:7.09893 5:0 6:0.71622 7:2.76826 8:1.5866 9:0 10:0 11:0 12:2.13856 13:1.37387 14:0 15:0 
-2 1:0 2:0 3:2.36029 4:1.28263 5:0 6:0.79216 7:2.78342 8:0 9:1.90034 10:0.62976 11:0 12:0 13:1.44385 14:1.94196 15:0.98137 
-0.5665816640800204 1:11 2:0 3:3.86698 4:4.2492 5:0 6:1.36284 7:2.9246 8:1.58511 9:0.66944 10:0 11:0 12:0 13:0.94937 14:0 15:0 
-2 1:0 2:0 3:2.38015 4:2.25144 5:1 6:3.59533 7:4.04189 8:0 9:2.31776 10:0.66123 11:0.66525 12:0 13:2.12372 14:0.6133 15:0 
-0.6755255235151513 1:1 2:0 3:0.81818 4:0.64796 5:1.42335 6:2.37148 7:1.30889 8:0 9:0.88223 10:0 11:0 12:0 13:0.61644 14:0 15:0 
-0.8620958113052469 1:10 2:0 3:0 4:3.39816 5:0 6:0.66944 7:2.27575 8:0.61043 9:0.66944 10:0 11:0 12:0 13:0.94937 14:0 15:0 
-2 1:3 2:0 3:1.5637 4:0.69136 5:0.63194 6:1.64854 7:2.15604 8:0 9:0.63889 10:0 11:0 12:0 13:0.81013 14:0 15:0 
-0.4888938620564507 1:5 2:0 3:1.44674 4:4.12085 5:0 6:3.44704 7:1.81597 8:1.2524 9:1.97619 10:0 11:1.97343 12:0 13:0.82278 14:0 15:0 
-2 1:0 2:0 3:5.96947 4:2.20442 5:0 6:0.68868 7:3.75676 8:0.83908 9:0 10:0.73721 11:0 12:0.61966 13:2.31691 14:0 15:0 
-0.4673155340213542 1:10 2:0 3:3.86698 4:4.2492 5:0 6:1.36284 7:3.87397 8:1.58511 9:0.66944 10:0 11:0 12:0 13:1.89874 14:0 15:0 
-1.91546558784598 1:0 2:0 3:5.97028 4:6.8937 5:0 6:1.39575 7:3.75676 8:0.83908 9:0.70707 10:0.73721 11:0 12:2.02166 13:2.31691 14:0 15:0 
-0.6580685220603066 1:8 2:0 3:2.36969 4:3.57573 5:0 6:0.6934 7:1.97523 8:0 9:0 10:0 11:0 12:0 13:0 14:0 15:0 
-2 1:0 2:0 3:2.38015 4:2.25144 5:1.99573 6:4.59106 7:4.04189 8:0 9:2.31776 10:0.66123 11:0.66525 12:0 13:2.12372 14:0.6133 15:0 
-2 1:0 2:0 3:3.09667 4:2.96083 5:2 6:5.62168 7:4.0523 8:0 9:2.31973 10:0.66123 11:0.66314 12:0 13:2.12232 14:0.61576 15:0 
-0.4778910435335065 1:6 2:0 3:4.69854 4:5.11264 5:0 6:2.03228 7:2.92323 8:3.27215 9:1.33888 10:1.68859 11:0.67583 12:0 13:1.61046 14:0 15:0 
-1.302728249385225 1:0 2:0 3:4.68132 4:2.26345 5:0 6:1.38994 7:1.9676 8:2.27478 9:0 10:0 11:0 12:0 13:0 14:0 15:0 
-0.5448935530193624 1:0 2:0 3:0.80769 4:1.37003 5:0.70232 6:11.85759 7:2.37944 8:0 9:0 10:0.69565 11:0.60526 12:0 13:1.42841 14:0 15:0 
-2 1:0 2:0 3:2.60683 4:2.5515 5:0 6:0.61472 7:2.48554 8:0 9:0.61472 10:0 11:0 12:0 13:1.54669 14:0 15:0 
-0.6523926309304402 1:0 2:0 3:0.76068 4:0 5:0 6:0.67656 7:2.15569 8:0 9:0 10:0.82759 11:0 12:0 13:0.60274 14:0 15:0 
-0.1367925205845802 1:0 2:0 3:3.33554 4:4.76036 5:0 6:0 7:3.18721 8:0 9:0 10:0.72152 11:0 12:0 13:1.4993 14:0 15:0 
-1.097630283051505 1:0 2:0 3:0.80769 4:0.64276 5:0.70337 6:1.4554 7:1.55666 8:0 9:0 10:0.69565 11:0 12:0 13:0 14:0 15:0 
-0.3972139544383868 1:0 2:0 3:0 4:2.27478 5:0.97857 6:3.55008 7:2.49774 8:1.26425 9:2.87083 10:0 11:0.99602 12:0 13:0.82278 14:0 15:0 
-0.01270321442291589 1:0 2:0 3:3.42273 4:1.34731 5:0 6:1.36609 7:0.65278 8:0 9:0.61905 10:0.71739 11:0 12:0 13:0 14:0 15:0 
-0.5888427654236646 1:0 2:0 3:0 4:1.62905 5:1.97082 6:3.44672 7:2.50264 8:1.2524 9:1.97744 10:0 11:0.99203 12:0 13:0.82278 14:0 15:0 
-0.3180247609982763 1:3 2:0 3:0.86383 4:0.67394 5:0 6:0 7:0.68707 8:0 9:0 10:0 11:0.6263 12:0 13:0 14:0.63636 15:0 
-0.08813355603802205 1:5 2:0 3:0.8319 4:2.87051 5:0.97143 6:3.44704 7:1.50809 8:1.2524 9:1.97619 10:0 11:2.97254 12:0 13:0.82278 14:0 15:0 
-2 1:0 2:0 3:2.38015 4:1.43326 5:1.99573 6:3.59106 7:4.04189 8:0 9:2.31776 10:0.66123 11:0.66525 12:0 13:2.12372 14:0.6133 15:0 
-2 1:0 2:0 3:2.81382 4:1.9967 5:0 6:1.36609 7:2.09841 8:0 9:0.61905 10:0.71739 11:0 12:0 13:1.44385 14:0 15:0 
-2 1:3 2:0 3:1.25743 4:1.92002 5:0 6:0 7:2.0382 8:0 9:1 10:0.62976 11:0 12:0 13:0.69863 14:0 15:0 
-1.137086992321396 1:5 2:0 3:1.49404 4:0 5:0 6:1.33888 7:2.27213 8:3.27215 9:1.33888 10:1.68859 11:0.67583 12:0 13:1.61046 14:0 15:0 
-2 1:0 2:0 3:3.89977 4:2.16694 5:0 6:0.61732 7:2.93864 8:2.33722 9:0.61732 10:0.77355 11:0.68173 12:0 13:2.28979 14:0 15:0 
-1.002389019900987 1:0 2:0 3:0.80769 4:1.32596 5:0.69982 6:0 7:3.15536 8:0 9:0 10:0 11:0 12:0 13:2.21822 14:0 15:0 
-2 1:3 2:0 3:2.99768 4:1.92002 5:0 6:0.79216 7:2.78342 8:0 9:2.90034 10:0.62976 11:0 12:0 13:1.44385 14:1.94196 15:0.98137 
-1.138470403410654 1:0 2:0 3:3.9392 4:5.47284 5:0 6:0.64657 7:3.20247 8:0 9:0.64657 10:0.7179 11:0 12:0 13:1.4993 14:0 15:0 
-2 1:0 2:0 3:2.38015 4:0.76705 5:2 6:2.97718 7:3.32384 8:0 9:2.31776 10:0.66304 11:1.35077 12:0 13:1.42649 14:0.6133 15:0 
-2 1:0 2:0 3:2.61399 4:3.9488 5:0 6:0.65549 7:3.97899 8:0 9:0.65549 10:0 11:0 12:0 13:1.61247 14:0 15:0 
-0.6918348333909371 1:0 2:0 3:3.89424 4:3.66156 5:0 6:0.67757 7:1.66254 8:2.82814 9:0 10:0.77717 11:0 12:0 13:1.66592 14:0 15:0 
-2 1:0 2:0 3:1.61112 4:1.48999 5:0.88591 6:1.56258 7:0.71913 8:0 9:1.31334 10:0.66304 11:0.65466 12:0 13:0.71233 14:0.6133 15:0 
-2 1:0 2:0 3:1.35047 4:2.76297 5:0 6:0.64657 7:2.53626 8:0 9:0.64657 10:0.7179 11:0 12:0 13:1.4993 14:0 15:0 
-0.8898431996916345 1:0 2:0 3:0.8319 4:3.50601 5:4.55462 6:3.44672 7:1.81733 8:1.2524 9:1.97744 10:0 11:0.97741 12:0 13:0.82278 14:0 15:0 
-1.004128319483888 1:0 2:0 3:4.60939 4:2.23972 5:0 6:0.66667 7:0.65479 8:0.61538 9:0 10:0 11:0 12:0 13:0 14:0 15:0 
-2 1:0 2:0 3:3.09667 4:2.96083 5:2 6:5.62168 7:3.0523 8:0 9:2.31186 10:0.66123 11:0.66314 12:0 13:1.42369 14:0.61576 15:0 
-2 1:3 2:0 3:1.55636 4:0.63739 5:0 6:0 7:2.06062 8:0 9:2.90034 10:0.62976 11:0 12:0 13:1.44385 14:1.94196 15:0.98137 
-0.5372441346479682 1:3 2:0 3:1.9517 4:1.98066 5:0 6:1.30431 7:2.90862 8:0 9:0.64865 10:0 11:0 12:0 13:2.21551 14:0 15:0 
-1.739489192222023 1:3 2:0 3:3.33458 4:3.9488 5:0 6:0 7:3.13722 8:0 9:0 10:0 11:0 12:0 13:0.7707 14:0 15:0 
-0.0431708637034426 1:0 2:0 3:0.80769 4:0.72727 5:0.70053 6:7.66874 7:1.55889 8:0 9:0 10:0 11:0 12:0 13:0.82278 14:0 15:0 
-0.4325997910341017 1:0 2:0 3:3.89059 4:2.70968 5:0 6:0.68082 7:1.91689 8:0 9:0 10:0.79024 11:0 12:0.64407 13:0 14:0 15:0 
-2 1:3 2:0 3:6.88295 4:6.46455 5:0 6:0.69182 7:2.07018 8:0 9:0 10:0 11:0 12:2.13856 13:0.7707 14:0 15:0 
-0.09659757289741631 1:0 2:0 3:0 4:0.65395 5:1.24179 6:2.29183 7:2.85607 8:0 9:0 10:0 11:0.65298 12:0 13:2.04224 14:0 15:0 
-1.790021146650233 1:0 2:0 3:2.29098 4:1.2979 5:0 6:0.61732 7:3.224 8:1.63765 9:0.61732 10:0 11:0 12:0 13:1.89624 14:0 15:0 
-1.686737229705449 1:0 2:0 3:3.06168 4:1.40261 5:0 6:0 7:1.30364 8:0.61538 9:0.61404 10:0 11:0 12:0 13:0 14:0 15:0 
-2 1:0 2:0 3:4.02654 4:4.58029 5:0 6:0 7:3.1941 8:0 9:0 10:0 11:0 12:0 13:1.54669 14:0 15:0 
-2 1:0 2:0 3:2.09667 4:2.14265 5:2 6:4.62398 7:3.0523 8:0 9:2.31973 10:0 11:0.66314 12:0 13:2.12232 14:0.61576 15:0 
-2 1:0 2:0 3:4.66821 4:5.10256 5:0 6:1.35514 7:1.70353 8:1.58576 9:0 10:0.77858 11:0 12:0 13:1.66806 14:0 15:0 
-0.6179581226720243 1:0 2:0 3:5.15885 4:5.4917 5:0 6:1.39315 7:3.75676 8:0.83908 9:0.70707 10:0.73721 11:0 12:0.61966 13:2.31691 14:0 15:0 
-2 1:0 2:0 3:1.46278 4:2.16169 5:0 6:0.64449 7:2.50071 8:0 9:0.64449 10:0.71971 11:0 12:0 13:0.82911 14:0 15:0 
-1.718028227716025 1:0 2:0 3:5.97028 4:6.23698 5:0 6:1.39575 7:3.75676 8:0 9:0.70707 10:0 11:0 12:1.36494 13:1.71374 14:0 15:0 
-2 1:0 2:0 3:3.34115 4:3.43032 5:0 6:0.64657 7:3.18858 8:0 9:0.64657 10:0.7179 11:0 12:0 13:1.4993 14:0 15:0 
-0.7649642489426091 1:0 2:0 3:2.28361 4:3.40879 5:0 6:0 7:1.9676 8:3.25579 9:0 10:0 11:0 12:0 13:0 14:0 15:0 
-2 1:0 2:0 3:1.38441 4:2.25144 5:0.99573 6:4.59106 7:1.70612 8:0 9:2.31776 10:0.66123 11:0 12:0 13:1.38954 14:0.6133 15:0 
-2 1:3 2:0 3:2.07871 4:1.92002 5:0 6:0.79216 7:2.0382 8:0 9:1 10:0.62976 11:0 12:0 13:0.69863 14:0 15:0 
-1.139019963849248 1:0 2:0 3:0.8319 4:2.51246 5:0 6:2.64453 7:2.54881 8:0 9:1.97368 10:0 11:1.97042 12:0 13:0.82278 14:0 15:0 
-1.206875231754736 1:0 2:0 3:5.02565 4:2.28489 5:0 6:0.69182 7:2.76826 8:1.5866 9:0 10:0 11:0 12:0 13:1.37387 14:0 15:0 
-0.1764693930130916 1:3 2:0 3:1.52296 4:1.36302 5:0.63194 6:1.62123 7:3.71543 8:0 9:0.63889 10:0 11:0 12:0 13:2.22912 14:0 15:0 
-2 1:0 2:0 3:4.02654 4:2.62589 5:0 6:1.28315 7:2.52971 8:0 9:1.28315 10:0 11:0 12:0 13:0.84177 14:0 15:0 
-0.657867596325542 1:0 2:0 3:1.54366 4:1.33248 5:0 6:0 7:1.41684 8:0 9:0.61069 10:0 11:0.62839 12:0 13:0.94521 14:1.2446 15:0.61069 
-0.1981780612864243 1:0 2:0 3:0.80769 4:0.64276 5:0.68906 6:7.66874 7:2.37944 8:0 9:0 10:0 11:0 12:0 13:1.42841 14:0 15:0 
-2 1:0 2:0 3:3.31761 4:3.94731 5:0 6:0.61472 7:3.18767 8:0 9:0.61472 10:0 11:0 12:0 13:1.54669 14:0 15:0 
-2 1:0 2:0 3:6.06009 4:6.28075 5:0 6:0.71622 7:1.37924 8:0 9:0 10:0 11:0 12:2.13856 13:0.60317 14:0 15:0 
-2 1:0 2:0 3:2.71033 4:3.9488 5:0 6:0.65549 7:4.00135 8:0 9:0.65549 10:0 11:0 12:0 13:2.27 14:0 15:0 
-0.0733396337738651 1:0 2:0 3:6.88295 4:7.09893 5:0 6:0.69182 7:2.76826 8:2.26423 9:0 10:0 11:0 12:2.13856 13:1.37387 14:0 15:0 
-1.440585963140778 1:0 2:0 3:0.86325 4:0.64898 5:0 6:2.42606 7:1.38794 8:0 9:0.82025 10:0 11:0.63169 12:0 13:0 14:0 15:0 
-0.2810467460057077 1:0 2:0 3:0.80769 4:1.37003 5:0.70053 6:7.66874 7:2.37944 8:0 9:0 10:0.69565 11:0 12:0 13:1.42841 14:0 15:0 
-1.952948018721431 1:0 2:0 3:2.61375 4:3.9488 5:0 6:0 7:3.13722 8:0 9:0 10:0 11:0 12:0 13:1.42823 14:0 15:0 
-2 1:0 2:0 3:2.37411 4:2.13532 5:0 6:1.98797 7:1.97661 8:1.30888 9:1.293 10:0.77355 11:0.68173 12:0 13:1.32776 14:0 15:0 
-1.519118136914448 1:0 2:0 3:3.86698 4:4.2543 5:0 6:0.69497 7:2.911 8:2.27478 9:0 10:0 11:0 12:0 13:0.9434 14:0 15:0 
-2 1:0 2:0 3:0.85957 4:0.69948 5:1.24179 6:3.17 7:2.79611 8:0 9:0 10:0 11:0.65092 12:0 13:1.32885 14:0 15:0 
-2 1:0 2:0 3:5.97028 4:6.23698 5:0 6:1.39575 7:3.75676 8:0.83908 9:0.70707 10:0.73721 11:0 12:1.36494 13:1.71374 14:0 15:0 
-2 1:0 2:0 3:1.32862 4:2.86261 5:0 6:0.64657 7:2.53626 8:0 9:0.64657 10:0.71248 11:0 12:0 13:1.4993 14:0 15:0 
-2 1:0 2:0 3:4.2716 4:3.21596 5:0 6:0.68868 7:2.41523 8:0 9:0 10:0.73721 11:0 12:1.36494 13:2.31691 14:0 15:0 
-2 1:0 2:0 3:2.11702 4:3.34558 5:0 6:0.64657 7:3.18858 8:0 9:0.64657 10:0.7179 11:0 12:0 13:1.4993 14:0 15:0 
-0.5881281593677891 1:0 2:0 3:2.68222 4:1.25619 5:0 6:0.68553 7:2.09841 8:0 9:0.61905 10:0 11:0 12:0 13:1.44385 14:0 15:0 
-1.794963258070512 1:0 2:0 3:3.89059 4:1.90611 5:0 6:0.68082 7:1.29094 8:0 9:0 10:0.79024 11:0 12:0.64407 13:0 14:0 15:0 
-2 1:0 2:0 3:2.81593 4:1.3899 5:0 6:0.68553 7:2.09841 8:0 9:0.61905 10:0.71739 11:0 12:0 13:0.74522 14:0 15:0 
-2 1:0 2:0 3:0.99574 4:1.48999 5:1.84317 6:3.41704 7:2.34158 8:0 9:0.69796 10:0.66304 11:0 12:0 13:1.45284 14:0.6133 15:0 
-0.8103062764803601 1:0 2:0 3:2.11451 4:1.31645 5:0 6:0 7:1.40167 8:0 9:0.60181 10:0 11:0.6263 12:0 13:0.9726 14:0.63636 15:0 
-1.202043471707586 1:0 2:0 3:0.80769 4:0 5:0.69982 6:1.45317 7:1.55889 8:0 9:0 10:0.69565 11:0 12:0 13:1.42841 14:0 15:0 
-1.802060046278988 1:0 2:0 3:0.83621 4:1.90366 5:0.9875 6:2.62493 7:3.23918 8:1.26105 9:1.94781 10:0 11:0.98232 12:0 13:1.56631 14:0 15:0 
-1.282807736923126 1:5 2:0 3:3.86698 4:3.62498 5:0 6:1.36284 7:2.96148 8:0.97468 9:0.66944 10:0 11:0 12:0 13:0.94937 14:0 15:0 
-0.6244945027601787 1:0 2:0 3:4.61487 4:3.17714 5:0 6:0.65244 7:3.2012 8:0 9:0.65244 10:0 11:0 12:0 13:1.54669 14:0 15:0 
-1.074582373857254 1:0 2:0 3:6.80187 4:5.68722 5:0 6:1.37597 7:3.78018 8:0.85231 9:0 10:0.89873 11:0.69548 12:0.71398 13:3.05888 14:0 15:0 
-2 1:0 2:0 3:1.93844 4:1.33521 5:0 6:0.61472 7:2.521 8:0 9:0.61472 10:0 11:0 12:0 13:1.54669 14:0 15:0 
-0.5526994303979682 1:6 2:0 3:4.69854 4:2.97725 5:0 6:2.70172 7:2.92323 8:3.27215 9:2.00832 10:0.91866 11:1.33297 12:0 13:0.94937 14:0 15:0 
-2 1:0 2:0 3:1.83476 4:0.6068 5:0 6:0.68056 7:0.74522 8:0 9:0.61905 10:0.71739 11:0 12:0 13:1.44385 14:0 15:0 
-2 1:0 2:0 3:1.54366 4:1.33248 5:0 6:0 7:1.41684 8:0 9:0.61069 10:0 11:0.62839 12:0 13:0.94521 14:1.2446 15:0.61069 
-2 1:0 2:0 3:3.33794 4:5.56626 5:0 6:0.64657 7:1.50661 8:0 9:0.64657 10:0 11:0 12:0 13:1.4993 14:0 15:0 
-0.9132385788967367 1:3 2:0 3:0.80769 4:1.36492 5:0.69982 6:2.79081 7:2.37944 8:0 9:0 10:0.69565 11:0 12:0 13:1.42841 14:0 15:0 
-2 1:0 2:0 3:2.30825 4:0.69515 5:2 6:1.99688 7:3.32384 8:0 9:2.31776 10:0.66304 11:1.35077 12:0 13:2.12512 14:0.6133 15:0 
-2 1:0 2:0 3:2.38042 4:1.30276 5:0 6:0 7:2.78342 8:0 9:2.90034 10:0.62976 11:0 12:0 13:1.44385 14:1.94196 15:0.98137 
-1.012591894170111 1:3 2:0 3:0.80769 4:1.37003 5:0.70053 6:7.66874 7:2.37944 8:0 9:0 10:0.69565 11:0.60526 12:0 13:1.42841 14:0 15:0 
-2 1:0 2:0 3:4.19564 4:5.28392 5:0 6:1.39575 7:2.81372 8:0.83908 9:0.70707 10:0.73721 11:0 12:1.36494 13:1.37387 14:0 15:0 
-2 1:0 2:0 3:1.6158 4:1.42356 5:0 6:0.69682 7:0.67424 8:1.76615 9:0 10:0 11:0.70727 12:1.42356 13:1.27261 14:0 15:0 
-1.37230322251533 1:0 2:0 3:0.83621 4:1.30113 5:0.9875 6:1.67506 7:1.8178 8:0 9:0.99794 10:0 11:0.98232 12:0 13:0.82278 14:0 15:0 
-2 1:0 2:0 3:1.6131 4:0.81818 5:1.99573 6:3.59321 7:3.31906 8:0 9:2.31754 10:0.66123 11:0.66525 12:0 13:2.12709 14:0 15:0 
-1.068708727455642 1:3 2:0 3:4.66429 4:5.11264 5:0 6:2.03228 7:1.29995 8:2.65252 9:1.33888 10:0.91866 11:0.67583 12:0 13:0 14:0 15:0 
-2 1:3 2:0 3:2.99768 4:1.92002 5:0 6:0.79216 7:2.78342 8:0 9:2.90034 10:0.62976 11:0 12:0 13:0.74522 14:1.94196 15:0.98137 
-0.9235063173708277 1:0 2:0 3:0.8319 4:2.87051 5:7.50594 6:2.44672 7:0.68531 8:1.2524 9:0.97744 10:0 11:0.97741 12:0 13:0 14:0 15:0 
-2 1:0 2:0 3:1.34508 4:2.04996 5:0 6:0 7:2.61247 8:0 9:0 10:0 11:0 12:0 13:2.27 14:0 15:0 
-2 1:0 2:0 3:2.38015 4:0.76705 5:1 6:2.97718 7:2.58966 8:0 9:3.30966 10:0.66304 11:1.35077 12:0 13:1.39094 14:0.6133 15:0 
-2 1:3 2:0 3:2.69958 4:2.81288 5:0 6:0.64865 7:2.48508 8:0 9:0.64865 10:0 11:0 12:0 13:1.4993 14:0 15:0 
-2 1:0 2:0 3:5.95601 4:3.03269 5:0.72932 6:0.68868 7:2.07318 8:0.85231 9:0 10:0.89873 11:0.69548 12:1.4433 13:1.35188 14:0 15:0 
-1.39747166065354 1:0 2:0 3:0.80769 4:1.32596 5:0.69982 6:0.66142 7:3.87758 8:0 9:0 10:0 11:0.61039 12:0 13:2.21822 14:0 15:0 
-0.407464047708207 1:5 2:0 3:0.8319 4:2.29232 5:0 6:1.47085 7:2.50128 8:0 9:0 10:0 11:1.97536 12:0 13:0.82278 14:0 15:0 
