svm_type c_svc
kernel_type rbf
gamma 0.03125
nr_class 2
total_sv 640
rho -0.108762
label 1 -1
probA -1.22869
probB -0.125762
nr_sv 325 315
SV
128 1:0 2:0 3:4.2845 4:2.9979 5:0.7633 6:0.687 7:3.6698 8:0 9:1.4893 10:0.7687 11:1.3906 12:0 13:0.8217 14:0.735 15:0 
106.5832065479768 1:0 2:0 3:5.432 4:5.1025 5:1.4856 6:3.6489 7:4.1405 8:0.9737 9:3.2143 10:0 11:1.8058 12:0 13:1 14:1.4317 15:0.6402 
128 1:0 2:0 3:4.163 4:3.826 5:0.7633 6:1.5123 7:2.2779 8:0 9:0.6028 10:0 11:1.3906 12:0 13:0.8217 14:0.735 15:0 
52.35449062918644 1:0 2:0 3:3.6374 4:5.7661 5:2.2114 6:3.6489 7:4.1405 8:0 9:1.7867 10:0.714 11:0 12:0 13:1 14:0 15:0 
9.694790761682134 1:0 2:0 3:6.3664 4:5.2769 5:0.7598 6:3.6467 7:4.1417 8:0 9:3.2091 10:0.7177 11:1.8071 12:0 13:1 14:1.4342 15:0.6402 
128 1:0 2:0 3:2.2678 4:1 5:1 6:2.2928 7:2.2297 8:0 9:1.4795 10:0.7577 11:0.759 12:0 13:0.8408 14:0.7225 15:0 
128 1:0 2:0 3:3.5192 4:4.4303 5:1.9886 6:4.6197 7:4.6784 8:0.7368 9:1 10:0 11:0.993 12:0 13:0.9236 14:0 15:0 
128 1:0 2:0 3:5.5007 4:6.2838 5:1.9868 6:5.5485 7:3.6945 8:0.7368 9:3.9758 10:0 11:1.9908 12:0 13:0.9236 14:1.9953 15:0.9953 
128 1:0 2:0 3:4.2873 4:2.9979 5:0.7633 6:1.3948 7:2.9204 8:0 9:1.4893 10:0.7687 11:1.3906 12:0 13:0.8217 14:0.735 15:0 
128 1:0 2:0 3:3.5642 4:3.1057 5:0.7633 6:2.2201 7:3.6698 8:0 9:1.4893 10:0 11:1.3906 12:0 13:0.8217 14:0.7546 15:0 
128 1:0 2:0 3:4.2071 4:4.585 5:1 6:1.552 7:2.9111 8:0 9:1.4841 10:0.7577 11:0.7581 12:0 13:0.8408 14:0.7225 15:0 
13.93338540489378 1:0 2:0 3:4.5074 4:5.289 5:1.9647 6:6.5206 7:4.6904 8:0 9:3.9812 10:0 11:2.9773 12:0 13:0.9236 14:1.9855 15:0.993 
128 1:0 2:0 3:4.2845 4:3.826 5:0.7633 6:1.5123 7:3.6698 8:0 9:1.4893 10:0 11:0.759 12:0 13:0.8217 14:0.735 15:0 
128 1:0 2:0 3:5.5007 4:6.2838 5:0.9956 6:5.5561 7:4.6836 8:0.7368 9:3.9758 10:0 11:1.9908 12:0 13:0.9236 14:1.9953 15:0.9953 
128 1:0 2:0 3:4.782 4:2.751 5:1.9868 6:4.6142 7:4.6814 8:0.7368 9:3.9758 10:0 11:0.995 12:0 13:0.9236 14:1.9953 15:0.9953 
128 1:0 2:0 3:5.5031 4:5.4621 5:1.9863 6:5.5515 7:4.6784 8:0.7368 9:3.9812 10:0 11:0.9958 12:0 13:0.9236 14:1.993 15:0.993 
105.3374281166321 1:0 2:0 3:5.4913 4:5.4251 5:0.9912 6:3.6814 7:4.6814 8:0 9:2.9796 10:0 11:1.9908 12:0 13:0.9236 14:1.9953 15:0.9953 
106.716276393198 1:0 2:0 3:3.8869 4:3.6781 5:1.9868 6:4.5563 7:3.6907 8:0.7368 9:3.9758 10:0 11:1.9908 12:0 13:0.9236 14:0.9953 15:0.9953 
128 1:0 2:0 3:5.5007 4:6.2838 5:1.9868 6:5.5485 7:4.6814 8:0.7368 9:2.9796 10:0 11:0.995 12:0 13:0.9236 14:1.9953 15:0.9953 
110.5392295796306 1:0 2:0 3:5.4188 4:5.103 5:0.7241 6:0.8891 7:2.5702 8:0 9:2.361 10:0 11:1.7891 12:0 13:1 14:1.4342 15:0.6402 
128 1:0 2:0 3:4.1824 4:2.3244 5:1 6:1.554 7:2.9264 8:0 9:1.4841 10:0.7577 11:0 12:0 13:0.8408 14:0.7225 15:0 
128 1:0 2:0 3:4.2845 4:3.826 5:0.7633 6:2.2201 7:3.6698 8:0 9:1.4893 10:0.7687 11:1.3906 12:0 13:0.8217 14:0.735 15:0 
8.450436132047741 1:0 2:0 3:1.9054 4:1.8587 5:1.9886 6:3.8484 7:2.8988 8:0 9:2 10:0 11:0.9917 12:0 13:0.9236 14:0 15:0 
128 1:0 2:0 3:3.5316 4:1 5:1 6:1.554 7:2.9849 8:0 9:1.4841 10:0.7577 11:0.759 12:0 13:0.8408 14:0.7225 15:0 
62.30366353745654 1:0 2:0 3:2.7444 4:4.298 5:1.4856 6:1.7598 7:2.4026 8:0 9:1.7444 10:0.714 11:1.7951 12:0 13:0 14:0 15:0 
76.63350979776463 1:0 2:0 3:3.5977 4:6.2847 5:0.9956 6:4.6305 7:3.8796 8:0.7368 9:2.9812 10:0 11:1.9875 12:0 13:0.9236 14:1.9855 15:0.993 
128 1:0 2:0 3:4.9622 4:3.8647 5:2 6:1.554 7:2.319 8:0 9:0.8734 10:0.7577 11:0.759 12:0 13:0.8408 14:0 15:0 
128 1:0 2:0 3:3.8869 4:3.6781 5:0.9912 6:3.8497 7:2.7614 8:0.7368 9:2.9796 10:0 11:1.9901 12:0 13:0 14:1.9953 15:0.9953 
128 1:0 2:0 3:4.2724 4:3.8647 5:1 6:0.7388 7:3.0742 8:0 9:1.4841 10:0.7577 11:0.759 12:0 13:0.8408 14:0.7225 15:0 
128 1:0 2:0 3:4.924 4:3.8647 5:1 6:1.554 7:2.0703 8:0 9:1.4841 10:0 11:0.759 12:0 13:0 14:0.7225 15:0 
128 1:0 2:0 3:3.2623 4:3.8647 5:1 6:1.554 7:3.6871 8:0 9:0.6107 10:0 11:0.759 12:0 13:0.8408 14:0.7225 15:0 
34.92870744932569 1:0 2:0 3:4.5164 4:5.4593 5:1.9868 6:5.5485 7:3.7578 8:0.7368 9:1 10:0 11:0.995 12:0 13:0 14:0 15:0 
128 1:0 2:0 3:3.6144 4:2.5036 5:0.7633 6:1.5123 7:2.9736 8:0 9:1.4893 10:0 11:0 12:0 13:0.8217 14:0.735 15:0 
128 1:0 2:0 3:5.0222 4:2.8647 5:0.6429 6:0.8152 7:2.0703 8:0 9:1.4841 10:0.7577 11:0.759 12:0 13:0 14:0.7215 15:0 
128 1:0 2:0 3:3.6412 4:2.5403 5:1 6:1.554 7:3.6909 8:0 9:0.8734 10:0.7577 11:0.759 12:0 13:0.8408 14:0.7362 15:0 
128 1:0 2:0 3:2.3338 4:2.3244 5:1 6:1.554 7:2.1441 8:0 9:0.8734 10:0 11:0.759 12:0 13:0 14:0.7224 15:0 
128 1:0 2:0 3:2.0749 4:3.1057 5:0.7633 6:2.2201 7:2.0987 8:0 9:0 10:0.7687 11:1.3906 12:0 13:0 14:0 15:0 
11.67107991785588 1:0 2:0 3:5.5031 4:5.426 5:1.9886 6:3.6197 7:4.6784 8:0.7368 9:2.9812 10:0 11:2.9665 12:0 13:0.9236 14:1.993 15:0.993 
128 1:0 2:0 3:5.5015 4:5.4605 5:1.9886 6:4.5515 7:4.6867 8:0.7368 9:3.9812 10:0 11:0.9958 12:0 13:0.9236 14:1.993 15:0.993 
128 1:0 2:0 3:4.3137 4:3.0447 5:0 6:1.554 7:2.9319 8:0 9:1.4841 10:0.7577 11:0.759 12:0 13:0.8408 14:0.7225 15:0 
128 1:0 2:0 3:4.5031 4:5.4621 5:1.9886 6:5.5515 7:4.6784 8:0.7368 9:2.9812 10:0 11:1.9875 12:0 13:0.9236 14:1.9855 15:0.993 
105.8943416882444 1:0 2:0 3:4.5149 4:5.4621 5:1.9886 6:5.5515 7:3.8796 8:0.7368 9:2 10:0 11:1.9707 12:0 13:0.9236 14:0 15:0 
0.54183991256194 1:0 2:0 3:3.7887 4:2.7177 5:1.9886 6:3.6197 7:3.7548 8:0 9:3.9812 10:0 11:2.9665 12:0 13:0 14:1.993 15:0.993 
128 1:0 2:0 3:4.2845 4:2.9979 5:0 6:2.2201 7:2.9204 8:0 9:1.4893 10:0.7687 11:1.3906 12:0 13:0.8217 14:0.735 15:0 
128 1:0 2:0 3:5.5031 4:4.6034 5:1.9886 6:2.8468 7:3.6966 8:0.7368 9:2.9812 10:0 11:1.9707 12:0 13:0.9236 14:1.993 15:0.993 
128 1:0 2:0 3:4.0506 4:3.8647 5:1 6:0.8152 7:3.7177 8:0 9:0.6107 10:0.7577 11:0 12:0 13:0.8408 14:0.7225 15:0 
128 1:0 2:0 3:3.4911 4:3.826 5:0 6:2.2201 7:3.6698 8:0 9:1.4893 10:0.7687 11:1.3906 12:0 13:0.8217 14:0.735 15:0 
8.628597534549266 1:0 2:0 3:1.4048 4:0.8281 5:0.7633 6:2.2201 7:1.4456 8:0 9:0 10:0.7687 11:1.3906 12:0 13:0 14:0 15:0 
128 1:0 2:0 3:5.5007 4:6.2838 5:2.8581 6:6.4198 7:4.6919 8:0.7368 9:3.9758 10:0 11:1.9908 12:0 13:0.9236 14:1.9953 15:0.9953 
84.56249509026404 1:0 2:0 3:5.5031 4:6.2847 5:0.9956 6:5.5515 7:3.7548 8:0.7368 9:3.9812 10:0 11:2.9665 12:0 13:0 14:1.993 15:0.993 
128 1:0 2:0 3:4.5074 4:4.4664 5:1.9886 6:3.9166 7:2.8858 8:0.7368 9:3.9812 10:0 11:1.9894 12:0 13:0.9236 14:1.9855 15:0.993 
128 1:0 2:0 3:3.4154 4:2.3244 5:1 6:0.7388 7:1.4782 8:0 9:1.4841 10:0.7577 11:0.759 12:0 13:0 14:0 15:0 
128 1:0 2:0 3:2.1193 4:2.5403 5:1 6:0.8152 7:2.2089 8:0 9:0.6107 10:0.7577 11:0.759 12:0 13:0.8408 14:0.7225 15:0 
128 1:0 2:0 3:3.6817 4:3.826 5:0.7633 6:2.2201 7:1.5285 8:0 9:0.8865 10:0.7687 11:0.6316 12:0 13:0.8217 14:0 15:0 
92.74979188611891 1:0 2:0 3:4.2845 4:3.826 5:0.7633 6:2.9279 7:2.9741 8:0 9:1.4893 10:0.7687 11:1.3906 12:0 13:0.8217 14:0.735 15:0 
128 1:0 2:0 3:4.5953 4:4.4203 5:0.9912 6:2.8498 7:3.7012 8:0.7368 9:2.9796 10:0 11:1.9916 12:0 13:0.9236 14:1.9953 15:0.9953 
128 1:0 2:0 3:1.4372 4:1 5:1 6:1.554 7:1.4537 8:0 9:0 10:0.7577 11:0.759 12:0 13:0.8408 14:0 15:0 
128 1:0 2:0 3:2.5366 4:4.9946 5:1.4821 6:2.7598 7:4.1448 8:0 9:2.2556 10:0 11:0.871 12:0 13:1 14:1.4342 15:0.6402 
128 1:0 2:0 3:2.72 4:2.3244 5:1 6:1.554 7:1.4537 8:0 9:0.6107 10:0.7577 11:0 12:0 13:0.8408 14:0.7225 15:0 
128 1:0 2:0 3:5.5031 4:3.6034 5:1.9886 6:3.6197 7:3.7548 8:0.7368 9:2.9812 10:0 11:1.9875 12:0 13:0 14:1.9855 15:0.993 
38.96334664596011 1:0 2:0 3:1.7227 4:3.3867 5:1.49 6:1.7642 7:4.904 8:0.9737 9:2.263 10:0.7177 11:0.8732 12:0 13:1 14:1.4294 15:0.6379 
128 1:0 2:0 3:4.5164 4:5.4594 5:0.9956 6:5.5485 7:4.6738 8:0.7368 9:1.9962 10:0 11:0.995 12:0 13:0.916 14:0 15:0 
94.60292925041695 1:0 2:0 3:2.7952 4:2.8708 5:0.7633 6:2.2201 7:2.8481 8:0 9:0 10:0 11:0.6316 12:0 13:0 14:0 15:0 
128 1:0 2:0 3:4.608 4:4.567 5:1.9886 6:5.5515 7:5.6653 8:0.7368 9:3.9812 10:0 11:2.9665 12:0 13:0.9236 14:1.993 15:0.993 
128 1:0 2:0 3:3.703 4:2.8647 5:1 6:1.554 7:2.8463 8:0 9:0.8734 10:0.7577 11:0 12:0 13:0 14:0 15:0 
128 1:0 2:0 3:4.924 4:2.8647 5:1 6:1.554 7:3.7177 8:0 9:1.4841 10:0.7577 11:0.759 12:0 13:0.8408 14:0.7225 15:0 
10.20312015351689 1:0 2:0 3:3.6078 4:5.4604 5:0.993 6:4.5559 7:4.6784 8:0 9:2 10:0 11:1.9875 12:0 13:0.9236 14:0 15:0 
128 1:0 2:0 3:4.3141 4:3.826 5:0.7633 6:1.5123 7:3.7953 8:0 9:1.5189 10:0 11:1.3906 12:0 13:1.6434 14:0.735 15:0 
128 1:0 2:0 3:4.6056 4:4.5646 5:1.9886 6:3.6305 7:3.6882 8:0.7368 9:3.9812 10:0 11:1.9707 12:0 13:0.9236 14:1.993 15:0.993 
128 1:0 2:0 3:4.6056 4:4.53 5:1.9868 6:3.9117 7:3.8814 8:0.7368 9:3.9758 10:0 11:1.9908 12:0 13:0.9236 14:1.9953 15:0.9953 
128 1:0 2:0 3:2.8761 4:3.8647 5:1 6:0.7388 7:1.543 8:0 9:0.8734 10:0.7577 11:0 12:0 13:0.8408 14:0 15:0 
128 1:0 2:0 3:2.8797 4:3.826 5:0.7633 6:2.2201 7:2.9204 8:0 9:1.4893 10:0.7687 11:1.3906 12:0 13:0.8217 14:0.735 15:0 
58.68382868363393 1:0 2:0 3:3.6213 4:5.3887 5:0 6:2.9265 7:1.9143 8:0.7368 9:1.9962 10:0 11:0.995 12:0 13:0.9236 14:0 15:0 
128 1:0 2:0 3:3.7059 4:3.826 5:0.7633 6:2.2201 7:3.7816 8:0 9:1.5221 10:0.7687 11:0.759 12:0 13:0.8217 14:0.735 15:0 
128 1:0 2:0 3:3.6144 4:2.5036 5:0.7633 6:2.2201 7:2.2136 8:0 9:1.4893 10:0.7687 11:1.3906 12:0 13:0.8217 14:0.735 15:0 
128 1:0 2:0 3:3.6817 4:3.826 5:0.7633 6:1.5123 7:3.6698 8:0 9:0.8865 10:0.7687 11:0.6316 12:0 13:0.8217 14:0 15:0 
73.26600953112208 1:0 2:0 3:2.8296 4:3.8647 5:1 6:1.554 7:3.6966 8:0 9:0 10:0.7577 11:0.7143 12:0 13:0.8408 14:0 15:0 
128 1:0 2:0 3:3.5977 4:5.4621 5:1.9886 6:5.5515 7:4.6784 8:0.7368 9:1.9812 10:0 11:0.9958 12:0 13:0.9236 14:1.9855 15:0.993 
55.10972603531899 1:0 2:0 3:5.5007 4:5.4337 5:1.9868 6:3.8532 7:4.6814 8:0.7368 9:3.9758 10:0 11:2.9819 12:0 13:0.9236 14:1.9953 15:0.9953 
128 1:0 2:0 3:3.4403 4:3.8647 5:1 6:1.554 7:2.9111 8:0 9:0.6107 10:0.7577 11:0 12:0 13:0.8408 14:0.7225 15:0 
128 1:0 2:0 3:3.8893 4:1.8544 5:1.9886 6:2.9274 7:3.6966 8:0 9:3.9812 10:0 11:1.9875 12:0 13:0.9236 14:1.9855 15:0.993 
128 1:0 2:0 3:5.5031 4:6.3169 5:1.9886 6:4.6197 7:4.684 8:0.7368 9:3.9812 10:0 11:1.9875 12:0 13:0.9236 14:1.9855 15:0.993 
128 1:0 2:0 3:4.1401 4:3.8647 5:1 6:0.8152 7:2.3288 8:0 9:1.4841 10:0.7577 11:0.759 12:0 13:0.8408 14:0.7225 15:0 
128 1:0 2:0 3:5.5031 4:6.2847 5:0 6:3.5559 7:3.6975 8:0.7368 9:3.9812 10:0 11:1.9875 12:0 13:0.9231 14:1.9855 15:0.993 
128 1:0 2:0 3:4.5897 4:5.286 5:1.9868 6:5.5893 7:4.6814 8:0.7368 9:2.9749 10:0 11:1.9908 12:0 13:0.9236 14:0 15:0 
128 1:0 2:0 3:1.8843 4:3.1057 5:0.7633 6:2.2201 7:2.1519 8:0 9:0.6028 10:0 11:1.3906 12:0 13:0 14:0.735 15:0 
128 1:0 2:0 3:5.5018 4:5.4608 5:1.9886 6:5.5515 7:3.7548 8:0.7368 9:3.9812 10:0 11:1.9875 12:0 13:0 14:1.9855 15:0.993 
128 1:0 2:0 3:4.782 4:2.7167 5:1.9868 6:5.5485 7:4.6814 8:0.7368 9:3.9758 10:0 11:1.9908 12:0 13:0.9236 14:1.9953 15:0.9953 
128 1:0 2:0 3:4.2845 4:3.826 5:0.7633 6:2.2201 7:2.2242 8:0 9:1.4893 10:0.7687 11:1.3906 12:0 13:0.8217 14:0.735 15:0 
128 1:0 2:0 3:3.5254 4:3.0447 5:1 6:0.7388 7:2.1559 8:0 9:1.4841 10:0.7577 11:0.759 12:0 13:0.8408 14:0 15:0 
128 1:0 2:0 3:4.6325 4:5.9301 5:0.7223 6:1.8891 7:3.1402 8:0 9:0.9432 10:0 11:0.9247 12:0 13:0 14:0 15:0 
128 1:0 2:0 3:3.8793 4:4.4023 5:1.4839 6:2.6489 7:3.4017 8:0 9:1.7867 10:0.7158 11:0.9181 12:0 13:1 14:0 15:0 
125.2198027647465 1:0 2:0 3:6.4835 4:6.2838 5:1.9868 6:4.6252 7:4.6814 8:0 9:4.9586 10:0 11:1.9916 12:0 13:0.9236 14:1.9953 15:0.9953 
128 1:0 2:0 3:3.5192 4:4.4622 5:0.9956 6:5.5485 7:2.7709 8:0.7368 9:1.9962 10:0 11:0.995 12:0 13:0 14:0 15:0 
128 1:0 2:0 3:1.9765 4:3.67 5:1.9868 6:3.8454 7:2.7105 8:0.7368 9:0.9793 10:0 11:0.995 12:0 13:0.9236 14:1 15:0 
128 1:0 2:0 3:3.6416 4:2.5403 5:1 6:1.5437 7:3.6871 8:0 9:1.4841 10:0.7577 11:0.759 12:0 13:0.8408 14:0.7225 15:0 
65.72201537025791 1:0 2:0 3:4.6055 4:2.7083 5:1.9886 6:3.6197 7:3.6846 8:0.7368 9:1.9882 10:0 11:1.9875 12:0 13:0.9236 14:0 15:0 
128 1:0 2:0 3:4.2845 4:3.826 5:0.7633 6:1.5123 7:3.6698 8:0 9:1.4893 10:0.7687 11:0.759 12:0 13:0.8217 14:0.735 15:0 
128 1:0 2:0 3:2.7098 4:3.536 5:0.7223 6:1 7:3.3117 8:0 9:2.2556 10:0 11:0.871 12:0 13:1 14:1.4342 15:0.6402 
128 1:0 2:0 3:5.4947 4:5.4251 5:0.9956 6:5.5482 7:4.6814 8:0.7368 9:2.9736 10:0 11:1.9908 12:0 13:0.9236 14:1.9953 15:0.9953 
128 1:0 2:0 3:3.6731 4:2.0427 5:0.7633 6:0.7078 7:2.8337 8:0 9:1.4893 10:0 11:0.759 12:0 13:0 14:0.735 15:0 
103.3721638873167 1:0 2:0 3:3.5316 4:0 5:1 6:1.554 7:2.9849 8:0 9:1.4841 10:0.7577 11:0.759 12:0 13:0.8408 14:0.7225 15:0 
128 1:0 2:0 3:3.4399 4:3.8647 5:1 6:1.554 7:2.0856 8:0 9:0 10:0 11:0.759 12:0 13:0 14:0 15:0 
89.7840851593939 1:0 2:0 3:4.432 4:4.9167 5:1.4856 6:1.6489 7:4.1405 8:0 9:2.3708 10:0 11:1.7974 12:0 13:1 14:1.4317 15:0.6402 
128 1:0 2:0 3:4.2845 4:2.8708 5:0.7633 6:2.2201 7:3.687 8:0 9:1.4893 10:0.7687 11:1.3906 12:0 13:0.8217 14:0.735 15:0 
128 1:0 2:0 3:3.3785 4:1.5403 5:1 6:1.554 7:2.2395 8:0 9:0.6107 10:0.7577 11:0 12:0 13:0.8408 14:0.7225 15:0 
128 1:0 2:0 3:1.3986 4:0 5:1 6:0.8152 7:2.2982 8:0 9:0 10:0.7577 11:0.759 12:0 13:0.8408 14:0 15:0 
128 1:0 2:0 3:3.525 4:3.8647 5:1 6:1.554 7:2.9111 8:0 9:0.8734 10:0.7577 11:0.759 12:0 13:0.8408 14:0.7225 15:0 
128 1:0 2:0 3:3.4911 4:3.826 5:0.7633 6:2.2201 7:3.6496 8:0 9:1.4893 10:0.7687 11:0.759 12:0 13:0.8015 14:0.735 15:0 
128 1:0 2:0 3:3.6275 4:1.6755 5:0.7633 6:1.3948 7:2.963 8:0 9:1.5024 10:0 11:0.6316 12:0 13:0.8217 14:0.735 15:0 
128 1:0 2:0 3:5.5031 4:6.2847 5:1.9886 6:5.5515 7:4.6784 8:0.7368 9:3.9812 10:0 11:1.9875 12:0 13:0.9236 14:1.9855 15:0.993 
128 1:0 2:0 3:3.7073 4:4.2088 5:1.4856 6:1.7598 7:3.1405 8:0 9:1.7867 10:0.714 11:0.9264 12:0 13:0 14:0 15:0 
128 1:0 2:0 3:4.5018 4:5.2833 5:0.993 6:4.5713 7:4.5679 8:0 9:3.9812 10:0 11:0.9958 12:0 13:0.9236 14:1.993 15:0.993 
128 1:0 2:0 3:5.5007 4:6.2838 5:1.9868 6:3.6252 7:4.6814 8:0.7368 9:3.9758 10:0 11:1.9908 12:0 13:0.9236 14:1.9953 15:0.9953 
128 1:0 2:0 3:4.608 4:4.567 5:0.9956 6:5.5515 7:2.7042 8:0.7368 9:3.9812 10:0 11:1.9875 12:0 13:0.9236 14:1.9855 15:0.993 
128 1:0 2:0 3:4.924 4:3.8647 5:0 6:1.554 7:3.6871 8:0 9:1.4841 10:0.7577 11:0.759 12:0 13:0.8408 14:0.7225 15:0 
128 1:0 2:0 3:3.4017 4:3.8647 5:0 6:0 7:2.9417 8:0 9:0.6107 10:0 11:0.759 12:0 13:0.8408 14:0.7225 15:0 
128 1:0 2:0 3:5.5031 4:4.6034 5:1.9886 6:2.6987 7:4.6784 8:0.7368 9:3.9812 10:0 11:1.9875 12:0 13:0.9236 14:1.9855 15:0.993 
128 1:0 2:0 3:4.2845 4:2.9979 5:1.5266 6:1.5123 7:3.6698 8:0 9:1.4893 10:0.7687 11:1.3906 12:0 13:0.8217 14:0.735 15:0 
128 1:0 2:0 3:4.2845 4:3.826 5:0 6:1.5123 7:2.9741 8:0 9:1.4893 10:0.7687 11:0.6316 12:0 13:0.8217 14:0.735 15:0 
128 1:0 2:0 3:4.2696 4:3.8208 5:0.7633 6:2.2201 7:3.6698 8:0 9:1.4893 10:0.7335 11:1.3473 12:0 13:0.8217 14:0.735 15:0 
128 1:0 2:0 3:3.5977 4:5.4621 5:1.9886 6:4.6305 7:4.6784 8:0 9:2.9812 10:0 11:1.9875 12:0 13:0.9236 14:1.9855 15:0.993 
128 1:0 2:0 3:1.9839 4:2.8544 5:1.9886 6:3.8484 7:3.6966 8:0.7368 9:2.9812 10:0 11:0.9958 12:0 13:0.9236 14:1.993 15:0.993 
128 1:0 2:0 3:2.821 4:1.5484 5:0.7633 6:2.2201 7:2.9736 8:0 9:1.4893 10:0.7687 11:1.3906 12:0 13:0.8217 14:0.735 15:0 
41.66068632072643 1:0 2:0 3:5.4199 4:5.9301 5:1.4821 6:3.6467 7:2.3356 8:0 9:3.1952 10:0.714 11:1.7957 12:0 13:0 14:2.2455 15:0.6402 
66.12722821846918 1:0 2:0 3:3.8805 4:2.7939 5:1.4856 6:2.7598 7:4.1405 8:0.9737 9:1.7867 10:0.714 11:0.9264 12:0 13:1 14:0 15:0 
128 1:0 2:0 3:4.0506 4:3.8647 5:1 6:1.554 7:3.6871 8:0 9:0.6107 10:0.7577 11:0.759 12:0 13:0.8408 14:0.7225 15:0 
51.03087569364668 1:0 2:0 3:1.9815 4:3.677 5:1.9868 6:5.5485 7:2.8907 8:0.7368 9:2.9758 10:0 11:1.9908 12:0 13:0.9236 14:1.9953 15:0.9953 
128 1:0 2:0 3:3.6731 4:3.826 5:0 6:1.5331 7:2.9204 8:0 9:1.4893 10:0.7687 11:1.3906 12:0 13:0.8217 14:0.735 15:0 
128 1:0 2:0 3:3.2623 4:3.8647 5:1 6:1.5516 7:2.9111 8:0 9:0.6107 10:0.7577 11:0.759 12:0 13:0.8408 14:0.7225 15:0 
1.627420298509389 1:3 2:0 3:2.5495 4:4.9874 5:0.7642 6:3.6504 7:3.2026 8:0.9737 9:2.263 10:0 11:0.8732 12:0 13:0 14:1.4294 15:0.6379 
128 1:0 2:0 3:3.4121 4:3.8647 5:1 6:1.554 7:2.9111 8:0 9:0.6211 10:0 11:0.759 12:0 13:0.8408 14:0.7225 15:0 
74.48978160702454 1:0 2:0 3:3.5977 4:6.2847 5:0.993 6:3.6349 7:3.7548 8:0.7368 9:2.9812 10:0 11:2.9665 12:0 13:0 14:1.993 15:0.993 
128 1:0 2:0 3:5.5007 4:5.4594 5:1.9868 6:3.9111 7:3.8968 8:0.7368 9:2.9796 10:0 11:0.9958 12:0 13:0.9236 14:1.9953 15:0.9953 
80.79805177379113 1:0 2:0 3:5.5007 4:4.4616 5:0.9956 6:4.5485 7:3.7012 8:0 9:3.9758 10:0 11:0 12:0 13:0.9236 14:1.9953 15:0.9953 
128 1:0 2:0 3:2.6134 4:2.8647 5:0 6:1.554 7:2.8463 8:0 9:0.6107 10:0 11:0.759 12:0 13:0 14:0.7225 15:0 
88.16032199102114 1:0 2:0 3:2.7887 4:1.8951 5:0.9956 6:3.6197 7:3.698 8:0.7368 9:1.9812 10:0 11:0.9958 12:0 13:0.9236 14:1.993 15:0.993 
128 1:0 2:0 3:4.6376 4:5.074 5:0 6:2.8891 7:1.5071 8:0 9:1.7791 10:0.7158 11:0.8691 12:0 13:0 14:0 15:0 
70.56938399892044 1:0 2:0 3:6.2194 4:6.1722 5:1.9868 6:4.6142 7:3.8919 8:0.7368 9:2.9796 10:0 11:1.9908 12:0 13:0.9236 14:1.9953 15:0.9953 
128 1:0 2:0 3:4.2845 4:3.826 5:0 6:1.5331 7:2.2779 8:0 9:1.4893 10:0.7687 11:1.3906 12:0 13:0.8217 14:0.7455 15:0 
128 1:0 2:0 3:3.6056 4:5.3887 5:1.9868 6:4.5563 7:3.6907 8:0.7368 9:2.9758 10:0 11:0.9958 12:0 13:0.9236 14:1.9953 15:0.9953 
128 1:0 2:0 3:4.608 4:4.567 5:1.9886 6:5.5515 7:4.6784 8:0.7368 9:3.9812 10:0 11:1.9875 12:0 13:0.9236 14:1.9853 15:0.993 
128 1:0 2:0 3:3.5316 4:1 5:1 6:1.554 7:2.9849 8:0 9:1.4841 10:0.7577 11:0.759 12:0 13:0.8408 14:0.7404 15:0 
88.93383220070936 1:0 2:0 3:4.5977 4:6.2847 5:1.9886 6:3.6987 7:4.6784 8:0.7368 9:3.9812 10:0 11:1.9875 12:0 13:0.9236 14:1.9855 15:0.993 
20.31055088944126 1:0 2:0 3:5.426 4:6.7967 5:0 6:2.8891 7:3.3713 8:0.9737 9:3.2143 10:0 11:0.9264 12:0 13:1 14:1.4317 15:0.6402 
128 1:0 2:0 3:5.5031 4:5.4621 5:1.9886 6:5.5515 7:4.6784 8:0.7368 9:2.9812 10:0 11:1.9875 12:0 13:0.9236 14:1.9855 15:0.993 
128 1:0 2:0 3:4.924 4:2.8647 5:1 6:1.554 7:3.0742 8:0 9:1.4841 10:0.7577 11:0.759 12:0 13:0.8408 14:0.7225 15:0 
128 1:0 2:0 3:4.2845 4:3.826 5:0.7633 6:2.2201 7:2.8481 8:0 9:1.4893 10:0.7687 11:1.3906 12:0 13:0 14:0.735 15:0 
128 1:0 2:0 3:5.5031 4:5.4621 5:1.9886 6:5.5515 7:3.6846 8:0.7368 9:3.9812 10:0 11:1.9875 12:0 13:0.9236 14:1.9855 15:0.993 
128 1:0 2:0 3:4.2037 4:2.3244 5:0 6:1.554 7:2.9849 8:0 9:1.4841 10:0.7577 11:0.759 12:0 13:0.8408 14:0.7225 15:0 
128 1:0 2:0 3:3.6731 4:3.826 5:0.7633 6:1.5331 7:3.6986 8:0 9:1.4893 10:0.7687 11:1.4296 12:0 13:0.8217 14:0.735 15:0 
47.98412199361405 1:0 2:0 3:5.5031 4:5.4621 5:1.986 6:3.6349 7:4.6784 8:0 9:3.9812 10:0 11:1.9875 12:0 13:0.9236 14:1.9855 15:0.993 
24.45303859638738 1:0 2:0 3:2.879 4:1.8908 5:1.9886 6:1.9166 7:2.7159 8:0.7368 9:1.9812 10:0 11:4.9371 12:0 13:0.9236 14:1.993 15:0.993 
128 1:0 2:0 3:4.5362 4:3.6393 5:1.9886 6:3.6197 7:3.8796 8:0.7368 9:3.9812 10:0 11:1.9875 12:0 13:0.9236 14:1.9855 15:0.993 
38.78630778677873 1:0 2:0 3:3.4818 4:3.4683 5:1.4821 6:3.6467 7:4.1402 8:0 9:2.252 10:0.714 11:0.871 12:0 13:1 14:2.2455 15:0.6402 
128 1:0 2:0 3:3.0116 4:2.5036 5:0.7633 6:1.5331 7:2.2673 8:0 9:0.8865 10:0 11:0.6316 12:0 13:0.8217 14:0 15:0 
128 1:0 2:0 3:3.525 4:2.8647 5:1 6:0.7388 7:3.6871 8:0 9:0.8734 10:0.7577 11:0 12:0 13:0.8408 14:0 15:0 
99.57852457355239 1:0 2:0 3:3.5062 4:5.4534 5:1.9886 6:5.5515 7:3.6846 8:0 9:1 10:0 11:2.9665 12:0 13:0.9236 14:0 15:0 
128 1:0 2:0 3:5.5099 4:4.4621 5:0.993 6:4.5559 7:3.8796 8:0.7368 9:3.9812 10:0 11:1.9875 12:0 13:0.9236 14:1.9855 15:0.993 
128 1:0 2:0 3:3.4017 4:3.8647 5:1 6:1.5486 7:3.6871 8:0 9:0.6107 10:0.7577 11:0 12:0 13:0.8408 14:0.7225 15:0 
128 1:0 2:0 3:4.3133 4:3.8647 5:1 6:1.554 7:3.7177 8:0 9:0.8734 10:0.7577 11:0.759 12:0 13:0.8408 14:0 15:0 
13.35443168096995 1:0 2:0 3:3.6437 4:6.8826 5:0 6:2.8869 7:4.0059 8:0 9:0.8462 10:0.7177 11:0.9264 12:0 13:1 14:0 15:0 
128 1:0 2:0 3:3.0541 4:3.8647 5:1 6:0.8152 7:2.9472 8:0 9:0.8734 10:0.7577 11:0.759 12:0 13:0.8408 14:0 15:0 
31.29447217017282 1:0 2:0 3:5.4199 4:5.0722 5:0.7598 6:3.6467 7:4.1402 8:0.9737 9:2.3708 10:0 11:1.7957 12:0 13:1 14:2.2455 15:0.6402 
94.08045247580313 1:0 2:0 3:3.879 4:4.5721 5:1.9886 6:5.5515 7:3.6966 8:0.7368 9:3.9812 10:0 11:0 12:0 13:0.9236 14:1.9855 15:0.993 
54.65425105785926 1:0 2:0 3:2.7177 4:4.3921 5:0 6:1.8891 7:1.541 8:0 9:2.252 10:0.714 11:1.7957 12:0 13:0 14:2.2455 15:0.6402 
25.7201668944936 1:0 2:0 3:4.5074 4:3.6077 5:1.9886 6:4.5515 7:3.7548 8:0 9:2.9812 10:0 11:2.9647 12:0 13:0 14:1.993 15:0.993 
128 1:0 2:0 3:3.4017 4:3.8647 5:1 6:0 7:2.9111 8:0 9:0.6107 10:0.7577 11:0 12:0 13:0.8408 14:0.7225 15:0 
25.05449643939262 1:0 2:0 3:4.5977 4:6.2847 5:2.9842 6:6.5471 7:4.6784 8:0.7368 9:5.9812 10:0 11:0.9958 12:0 13:0.9236 14:1.993 15:0.993 
78.47730354058307 1:0 2:0 3:5.5031 4:5.4621 5:1.9886 6:4.6305 7:1.9622 8:0.7368 9:3.9812 10:0 11:1.9707 12:0 13:0 14:1.993 15:0.993 
128 1:0 2:0 3:5.5007 4:6.2838 5:0.9912 6:4.5529 7:4.6814 8:0.7368 9:3.9758 10:0 11:1.9908 12:0 13:0.9236 14:1.9953 15:0.9953 
128 1:0 2:0 3:4.2845 4:2.8708 5:0.7633 6:2.2201 7:2.8481 8:0 9:1.4893 10:0.7687 11:1.3479 12:0 13:0 14:0.735 15:0 
128 1:0 2:0 3:2.9011 4:2.8544 5:1.9886 6:3.8484 7:2.7028 8:0 9:2 10:0 11:1.9866 12:0 13:0.9236 14:0 15:0 
99.89040371281648 1:0 2:0 3:3.4095 4:4.1982 5:0.7223 6:2 7:3.4392 8:0 9:2.2556 10:0.7158 11:0.871 12:0 13:1 14:1.4342 15:0.6402 
128 1:0 2:0 3:4.924 4:3.8647 5:1 6:1.554 7:2.8463 8:0 9:1.4841 10:0.7577 11:0 12:0 13:0 14:0.7225 15:0 
12.27576420320372 1:0 2:0 3:2.5981 4:3.4644 5:0.9956 6:2.9878 7:2.7143 8:0.7368 9:1.9796 10:0 11:1.9908 12:0 13:0.9236 14:1.9953 15:0.9953 
128 1:0 2:0 3:3.6817 4:2.8708 5:0.7633 6:2.2201 7:2.9741 8:0 9:0.8865 10:0 11:2.1686 12:0 13:0.8217 14:0 15:0 
58.67726151276322 1:0 2:0 3:4.6446 4:5.0668 5:0.7258 6:2.8862 7:4.7345 8:0.9737 9:1.7829 10:0 11:0 12:0 13:0 14:0 15:0 
128 1:0 2:0 3:2.8941 4:0.9552 5:0 6:1.3948 7:3.6972 8:0 9:1.4893 10:0.7687 11:0.6316 12:0 13:0.8217 14:0.735 15:0 
126.0094884916335 1:0 2:0 3:3.5967 4:5.4251 5:1.9868 6:4.5485 7:1.9776 8:0.7368 9:2.9772 10:0 11:1.9908 12:0 13:0 14:1.9953 15:0.9953 
59.30764217762209 1:0 2:0 3:3.5953 4:5.4251 5:1.9868 6:3.5563 7:3.76 8:0 9:2.9758 10:0 11:0.9958 12:0 13:0 14:1.9953 15:0.9953 
97.31927311950629 1:0 2:0 3:5.4986 4:5.4576 5:1.9886 6:3.9274 7:1.9174 8:0.7368 9:3.9812 10:0 11:1.9875 12:0 13:0.9236 14:1.9855 15:0.993 
55.19066597480951 1:0 2:0 3:5.41 4:5.9293 5:1.4839 6:3.6489 7:2.5292 8:0 9:3.2045 10:0.7394 11:0.871 12:0 13:1 14:1.4342 15:0.6402 
82.33287902318089 1:0 2:0 3:1.8908 4:3.7134 5:0.993 6:3.6241 7:4.5548 8:0.7368 9:1 10:0 11:0.9958 12:0 13:0.8 14:0 15:0 
128 1:0 2:0 3:3.4997 4:3.826 5:0.7633 6:0.687 7:3.7065 8:0 9:0.8865 10:0 11:1.3906 12:0 13:0.8217 14:0 15:0 
128 1:0 2:0 3:4.2845 4:3.826 5:0.7633 6:2.2201 7:3.6698 8:0 9:1.4893 10:0.7687 11:1.418 12:0 13:0.8217 14:0.735 15:0 
128 1:0 2:0 3:5.5007 4:5.286 5:0.9912 6:4.5529 7:3.8814 8:0 9:3.9758 10:0 11:1.9908 12:0 13:0.9236 14:1.9953 15:0.9953 
128 1:0 2:0 3:4.782 4:4.5732 5:1.9868 6:3.633 7:3.7012 8:0.7368 9:3.9758 10:0 11:1.9908 12:0 13:0.9236 14:1.9953 15:0.9953 
12.76272643278551 1:0 2:0 3:5.5031 4:4.6034 5:1.9886 6:3.6197 7:4.6784 8:0.7368 9:3.9812 10:0 11:2.9665 12:0 13:0.9236 14:1.993 15:0.993 
128 1:0 2:0 3:3.6644 4:2.8647 5:0 6:1.5491 7:3.0895 8:0 9:0.8734 10:0 11:0 12:0 13:0.8408 14:0 15:0 
128 1:0 2:0 3:5.5007 4:5.4251 5:1.9868 6:3.6317 7:4.6814 8:0.7368 9:3.9758 10:0 11:1.9908 12:0 13:0.9236 14:1.9953 15:0.9953 
124.2277212751872 1:0 2:0 3:4.5164 4:6.3163 5:1.9868 6:2.6909 7:1.9143 8:0 9:1 10:0 11:0 12:0 13:0.9236 14:0 15:0 
128 1:0 2:0 3:5.5031 4:4.6034 5:1.9886 6:3.6197 7:4.6784 8:0.7368 9:2.9812 10:0 11:1.9875 12:0 13:0.9236 14:1.9855 15:0.993 
128 1:0 2:0 3:4.782 4:4.5732 5:1.9868 6:5.5611 7:3.6907 8:0 9:3.9758 10:0 11:1.9908 12:0 13:0.9236 14:1.9953 15:0.9953 
128 1:0 2:0 3:3.5642 4:3.1057 5:0.7633 6:2.2201 7:2.9741 8:0 9:1.4893 10:0.8087 11:1.3906 12:0 13:0.8217 14:0.735 15:0 
128 1:0 2:0 3:5.7974 4:3.8647 5:1 6:1.554 7:3.0742 8:0 9:2.3575 10:0.7577 11:0.759 12:0 13:0.8408 14:0.7225 15:0 
128 1:0 2:0 3:4.4798 4:4.989 5:1.4821 6:2.6489 7:2.3725 8:0 9:3.2091 10:0 11:0.8701 12:0 13:0 14:1.4342 15:0.6402 
45.40353674276277 1:0 2:0 3:4.6446 4:5.0668 5:0.7258 6:1 7:5.7345 8:0.9737 9:1.7829 10:0.7177 11:2.6946 12:0 13:1 14:0 15:0 
128 1:0 2:0 3:3.4636 4:1.5403 5:1 6:1.554 7:2.1441 8:0 9:1.4841 10:0 11:0.759 12:0 13:0 14:0.7225 15:0 
128 1:0 2:0 3:3.6395 4:4.9292 5:0.7223 6:2.8869 7:4.1402 8:0 9:1.7676 10:0.714 11:0.9247 12:0 13:1 14:0 15:0 
128 1:0 2:0 3:4.0506 4:3.8647 5:1 6:1.554 7:3.6871 8:0 9:0.6107 10:0.7577 11:0.759 12:0 13:0.8408 14:0.7225 15:0 
128 1:0 2:0 3:4.3133 4:2.8647 5:1 6:1.554 7:3.6871 8:0 9:0.8734 10:0.7577 11:0.759 12:0 13:0.8408 14:0 15:0 
128 1:0 2:0 3:3.6123 4:4.3939 5:1.9886 6:4.5515 7:4.6784 8:0 9:3.9812 10:0 11:0.9958 12:0 13:0.9236 14:1.9855 15:0.993 
128 1:0 2:0 3:4.924 4:3.8647 5:1 6:1.554 7:2.0911 8:0 9:1.4841 10:0 11:0.759 12:0 13:0 14:0.7225 15:0 
128 1:0 2:0 3:4.924 4:3.8647 5:1 6:1.554 7:2.9319 8:0 9:1.4841 10:0.7577 11:0.759 12:0 13:0.8408 14:0.7225 15:0 
26.91177856937524 1:3 2:0 3:3.66 4:2.543 5:0.7598 6:2.6489 7:2.569 8:0.9737 9:3.1988 10:0 11:1.7957 12:0 13:1 14:1.4342 15:0.6402 
34.57320071900386 1:0 2:0 3:5.5007 4:6.2838 5:1.9868 6:3.6252 7:3.7578 8:0.7368 9:3.9758 10:0 11:1.9908 12:0 13:0 14:1.9953 15:0.9953 
128 1:0 2:0 3:2.2769 4:2.8708 5:0.7633 6:2.2201 7:2.2242 8:0 9:0.8865 10:0.7687 11:1.3906 12:0 13:0.8217 14:0 15:0 
39.23664889603914 1:0 2:0 3:3.8684 4:4.3921 5:0.7223 6:2.8869 7:3.3356 8:0.9737 9:1.7676 10:0.714 11:0 12:0 13:1 14:0 15:0 
128 1:0 2:0 3:2.0663 4:2.1505 5:0.7633 6:1.5123 7:2.2668 8:0 9:0.6028 10:0.7687 11:1.3906 12:0 13:0.8217 14:0.735 15:0 
128 1:0 2:0 3:4.924 4:3.8647 5:1 6:1.5406 7:3.1262 8:0 9:1.4841 10:0.7577 11:0.759 12:0 13:0.8408 14:0.7225 15:0 
128 1:0 2:0 3:3.6817 4:2.9979 5:0.7633 6:1.3948 7:2.2242 8:0 9:0.8865 10:0.7687 11:0.759 12:0 13:0.8217 14:0 15:0 
3.903726012635173 1:0 2:0 3:5.432 4:6.7733 5:0.7258 6:1 7:3.1405 8:0 9:3.2143 10:0.714 11:1.7974 12:0 13:0 14:1.4317 15:0.6402 
128 1:0 2:0 3:4.6558 4:4.3921 5:1.4821 6:3.6467 7:4.0991 8:0.9737 9:3.1952 10:0 11:1.7957 12:0 13:1 14:2.2455 15:0.6402 
11.09265278447196 1:0 2:0 3:1.9815 4:2.8537 5:1.9868 6:5.5485 7:2.7671 8:0.7368 9:2.9758 10:0 11:1.9908 12:0 13:0 14:1.9953 15:0.9953 
11.98045795008916 1:0 2:0 3:5.5925 4:7.281 5:0.9912 6:3.6325 7:4.6814 8:0.7368 9:3.9758 10:0 11:1.9908 12:0 13:0.9236 14:1.9953 15:0.9953 
128 1:0 2:0 3:5.5007 4:5.4251 5:1.9868 6:3.9111 7:4.6814 8:0 9:3.9758 10:0 11:1.9908 12:0 13:0.9236 14:1.9953 15:0.9953 
128 1:0 2:0 3:5.5007 4:6.2838 5:1.9868 6:2.9221 7:2.7709 8:0 9:3.9758 10:0 11:1.9889 12:0 13:0 14:1.9953 15:0.9953 
1.94172301821881 1:0 2:0 3:6.2067 4:5.0722 5:1.4821 6:2.7576 7:4.1402 8:0 9:3.982 10:0.714 11:1.7957 12:0 13:1 14:2.9882 15:0.6402 
128 1:0 2:0 3:2.879 4:3.7495 5:1.9886 6:5.5515 7:4.6784 8:0.7368 9:2.9812 10:0 11:1.9875 12:0 13:0.9236 14:1.9855 15:0.993 
128 1:0 2:0 3:3.6144 4:2.5036 5:0.7633 6:1.3948 7:3.6698 8:0 9:1.4893 10:0.7687 11:1.3906 12:0 13:0.8217 14:0.735 15:0 
128 1:0 2:0 3:4.5035 4:4.4622 5:0.9956 6:4.5566 7:2.8945 8:0.7368 9:3.9758 10:0 11:1.9908 12:0 13:0.9236 14:1.9953 15:0.9953 
128 1:0 2:0 3:5.5007 4:6.2838 5:1.9868 6:4.6252 7:4.6814 8:0.7368 9:2.9796 10:0 11:1.9908 12:0 13:0.9236 14:1.9953 15:0.9953 
128 1:0 2:0 3:4.1357 4:3.8647 5:1 6:1.554 7:3.6871 8:0 9:1.4841 10:0.7577 11:0.759 12:0 13:0.8408 14:0.7225 15:0 
128 1:0 2:0 3:4.924 4:2.8647 5:0 6:1.554 7:3.6871 8:0 9:1.4841 10:0.7577 11:0.759 12:0 13:0.8408 14:0.7225 15:0 
128 1:0 2:0 3:3.8869 4:2.8194 5:2.978 6:3.633 7:4.6776 8:0.7368 9:3.9758 10:0 11:1.9908 12:0 13:0.9236 14:1.9953 15:0.9953 
30.19405286853721 1:0 2:0 3:5.5869 4:6.8826 5:0.7223 6:2.8869 7:3.3371 8:0.9737 9:1.7894 10:0.7177 11:0.9264 12:0 13:1 14:0 15:0 
17.90190377873353 1:0 2:0 3:6.1095 4:5.426 5:0 6:2.6241 7:2.761 8:0.7368 9:2.9812 10:0 11:1.9875 12:0 13:0 14:1.9855 15:0.993 
128 1:0 2:0 3:3.5515 4:4.9794 5:1.4856 6:2.6489 7:3.4026 8:0 9:2.2711 10:0 11:1.7974 12:0 13:1 14:1.4317 15:0.6402 
9.176025613861338 1:0 2:0 3:2.7952 4:2.8708 5:0.7633 6:2.2201 7:3.6698 8:0 9:0 10:0.7687 11:2.179 12:0 13:0.8217 14:0 15:0 
128 1:0 2:0 3:4.924 4:3.8647 5:1 6:1.554 7:3.6871 8:0 9:1.4841 10:0.7577 11:0.759 12:0 13:0.8408 14:0.7225 15:0 
128 1:0 2:0 3:4.924 4:2.8647 5:1 6:1.554 7:3.6871 8:0 9:1.4841 10:0.7577 11:0.759 12:0 13:0.8408 14:0.7225 15:0 
128 1:0 2:0 3:4.7844 4:3.7495 5:1.9886 6:5.5515 7:2.7028 8:0.7368 9:3.9812 10:0 11:1.9875 12:0 13:0.9236 14:1.9855 15:0.993 
91.88787846245989 1:0 2:0 3:1.8908 4:3.7495 5:1.9886 6:4.6305 7:3.7548 8:0.7368 9:1.993 10:0 11:0.9917 12:0 13:0 14:1.9855 15:0.993 
128 1:0 2:0 3:4.5149 4:4.4621 5:1.9886 6:5.5515 7:4.6784 8:0 9:2.993 10:0 11:1.9875 12:0 13:0.9236 14:1.9855 15:0.993 
128 1:0 2:0 3:4.924 4:3.8647 5:0 6:0.8152 7:3.7024 8:0 9:1.4841 10:0.7577 11:0.759 12:0 13:0.8408 14:0.7225 15:0 
112.463623256427 1:0 2:0 3:3.4888 4:4.2459 5:1.4856 6:0.7598 7:4.1405 8:0 9:2.2711 10:0.714 11:1.7974 12:0 13:1 14:1.4317 15:0.6402 
128 1:0 2:0 3:4.5035 4:5.3109 5:1.9868 6:5.5485 7:2.9578 8:0.7368 9:2.9796 10:0 11:1.9908 12:0 13:0 14:1.9953 15:0.9953 
128 1:0 2:0 3:3.6628 4:2.5658 5:1.4821 6:2.6467 7:4.1402 8:0.9737 9:3.1952 10:0 11:1.7957 12:0 13:1 14:2.2455 15:0.6402 
128 1:0 2:0 3:5.4955 4:6.2769 5:1.9886 6:5.5515 7:4.6782 8:0.7368 9:2.9882 10:0 11:0.9958 12:0 13:0.9236 14:1 15:0 
128 1:0 2:0 3:4.3133 4:3.8647 5:1 6:0.7491 7:2.9849 8:0 9:0.8734 10:0.7577 11:0 12:0 13:0.8408 14:0 15:0 
85.55666772609233 1:0 2:0 3:2.611 4:6.2838 5:1.9868 6:3.6252 7:3.6945 8:0 9:0.9962 10:0 11:0.995 12:0 13:0.9236 14:0 15:0 
128 1:0 2:0 3:4.5035 4:5.2866 5:0.9956 6:5.5485 7:3.6945 8:0.7368 9:3.9758 10:0 11:1.9908 12:0 13:0.9236 14:1.9953 15:0.9953 
94.81714414719096 1:0 2:0 3:3.7977 4:3.7488 5:0.9912 6:3.6186 7:2.7671 8:0.7368 9:1.9962 10:0 11:0 12:0 13:0 14:0 15:0 
128 1:0 2:0 3:4.4798 4:4.2254 5:1.4821 6:2.7576 7:2.6314 8:0 9:3.2091 10:0 11:1.7965 12:0 13:1 14:1.4342 15:0.6402 
128 1:0 2:0 3:1.9932 4:3.826 5:0.7633 6:0.8253 7:2.2247 8:0 9:0.6028 10:0.7687 11:1.3906 12:0 13:0.8217 14:0.735 15:0 
128 1:0 2:0 3:5.5007 4:6.2838 5:1.9868 6:5.5485 7:4.6814 8:0.7368 9:3.9758 10:0 11:1.9908 12:0 13:0.9236 14:1.9953 15:0.9953 
128 1:0 2:0 3:3.0116 4:2.5036 5:0.7633 6:2.2201 7:3.6698 8:0 9:0.8865 10:0.7687 11:1.3906 12:0 13:0.8217 14:0 15:0 
128 1:0 2:0 3:3.7887 4:2.7538 5:0.9956 6:5.5515 7:4.6782 8:0.7368 9:3.9812 10:0 11:1.9875 12:0 13:0.9236 14:1.9855 15:0.993 
21.37228607898976 1:0 2:0 3:2.8908 4:2.7495 5:1.9886 6:4.5515 7:3.6846 8:0.7368 9:1 10:0 11:0.9917 12:0 13:0.9236 14:0 15:0 
128 1:0 2:0 3:5.5031 4:5.4621 5:1.9886 6:5.5515 7:4.6784 8:0.7368 9:3.9812 10:0 11:2.972 12:0 13:0.9236 14:1.993 15:0.993 
128 1:0 2:0 3:4.5953 4:6.2776 5:1.9868 6:5.5485 7:3.8814 8:0 9:3.9758 10:0 11:1.9908 12:0 13:0.9236 14:1.9953 15:0.9953 
86.68443348108497 1:0 2:0 3:3.8869 4:3.6794 5:0.9912 6:1.9386 7:3.7578 8:0.7368 9:3.9758 10:0 11:0.9958 12:0 13:0 14:1.9953 15:0.9953 
49.67459467315248 1:0 2:0 3:1.9373 4:4.2353 5:2.0975 6:4.2608 7:2.3341 8:0.9737 9:0.8435 10:0 11:0 12:0 13:0 14:0 15:0 
128 1:0 2:0 3:5.5007 4:6.2495 5:1.9868 6:4.8435 7:3.7012 8:0 9:2.9796 10:0 11:1.9908 12:0 13:0.9236 14:1.9953 15:0.9953 
128 1:0 2:0 3:3.2623 4:3.8647 5:1 6:1.554 7:2.9264 8:0 9:0.6107 10:0.7577 11:0.7138 12:0 13:0.8408 14:0.7225 15:0 
128 1:0 2:0 3:4.608 4:5.3896 5:1.9886 6:4.6197 7:4.6784 8:0.7368 9:3.9812 10:0 11:1.9875 12:0 13:0.9236 14:1.9855 15:0.993 
90.13794720760318 1:0 2:0 3:3.6504 4:4.4358 5:0.993 6:2.8528 7:1.904 8:0.7368 9:3.9812 10:0 11:0.9958 12:0 13:0.9236 14:1.9855 15:0.993 
128 1:0 2:0 3:4.5035 4:5.2866 5:1.9868 6:5.5485 7:3.7012 8:0.7368 9:3.9758 10:0 11:1.9908 12:0 13:0.9236 14:1.9953 15:0.9953 
21.67512224771565 1:0 2:0 3:5.43 4:5.1034 5:1.49 6:4.6504 7:5.7345 8:0.9737 9:3.2062 10:0.7177 11:2.6946 12:0 13:1 14:1.4294 15:0.6379 
128 1:0 2:0 3:4.3133 4:3.8647 5:1 6:0.7388 7:3.6871 8:0 9:0.8734 10:0.7577 11:0 12:0 13:0.8408 14:0 15:0 
128 1:0 2:0 3:4.924 4:3.8647 5:1 6:2.2957 7:2.9417 8:0 9:1.4841 10:0.7577 11:0.759 12:0 13:0.8408 14:0.7225 15:0 
128 1:0 2:0 3:3.0116 4:2.5036 5:0 6:2.2201 7:2.2668 8:0 9:0.8865 10:0.7687 11:1.3906 12:0 13:0.8217 14:0 15:0 
128 1:0 2:0 3:4.2845 4:3.826 5:0.7633 6:2.2201 7:2.9736 8:0 9:1.4893 10:0 11:0 12:0 13:0.8217 14:0.735 15:0 
0.6001113858656021 1:0 2:0 3:6.3621 4:4.4074 5:1.49 6:1.6533 7:5.7345 8:0.9737 9:3.2062 10:0.7177 11:3.5678 12:0 13:1 14:1.4294 15:0.6379 
97.82378064721203 1:0 2:0 3:6.3982 4:7.1798 5:0.993 6:4.5559 7:3.7548 8:0.7368 9:3.9812 10:0 11:1.9875 12:0 13:0 14:1.9855 15:0.993 
128 1:0 2:0 3:4.5149 4:5.426 5:0.993 6:3.8528 7:3.6966 8:0 9:2 10:0 11:0.9917 12:0 13:0.9236 14:0 15:0 
5.58011948807202 1:0 2:0 3:4.5164 4:4.4273 5:0.9956 6:4.5563 7:4.6814 8:0.7368 9:1.9962 10:0 11:1.9908 12:0 13:0.9236 14:0 15:0 
128 1:0 2:0 3:3.603 4:2.5403 5:0 6:1.554 7:2.372 8:0 9:1.4841 10:0.7577 11:0 12:0 13:0.8408 14:0.7225 15:0 
26.91998258290545 1:0 2:0 3:3.8869 4:3.6781 5:0.9912 6:2.6264 7:3.6907 8:0.7368 9:2.9805 10:0 11:1.9908 12:0 13:0.9236 14:1 15:0 
102.9620726203626 1:0 2:0 3:5.5031 4:5.4621 5:0.9956 6:5.5515 7:0.9236 8:0.7368 9:3.9847 10:0 11:1.9875 12:0 13:0.9236 14:1.989 15:0.9965 
128 1:0 2:0 3:3.4017 4:3.8647 5:1 6:1.5396 7:3.6871 8:0 9:0.6107 10:0 11:0 12:0 13:0.8408 14:0.7225 15:0 
128 1:0 2:0 3:4.5953 4:6.2838 5:1.9868 6:5.5485 7:4.6814 8:0.7368 9:3.9758 10:0 11:0.9958 12:0 13:0.9236 14:1.9953 15:0.9953 
69.48543098236715 1:0 2:0 3:4.5164 4:5.4251 5:1.9868 6:1.9189 7:3.8814 8:0 9:1.9962 10:0 11:0.995 12:0 13:0.9236 14:0 15:0 
128 1:0 2:0 3:4.782 4:4.5775 5:1.9868 6:5.5485 7:3.6907 8:0.7368 9:3.9758 10:0 11:1.9908 12:0 13:0.9236 14:1.9953 15:0.9953 
128 1:0 2:0 3:4.5074 4:4.4664 5:1.9886 6:5.5515 7:3.6846 8:0.7368 9:3.9812 10:0 11:1.9875 12:0 13:0.9236 14:1.9855 15:0.993 
83.36675132524414 1:0 2:0 3:3.6213 4:5.3887 5:1.9868 6:3.633 7:4.6717 8:0.7368 9:1.9962 10:0 11:0.995 12:0 13:0.9236 14:0 15:0 
128 1:0 2:0 3:3.5316 4:1 5:1 6:1.554 7:2.9849 8:0 9:1.4841 10:0.7577 11:0.759 12:0 13:0.8408 14:0.7383 15:0 
128 1:0 2:0 3:4.924 4:3.8647 5:1 6:0.8152 7:3.6871 8:0 9:1.4841 10:0.7577 11:0.759 12:0 13:0.8408 14:0.7303 15:0 
128 1:0 2:0 3:3.6144 4:2.5036 5:0.7633 6:2.2201 7:3.6698 8:0 9:1.4893 10:0.7687 11:1.3906 12:0 13:0.8217 14:0.735 15:0 
128 1:0 2:0 3:4.924 4:2.8647 5:1 6:1.5406 7:4.4423 8:0 9:1.4841 10:0.7577 11:0.759 12:0 13:0.8408 14:0.7225 15:0 
17.42637277034477 1:0 2:0 3:2.7014 4:5.955 5:0.7258 6:3.8828 7:2.3624 8:0.9737 9:0.8397 10:0.7177 11:0 12:0 13:0 14:0 15:0 
128 1:0 2:0 3:5.5031 4:5.4621 5:1.9886 6:5.5515 7:3.8796 8:0 9:3.9812 10:0 11:0.9958 12:0 13:0.9236 14:1.993 15:0.993 
25.10188445396593 1:3 2:0 3:4.6325 4:5.0968 5:1.4821 6:1.7598 7:3.3356 8:0 9:1.7907 10:0 11:0 12:0 13:1 14:0 15:0 
128 1:0 2:0 3:2.9927 4:1.5403 5:0 6:0 7:3.7024 8:0 9:1.4841 10:0.7577 11:0 12:0 13:0.8408 14:0.7225 15:0 
73.62146157508604 1:0 2:0 3:4.5164 4:6.2838 5:0.9956 6:3.8454 7:3.7012 8:0.7368 9:1.9962 10:0 11:0.995 12:0 13:0.9236 14:0 15:0 
128 1:0 2:0 3:4.924 4:3.8647 5:1 6:1.554 7:3.6871 8:0 9:1.4841 10:0 11:0.759 12:0 13:0.8408 14:0.7225 15:0 
128 1:0 2:0 3:1.3904 4:3.8177 5:0.7633 6:0.8253 7:2.9204 8:0 9:0 10:0.7687 11:1.3906 12:0 13:0.8217 14:0 15:0 
128 1:0 2:0 3:2.821 4:2.5036 5:0.7633 6:2.2201 7:2.2668 8:0 9:1.4893 10:0 11:1.3906 12:0 13:0.8217 14:0.735 15:0 
128 1:0 2:0 3:4.2845 4:3.826 5:0 6:1.5123 7:3.6698 8:0 9:1.4893 10:0.7687 11:1.3906 12:0 13:0.8217 14:0.735 15:0 
128 1:0 2:0 3:2.9614 4:3.1057 5:0.7633 6:1.5331 7:2.9736 8:0 9:0.8865 10:0 11:0.6316 12:0 13:0.8217 14:0 15:0 
128 1:0 2:0 3:4.9069 4:3.8647 5:1 6:1.554 7:3.6871 8:0 9:1.4841 10:0.7577 11:0.759 12:0 13:0.8408 14:0.7225 15:0 
128 1:0 2:0 3:4.924 4:2.8647 5:1 6:1.554 7:3.6871 8:0 9:1.4841 10:0.7577 11:0.759 12:0 13:0.8408 14:0.7284 15:0 
128 1:0 2:0 3:3.5035 4:5.2866 5:1.9868 6:5.5485 7:2.8945 8:0.7368 9:2.9758 10:0 11:1.9923 12:0 13:0.9236 14:1.9953 15:0.9953 
128 1:0 2:0 3:5.5381 4:4.5008 5:0.9956 6:5.5515 7:2.7042 8:0.7368 9:3.98 10:0 11:1.9875 12:0 13:0.9236 14:1.9843 15:0.9918 
128 1:0 2:0 3:5.5007 4:6.2838 5:1.9868 6:5.5485 7:4.6766 8:0.7368 9:3.9758 10:0 11:1.9908 12:0 13:0.9236 14:1.9953 15:0.9953 
128 1:0 2:0 3:5.5007 4:5.4215 5:1.9868 6:4.5485 7:4.6814 8:0 9:3.9758 10:0 11:1.9908 12:0 13:0.9236 14:1.9953 15:0.9953 
128 1:0 2:0 3:2.2769 4:3.826 5:0.7633 6:1.5331 7:3.6698 8:0 9:0.8865 10:0.7687 11:0.759 12:0 13:0.8217 14:0 15:0 
128 1:0 2:0 3:4.924 4:3.8647 5:1 6:1.554 7:3.6871 8:0 9:1.4841 10:0.7577 11:0.759 12:0 13:0.8408 14:0.7225 15:0 
128 1:0 2:0 3:3.5934 4:2.3244 5:1 6:0.8152 7:4.3111 8:0 9:1.4841 10:0 11:0.759 12:0 13:0.8408 14:0.7225 15:0 
128 1:0 2:0 3:4.1357 4:3.8647 5:1 6:0.8152 7:3.0995 8:0 9:1.4841 10:0.7577 11:0.759 12:0 13:0.8355 14:0.7225 15:0 
128 1:0 2:0 3:4.6325 4:3.4683 5:0.7223 6:0.8891 7:3.1402 8:0 9:1.7676 10:0 11:0.9247 12:0 13:0 14:0 15:0 
42.47610579664541 1:0 2:0 3:5.5007 4:5.4251 5:0.9912 6:1.8445 7:3.7012 8:0 9:3.9758 10:0 11:1.9908 12:0 13:0.9236 14:1.9953 15:0.9953 
20.13824079614655 1:0 2:0 3:3.4553 4:3.3991 5:1.4821 6:2.6467 7:3.3102 8:0.9737 9:3.7984 10:0.714 11:2.6667 12:0 13:1 14:4.491 15:1.2804 
125.2161955733907 1:0 2:0 3:3.6123 4:2.5713 5:1.9886 6:4.8623 7:1.904 8:0.7368 9:2.9812 10:0 11:1.9875 12:0 13:0.9236 14:1.9855 15:0.993 
98.46755585215526 1:0 2:0 3:5.4341 4:7.5439 5:1.4856 6:3.6489 7:2.5726 8:0 9:3.2235 10:0.6956 11:1.7974 12:0 13:1 14:1.4388 15:0.6473 
128 1:0 2:0 3:2.8005 4:2.7538 5:0.9956 6:2.6305 7:4.6784 8:0.7368 9:1 10:0 11:0.9958 12:0 13:0.9236 14:0 15:0 
128 1:0 2:0 3:4.5067 4:5.2866 5:0.9956 6:5.5485 7:3.6961 8:0.7368 9:3.979 10:0 11:1.9908 12:0 13:0.9252 14:1.9953 15:0.9953 
128 1:0 2:0 3:4.3133 4:3.8647 5:0 6:0.8152 7:3.0742 8:0 9:0.8734 10:0.7577 11:0 12:0 13:0.8408 14:0.7169 15:0 
128 1:0 2:0 3:5.5031 4:6.2847 5:1.9886 6:5.5515 7:3.6846 8:0.7368 9:3.9812 10:0 11:1.9875 12:0 13:0.9236 14:1.9855 15:0.993 
128 1:0 2:0 3:4.7031 4:3.7145 5:1.9868 6:5.5485 7:3.6907 8:0.7368 9:1.9962 10:0 11:0.995 12:0 13:0.9236 14:0 15:0 
128 1:0 2:0 3:5.5031 4:4.6034 5:1.9886 6:3.6197 7:3.6909 8:0.7368 9:2.9812 10:0 11:1.9875 12:0 13:0.9236 14:1.9855 15:0.993 
52.37488073614714 1:0 2:0 3:3.8893 4:1.9957 5:1.9884 6:2.6985 7:1.9622 8:0.7368 9:1.9882 10:0 11:0 12:0 13:0 14:1 15:0 
128 1:0 2:0 3:5.4188 4:5.084 5:1.4839 6:2.6489 7:2.6832 8:0 9:1.7208 10:0.7158 11:0.871 12:0 13:1 14:0.794 15:0 
45.3826508437144 1:0 2:0 3:2.9209 4:0 5:1 6:0.8152 7:2.9849 8:0 9:0.8734 10:0.7577 11:0 12:0 13:0.8408 14:0 15:0 
128 1:0 2:0 3:4.608 4:5.3896 5:1.9886 6:5.5515 7:4.6784 8:0.7368 9:3.9812 10:0 11:1.9852 12:0 13:0.9236 14:1.9855 15:0.993 
128 1:0 2:0 3:4.5074 4:4.4664 5:1.9886 6:5.5515 7:3.6846 8:0.7368 9:3.9809 10:0 11:1.9875 12:0 13:0.9236 14:1.9852 15:0.9927 
12.71414440449599 1:0 2:0 3:5.5031 4:4.6034 5:0.993 6:0.921 7:2.773 8:0.7368 9:2.9812 10:0 11:1.9707 12:0 13:0 14:1.993 15:0.993 
128 1:0 2:0 3:4.3898 4:3.8647 5:1 6:0.7388 7:2.8463 8:0 9:0.8734 10:0 11:0 12:0 13:0 14:0 15:0 
6.421882197613585 1:0 2:0 3:4.7755 4:3.7406 5:0.993 6:4.5559 7:4.6784 8:0.7368 9:3.9812 10:0 11:2.9665 12:0 13:0.9236 14:1.993 15:0.993 
64.12736009365983 1:0 2:0 3:4.7844 4:2.8908 5:1.9886 6:2.6987 7:4.6739 8:0.7368 9:3.9809 10:0 11:0.9958 12:0 13:0.9191 14:1.9852 15:0.9927 
128 1:0 2:0 3:5.5007 4:6.2811 5:1.9868 6:5.5455 7:2.7776 8:0.7368 9:3.9758 10:0 11:1.9908 12:0 13:0 14:1.9953 15:0.9953 
6.005114403881042 1:0 2:0 3:1.7571 4:4.9928 5:0 6:1.8891 7:1.6346 8:0.9737 9:0.8244 10:0.714 11:0 12:0 13:0 14:0 15:0 
43.06118445353309 1:0 2:0 3:5.5031 4:5.2805 5:0 6:3.6241 7:1.7224 8:0 9:3.9812 10:0 11:2.9663 12:0 13:0.9236 14:1.993 15:0.993 
128 1:0 2:0 3:5.3734 4:5.0303 5:2.2419 6:3.4087 7:4.1417 8:0 9:3.2091 10:0 11:1.7965 12:0 13:1 14:1.4342 15:0.6402 
-38.82743262919458 1:0 2:0 3:5.0392 4:6.0756 5:1.2239 6:2.483 7:3.408 8:0 9:2.3844 10:0 11:0.7907 12:0 13:0.9032 14:0.7638 15:0 
-83.10555017857095 1:0 2:0 3:4.2751 4:3.8647 5:1 6:0 7:3.6015 8:0 9:1.4816 10:0.7577 11:0.7569 12:0 13:0 14:0.7275 15:0 
-97.72554895337164 1:0 2:0 3:4.4762 4:4.3412 5:1.2239 6:3.2497 7:3.2613 8:0 9:2.3844 10:1 11:0.7907 12:0 13:0 14:0.7638 15:0 
-128 1:0 2:0 3:4.7844 4:3.7134 5:0.9956 6:3.6197 7:2.7028 8:0.7368 9:2.9882 10:0 11:1.9875 12:0 13:0.9236 14:0 15:0 
-55.02720890021104 1:0 2:0 3:5.2106 4:6.0756 5:1.2239 6:3.2497 7:3.408 8:0 9:2.3844 10:0 11:0.7907 12:0 13:0.9032 14:0.7638 15:0 
-128 1:0 2:0 3:5.5031 4:6.2847 5:1.9886 6:5.5515 7:4.6784 8:0.7368 9:3.9812 10:0 11:1.9875 12:0 13:0.9236 14:1.993 15:0.993 
-28.5647753168041 1:0 2:0 3:5.2106 4:5.0783 5:1.2239 6:1.6201 7:3.408 8:0 9:1.6897 10:0 11:0.7907 12:0 13:0.9032 14:0.7638 15:0 
-128 1:0 2:0 3:2.6139 4:2.8606 5:0 6:1.5564 7:2.2982 8:0 9:0.6107 10:0.7249 11:1.4387 12:0 13:0.8408 14:0.7275 15:0 
-128 1:0 2:0 3:1.9874 4:3.6817 5:0.9877 6:5.1913 7:3.6895 8:0.7105 9:2.9809 10:0 11:1.9891 12:0 13:0.9236 14:1.9907 15:0.9907 
-128 1:0 2:0 3:3.7965 4:4.5756 5:0.9877 6:4.1913 7:2.7094 8:0 9:2 10:0 11:1.9891 12:0 13:0.9236 14:0 15:0 
-128 1:0 2:0 3:2.8742 4:3.6821 5:1 6:0.8152 7:3.0678 8:0 9:0.869 10:0.7559 11:1.4105 12:0 13:0.8344 14:0 15:0 
-128 1:0 2:0 3:4.7879 4:4.5768 5:1.9833 6:5.2636 7:3.6964 8:0.7105 9:3.9809 10:0 11:0.9958 12:0 13:0.9236 14:1.9907 15:0.9907 
-128 1:0 2:0 3:3.2648 4:3.8598 5:1 6:1.5533 7:2.9047 8:0 9:0.6107 10:0.7559 11:0.6557 12:0 13:0.8344 14:0.7275 15:0 
-128 1:0 2:0 3:4.5031 4:5.426 5:0.993 6:4.5559 7:3.6846 8:0.7368 9:2.9812 10:0 11:1.9875 12:0 13:0.9236 14:1.993 15:0.993 
-28.33765503158418 1:3 2:0 3:4.3114 4:3.8598 5:1 6:1.5533 7:3.6981 8:0 9:0.869 10:0.7559 11:0.7548 12:0 13:0.8344 14:0 15:0 
-102.0678384842327 1:0 2:0 3:4.7866 4:4.5755 5:1.9833 6:6.1869 7:3.6964 8:0.7105 9:3.9809 10:0 11:1.9896 12:0 13:0.9236 14:1.9907 15:0.9907 
-128 1:0 2:0 3:5.5066 4:6.2894 5:0.9877 6:2.8498 7:2.7795 8:0.7105 9:3.9809 10:0 11:2.9826 12:0 13:0 14:1.9907 15:0.9907 
-34.99727575951074 1:0 2:0 3:5.9126 4:7.0701 5:1.2239 6:4.1126 7:4.1645 8:0 9:3.2578 10:1 11:0.7729 12:0 13:0.9032 14:0.7638 15:0 
-128 1:0 2:0 3:2.8923 4:4.5768 5:1.9833 6:3.8454 7:3.7031 8:0.7105 9:2 10:0 11:0.9933 12:0 13:0.9236 14:0 15:0 
-128 1:0 2:0 3:3.4829 4:3.8606 5:1 6:1.5566 7:3.6871 8:0 9:1.4797 10:0 11:0.7569 12:0 13:0.8408 14:0.7275 15:0 
-40.54075802127746 1:0 2:0 3:1.2829 4:2.3203 5:1 6:0.7412 7:2.2089 8:0 9:0 10:0.7577 11:0.7569 12:0 13:0.8408 14:0 15:0 
-5.270800234121166 1:0 2:0 3:3.7977 4:4.5768 5:1.9833 6:6.1869 7:3.7597 8:0.7105 9:2 10:0 11:1.9895 12:0 13:0 14:0 15:0 
-128 1:0 2:0 3:4.924 4:3.8647 5:1 6:1.554 7:2.9556 8:0 9:1.4816 10:0.7577 11:0.7569 12:0 13:0.8408 14:0.7275 15:0 
-128 1:0 2:0 3:2.9422 4:3.1395 5:1 6:1.5533 7:2.9785 8:0 9:0.869 10:0.7559 11:0.7548 12:0 13:0.8344 14:0 15:0 
-128 1:0 2:0 3:3.5911 4:3.1561 5:1 6:0.7388 7:2.9849 8:0 9:0.869 10:0.7577 11:0 12:0 13:0.8408 14:0 15:0 
-128 1:0 2:0 3:4.1338 4:3.8616 5:0 6:1.5642 7:2.9255 8:0 9:1.4797 10:0.7559 11:1.4105 12:0 13:0.8344 14:0.7275 15:0 
-128 1:0 2:0 3:4.7871 4:4.5768 5:1.9833 6:5.2636 7:4.6833 8:0.7105 9:2.9894 10:0 11:1.9891 12:0 13:0.9236 14:0 15:0 
-128 1:0 2:0 3:3.2667 4:3.8647 5:1 6:1.554 7:2.9111 8:0 9:0.6126 10:0.7577 11:0.7569 12:0 13:0.8408 14:0.7275 15:0 
-122.6627218783248 1:0 2:0 3:4.924 4:3.0447 5:1 6:0.8152 7:3.6871 8:0 9:1.4816 10:0.7577 11:0.7569 12:0 13:0.8408 14:0.7275 15:0 
-128 1:0 2:0 3:3.5229 4:2.0447 5:0 6:1.554 7:3.6871 8:0 9:1.4816 10:0.7305 11:0.7569 12:0 13:0.8408 14:0.7275 15:0 
-128 1:0 2:0 3:4.5074 4:3.4664 5:0.9956 6:5.5515 7:2.7042 8:0.7368 9:3.9812 10:0 11:1.9875 12:0 13:0.9236 14:1.993 15:0.993 
-128 1:0 2:0 3:3.8893 4:3.677 5:1.9886 6:5.5515 7:4.6784 8:0.7368 9:3.9812 10:0 11:1.9875 12:0 13:0.9236 14:1.993 15:0.993 
-128 1:0 2:0 3:3.6877 4:4.3932 5:0.6038 6:0.8629 7:2.5048 8:0 9:1.3844 10:0 11:0.7907 12:0 13:0 14:0 15:0 
-14.85716974623768 1:0 2:0 3:4.3114 4:3.8598 5:0 6:1.5533 7:2.8673 8:0 9:0.869 10:0.7559 11:1.4105 12:0 13:0 14:0 15:0 
-128 1:0 2:0 3:3.5192 4:2.6077 5:0.9877 6:2.3415 7:5.6771 8:0.7105 9:1 10:0 11:0 12:0 13:0.9236 14:0 15:0 
-128 1:0 2:0 3:3.381 4:1.7167 5:1 6:1.5533 7:1.5366 8:0 9:0.6107 10:0.7559 11:0.7548 12:0 13:0.8344 14:0.7275 15:0 
-128 1:0 2:0 3:5.5031 4:5.4621 5:0 6:4.5559 7:2.7162 8:0 9:3.9812 10:0 11:1.9875 12:0 13:0.9236 14:1.993 15:0.993 
-128 1:0 2:0 3:4.5164 4:6.2894 5:1.9833 6:5.2526 7:4.6833 8:0 9:2 10:0 11:0.9958 12:0 13:0.9236 14:0 15:0 
-128 1:0 2:0 3:2.6178 4:3.8647 5:1 6:0.8152 7:3.0534 8:0 9:0.6126 10:0.7577 11:0.7569 12:0 13:0.8408 14:0.7275 15:0 
-128 1:0 2:0 3:3.4829 4:3.8606 5:1 6:1.5564 7:3.6871 8:0 9:1.4797 10:0 11:0.7569 12:0 13:0.8408 14:0.7275 15:0 
-128 1:0 2:0 3:4.924 4:3.8647 5:1 6:1.554 7:3.6871 8:0 9:1.4816 10:0.7577 11:0.7569 12:0 13:0.8408 14:0.7275 15:0 
-128 1:0 2:0 3:1.9338 4:2.1431 5:1 6:1.5533 7:2.1495 8:0 9:0 10:0.7559 11:1.4105 12:0 13:0.8344 14:0 15:0 
-128 1:0 2:0 3:4.9221 4:3.8598 5:1 6:1.5533 7:2.8463 8:0 9:1.4797 10:0 11:0 12:0 13:0 14:0.7275 15:0 
-128 1:0 2:0 3:3.6123 4:2.7126 5:1.9886 6:4.6197 7:4.6784 8:0.7368 9:3.9812 10:0 11:0.9958 12:0 13:0.9236 14:1.993 15:0.993 
-3.218392408890137 1:0 2:0 3:5.5066 4:6.2894 5:1.9833 6:6.1869 7:2.7026 8:0.7105 9:3.9809 10:0 11:1.9891 12:0 13:0.9236 14:1.9907 15:0.9907 
-128 1:0 2:0 3:4.7844 4:3.7495 5:1.9886 6:5.5515 7:4.6784 8:0 9:3.9812 10:0 11:1.9875 12:0 13:0.9236 14:1.993 15:0.993 
-128 1:0 2:0 3:4.5135 4:5.2922 5:1.9833 6:4.8454 7:1.9105 8:0.7105 9:3.985 10:0 11:0.997 12:0 13:0.9236 14:1.9907 15:0.9907 
-128 1:0 2:0 3:3.4829 4:3.8606 5:1 6:1.5564 7:3.6871 8:0 9:1.4797 10:0.7577 11:0.7569 12:0 13:0.8408 14:0.7275 15:0 
-21.70115171843197 1:0 2:0 3:2.611 4:6.2894 5:0 6:4.268 7:3.6961 8:0.7105 9:1 10:0 11:0 12:0 13:0.9236 14:0 15:0 
-128 1:0 2:0 3:4.3826 4:4.585 5:1 6:1.554 7:2.319 8:0 9:1.4816 10:0.7577 11:0.7569 12:0 13:0.8408 14:0.7275 15:0 
-128 1:0 2:0 3:5.5056 4:6.2884 5:1.9833 6:5.2526 7:4.6833 8:0.7105 9:3.9805 10:0 11:1.9891 12:0 13:0.9236 14:1.9903 15:0.9903 
-84.75489390751933 1:0 2:0 3:3.8825 4:4.5768 5:0.9956 6:6.1869 7:2.8976 8:0.7105 9:3.9809 10:0 11:1.9897 12:0 13:0.9236 14:1.9907 15:0.9907 
-128 1:0 2:0 3:5.5066 4:6.2894 5:0.9877 6:4.1913 7:4.6833 8:0.7105 9:3.9809 10:0 11:1.9891 12:0 13:0.9236 14:1.9907 15:0.9907 
-128 1:0 2:0 3:2.6095 4:5.4621 5:1.9886 6:3.8484 7:3.6966 8:0.7368 9:1 10:0 11:0.9917 12:0 13:0.9236 14:0 15:0 
-128 1:0 2:0 3:4.9146 4:3.3634 5:0.6201 6:1.3868 7:1.6597 8:0 9:1.5631 10:1 11:0.7907 12:0 13:0.9032 14:0.7638 15:0 
-128 1:0 2:0 3:4.915 4:3.8616 5:1 6:1.5557 7:3.6578 8:0 9:1.4797 10:0.7559 11:1.4105 12:0 13:0.8344 14:0.7275 15:0 
-78.6890596028928 1:0 2:0 3:4.5164 4:6.2894 5:1.9833 6:6.1869 7:4.6833 8:0 9:2 10:0 11:0.9933 12:0 13:0.9236 14:0 15:0 
-85.4840763280754 1:0 2:0 3:4.5209 4:6.0742 5:0.6038 6:2.6296 7:3.408 8:0 9:1.6947 10:0 11:0 12:0 13:0.9032 14:0 15:0 
-128 1:0 2:0 3:5.5066 4:7.1138 5:1.9833 6:6.1869 7:3.7597 8:0.7105 9:3.9809 10:0 11:1.9891 12:0 13:0 14:1.9907 15:0.9907 
-128 1:0 2:0 3:2.9422 4:2.1431 5:1 6:1.5557 7:1.6104 8:0 9:0.869 10:0.7559 11:1.4105 12:0 13:0.8344 14:0 15:0 
-66.55533333253848 1:0 2:0 3:4.6115 4:5.3943 5:1.9833 6:3.8454 7:1.7857 8:0 9:3.9809 10:0 11:1.9891 12:0 13:0 14:1.9907 15:0.9907 
-128 1:0 2:0 3:4.2751 4:2.8647 5:0 6:0.8152 7:3.6871 8:0 9:1.4816 10:0.7577 11:0.7569 12:0 13:0.8408 14:0.7275 15:0 
-128 1:0 2:0 3:5.5066 4:6.2894 5:0.9877 6:4.268 7:4.6833 8:0.7105 9:3.9809 10:0 11:1.9891 12:0 13:0.9236 14:1.9907 15:0.9907 
-128 1:0 2:0 3:5.5031 4:5.4621 5:1.9886 6:5.5515 7:4.6784 8:0.7368 9:2.9812 10:0 11:1.9875 12:0 13:0.9236 14:1.993 15:0.993 
-128 1:0 2:0 3:4.2018 4:3.1395 5:1 6:1.5533 7:2.3656 8:0 9:1.4797 10:0.7559 11:1.4105 12:0 13:0.8344 14:0.7275 15:0 
-128 1:0 2:0 3:3.4829 4:3.8606 5:0 6:1.5564 7:2.1559 8:0 9:1.4797 10:0.7468 11:0.7569 12:0 13:0.8408 14:0.7275 15:0 
-128 1:0 2:0 3:1.3587 4:0.8187 5:1 6:1.5557 7:1.3681 8:0 9:0 10:0.7559 11:0.6557 12:0 13:0 14:0 15:0 
-128 1:0 2:0 3:4.1425 4:1.8151 5:1 6:1.5771 7:3.0191 8:0 9:1.4797 10:0.7559 11:1.4105 12:0 13:0.8344 14:0.7275 15:0 
-128 1:0 2:0 3:4.8104 4:3.8598 5:1 6:1.5533 7:2.9047 8:0 9:0.6107 10:0.7559 11:1.4105 12:0 13:0.8344 14:0.7275 15:0 
-128 1:0 2:0 3:4.2732 4:3.8598 5:1 6:1.5531 7:3.6807 8:0 9:1.4797 10:0.7559 11:1.4105 12:0 13:0.8344 14:0.7275 15:0 
-128 1:0 2:0 3:4.924 4:3.8647 5:1 6:0.7388 7:3.0742 8:0 9:1.4816 10:0.7577 11:0 12:0 13:0.8408 14:0.7275 15:0 
-108.5836708733825 1:0 2:0 3:5.5066 4:6.2894 5:2.9789 6:3.9177 7:2.7093 8:0 9:3.9809 10:0 11:0.9958 12:0 13:0.9236 14:1.9907 15:0.9907 
-60.07041898546178 1:0 2:0 3:2.613 4:4.567 5:1.9886 6:5.5515 7:4.6784 8:0.7368 9:0 10:0 11:2.9773 12:0 13:0.9236 14:0 15:0 
-128 1:0 2:0 3:5.5066 4:5.2894 5:0.9877 6:2.8498 7:3.7031 8:0 9:3.9777 10:0 11:1.9891 12:0 13:0.9236 14:1.9875 15:0.9875 
-128 1:0 2:0 3:3.5965 4:5.4621 5:1.9886 6:4.5515 7:4.6784 8:0.7368 9:2.98 10:0 11:1.9875 12:0 13:0.9236 14:1.993 15:0.993 
-128 1:0 2:0 3:3.0265 4:2.5372 5:1 6:1.5557 7:2.2233 8:0 9:0.869 10:0.7559 11:0.6557 12:0 13:0.8344 14:0 15:0 
-25.77763276699912 1:0 2:0 3:3.8928 4:3.6817 5:1.9833 6:3.8454 7:2.9043 8:0 9:3.9809 10:0 11:0.9958 12:0 13:0.9236 14:1.9907 15:0.9907 
-36.72205767876941 1:0 2:0 3:4.279 4:2.7593 5:1.2222 6:2.483 7:3.4137 8:0 9:2.3617 10:1 11:0.7907 12:0 13:0.9032 14:0.7613 15:0 
-128 1:0 2:0 3:4.9221 4:3.8616 5:1 6:1.5557 7:3.6807 8:0 9:1.4797 10:0.7559 11:0.6557 12:0 13:0.8344 14:0.7275 15:0 
-128 1:0 2:0 3:5.5188 4:5.4621 5:1.9886 6:3.8484 7:3.6966 8:0 9:3.9812 10:0 11:1.9875 12:0 13:0.9236 14:1.993 15:0.993 
-128 1:0 2:0 3:4.5977 4:4.6034 5:1.9886 6:3.6197 7:4.6784 8:0.7368 9:2.9812 10:0 11:1.9875 12:0 13:0.9236 14:1.993 15:0.993 
-128 1:0 2:0 3:5.5031 4:4.4621 5:1.9886 6:4.8484 7:4.6784 8:0.7368 9:2.9882 10:0 11:1.9875 12:0 13:0.9236 14:1 15:0 
-128 1:0 2:0 3:4.9221 4:3.8598 5:1 6:1.5533 7:3.6807 8:0 9:1.4797 10:0.7559 11:1.4105 12:0 13:0.8344 14:0.7275 15:0 
-128 1:0 2:0 3:4.2519 4:2.5403 5:1 6:1.554 7:2.8463 8:0 9:1.4816 10:0 11:0.7569 12:0 13:0 14:0.7275 15:0 
-61.92000411535608 1:0 2:0 3:4.4499 4:4.3176 5:0.6201 6:1.6201 7:0.754 8:0 9:1.6897 10:0 11:0.7907 12:0 13:0 14:0.7638 15:0 
-128 1:0 2:0 3:3.5164 4:6.2894 5:1.9833 6:3.8454 7:1.7912 8:0.7105 9:1 10:0 11:0.9933 12:0 13:0 14:0 15:0 
-128 1:0 2:0 3:3.7956 4:3.5845 5:1.9833 6:6.1869 7:2.7026 8:0.7105 9:3.9809 10:0 11:1.9868 12:0 13:0.9236 14:1.9907 15:0.9907 
-128 1:0 2:0 3:2.7069 4:3.5352 5:1.986 6:2.7031 7:2.8858 8:0.7368 9:3.9812 10:0 11:1.9875 12:0 13:0.9236 14:1.993 15:0.993 
-128 1:0 2:0 3:4.5977 4:4.6034 5:1.9886 6:2.6987 7:3.8796 8:0.7368 9:2.9812 10:0 11:0.9958 12:0 13:0.9236 14:1.993 15:0.993 
-128 1:0 2:0 3:3.2667 4:3.8647 5:1 6:1.554 7:3.567 8:0 9:0.6126 10:0.7577 11:0.7569 12:0 13:0.8408 14:0.7275 15:0 
-128 1:0 2:0 3:5.5031 4:5.4621 5:1.9886 6:5.5515 7:3.8796 8:0.7368 9:3.9812 10:0 11:1.9875 12:0 13:0.9236 14:1.993 15:0.993 
-128 1:0 2:0 3:3.5911 4:2.3226 5:1 6:1.5544 7:3.6807 8:0 9:0.869 10:0 11:0.6557 12:0 13:0.8344 14:0 15:0 
-110.8331426176799 1:0 2:0 3:2.9902 4:1.7203 5:0 6:1.554 7:2.319 8:0 9:1.4816 10:0.7577 11:0 12:0 13:0.8408 14:0.7275 15:0 
-114.3161845048037 1:0 2:0 3:5.4627 4:3.5998 5:0.6021 6:1.6296 7:1.9034 8:0 9:0.8734 10:0 11:0 12:0 13:0.9034 14:0 15:0 
-128 1:0 2:0 3:4.3499 4:3.8598 5:1 6:0.7381 7:3.0678 8:0 9:1.4797 10:0.7559 11:0 12:0 13:0.8344 14:0.7275 15:0 
-128 1:0 2:0 3:5.5064 4:5.4291 5:1.9833 6:1.9189 7:3.7031 8:0 9:3.9841 10:0 11:1.9891 12:0 13:0.9236 14:1.9939 15:0.9939 
-128 1:0 2:0 3:4.5074 4:5.289 5:0.993 6:4.5559 7:4.6832 8:0.7368 9:3.9812 10:0 11:1.9875 12:0 13:0.9236 14:1.993 15:0.993 
-29.20517670288242 1:0 2:0 3:2.7221 4:3.1444 5:0 6:1.554 7:1.4537 8:0 9:0 10:0.7577 11:0.7569 12:0 13:0.8408 14:0 15:0 
-104.6739775336601 1:0 2:0 3:4.7869 4:1.8913 5:1.9833 6:3.3371 7:4.6833 8:0.7105 9:2.9809 10:0 11:1.9891 12:0 13:0.9236 14:1.9907 15:0.9907 
-128 1:0 2:0 3:3.6123 4:2.7126 5:0.9956 6:3.6197 7:1.9756 8:0.7368 9:2.9812 10:0 11:0.9958 12:0 13:0 14:1.993 15:0.993 
-128 1:0 2:0 3:4.4484 4:5.3134 5:1.226 6:1.483 7:2.654 8:0 9:1.3844 10:0 11:0.7907 12:0 13:0.9032 14:0.7638 15:0 
-128 1:0 2:0 3:4.7844 4:3.7495 5:1.9886 6:3.6351 7:4.6791 8:0.7368 9:3.9812 10:0 11:1.9875 12:0 13:0.9236 14:1.993 15:0.993 
-128 1:0 2:0 3:5.5859 4:5.4621 5:1.9886 6:4.5515 7:4.6784 8:0 9:4.9694 10:0 11:2.9833 12:0 13:0.9236 14:1.993 15:0.993 
-120.724816472537 1:0 2:0 3:2.604 4:4.4321 5:1.9833 6:2.9956 7:3.7065 8:0 9:1.9809 10:0 11:1.9891 12:0 13:0.9236 14:1.9907 15:0.9907 
-16.04327527880448 1:0 2:0 3:2.8701 4:3.8606 5:1 6:1.5564 7:2.8463 8:0 9:1.4797 10:0.7577 11:0.7569 12:0 13:0 14:0.7275 15:0 
-81.79560067730519 1:0 2:0 3:5.3495 4:5.2337 5:0.6038 6:2.6296 7:2.6572 8:0 9:1.6947 10:1 11:0.7873 12:0 13:0.9032 14:0 15:0 
-117.6361719970043 1:0 2:0 3:4.924 4:3.8647 5:1 6:0.8152 7:2.8463 8:0 9:1.4816 10:0.7577 11:0 12:0 13:0 14:0.7275 15:0 
-128 1:0 2:0 3:3.6986 4:3.0447 5:0 6:0.7388 7:3.6871 8:0 9:0.869 10:0 11:0.7569 12:0 13:0.8408 14:0.7296 15:0 
-2.815472264370776 1:0 2:0 3:6.6043 4:4.3607 5:1.2239 6:3.2497 7:3.4137 8:0 9:3.9475 10:1 11:1.5814 12:0 13:0.9032 14:1.5231 15:0 
-128 1:0 2:0 3:5.5031 4:5.4621 5:1.9886 6:4.8484 7:3.6966 8:0.7368 9:3.9812 10:0 11:1.9875 12:0 13:0.9236 14:1.993 15:0.993 
-128 1:0 2:0 3:4.3093 4:3.8598 5:1 6:1.5533 7:2.9255 8:0 9:1.4797 10:0.7559 11:1.4105 12:0 13:0.8344 14:0.7275 15:0 
-128 1:0 2:0 3:6.1124 4:6.2894 5:1.9833 6:3.8454 7:3.7031 8:0 9:3.9809 10:0 11:1.9891 12:0 13:0.9236 14:1.9907 15:0.9907 
-121.4614964143206 1:0 2:0 3:2.602 4:3.6077 5:0 6:0 7:3.6966 8:0 9:2.9812 10:0 11:0.9917 12:0 13:0.9236 14:1.993 15:0.993 
-128 1:0 2:0 3:4.5094 4:4.4321 5:1.9833 6:2.3371 7:2.8907 8:0.7105 9:2.9809 10:0 11:1.9894 12:0 13:0.9236 14:1.9907 15:0.9907 
-128 1:0 2:0 3:3.6986 4:3.8647 5:1 6:1.554 7:2.9319 8:0 9:0.869 10:0.7577 11:0.794 12:0 13:0.8408 14:0 15:0 
-128 1:0 2:0 3:2.6159 4:2.0447 5:1 6:1.5557 7:2.2918 8:0 9:0.6107 10:0.7559 11:1.4105 12:0 13:0.8344 14:0.7275 15:0 
-128 1:0 2:0 3:4.5977 4:5.4621 5:0.993 6:4.338 7:4.6784 8:0.7368 9:3.9812 10:0 11:1.9866 12:0 13:0.9236 14:1.993 15:0.993 
-128 1:0 2:0 3:3.7977 4:4.5768 5:1.9833 6:5.1869 7:3.7031 8:0.7105 9:2 10:0 11:0.9933 12:0 13:0.9236 14:0 15:0 
-128 1:0 2:0 3:4.3093 4:3.8598 5:1 6:1.5533 7:3.6807 8:0 9:1.4797 10:0.7559 11:1.4105 12:0 13:0.8344 14:0.7275 15:0 
-118.9155780328229 1:0 2:0 3:5.5019 4:6.2894 5:0 6:2.8498 7:1.7926 8:0.7105 9:3.9762 10:0 11:1.9891 12:0 13:0 14:1.9907 15:0.9907 
-58.24929397900215 1:0 2:0 3:4.9221 4:3.8598 5:1 6:1.5533 7:3.6807 8:0 9:1.4797 10:0.7559 11:1.4105 12:0 13:0.8344 14:0.7275 15:0 
-128 1:0 2:0 3:3.6625 4:3.8647 5:1 6:1.554 7:3.6871 8:0 9:0.869 10:0.7577 11:0.7569 12:0 13:0.8408 14:0 15:0 
-128 1:0 2:0 3:5.5307 4:5.4567 5:1.9886 6:3.6197 7:4.6784 8:0.7368 9:3.9812 10:0 11:1.9875 12:0 13:0.9236 14:1.993 15:0.993 
-128 1:0 2:0 3:4.2519 4:2.5403 5:1 6:1.554 7:2.9111 8:0 9:1.4816 10:0.7577 11:0.7569 12:0 13:0.8408 14:0.7275 15:0 
-128 1:0 2:0 3:3.5316 4:0 5:1 6:0.7388 7:3.0742 8:0 9:1.4816 10:0.7577 11:0.7569 12:0 13:0.8408 14:0.7275 15:0 
-128 1:0 2:0 3:2.6159 4:3.8598 5:1 6:1.5533 7:2.9047 8:0 9:0.6107 10:0 11:0.7548 12:0 13:0.8344 14:0.7275 15:0 
-80.90005477385168 1:0 2:0 3:4.4622 4:5.3144 5:1.2239 6:3.2497 7:2.2613 8:0 9:1.8734 10:1 11:0 12:0 13:0 14:0 15:0 
-38.82098238676326 1:0 2:0 3:5.5031 4:4.4621 5:1.9886 6:3.8484 7:2.704 8:0 9:2.9882 10:0 11:1.9875 12:0 13:0.9236 14:1 15:0 
-128 1:0 2:0 3:3.602 4:3.6077 5:1.9886 6:3.6197 7:3.7548 8:0.7368 9:2.9812 10:0 11:1.9896 12:0 13:0 14:1.993 15:0.993 
-128 1:0 2:0 3:5.5066 4:6.2894 5:0.9877 6:5.1913 7:4.6833 8:0.7105 9:3.9809 10:0 11:1.9891 12:0 13:0.9236 14:1.9907 15:0.9907 
-128 1:0 2:0 3:3.5192 4:5.289 5:1.9886 6:5.5515 7:3.8796 8:0.7368 9:2.993 10:0 11:0.9917 12:0 13:0.9236 14:1.993 15:0.993 
-70.06240819501848 1:0 2:0 3:1.9361 4:2.1403 5:1 6:1.5497 7:1.3681 8:0 9:0.6107 10:0 11:0 12:0 13:0 14:0.7275 15:0 
-33.17395423465472 1:0 2:0 3:0.869 4:0 5:1 6:0.7412 7:2.1441 8:0 9:0.869 10:0.7577 11:0.7569 12:0 13:0 14:0 15:0 
-128 1:0 2:0 3:5.5066 4:5.465 5:1.9833 6:5.2526 7:4.6833 8:0.7105 9:3.9809 10:0 11:0.9958 12:0 13:0.9236 14:1.9907 15:0.9907 
-128 1:0 2:0 3:4.5149 4:5.4621 5:0 6:2.5559 7:3.698 8:0.7368 9:1 10:0 11:0.9917 12:0 13:0.9236 14:0 15:0 
-128 1:0 2:0 3:5.5031 4:6.2847 5:1.9886 6:5.5515 7:4.6784 8:0.7368 9:3.9812 10:0 11:1.9875 12:0 13:0.9236 14:1.993 15:0.993 
-128 1:0 2:0 3:2.8722 4:3.8606 5:1 6:1.5564 7:2.9319 8:0 9:0.869 10:0.7577 11:0 12:0 13:0.8408 14:0 15:0 
-128 1:0 2:0 3:1.8908 4:2.8908 5:1.9886 6:4.6197 7:2.761 8:0.7368 9:1 10:0 11:1.9875 12:0 13:0 14:0 15:0 
-128 1:0 2:0 3:5.5031 4:5.4621 5:0.993 6:4.5559 7:4.6782 8:0.7368 9:3.9845 10:0 11:1.9875 12:0 13:0.9236 14:1.9963 15:0.9963 
-34.64522001925899 1:0 2:0 3:2.0925 4:1.82 5:1 6:1.5564 7:1.4537 8:0 9:1.4797 10:0.7577 11:0.7569 12:0 13:0.8408 14:0.7275 15:0 
-128 1:0 2:0 3:3.589 4:2.1455 5:0 6:1.5557 7:2.9785 8:0 9:1.4797 10:0.7559 11:1.4105 12:0 13:0.8344 14:0.7275 15:0 
-68.14572735215422 1:0 2:0 3:2.6541 4:2.8634 5:0 6:1.5533 7:3.7391 8:0 9:0 10:0 11:1.4105 12:0 13:1.6688 14:0 15:0 
-102.8567121177019 1:0 2:0 3:4.7856 4:2.749 5:0.9956 6:4.8484 7:1.9054 8:0.7368 9:3.9829 10:0 11:1.9875 12:0 13:0.9236 14:1.993 15:0.993 
-118.4389935014834 1:0 2:0 3:5.5065 4:7.1137 5:1.9833 6:6.1869 7:4.6833 8:0.7105 9:3.9809 10:0 11:1.9891 12:0 13:0.9236 14:1.9907 15:0.9907 
-128 1:0 2:0 3:4.5074 4:4.4664 5:0.9956 6:5.5515 7:3.7003 8:0 9:3.9812 10:0 11:1.9894 12:0 13:0.9236 14:1.993 15:0.993 
-38.37931668694355 1:0 2:0 3:4.4484 4:4.3147 5:1.2222 6:3.2497 7:3.4137 8:0 9:2.3844 10:1 11:0.7907 12:0 13:0.9032 14:0.7613 15:0 
-128 1:0 2:0 3:5.5031 4:6.2847 5:1.9886 6:4.6197 7:3.698 8:0.7368 9:2.9812 10:0 11:0.9958 12:0 13:0.9236 14:1.993 15:0.993 
-128 1:0 2:0 3:4.7879 4:4.5768 5:1.9833 6:6.1869 7:2.7026 8:0.7105 9:3.9809 10:0 11:1.9891 12:0 13:0.9236 14:1.9907 15:0.9907 
-128 1:0 2:0 3:4.9221 4:3.8598 5:0 6:1.5533 7:3.6807 8:0 9:1.4797 10:0.7559 11:1.4105 12:0 13:0.8344 14:0.7275 15:0 
-26.18455847561642 1:0 2:0 3:4.9221 4:3.8616 5:1 6:1.5557 7:3.0678 8:0 9:1.4797 10:0.7559 11:0 12:0 13:0.8344 14:0.7275 15:0 
-128 1:0 2:0 3:4.3114 4:3.8647 5:1 6:0.7388 7:3.6871 8:0 9:0.869 10:0.7577 11:0.7569 12:0 13:0.8408 14:0 15:0 
-117.2910381699683 1:0 2:0 3:4.3114 4:3.8647 5:0 6:0 7:3.6871 8:0 9:0.869 10:0.7577 11:0 12:0 13:0.8408 14:0 15:0 
-128 1:0 2:0 3:5.5031 4:5.4621 5:1.9886 6:5.5515 7:4.6788 8:0.7368 9:3.9812 10:0 11:1.9875 12:0 13:0.9236 14:1.993 15:0.993 
-128 1:0 2:0 3:4.9221 4:3.8598 5:1 6:1.5533 7:3.6807 8:0 9:1.4797 10:0.7559 11:1.4105 12:0 13:0.8344 14:0.7275 15:0 
-61.37929626380872 1:0 2:0 3:4.924 4:3.8647 5:0 6:1.554 7:3.7558 8:0 9:1.4816 10:0.7577 11:0.7569 12:0 13:0.8408 14:0.7275 15:0 
-128 1:0 2:0 3:4.608 4:5.3896 5:1.9886 6:5.5515 7:4.6679 8:0.7368 9:3.9812 10:0 11:1.9875 12:0 13:0.9236 14:1.993 15:0.993 
-128 1:0 2:0 3:4.6012 4:6.2894 5:0.9956 6:5.2636 7:1.7926 8:0.7105 9:3.9809 10:0 11:1.9891 12:0 13:0 14:1.9907 15:0.9907 
-128 1:0 2:0 3:5.5066 4:6.2894 5:1.9833 6:5.1869 7:2.8907 8:0.7105 9:2.9809 10:0 11:1.9891 12:0 13:0.9236 14:1.9907 15:0.9907 
-128 1:0 2:0 3:4.2732 4:2.0447 5:1 6:1.5533 7:3.6807 8:0 9:1.4797 10:0.7559 11:1.4105 12:0 13:0.8344 14:0.7275 15:0 
-91.81771538391261 1:0 2:0 3:2.879 4:3.7495 5:1.9886 6:5.5515 7:4.6784 8:0.7368 9:2.9812 10:0 11:1.9875 12:0 13:0.9236 14:1.993 15:0.993 
-30.08940900093923 1:0 2:0 3:3.8928 4:2.8216 5:0 6:2.2648 7:3.6964 8:0.7105 9:3.9809 10:0 11:0.9958 12:0 13:0.9236 14:1.9907 15:0.9907 
-24.79187791158298 1:0 2:0 3:5.5066 4:6.2894 5:1.9833 6:6.1869 7:3.6964 8:0.7105 9:3.9809 10:0 11:0.9933 12:0 13:0.9236 14:1.9907 15:0.9907 
-128 1:0 2:0 3:3.5192 4:3.4678 5:1.9833 6:3.9221 7:2.7162 8:0.7105 9:2.9907 10:0 11:1.9891 12:0 13:0.9236 14:0.9907 15:0.9907 
-128 1:0 2:0 3:3.7962 4:3.7495 5:1.9886 6:4.5515 7:4.6784 8:0.7368 9:2 10:0 11:0.9917 12:0 13:0.9236 14:0 15:0 
-128 1:0 2:0 3:3.5977 4:4.6034 5:0.9956 6:3.6197 7:2.7042 8:0.7368 9:1.9808 10:0 11:1.9875 12:0 13:0.9236 14:1.9926 15:0.9926 
-128 1:0 2:0 3:5.5066 4:3.6049 5:1.9819 6:4.259 7:2.7774 8:0.7105 9:2.9809 10:0 11:1.9891 12:0 13:0 14:1.9907 15:0.9907 
-128 1:0 2:0 3:3.2667 4:3.8647 5:1 6:1.554 7:2.9111 8:0 9:0.6126 10:0 11:0.7569 12:0 13:0.8408 14:0.7275 15:0 
-40.86953811641355 1:0 2:0 3:4.924 4:3.8647 5:1 6:0.7388 7:3.6871 8:0 9:1.4816 10:0 11:0.7569 12:0 13:0.8408 14:0.7275 15:0 
-49.91937044758899 1:0 2:0 3:5.2229 4:5.0783 5:1.2239 6:2.3868 7:3.4105 8:0 9:1.8734 10:1 11:0.7113 12:0 13:0.9032 14:0 15:0 
-128 1:0 2:0 3:2.7433 4:1.82 5:1 6:1.554 7:2.9849 8:0 9:1.4816 10:0.7577 11:0 12:0 13:0.8408 14:0.7275 15:0 
-37.73283607797722 1:0 2:0 3:2.0011 4:3.8606 5:0 6:0.8152 7:2.9111 8:0 9:0.6107 10:0.7577 11:0.7569 12:0 13:0.8408 14:0.7275 15:0 
-128 1:0 2:0 3:4.3114 4:3.88 5:1 6:0.7388 7:3.6871 8:0 9:0.869 10:0.7577 11:0.7569 12:0 13:0.8408 14:0 15:0 
-128 1:0 2:0 3:5.5066 4:4.6049 5:1.9833 6:4.2604 7:4.6833 8:0.7105 9:3.9809 10:0 11:1.9891 12:0 13:0.9236 14:1.9907 15:0.9907 
-128 1:0 2:0 3:4.3114 4:2.8647 5:1 6:1.5441 7:3.0742 8:0 9:0.869 10:0 11:0 12:0 13:0.8408 14:0 15:0 
-128 1:0 2:0 3:3.4829 4:2.0406 5:1 6:1.5564 7:3.0336 8:0 9:1.4797 10:0 11:0 12:0 13:0.8408 14:0.7275 15:0 
-128 1:0 2:0 3:5.5031 4:5.4621 5:1.9886 6:5.5515 7:4.6784 8:0.7368 9:3.9812 10:0 11:1.9875 12:0 13:0.9236 14:1.993 15:0.993 
-128 1:0 2:0 3:3.5192 4:5.2922 5:1.9833 6:3.8454 7:2.9043 8:0 9:2 10:0 11:2.9849 12:0 13:0.9236 14:0 15:0 
-128 1:0 2:0 3:3.2648 4:3.0429 5:1 6:1.5557 7:2.1495 8:0 9:0.6107 10:0.7559 11:0.6557 12:0 13:0.8344 14:0.7275 15:0 
-128 1:0 2:0 3:4.2732 4:3.8616 5:1 6:1.5557 7:3.6807 8:0 9:1.4797 10:0.7559 11:0.6557 12:0 13:0.8344 14:0.7275 15:0 
-128 1:0 2:0 3:4.6115 4:5.3943 5:1.9833 6:6.1869 7:3.6895 8:0.7105 9:3.9809 10:0 11:1.9891 12:0 13:0.9236 14:1.9907 15:0.9907 
-128 1:0 2:0 3:4.7879 4:3.7167 5:1.9833 6:4.2604 7:3.6964 8:0.7105 9:2.9809 10:0 11:1.988 12:0 13:0.9236 14:1.9907 15:0.9907 
-128 1:0 2:0 3:3.6986 4:3.8647 5:1 6:1.554 7:2.9556 8:0 9:0.869 10:0.7577 11:0 12:0 13:0.8408 14:0 15:0 
-128 1:0 2:0 3:3.5977 4:5.426 5:1.9886 6:3.6197 7:4.7486 8:0 9:2.9812 10:0 11:1.9875 12:0 13:0 14:1.993 15:0.993 
-128 1:0 2:0 3:2.6139 4:3.8606 5:1 6:1.5527 7:2.8539 8:0 9:0.6107 10:0 11:0.7569 12:0 13:0 14:0.7275 15:0 
-128 1:0 2:0 3:2.6541 4:3.8647 5:0 6:1.554 7:2.1148 8:0 9:0 10:0.7577 11:0.7569 12:0 13:0 14:0 15:0 
-18.14883546300911 1:0 2:0 3:0.6128 4:1 5:1 6:0.7412 7:1.3681 8:0 9:0 10:0 11:0 12:0 13:0 14:0 15:0 
-128 1:0 2:0 3:4.5977 4:4.4621 5:1.9886 6:3.8484 7:3.6966 8:0.7368 9:3.9812 10:0 11:1.9875 12:0 13:0.9236 14:1.993 15:0.993 
-128 1:0 2:0 3:3.3103 4:3.8616 5:1 6:0.8152 7:2.1495 8:0 9:0.6107 10:0.7559 11:0 12:0 13:0.8344 14:0.7275 15:0 
-128 1:0 2:0 3:2.919 4:0.82 5:1 6:1.554 7:2.9849 8:0 9:0.869 10:0 11:0.7569 12:0 13:0.8408 14:0 15:0 
-128 1:0 2:0 3:3.2126 4:2.5215 5:1.2222 6:3.2497 7:3.1645 8:0 9:1.6897 10:1 11:0.7907 12:0 13:0.9032 14:0.7613 15:0 
-128 1:0 2:0 3:2.7433 4:1.82 5:1 6:1.554 7:2.9849 8:0 9:1.4816 10:0.7577 11:0.7569 12:0 13:0.8408 14:0.7275 15:0 
-128 1:0 2:0 3:3.4499 4:4.4757 5:1.2222 6:3.2497 7:4.1645 8:0 9:2.3844 10:1 11:0.7907 12:0 13:0.9032 14:0.7613 15:0 
-128 1:0 2:0 3:4.9347 4:3.8598 5:0 6:1.5533 7:3.6807 8:0 9:1.4797 10:0.7559 11:1.4105 12:0 13:0.8344 14:0.7275 15:0 
-128 1:0 2:0 3:4.5094 4:4.4678 5:1.9833 6:5.2636 7:4.6833 8:0.7105 9:3.9809 10:0 11:1.9891 12:0 13:0.9236 14:1.9907 15:0.9907 
-128 1:0 2:0 3:4.5094 4:5.2922 5:1.9833 6:3.9221 7:3.7031 8:0 9:3.9809 10:0 11:0.9933 12:0 13:0.9236 14:1.9907 15:0.9907 
-21.24442841891183 1:0 2:0 3:3.4403 4:3.8616 5:1 6:1.5557 7:2.9047 8:0 9:0.6107 10:0 11:1.4105 12:0 13:0.8344 14:0.7275 15:0 
-128 1:0 2:0 3:3.2623 4:3.8616 5:1 6:1.5557 7:2.9047 8:0 9:0.6082 10:0.7559 11:1.4105 12:0 13:0.8344 14:0 15:0 
-72.82094687411193 1:0 2:0 3:2.9783 4:2.1431 5:1 6:1.5533 7:2.9785 8:0 9:0.869 10:0.7559 11:0.7548 12:0 13:0.8344 14:0 15:0 
-97.27162234772803 1:0 2:0 3:4.2126 4:2.5188 5:1.2239 6:3.2497 7:3.408 8:0 9:2.3844 10:0 11:0.7907 12:0 13:0.9032 14:0.7638 15:0 
-128 1:0 2:0 3:2.8722 4:3.8606 5:1 6:1.5564 7:2.9111 8:0 9:0.869 10:0.7577 11:0 12:0 13:0.8408 14:0 15:0 
-128 1:0 2:0 3:4.5094 4:5.2922 5:1.9833 6:4.8454 7:3.7031 8:0 9:3.985 10:0 11:1.9891 12:0 13:0.9236 14:1.9948 15:0.9948 
-128 1:0 2:0 3:5.5092 4:5.4621 5:1.9886 6:5.5515 7:4.6337 8:0.7368 9:3.9873 10:0 11:1.9875 12:0 13:0.9236 14:1.993 15:0.993 
-35.18663202268734 1:0 2:0 3:2.5192 4:5.2922 5:0.9877 6:5.1913 7:3.8845 8:0 9:1 10:0 11:0.9933 12:0 13:0.9236 14:0 15:0 
-128 1:0 2:0 3:4.9221 4:3.8598 5:1 6:1.5533 7:3.0678 8:0 9:1.4797 10:0.7559 11:0.6557 12:0 13:0.8344 14:0.7275 15:0 
-128 1:0 2:0 3:3.2648 4:3.8616 5:1 6:2.3169 7:2.0703 8:0 9:0.6107 10:0.7559 11:1.4105 12:0 13:0 14:0.7275 15:0 
-128 1:0 2:0 3:5.5066 4:6.2894 5:0.9956 6:3.9221 7:4.6833 8:0.7105 9:2.9809 10:0 11:1.9891 12:0 13:0.9236 14:1.9907 15:0.9907 
-43.05190083632743 1:0 2:0 3:1.9882 4:1.8226 5:1.9886 6:2.6987 7:2.8858 8:0.7368 9:3.9812 10:0 11:1.9875 12:0 13:0.9236 14:1.993 15:0.993 
-104.5058922694619 1:0 2:0 3:3.5228 4:3.5646 5:1.9886 6:5.5515 7:2.761 8:0.7368 9:0 10:0 11:0.9917 12:0 13:0 14:0 15:0 
-128 1:0 2:0 3:2.602 4:2.6077 5:1.9886 6:3.6197 7:3.8796 8:0.7368 9:1.9812 10:0 11:0.9917 12:0 13:0.9236 14:1.993 15:0.993 
-128 1:0 2:0 3:3.6986 4:3.8616 5:1 6:1.5557 7:2.9255 8:0 9:0.869 10:0.7559 11:0 12:0 13:0.8344 14:0 15:0 
-128 1:0 2:0 3:4.3114 4:2.0447 5:0 6:0.7388 7:2.2334 8:0 9:0.869 10:0 11:0 12:0 13:0 14:0.7275 15:0 
-6.376824877610534 1:0 2:0 3:3.5911 4:1.3244 5:1 6:1.5533 7:1.3889 8:0 9:0.869 10:0.7559 11:0.7548 12:0 13:0 14:0 15:0 
-128 1:0 2:0 3:4.9221 4:3.8616 5:1 6:1.5607 7:3.6807 8:0 9:1.4797 10:0.7559 11:1.4105 12:0 13:0.8344 14:0.7275 15:0 
-128 1:0 2:0 3:5.5031 4:4.4621 5:1.9886 6:4.6197 7:3.7548 8:0.7368 9:2.9812 10:0 11:1.9875 12:0 13:0 14:1.993 15:0.993 
-128 1:0 2:0 3:2.0011 4:3.8606 5:1 6:2.3025 7:2.1559 8:0 9:0.6107 10:0 11:0.7569 12:0 13:0.8408 14:0.7275 15:0 
-128 1:0 2:0 3:2.7026 4:4.5309 5:0.9956 6:3.6197 7:4.6784 8:0.7368 9:1.9812 10:0 11:0.9917 12:0 13:0.9236 14:1.993 15:0.993 
-97.5739639023268 1:0 2:0 3:4.2037 4:3.1444 5:1 6:0 7:1.5312 8:0 9:1.4816 10:0 11:0.7569 12:0 13:0 14:0.7275 15:0 
-128 1:0 2:0 3:3.6604 4:3.8752 5:1 6:1.5557 7:3.6905 8:0 9:1.4797 10:0.7559 11:0.7548 12:0 13:0.8344 14:0.7275 15:0 
-39.61446124467413 1:0 2:0 3:4.8031 4:3.7495 5:1.9886 6:4.6305 7:4.6784 8:0.7368 9:3.9812 10:0 11:0.9958 12:0 13:0.9236 14:1.993 15:0.993 
-128 1:0 2:0 3:2.0925 4:1.82 5:1 6:1.5564 7:2.9849 8:0 9:1.4797 10:0.7577 11:1.4632 12:0 13:0.8408 14:0.7275 15:0 
-128 1:0 2:0 3:4.9221 4:3.8598 5:1 6:1.5533 7:3.6807 8:0 9:1.4797 10:0.7559 11:0.6557 12:0 13:0.8344 14:0.7275 15:0 
-68.50631759645586 1:0 2:0 3:3.2648 4:3.8783 5:1 6:1.5533 7:2.1495 8:0 9:0.6107 10:0.7559 11:0.7548 12:0 13:0.8344 14:0.7275 15:0 
-61.07491034383888 1:0 2:0 3:3.3238 4:1.7607 5:0.6201 6:3.2497 7:2.6597 8:0 9:2.5631 10:1 11:0.7907 12:0 13:0.9032 14:0.7613 15:0 
-128 1:0 2:0 3:3.879 4:4.5721 5:2.9743 6:5.5515 7:4.6784 8:0.7368 9:3.9807 10:0 11:0.9958 12:0 13:0.9236 14:1.9925 15:0.9925 
-128 1:0 2:0 3:5.5031 4:4.4621 5:1.9886 6:5.5515 7:3.6966 8:0 9:2.9812 10:0 11:1.9875 12:0 13:0.9236 14:1.993 15:0.993 
-128 1:0 2:0 3:4.6176 4:5.3848 5:1.9886 6:5.5515 7:3.8794 8:0.7368 9:3.9812 10:0 11:1.9875 12:0 13:0.9236 14:1.993 15:0.993 
-128 1:0 2:0 3:4.3093 4:3.8616 5:0 6:2.2962 7:2.8463 8:0 9:1.4797 10:0.7559 11:0.7548 12:0 13:0 14:0.7275 15:0 
-128 1:0 2:0 3:4.924 4:2.8647 5:1 6:1.554 7:2.9111 8:0 9:1.4816 10:0.7577 11:0 12:0 13:0.8408 14:0.7383 15:0 
-128 1:0 2:0 3:3.8893 4:1.8544 5:1.9886 6:2.9274 7:3.6846 8:0.7368 9:3.9812 10:0 11:1.9875 12:0 13:0.9236 14:1.993 15:0.993 
-128 1:0 2:0 3:4.924 4:3.8647 5:1 6:1.554 7:3.6871 8:0 9:1.4816 10:0 11:0.7569 12:0 13:0.8408 14:0.7275 15:0 
-23.14992889058233 1:0 2:0 3:2.0032 4:3.0406 5:0 6:0.7412 7:2.9319 8:0 9:0 10:0 11:0.7569 12:0 13:0.8408 14:0 15:0 
-128 1:0 2:0 3:4.1338 4:3.8598 5:1 6:1.5533 7:3.6817 8:0 9:1.4797 10:0.7559 11:1.4105 12:0 13:0.8344 14:0.7275 15:0 
-128 1:0 2:0 3:3.4829 4:3.8606 5:0 6:1.5564 7:4.5147 8:0 9:1.4797 10:0.7577 11:1.5208 12:0 13:0.8408 14:0.7275 15:0 
-60.14430287447195 1:0 2:0 3:2.1366 4:1.82 5:1 6:1.5564 7:2.9849 8:0 9:1.4797 10:0.7577 11:0.7569 12:0 13:0.8408 14:0.7275 15:0 
-33.32922197377534 1:0 2:0 3:3.6877 4:3.5539 5:0.6201 6:2.483 7:1.7508 8:0 9:2.3844 10:1 11:0.7907 12:0 13:0 14:0.7613 15:0 
-128 1:0 2:0 3:3.6986 4:2.8634 5:1 6:1.5533 7:3.6807 8:0 9:0.869 10:0.7559 11:0.6557 12:0 13:0.8344 14:0 15:0 
-128 1:0 2:0 3:4.4987 4:4.4577 5:0.993 6:3.6349 7:3.7548 8:0.7368 9:3.9812 10:0 11:1.9875 12:0 13:0 14:1.993 15:0.993 
-128 1:0 2:0 3:2.8808 4:0.9964 5:1 6:1.5533 7:2.9785 8:0 9:1.4797 10:0.7559 11:1.4105 12:0 13:0.8344 14:0.7275 15:0 
-128 1:0 2:0 3:3.4829 4:3.8606 5:0 6:2.3716 7:3.6871 8:0 9:1.4797 10:0.7577 11:0.7569 12:0 13:0.8408 14:0.7275 15:0 
-79.84308352439595 1:0 2:0 3:5.4967 4:6.2795 5:1.9833 6:6.1869 7:4.6881 8:0.7105 9:3.9809 10:0 11:0.9958 12:0 13:0.9236 14:1.9907 15:0.9907 
-25.75335102227181 1:0 2:0 3:3.5297 4:1.8151 5:0 6:1.4618 7:2.9255 8:0 9:1.4797 10:0 11:0.7548 12:0 13:0.8344 14:0.7275 15:0 
-128 1:0 2:0 3:5.5031 4:5.426 5:1.9886 6:3.6197 7:3.8796 8:0.7368 9:2.9812 10:0 11:1.9875 12:0 13:0.9236 14:1.993 15:0.993 
-128 1:0 2:0 3:3.5909 4:3.1444 5:1 6:1.554 7:4.5966 8:0 9:1.4816 10:0.7577 11:0.7882 12:0 13:1.6816 14:0.7275 15:0 
-128 1:0 2:0 3:4.5977 4:6.2847 5:1.9886 6:3.8484 7:3.6646 8:0.7368 9:3.9812 10:0 11:1.9875 12:0 13:0.9236 14:1.993 15:0.993 
-128 1:0 2:0 3:4.279 4:2.7593 5:0.6201 6:3.2497 7:2.6597 8:0 9:2.3844 10:1 11:0.7907 12:0 13:0.9032 14:0.7613 15:0 
-128 1:0 2:0 3:4.2822 4:3.8616 5:0 6:1.5557 7:3.0678 8:0 9:1.4797 10:0.7559 11:1.4105 12:0 13:0.8344 14:0.7275 15:0 
-128 1:0 2:0 3:3.6604 4:3.8598 5:1 6:1.5533 7:3.6733 8:0 9:1.4797 10:0.7559 11:1.4105 12:0 13:0.8344 14:0.7275 15:0 
-128 1:0 2:0 3:2.6138 4:3.4678 5:0 6:4.268 7:2.9609 8:0.7105 9:1 10:0 11:0.9933 12:0 13:0 14:0 15:0 
-84.77191197800094 1:0 2:0 3:3.7887 4:3.5764 5:0.993 6:4.5559 7:3.6876 8:0 9:2.9812 10:0 11:0.9958 12:0 13:0.9266 14:1.993 15:0.993 
-98.53258937868887 1:0 2:0 3:3.6012 4:6.2894 5:1.9833 6:2.8532 7:2.7162 8:0 9:2.9809 10:0 11:1.9891 12:0 13:0.9236 14:1.9907 15:0.9907 
-128 1:0 2:0 3:4.3114 4:2.8634 5:1 6:1.5557 7:2.8463 8:0 9:0.869 10:0 11:1.4105 12:0 13:0 14:0 15:0 
-128 1:0 2:0 3:4.9221 4:3.8598 5:1 6:1.5533 7:3.6807 8:0 9:1.4797 10:0.7559 11:1.4105 12:0 13:0.8344 14:0.7275 15:0 
-128 1:0 2:0 3:3.8865 4:1.9957 5:0.9956 6:2.6987 7:3.698 8:0.7368 9:2.9812 10:0 11:1.9875 12:0 13:0.9236 14:1.993 15:0.993 
-127.5540058516659 1:0 2:0 3:5.5016 4:5.4606 5:1.9886 6:5.5515 7:4.6784 8:0.7368 9:3.9812 10:0 11:1.9875 12:0 13:0.9236 14:1.993 15:0.993 
-128 1:0 2:0 3:5.4882 4:5.4468 5:1.9886 6:4.8484 7:3.6966 8:0.7368 9:3.9812 10:0 11:1.9875 12:0 13:0.9236 14:1.993 15:0.993 
-128 1:0 2:0 3:4.2106 4:5.0783 5:1.2239 6:1.6201 7:3.408 8:0 9:1.6897 10:0 11:0 12:0 13:0.9032 14:0.7638 15:0 
-128 1:0 2:0 3:5.5066 4:3.6049 5:0.9956 6:1.9189 7:2.7162 8:0 9:2.9809 10:0 11:0.9958 12:0 13:0.9236 14:1.9907 15:0.9907 
-128 1:0 2:0 3:4.9221 4:3.8598 5:1 6:1.5533 7:3.0678 8:0 9:1.4797 10:0.7559 11:0.7548 12:0 13:0.8344 14:0.7275 15:0 
-24.33365136992958 1:0 2:0 3:3.4829 4:3.8606 5:1 6:0.8152 7:3.6871 8:0 9:1.4797 10:0 11:0.7569 12:0 13:0.8408 14:0.7275 15:0 
-37.8062472856667 1:0 2:0 3:4.9221 4:2.8634 5:1 6:1.5557 7:3.705 8:0 9:1.4797 10:0.7559 11:1.4105 12:0 13:0.8344 14:0.7275 15:0 
-128 1:0 2:0 3:4.608 4:3.7083 5:1.9886 6:3.6289 7:4.6784 8:0.7368 9:3.9812 10:0 11:1.9875 12:0 13:0.9236 14:1.993 15:0.993 
-128 1:0 2:0 3:5.5066 4:6.2894 5:1.9833 6:6.1869 7:4.6833 8:0 9:2.9809 10:0 11:1.9891 12:0 13:0.9236 14:1.9907 15:0.9907 
-66.94983696317139 1:0 2:0 3:4.924 4:3.0447 5:1 6:1.554 7:2.3427 8:0 9:1.4816 10:0.7577 11:0.7569 12:0 13:0.8408 14:0.7275 15:0 
-128 1:0 2:0 3:4.2037 4:3.1444 5:1 6:1.554 7:2.9319 8:0 9:1.4816 10:0.7577 11:0 12:0 13:0.8408 14:0.7275 15:0 
-100.4959296205378 1:0 2:0 3:5.5066 4:6.2894 5:1.9833 6:6.1869 7:3.7597 8:0.7105 9:3.9809 10:0 11:1.9891 12:0 13:0 14:1.9907 15:0.9907 
-128 1:0 2:0 3:4.5149 4:5.4621 5:0.993 6:3.6349 7:4.6576 8:0.7368 9:2 10:0 11:0.9958 12:0 13:0.9236 14:0 15:0 
-10.43891052406956 1:0 2:0 3:3.5192 4:3.6077 5:1.9886 6:3.9166 7:3.6868 8:0 9:2 10:0 11:0.9958 12:0 13:0.9236 14:0 15:0 
-128 1:0 2:0 3:4.2864 4:3.0447 5:1 6:1.554 7:3.6871 8:0 9:1.4929 10:0 11:0.7569 12:0 13:0.8408 14:0.7275 15:0 
-128 1:0 2:0 3:5.5031 4:5.4621 5:1.9886 6:3.8484 7:3.6966 8:0.7368 9:3.9812 10:0 11:1.9875 12:0 13:0.9236 14:1.993 15:0.993 
-94.26165627898791 1:0 2:0 3:3.5316 4:1 5:1 6:1.554 7:2.2297 8:0 9:1.4816 10:0 11:0.7569 12:0 13:0.8408 14:0.7275 15:0 
-128 1:0 2:0 3:5.5031 4:6.2847 5:0.9956 6:5.5515 7:1.9054 8:0.7368 9:3.9812 10:0 11:1.9875 12:0 13:0.9236 14:1.993 15:0.993 
-128 1:0 2:0 3:4.3114 4:3.8616 5:0 6:1.5557 7:2.9255 8:0 9:0.869 10:0.7559 11:0.7548 12:0 13:0.8344 14:0 15:0 
-128 1:0 2:0 3:3.6391 4:1.7203 5:1 6:1.554 7:2.9556 8:0 9:1.4816 10:0.7577 11:0.7569 12:0 13:0.8408 14:0.7275 15:0 
-128 1:0 2:0 3:5.5066 4:5.2894 5:0.9877 6:5.1913 7:4.6833 8:0.7105 9:3.9809 10:0 11:1.9891 12:0 13:0.9236 14:1.9907 15:0.9907 
-128 1:0 2:0 3:3.0497 4:2.8634 5:1 6:1.5533 7:3.6807 8:0 9:0.869 10:0 11:1.3935 12:0 13:0.8344 14:0 15:0 
-115.893444575111 1:0 2:0 3:6.0392 4:6.9174 5:1.2222 6:4.0164 7:3.408 8:0 9:2.3844 10:1 11:0.7907 12:0 13:0.9032 14:0.7613 15:0 
-128 1:0 2:0 3:3.4829 4:3.8606 5:1 6:1.5564 7:3.6871 8:0 9:1.4797 10:0.7577 11:0.7569 12:0 13:0.8408 14:0.7275 15:0 
-128 1:0 2:0 3:4.5066 4:6.2894 5:1.9833 6:6.1869 7:4.6833 8:0.7105 9:2.9809 10:0 11:1.9891 12:0 13:0.9236 14:1.9907 15:0.9907 
-128 1:0 2:0 3:3.5977 4:5.4621 5:1.9886 6:3.8484 7:3.6966 8:0 9:2.9812 10:0 11:1.9875 12:0 13:0.9236 14:1.993 15:0.993 
-128 1:0 2:0 3:4.5585 4:4.4792 5:1.9833 6:4.2604 7:4.6833 8:0.7105 9:2.9809 10:0 11:1.9891 12:0 13:0.9236 14:1.9907 15:0.9907 
-128 1:0 2:0 3:5.5031 4:5.4621 5:1.9886 6:4.8484 7:3.6972 8:0.7368 9:2.9812 10:0 11:1.9875 12:0 13:0.9236 14:1.993 15:0.993 
-128 1:0 2:0 3:4.4627 4:2.6012 5:0.6201 6:2.3868 7:3.4105 8:0 9:1.8734 10:1 11:0 12:0 13:0.9032 14:0.7658 15:0 
-128 1:0 2:0 3:3.5909 4:3.1444 5:1 6:2.3692 7:2.9319 8:0 9:1.4816 10:0.7577 11:0.7569 12:0 13:0.8408 14:0.7275 15:0 
-128 1:0 2:0 3:5.5031 4:5.4621 5:1.9886 6:4.5515 7:4.6784 8:0.7368 9:3.9812 10:0 11:1.9875 12:0 13:0.9236 14:1.993 15:0.993 
-128 1:0 2:0 3:4.3093 4:3.8846 5:1 6:1.5557 7:3.6807 8:0 9:1.4797 10:0.7559 11:1.4105 12:0 13:0.8344 14:0.7275 15:0 
-128 1:0 2:0 3:4.2732 4:3.8616 5:1 6:1.5557 7:2.8463 8:0 9:1.4797 10:0 11:0.6557 12:0 13:0 14:0.7275 15:0 
-128 1:0 2:0 3:4.25 4:1.539 5:1 6:1.5533 7:4.4569 8:0 9:1.4797 10:0.7559 11:1.4105 12:0 13:0.8344 14:0.7275 15:0 
-128 1:0 2:0 3:2.9971 4:0.8187 5:0 6:1.5557 7:2.9785 8:0 9:0.869 10:0.7559 11:0.7548 12:0 13:0.8344 14:0 15:0 
-128 1:0 2:0 3:6.5158 4:4.6161 5:1.9886 6:2.6197 7:4.6784 8:0.7368 9:2.9812 10:0 11:1.9875 12:0 13:0.9236 14:1.993 15:0.993 
-0.8730421057104683 1:0 2:0 3:3.2648 4:3.8616 5:1 6:0.7405 7:2.9047 8:0 9:0.6107 10:0.7559 11:0.7548 12:0 13:0.8344 14:0.7275 15:0 
-93.59911664336774 1:0 2:0 3:4.608 4:4.567 5:1.9886 6:4.5515 7:4.6784 8:0.7368 9:2.9812 10:0 11:0.9958 12:0 13:0.9236 14:1.993 15:0.993 
-128 1:0 2:0 3:3.4829 4:3.8606 5:1 6:1.5564 7:3.6871 8:0 9:1.4797 10:0.7577 11:0.7569 12:0 13:0.8408 14:0.7275 15:0 
-128 1:0 2:0 3:4.2037 4:2.3244 5:1 6:1.554 7:2.8463 8:0 9:1.4816 10:0.7577 11:0.7569 12:0 13:0 14:0.7275 15:0 
-128 1:0 2:0 3:4.4499 4:4.3135 5:1.2239 6:3.2497 7:1.7508 8:0 9:2.3844 10:0 11:1.5757 12:0 13:0 14:0.7638 15:0 
-128 1:0 2:0 3:4.5149 4:5.4621 5:0.993 6:4.5559 7:4.6784 8:0.7368 9:2 10:0 11:0.9917 12:0 13:0.9236 14:0 15:0 
-128 1:0 2:0 3:2.8722 4:2.0406 5:1 6:0.7412 7:3.4531 8:0 9:0.869 10:0.7577 11:0 12:0 13:0 14:0 15:0 
-128 1:0 2:0 3:5.5031 4:5.4621 5:1.9886 6:4.8484 7:4.6784 8:0.7368 9:3.9812 10:0 11:1.989 12:0 13:0.9236 14:1.993 15:0.993 
-128 1:0 2:0 3:4.4622 4:4.3162 5:0.6201 6:2.2497 7:2.2613 8:0 9:1.5681 10:0 11:0 12:0 13:0 14:0 15:0 
-128 1:0 2:0 3:4.608 4:5.3896 5:1.9886 6:5.5515 7:3.7548 8:0.7368 9:3.9812 10:0 11:1.9875 12:0 13:0 14:1.993 15:0.993 
-128 1:0 2:0 3:3.521 4:3.8616 5:0 6:1.5557 7:2.0911 8:0 9:1.4797 10:0.7559 11:2.1653 12:0 13:0 14:0.7275 15:0 
-77.94622632252396 1:0 2:0 3:3.4829 4:3.8606 5:1 6:1.5564 7:3.6871 8:0 9:1.4797 10:0 11:0.7569 12:0 13:0.8408 14:0.7275 15:0 
-17.84289495865937 1:0 2:0 3:3.6393 4:1.7203 5:0 6:1.5642 7:2.8463 8:0 9:0.869 10:1.3562 11:0.7569 12:0 13:0 14:0 15:0 
-128 1:0 2:0 3:5.5031 4:6.2847 5:1.9886 6:3.6305 7:4.6784 8:0.7368 9:3.9812 10:0 11:1.9875 12:0 13:0.9236 14:1.993 15:0.993 
-128 1:0 2:0 3:3.6625 4:3.0429 5:1 6:1.5557 7:2.8463 8:0 9:0.869 10:0.7559 11:0.6557 12:0 13:0 14:0 15:0 
-27.23958823777287 1:3 2:0 3:3.5514 4:3.5068 5:0.993 6:3.5738 7:2.8858 8:0.7368 9:3.9812 10:0 11:1.9875 12:0 13:0.9236 14:1.993 15:0.993 
-128 1:0 2:0 3:1.9438 4:2.5403 5:1 6:1.5564 7:2.1559 8:0 9:0.6107 10:0 11:0.7569 12:0 13:0.8408 14:0.7275 15:0 
-128 1:0 2:0 3:2.8128 4:2.5403 5:0 6:1.5564 7:3.0742 8:0 9:1.4797 10:0.7577 11:1.4236 12:0 13:0.8408 14:0.7275 15:0 
-128 1:0 2:0 3:3.2648 4:3.8616 5:1 6:1.5557 7:2.9047 8:0 9:0.6107 10:0 11:1.4105 12:0 13:0.8344 14:0.7275 15:0 
-88.53891411203816 1:0 2:0 3:2.0011 4:3.8606 5:1 6:1.5564 7:2.9111 8:0 9:0.6107 10:0.7577 11:0 12:0 13:0.8408 14:0.7275 15:0 
-73.8448030031122 1:0 2:0 3:2.5927 4:1.539 5:0 6:1.5557 7:2.1495 8:0 9:0.6107 10:0 11:1.4105 12:0 13:0.8344 14:0.7275 15:0 
-128 1:0 2:0 3:4.6102 4:4.5342 5:0.9956 6:4.2604 7:4.6833 8:0.7105 9:2.9796 10:0 11:0.9958 12:0 13:0.9236 14:1.9907 15:0.9907 
-128 1:0 2:0 3:4.3093 4:3.8616 5:1 6:1.5557 7:3.6807 8:0 9:1.4797 10:0.7559 11:1.4105 12:0 13:0.8344 14:0.7275 15:0 
-29.76221958824367 1:0 2:0 3:4.9221 4:2.8634 5:1 6:0 7:3.6225 8:0 9:1.4797 10:0.7559 11:0.6557 12:0 13:0 14:0.7275 15:0 
-128 1:0 2:0 3:4.1338 4:3.0411 5:0 6:1.5533 7:3.6832 8:0 9:1.4797 10:0 11:0.6557 12:0 13:0.8344 14:0.7275 15:0 
-51.53627548121186 1:0 2:0 3:2.6213 4:5.3943 5:1.9833 6:6.1869 7:4.6833 8:0.7105 9:1.9907 10:0 11:0.9933 12:0 13:0.9236 14:1.9907 15:0.9907 
